svm_type c_svc
kernel_type rbf
gamma 2
nr_class 2
total_sv 199
rho 6.04269
label 1 -1
nr_sv 67 132
SV
32 1:-0.98945 2:-0.945974 3:-0.996441 4:-0.0433595 5:0.0622731 6:-0.999071 7:-0.058445 8:0.587687 9:-0.999948 10:-0.652717 11:0.0293863 12:-0.999971 13:-0.0914626 14:-0.999973 15:-1 16:-1 17:-1 18:-1 19:-0.972074 20:-0.929856 21:-1 22:-1 23:-0.94459 24:-0.938634 25:-0.948635 26:-0.931158 27:-0.947634 28:-0.932238 29:-0.934249 30:-0.935566 31:-0.940945 32:-0.952829 33:-0.951914 34:-0.966657 35:-0.999805 36:-0.998181 37:-0.999065 38:-0.998948 39:-0.998591 40:-0.996465 41:-0.993671 42:-0.997666 43:-0.989162 44:-0.993619 45:-0.988131 46:-0.992576 47:-0.992661 48:-0.993157 49:-0.983755 50:-0.993834 51:-0.993428 52:-0.981183 53:-0.980507 54:-0.99022 55:-0.983051 56:-0.994737 57:-1 58:-1 59:-0.959184 60:-0.989511 61:-0.950231 
2.287058196627307 1:-0.991352 2:-0.656074 3:-0.720027 4:-0.116348 5:0.40828 6:-0.981642 7:-0.135836 8:0.674998 9:-0.999942 10:-0.652728 11:0.0293826 12:-0.999981 13:-0.0914569 14:-0.999977 15:-0.95634 16:-0.918717 17:-0.972683 18:-0.932825 19:-0.974129 20:-0.935408 21:-0.971936 22:-0.939895 23:-0.975594 24:-0.945681 25:-0.975975 26:-0.943235 27:-0.975682 28:-0.937649 29:-0.976503 30:-0.938836 31:-0.97724 32:-0.948155 33:-0.975747 34:-0.962448 35:-0.999805 36:-0.998701 37:-0.999766 38:-0.998948 39:-0.998591 40:-0.997879 41:-0.998192 42:-0.992413 43:-0.997499 44:-0.996354 45:-0.991098 46:-0.995546 47:-0.987156 48:-0.989735 49:-0.99278 50:-0.991778 51:-0.991238 52:-0.981183 53:-0.988304 54:-0.99511 55:-0.988701 56:-0.994737 57:-0.984576 58:-0.98773 59:-0.836735 60:-0.984226 61:-0.928978 
1.299164290882463 1:-0.993687 2:-0.269815 3:-0.350321 4:-0.20908 5:0.614635 6:-0.960471 7:-0.182804 8:0.693622 9:-0.999969 10:-0.652717 11:0.0293859 12:-0.99999 13:-0.0914617 14:-0.999986 15:-0.98866 16:-0.953781 17:-0.984439 18:-0.941224 19:-0.985251 20:-0.943856 21:-0.977936 22:-0.946441 23:-0.982417 24:-0.950461 25:-0.980026 26:-0.940431 27:-0.973034 28:-0.942635 29:-0.968598 30:-0.938582 31:-0.987759 32:-0.968872 33:-0.992269 34:-0.972478 35:-1 36:-0.99948 37:-0.999532 38:-0.999158 39:-0.998238 40:-0.997879 41:-0.998192 42:-0.997082 43:-0.995832 44:-0.998177 45:-0.988131 46:-0.998515 47:-0.992661 48:-0.994867 49:-0.99278 50:-0.991778 51:-0.997809 52:-0.997312 53:-0.992203 54:-0.97066 55:-0.983051 56:-1 57:-0.994859 58:-0.98773 59:-0.918367 60:-0.988615 61:-0.931142 
8.17240193667029 1:-0.99533 2:0.0661892 3:-0.0269044 4:-0.287677 5:0.746621 6:-0.94308 7:-0.211644 8:0.688821 9:-0.999977 10:-0.652718 11:0.0293888 12:-0.999992 13:-0.0914611 14:-0.999989 15:-0.973064 16:-0.932358 17:-0.984245 18:-0.944405 19:-0.979727 20:-0.95594 21:-0.985633 22:-0.959085 23:-0.981123 24:-0.951361 25:-0.986242 26:-0.951159 27:-0.979469 28:-0.945562 29:-0.985355 30:-0.948891 31:-0.987935 32:-0.970931 33:-0.99981 34:-0.993664 35:-0.999805 36:-0.99974 37:-1 38:-0.999579 39:-1 40:-0.998586 41:-0.998644 42:-0.998249 43:-0.997499 44:-0.996354 45:-0.995549 46:-0.998515 47:-0.990826 48:-0.993157 49:-0.990975 50:-0.995889 51:-0.991238 52:-0.991935 53:-0.996101 54:-0.99511 55:-0.977401 56:-0.994737 57:-1 58:-1 59:-0.959184 60:-0.988625 61:-0.929223 
10.82424069345299 1:-0.991698 2:-0.683217 3:-0.730647 4:-0.0475189 5:0.402122 6:-0.999778 7:-0.0457029 8:0.685969 9:-0.999954 10:-0.652717 11:0.029391 12:-0.999982 13:-0.0914624 14:-0.999979 15:-0.966304 16:-0.925309 17:-0.984727 18:-0.946093 19:-0.972457 20:-0.931934 21:-0.97505 22:-0.944247 23:-0.976086 24:-0.940378 25:-0.978536 26:-0.937475 27:-0.980733 28:-0.940786 29:-0.984779 30:-0.942551 31:-0.987869 32:-0.955759 33:-0.994869 34:-0.963751 35:-0.999903 36:-0.99974 37:-0.999299 38:-0.999369 39:-0.997181 40:-0.998939 41:-0.995479 42:-0.997082 43:-0.996665 44:-0.995442 45:-0.994065 46:-0.991091 47:-0.998165 48:-0.984602 49:-0.987365 50:-0.991778 51:-0.991238 52:-0.986559 53:-0.988304 54:-0.97066 55:-0.988701 56:-0.978947 57:-1 58:-0.98773 59:-1 60:-0.988359 61:-0.920502 
2.584965263514363 1:-0.990661 2:-0.80971 3:-0.859555 4:-0.0298239 5:0.294837 6:-0.998976 7:-0.0159791 8:0.671504 9:-0.999936 10:-0.652741 11:0.0294527 12:-0.999981 13:-0.0914616 14:-0.999975 15:-0.968465 16:-0.929756 17:-0.981357 18:-0.936279 19:-0.96742 20:-0.927954 21:-0.98188 22:-0.940283 23:-0.968041 24:-0.939442 25:-0.966177 26:-0.939308 27:-0.973139 28:-0.941288 29:-0.972401 30:-0.947504 31:-0.987853 32:-0.957723 33:-0.992834 34:-0.967947 35:-0.999903 36:-0.99922 37:-1 38:-0.999158 39:-0.998238 40:-0.997879 41:-0.995479 42:-0.997082 43:-0.995832 44:-0.994531 45:-0.995549 46:-0.989607 47:-0.987156 48:-0.993157 49:-0.990975 50:-0.985612 51:-0.991238 52:-0.989247 53:-0.97271 54:-0.97066 55:-0.971751 56:-0.994737 57:-0.989717 58:-0.97546 59:-0.918367 60:-0.987086 61:-0.914786 
32 1:-0.985559 2:-0.927951 3:-0.991562 4:-0.0308274 5:0.0870932 6:-0.987226 7:0.0436068 8:0.660961 9:-0.999872 10:-0.652717 11:0.0294058 12:-0.999959 13:-0.0914587 14:-0.999957 15:-0.908292 16:-0.919803 17:-0.94565 18:-0.952801 19:-0.922116 20:-0.925104 21:-0.950844 22:-0.944334 23:-0.932269 24:-0.938096 25:-0.927811 26:-0.939902 27:-0.929642 28:-0.942867 29:-0.932106 30:-0.940904 31:-0.932057 32:-0.954819 33:-0.949959 34:-0.965887 35:-0.99961 36:-0.99896 37:-0.997896 38:-0.998738 39:-0.994362 40:-0.995404 41:-0.994575 42:-0.992413 43:-0.987495 44:-0.989061 45:-0.980712 46:-0.988122 47:-0.977982 48:-0.991446 49:-0.994585 50:-0.995889 51:-0.984666 52:-0.997312 53:-0.984405 54:-0.99022 55:-0.983051 56:-0.989474 57:-0.984576 58:-1 59:-0.959184 60:-0.987301 61:-0.931153 
32 1:-0.994898 2:-0.945809 3:-0.999903 4:-0.0414597 5:0.0239179 6:-0.999492 7:-0.0220511 8:0.692988 9:-0.999986 10:-0.652717 11:0.0293865 12:-0.999991 13:-0.0914615 14:-0.99999 15:-0.997225 16:-0.98467 17:-0.976806 18:-0.95144 19:-0.988587 20:-0.958614 21:-0.967173 22:-0.954317 23:-0.958093 24:-0.962743 25:-0.969411 26:-0.957722 27:-0.961044 28:-0.956934 29:-0.964268 30:-0.963529 31:-0.97037 32:-0.971525 33:-0.970782 34:-0.980921 35:-1 36:-1 37:-0.999532 38:-0.999369 39:-0.999295 40:-0.998232 41:-0.998192 42:-0.998833 43:-0.997499 44:-0.998177 45:-0.997033 46:-0.995546 47:-0.994495 48:-0.994867 49:-0.994585 50:-0.993834 51:-0.995619 52:-0.981183 53:-0.988304 54:-0.99022 55:-0.988701 56:-0.984211 57:-0.989717 58:-0.98773 59:-1 60:-0.994345 61:-0.971232 
12.63844799976653 1:-0.983483 2:-0.947228 3:-0.999793 4:-0.0417429 5:0.0143998 6:-0.999429 7:-0.0229171 8:0.658392 9:-0.999855 10:-0.652717 11:0.0293931 12:-0.999952 13:-0.0914611 14:-0.999944 15:-0.950978 16:-0.974967 17:-0.94058 18:-0.981109 19:-0.927685 20:-0.972943 21:-0.928144 22:-0.932096 23:-0.920476 24:-0.933076 25:-0.922118 26:-0.934422 27:-0.925908 28:-0.93287 29:-0.924442 30:-0.936573 31:-0.928707 32:-0.953447 33:-0.932448 34:-0.964354 35:-0.999903 36:-0.99896 37:-0.998831 38:-0.997686 39:-0.993658 40:-0.990808 41:-0.988698 42:-0.989495 43:-0.992497 44:-0.993619 45:-0.995549 46:-0.989607 47:-0.990826 48:-0.991446 49:-0.983755 50:-0.981501 51:-0.991238 52:-0.994624 53:-0.992203 54:-0.97555 55:-0.983051 56:-0.984211 57:-0.96401 58:-0.98773 59:-0.795918 60:-0.9874 61:-0.946717 
32 1:-0.989277 2:-0.87704 3:-0.941527 4:-0.0714503 5:-0.156491 6:-0.985914 7:0.0481245 8:0.673461 9:-0.999928 10:-0.652717 11:0.0293837 12:-0.999974 13:-0.0914606 14:-0.99997 15:-0.943934 16:-0.947001 17:-0.962404 18:-0.935385 19:-0.951301 20:-0.94473 21:-0.949286 22:-0.941771 23:-0.94554 24:-0.942276 25:-0.964576 26:-0.948258 27:-0.948217 28:-0.940726 29:-0.950592 30:-0.943876 31:-0.959424 32:-0.958249 33:-0.969414 34:-0.96833 35:-1 36:-1 37:-0.999766 38:-0.999579 39:-0.997886 40:-0.997525 41:-0.995027 42:-0.991246 43:-0.992497 44:-0.992707 45:-0.989614 46:-0.991091 47:-0.977982 48:-0.986313 49:-0.98917 50:-0.981501 51:-0.982475 52:-0.994624 53:-0.984405 54:-0.99511 55:-0.988701 56:-0.984211 57:-1 58:-1 59:-1 60:-0.987699 61:-0.928233 
8.942267511370433 1:-0.988153 2:-0.867385 3:-0.925821 4:-0.0677905 5:-0.178347 6:-0.991414 7:0.0289667 8:0.664241 9:-0.999925 10:-0.652686 11:0.0292022 12:-0.999973 13:-0.0914611 14:-0.999969 15:-0.948443 16:-0.939617 17:-0.962189 18:-0.947942 19:-0.950383 20:-0.938254 21:-0.947199 22:-0.94634 23:-0.967545 24:-0.939073 25:-0.958339 26:-0.944223 27:-0.949953 28:-0.938602 29:-0.955356 30:-0.941264 31:-0.960351 32:-0.95643 33:-0.967482 34:-0.971596 35:-0.999805 36:-0.99948 37:-0.999766 38:-0.998738 39:-0.998238 40:-0.995757 41:-0.995027 42:-0.994748 43:-0.99083 44:-0.995442 45:-0.980712 46:-0.991091 47:-0.988991 48:-0.988024 49:-0.990975 50:-0.985612 51:-0.993428 52:-0.978495 53:-0.976608 54:-0.97066 55:-0.977401 56:-0.984211 57:-1 58:-0.97546 59:-1 60:-0.987891 61:-0.931907 
10.76686204954401 1:-0.988585 2:-0.861236 3:-0.932565 4:-0.00130564 5:-0.169053 6:-0.9779 7:-0.145056 8:0.664126 9:-0.999916 10:-0.652717 11:0.0294066 12:-0.999971 13:-0.0914615 14:-0.999967 15:-0.935043 16:-0.934141 17:-0.949624 18:-0.939889 19:-0.949834 20:-0.940412 21:-0.94992 22:-0.944875 23:-0.947144 24:-0.943519 25:-0.944987 26:-0.94126 27:-0.958496 28:-0.943035 29:-0.942305 30:-0.939689 31:-0.949356 32:-0.956872 33:-0.964654 34:-0.973515 35:-0.999805 36:-0.99922 37:-0.998364 38:-0.997265 39:-0.998591 40:-0.996465 41:-0.996383 42:-0.992997 43:-0.996665 44:-0.993619 45:-0.988131 46:-0.983667 47:-0.983486 48:-0.982891 49:-0.990975 50:-0.991778 51:-1 52:-0.986559 53:-0.984405 54:-0.99022 55:-0.988701 56:-0.994737 57:-0.979434 58:-1 59:-1 60:-0.988799 61:-0.921343 
32 1:-0.99265 2:-0.94689 3:-0.999695 4:-0.0419278 5:0.010236 6:-0.9993 7:-0.0193743 8:0.701528 9:-0.999969 10:-0.652717 11:0.0293895 12:-0.999983 13:-0.0914613 14:-0.999982 15:-0.931221 16:-0.954118 17:-0.955445 18:-0.957349 19:-0.943869 20:-0.96918 21:-0.929445 22:-0.963031 23:-0.936924 24:-0.968698 25:-0.935319 26:-0.965974 27:-0.939302 28:-0.96608 29:-0.939414 30:-0.968917 31:-0.945096 32:-0.976842 33:-0.958221 34:-0.986607 35:-1 36:-1 37:-0.999532 38:-0.998948 39:-0.997533 40:-0.997172 41:-0.996383 42:-0.992413 43:-0.991663 44:-0.996354 45:-0.995549 46:-0.995546 47:-0.992661 48:-0.991446 49:-0.99639 50:-0.991778 51:-0.997809 52:-0.994624 53:-0.996101 54:-0.99511 55:-0.99435 56:-0.989474 57:-1 58:-0.97546 59:-1 60:-0.994045 61:-0.958922 
32 1:-0.990055 2:-0.94326 3:-0.999725 4:-0.0415271 5:0.0134825 6:-0.99978 7:-0.0404034 8:0.707797 9:-0.999898 10:-0.652717 11:0.0293928 12:-0.999968 13:-0.0914598 14:-0.999956 15:-0.989165 16:-0.973528 17:-0.978139 18:-0.943442 19:-0.967968 20:-0.936155 21:-0.956433 22:-0.970874 23:-0.919506 24:-0.933066 25:-0.930418 26:-0.929379 27:-0.918939 28:-0.928334 29:-0.917347 30:-0.925879 31:-0.914821 32:-0.938074 33:-0.936957 34:-0.944855 35:-0.999805 36:-0.99922 37:-0.999532 38:-0.999369 39:-0.997886 40:-0.998232 41:-0.996383 42:-0.997082 43:-0.991663 44:-0.996354 45:-0.995549 46:-0.995546 47:-0.985321 48:-0.991446 49:-0.98556 50:-0.989723 51:-0.982475 52:-0.989247 53:-0.980507 54:-0.98533 55:-0.954802 56:-0.978947 57:-0.989717 58:-0.97546 59:-0.918367 60:-0.993339 61:-0.961591 
32 1:-0.996109 2:-0.945956 3:-0.999945 4:-0.0415632 5:0.0246261 6:-0.999937 7:-0.0376699 8:0.721811 9:-0.999987 10:-0.652717 11:0.0293915 12:-0.999996 13:-0.0914617 14:-0.999994 15:-0.959852 16:-0.984829 17:-0.958628 18:-0.976068 19:-0.973754 20:-0.986889 21:-0.953692 22:-0.980454 23:-0.958076 24:-0.979389 25:-0.958682 26:-0.983986 27:-0.967546 28:-0.978777 29:-0.959606 30:-0.983247 31:-0.959475 32:-0.985794 33:-0.981195 34:-0.993058 35:-0.999903 36:-0.99948 37:-1 38:-0.999579 39:-0.998943 40:-1 41:-0.998644 42:-0.998833 43:-0.999166 44:-0.999088 45:-0.989614 46:-0.99703 47:-0.994495 48:-0.994867 49:-0.998195 50:-0.995889 51:-0.995619 52:-0.986559 53:-1 54:-1 55:-0.99435 56:-0.994737 57:-0.989717 58:-0.97546 59:-0.918367 60:-0.995322 61:-0.962023 
2.810869998462829 1:-0.989536 2:-0.917877 3:-0.999085 4:-0.0318409 5:0.0184774 6:-0.894465 7:-0.0605244 8:-0.984319 9:-0.99993 10:-0.652717 11:0.0294035 12:-0.999979 13:-0.0914631 14:-0.99997 15:-0.96344 16:-0.994228 17:-0.945975 18:-0.98796 19:-0.930902 20:-0.983357 21:-0.924318 22:-0.979762 23:-0.921008 24:-0.981123 25:-0.92103 26:-0.979489 27:-0.921689 28:-0.979307 29:-0.921636 30:-0.97964 31:-0.932135 32:-0.98697 33:-0.93909 34:-0.990456 35:-0.999903 36:-0.99896 37:-0.998597 38:-0.998317 39:-0.998943 40:-0.998586 41:-0.995931 42:-0.998833 43:-0.995832 44:-0.995442 45:-0.992582 46:-0.986637 47:-0.988991 48:-0.988024 49:-0.987365 50:-0.989723 51:-0.984666 52:-0.983871 53:-0.980507 54:-0.98044 55:-0.971751 56:-0.989474 57:-0.984576 58:-0.96319 59:-0.877551 60:-0.98344 61:-0.937263 
21.84005651717576 1:-0.989969 2:-0.845316 3:-0.998543 4:-0.0256562 5:0.0294242 6:-0.830193 7:0.0609744 8:-0.817959 9:-0.999931 10:-0.652717 11:0.0293886 12:-0.99998 13:-0.0914624 14:-0.999971 15:-0.96438 16:-0.993776 17:-0.95076 18:-0.99073 19:-0.935664 20:-0.983958 21:-0.925393 22:-0.980624 23:-0.923706 24:-0.983353 25:-0.924628 26:-0.97933 27:-0.920538 28:-0.979883 29:-0.921524 30:-0.980289 31:-0.926872 32:-0.98319 33:-0.959115 34:-0.987761 35:-0.99961 36:-0.998441 37:-0.999065 38:-0.999158 39:-0.997181 40:-0.998232 41:-0.99774 42:-0.997082 43:-0.994164 44:-0.995442 45:-0.986647 46:-0.992576 47:-0.992661 48:-0.982891 49:-0.98917 50:-0.989723 51:-0.991238 52:-0.983871 53:-0.976608 54:-0.98533 55:-0.99435 56:-0.989474 57:-0.984576 58:-0.97546 59:-1 60:-0.98301 61:-0.935083 
15.59450347651578 1:-0.992044 2:-0.713232 3:-0.996598 4:-0.0108797 5:0.0541548 6:-0.741957 7:0.25574 8:0.0590241 9:-0.999955 10:-0.652718 11:0.0293849 12:-0.999987 13:-0.0914633 14:-0.999981 15:-0.96651 16:-0.995981 17:-0.946501 18:-0.988972 19:-0.931432 20:-0.974498 21:-0.935034 22:-0.980924 23:-0.92644 24:-0.979464 25:-0.934514 26:-0.983892 27:-0.934256 28:-0.9855 29:-0.937804 30:-0.985972 31:-0.941113 32:-0.983131 33:-0.955255 34:-0.99334 35:-0.999805 36:-0.99922 37:-0.999532 38:-0.99979 39:-0.999295 40:-0.998232 41:-0.99774 42:-0.997666 43:-0.998333 44:-0.996354 45:-0.997033 46:-0.995546 47:-0.990826 48:-0.994867 49:-0.98917 50:-0.983556 51:-0.993428 52:-0.991935 53:-0.984405 54:-0.98044 55:-0.977401 56:-0.978947 57:-0.979434 58:-0.92638 59:-0.755102 60:-0.983294 61:-0.914724 
19.91364545235405 1:-0.992044 2:-0.692279 3:-0.995906 4:-0.00704251 5:0.0597993 6:-0.728386 7:0.282913 8:0.201115 9:-0.999957 10:-0.652717 11:0.0293817 12:-0.999985 13:-0.0914608 14:-0.99998 15:-0.962658 16:-0.988244 17:-0.953422 18:-0.99137 19:-0.935217 20:-0.989521 21:-0.921473 22:-0.978101 23:-0.92623 24:-0.974399 25:-0.923909 26:-0.966526 27:-0.93423 28:-0.972959 29:-0.932286 30:-0.980608 31:-0.937303 32:-0.988632 33:-0.95445 34:-0.992686 35:-0.999805 36:-0.99948 37:-0.999065 38:-0.999369 39:-0.998943 40:-0.997525 41:-0.99774 42:-0.998249 43:-0.994164 44:-0.988149 45:-0.989614 46:-0.992576 47:-0.987156 48:-0.993157 49:-0.99278 50:-0.991778 51:-0.986857 52:-0.986559 53:-1 54:-0.99511 55:-0.988701 56:-0.994737 57:-1 58:-1 59:-1 60:-0.989516 61:-0.933462 
32 1:-0.990574 2:-0.753038 3:-0.993111 4:-0.00428414 5:0.0808991 6:-0.813163 7:0.276122 8:0.673576 9:-0.999941 10:-0.652717 11:0.0293827 12:-0.999979 13:-0.091461 14:-0.999975 15:-0.918452 16:-0.969162 17:-0.928451 18:-0.968691 19:-0.925899 20:-0.968868 21:-0.928171 22:-0.971145 23:-0.935771 24:-0.973687 25:-0.929101 26:-0.971444 27:-0.937111 28:-0.97642 29:-0.933288 30:-0.978633 31:-0.945878 32:-0.990831 33:-0.959852 34:-0.992449 35:-0.999805 36:-0.998701 37:-0.999766 38:-0.998527 39:-0.999295 40:-0.998232 41:-0.994575 42:-0.998249 43:-0.995832 44:-0.990884 45:-0.994065 46:-0.994061 47:-0.990826 48:-0.991446 49:-0.981949 50:-0.995889 51:-0.989047 52:-0.986559 53:-0.980507 54:-0.98533 55:-0.971751 56:-0.978947 57:-0.984576 58:-1 59:-1 60:-0.986284 61:-0.918995 
0.3410065795156834 1:-0.989796 2:-0.858519 3:-0.998798 4:-0.0312682 5:0.0447816 6:-0.9117 7:0.178022 8:0.674532 9:-0.999935 10:-0.652717 11:0.029392 12:-0.999976 13:-0.0914637 14:-0.999972 15:-0.929551 16:-0.969035 17:-0.938232 18:-0.977266 19:-0.938816 20:-0.979368 21:-0.931502 22:-0.972529 23:-0.919035 24:-0.973245 25:-0.924534 26:-0.964725 27:-0.931319 28:-0.961746 29:-0.927498 30:-0.973253 31:-0.937834 32:-0.97903 33:-0.951879 34:-0.983022 35:-0.999903 36:-0.99974 37:-0.999532 38:-0.998738 39:-0.997886 40:-0.996818 41:-0.995931 42:-0.991246 43:-0.994164 44:-0.992707 45:-0.989614 46:-0.985152 47:-0.985321 48:-0.988024 49:-0.990975 50:-0.989723 51:-1 52:-0.991935 53:-0.992203 54:-0.98044 55:-0.977401 56:-0.994737 57:-1 58:-0.98773 59:-1 60:-0.989768 61:-0.929628 
25.28605931226052 1:-0.98651 2:-0.924701 3:-0.998681 4:-0.047051 5:-0.00483806 6:-0.97715 7:0.0711329 8:0.655212 9:-0.99989 10:-0.652717 11:0.0293968 12:-0.999965 13:-0.0914602 14:-0.99996 15:-0.927864 16:-0.931229 17:-0.934124 18:-0.961935 19:-0.953722 20:-0.960868 21:-0.936267 22:-0.983535 23:-0.926253 24:-0.96088 25:-0.926929 26:-0.953347 27:-0.928515 28:-0.94662 29:-0.9265 30:-0.942237 31:-0.934516 32:-0.958204 33:-0.958585 34:-0.969375 35:-1 36:-1 37:-0.999766 38:-0.999369 39:-0.996124 40:-0.997172 41:-0.991863 42:-0.990079 43:-0.989996 44:-0.989061 45:-0.976261 46:-0.988122 47:-0.981651 48:-0.991446 49:-0.994585 50:-0.989723 51:-0.982475 52:-0.986559 53:-0.980507 54:-0.98533 55:-0.971751 56:-0.989474 57:-1 58:-0.98773 59:-0.959184 60:-0.988092 61:-0.932149 
32 1:-0.985559 2:-0.930505 3:-0.998356 4:-0.0468507 5:-0.00807158 6:-0.98323 7:0.0555399 8:0.660028 9:-0.999866 10:-0.652716 11:0.0294 12:-0.999959 13:-0.0914654 14:-0.999957 15:-0.911243 16:-0.910168 17:-0.93942 18:-0.92432 19:-0.923027 20:-0.958981 21:-0.93488 22:-0.958217 23:-0.93396 24:-0.969665 25:-0.925074 26:-0.956351 27:-0.929071 28:-0.938887 29:-0.929487 30:-0.943674 31:-0.9319 32:-0.954221 33:-0.952901 34:-0.965977 35:-0.999415 36:-0.998441 37:-0.997662 38:-0.997265 39:-0.997181 40:-0.995757 41:-0.993219 42:-0.996498 43:-0.989162 44:-0.995442 45:-0.980712 46:-0.989607 47:-0.977982 48:-0.97947 49:-0.983755 50:-0.987667 51:-0.989047 52:-0.994624 53:-0.996101 54:-0.99511 55:-0.983051 56:-0.994737 57:-0.994859 58:-0.96319 59:-1 60:-0.987724 61:-0.930351 
2.614170324598297 1:-0.990142 2:-0.896307 3:-0.990457 4:-0.0138914 5:-0.0332353 6:-0.925993 7:-0.18658 8:-0.0484255 9:-0.99994 10:-0.652717 11:0.0293821 12:-0.999982 13:-0.0914617 14:-0.999975 15:-0.963375 16:-0.988213 17:-0.953383 18:-0.981837 19:-0.941298 20:-0.98164 21:-0.927012 22:-0.969875 23:-0.931622 24:-0.975042 25:-0.926719 26:-0.958875 27:-0.932864 28:-0.962325 29:-0.933214 30:-0.96079 31:-0.945772 32:-0.966167 33:-0.958538 34:-0.974985 35:-0.99961 36:-0.99896 37:-0.999299 38:-0.998317 39:-0.994715 40:-0.998939 41:-0.99774 42:-0.998249 43:-0.996665 44:-0.989061 45:-0.995549 46:-0.986637 47:-0.990826 48:-0.989735 49:-0.994585 50:-0.997945 51:-0.984666 52:-0.997312 53:-0.980507 54:-0.97555 55:-0.983051 56:-0.989474 57:-0.979434 58:-1 59:-0.918367 60:-0.984991 61:-0.919542 
32 1:-0.984607 2:-0.955549 3:-0.999747 4:-0.0417518 5:0.0282874 6:-0.999599 7:-0.0495394 8:0.610088 9:-0.99988 10:-0.652717 11:0.02939 12:-0.999955 13:-0.0914592 14:-0.999952 15:-0.917163 16:-0.979033 17:-1 18:-1 19:-0.92568 20:-0.934542 21:-0.922267 22:-0.942094 23:-0.925389 24:-0.942736 25:-0.932878 26:-0.946807 27:-0.949003 28:-0.954757 29:-0.971873 30:-0.982134 31:-1 32:-1 33:-0.995874 34:-0.9915 35:-0.999708 36:-0.998701 37:-0.999766 38:-0.997896 39:-0.994362 40:-0.996465 41:-0.990506 42:-0.988912 43:-0.992497 44:-0.989061 45:-0.988131 46:-0.982183 47:-0.976147 48:-0.991446 49:-0.98917 50:-0.995889 51:-0.993428 52:-0.975806 53:-0.988304 54:-0.98533 55:-0.983051 56:-0.989474 57:-0.989717 58:-0.97546 59:-0.918367 60:-0.987474 61:-0.947174 
32 1:-0.995676 2:-0.941965 3:-0.999487 4:-0.0421071 5:0.0329068 6:-0.999013 7:-0.0602252 8:0.690954 9:-0.999987 10:-0.652717 11:0.0293893 12:-0.999983 13:-0.0914617 14:-0.999986 15:-0.998591 16:-0.998209 17:-1 18:-1 19:-1 20:-1 21:-1 22:-1 23:-0.915402 24:-0.96802 25:-0.918925 26:-0.969757 27:-0.923451 28:-0.962767 29:-0.921569 30:-0.981216 31:-0.905323 32:-0.965137 33:-0.900615 34:-0.963195 35:-1 36:-1 37:-1 38:-0.99979 39:-0.999295 40:-0.999293 41:-0.998644 42:-0.998249 43:-0.993331 44:-0.999088 45:-0.992582 46:-0.994061 47:-0.990826 48:-0.994867 49:-0.990975 50:-0.995889 51:-0.997809 52:-0.991935 53:-0.996101 54:-0.99022 55:-1 56:-1 57:-0.994859 58:-0.98773 59:-1 60:-0.99636 61:-0.96935 
32 1:-0.99827 2:-0.938036 3:-0.999847 4:-0.0417683 5:0.0242327 6:-0.99842 7:-0.0671964 8:0.766423 9:-0.999997 10:-0.652717 11:0.0293889 12:-0.999995 13:-0.0914555 14:-0.999996 15:-0.986158 16:-0.993372 17:-0.945104 18:-0.981039 19:-1 20:-1 21:-1 22:-1 23:-1 24:-1 25:-1 26:-1 27:-0.993105 28:-0.998605 29:-0.990341 30:-0.995489 31:-0.943845 32:-0.985433 33:-0.951818 34:-0.984753 35:-1 36:-0.99974 37:-0.999766 38:-0.99979 39:-0.999648 40:-0.999646 41:-1 42:-0.998249 43:-0.998333 44:-1 45:-1 46:-1 47:-0.994495 48:-1 49:-1 50:-0.993834 51:-1 52:-1 53:-0.992203 54:-0.98044 55:-0.99435 56:-1 57:-1 58:-1 59:-1 60:-0.996225 61:-0.976714 
3.73673951539502 1:-0.987634 2:-0.974645 3:-0.998955 4:-0.0348139 5:0.0158186 6:-0.954654 7:-0.0702868 8:-0.9255 9:-0.99992 10:-0.652717 11:0.0294068 12:-0.999971 13:-0.0914626 14:-0.999962 15:-0.954756 16:-0.992413 17:-0.939287 18:-0.971364 19:-0.933264 20:-0.977265 21:-0.930145 22:-0.982068 23:-0.919019 24:-0.976112 25:-0.91866 26:-0.974226 27:-0.919944 28:-0.968503 29:-0.92221 30:-0.971133 31:-0.932586 32:-0.976578 33:-0.947314 34:-0.983408 35:-0.998928 36:-0.997661 37:-0.999065 38:-0.998317 39:-0.999648 40:-0.997879 41:-0.996835 42:-0.997666 43:-0.993331 44:-0.990884 45:-0.988131 46:-0.988122 47:-0.987156 48:-0.977759 49:-0.990975 50:-0.989723 51:-0.986857 52:-0.986559 53:-0.961014 54:-0.99511 55:-0.971751 56:-0.978947 57:-0.994859 58:-1 59:-1 60:-0.983181 61:-0.944555 
32 1:-0.99092 2:-0.897062 3:-0.99794 4:-0.0277211 5:-0.00185866 6:-0.911788 7:-0.185378 8:-0.214791 9:-0.999948 10:-0.652715 11:0.0293904 12:-0.999984 13:-0.0914627 14:-0.999978 15:-0.956596 16:-0.98887 17:-0.937709 18:-0.976159 19:-0.930299 20:-0.967189 21:-0.933075 22:-0.976326 23:-0.928226 24:-0.97516 25:-0.931319 26:-0.984483 27:-0.93221 28:-0.97798 29:-0.935944 30:-0.981192 31:-0.940497 32:-0.988072 33:-0.9551 34:-0.996149 35:-0.999903 36:-0.99974 37:-0.999766 38:-0.999158 39:-0.996829 40:-0.998586 41:-0.995027 42:-0.998833 43:-0.997499 44:-0.996354 45:-0.98368 46:-0.992576 47:-0.979817 48:-0.989735 49:-0.99278 50:-0.993834 51:-0.982475 52:-0.983871 53:-0.984405 54:-0.97555 55:-0.99435 56:-0.984211 57:-1 58:-0.98773 59:-1 60:-0.989049 61:-0.932584 
10.06060774299172 1:-0.990661 2:-0.832267 3:-0.99713 4:-0.0218077 5:-0.0135579 6:-0.871579 7:-0.267226 8:0.302579 9:-0.999943 10:-0.652717 11:0.0293874 12:-0.999981 13:-0.0914616 14:-0.999975 15:-0.975693 16:-0.994956 17:-0.958703 18:-0.989707 19:-0.953418 20:-0.987791 21:-0.936632 22:-0.987342 23:-0.934048 24:-0.986053 25:-0.929778 26:-0.98372 27:-0.927806 28:-0.98469 29:-0.923473 30:-0.984978 31:-0.925346 32:-0.986022 33:-0.929233 34:-0.974758 35:-0.999708 36:-0.997921 37:-0.998364 38:-0.999369 39:-0.999295 40:-0.996818 41:-0.999096 42:-0.995331 43:-0.994998 44:-0.996354 45:-0.986647 46:-0.992576 47:-0.992661 48:-0.988024 49:-0.99278 50:-0.983556 51:-0.975904 52:-0.991935 53:-0.984405 54:-1 55:-0.988701 56:-1 57:-0.989717 58:-1 59:-1 60:-0.987347 61:-0.927001 
32 1:-0.99118 2:-0.810986 3:-0.996913 4:-0.0187236 5:-0.0121075 6:-0.841286 7:-0.272668 8:0.10424 9:-0.99995 10:-0.652717 11:0.0293808 12:-0.999983 13:-0.0914608 14:-0.999978 15:-0.956522 16:-0.988621 17:-0.953789 18:-0.990932 19:-0.950596 20:-0.992464 21:-0.929258 22:-0.979592 23:-0.927743 24:-0.976228 25:-0.926375 26:-0.959344 27:-0.93405 28:-0.963663 29:-0.932103 30:-0.972076 31:-0.933482 32:-0.97938 33:-0.961167 34:-0.989532 35:-1 36:-0.99974 37:-0.999766 38:-0.999158 39:-0.998943 40:-0.997879 41:-0.998192 42:-0.997082 43:-0.992497 44:-0.992707 45:-0.988131 46:-0.994061 47:-0.981651 48:-0.993157 49:-0.99639 50:-0.987667 51:-0.982475 52:-0.989247 53:-0.968811 54:-0.99022 55:-0.99435 56:-0.978947 57:-0.989717 58:-1 59:-0.959184 60:-0.989789 61:-0.935249 
10.38384332607456 1:-0.991698 2:-0.670017 3:-0.995299 4:-0.0045996 5:-0.0293789 6:-0.729409 7:-0.416412 8:0.682299 9:-0.999949 10:-0.652717 11:0.0293868 12:-0.999983 13:-0.0914619 14:-0.999979 15:-0.912623 16:-0.950961 17:-0.930941 18:-0.970753 19:-0.933304 20:-0.974601 21:-0.928755 22:-0.976172 23:-0.933084 24:-0.979202 25:-0.93249 26:-0.979973 27:-0.939236 28:-0.987629 29:-0.927634 30:-0.988994 31:-0.959567 32:-0.997179 33:-0.943025 34:-0.995041 35:-0.999903 36:-1 37:-0.998597 38:-0.999158 39:-0.998591 40:-0.998232 41:-0.99774 42:-0.995915 43:-0.997499 44:-0.997265 45:-0.991098 46:-0.988122 47:-0.992661 48:-0.994867 49:-0.983755 50:-0.987667 51:-0.993428 52:-0.989247 53:-0.980507 54:-0.99022 55:-0.988701 56:-0.973684 57:-0.994859 58:-0.97546 59:-0.959184 60:-0.986943 61:-0.924877 
17.81443322268591 1:-0.996109 2:-0.738036 3:-0.994574 4:-0.00639649 5:-0.0341713 6:-0.790744 7:-0.375127 8:0.726429 9:-0.999985 10:-0.652716 11:0.0293901 12:-0.999995 13:-0.0914615 14:-0.999993 15:-0.957629 16:-0.957361 17:-0.963799 18:-0.966231 19:-0.979738 20:-0.975887 21:-0.969071 22:-0.975208 23:-0.968081 24:-0.972867 25:-0.971547 26:-0.971641 27:-0.974151 28:-0.962558 29:-0.982256 30:-0.977545 31:-0.979543 32:-0.971716 33:-0.996319 34:-0.994807 35:-0.999903 36:-0.998701 37:-0.999299 38:-1 39:-0.999648 40:-0.999646 41:-0.999548 42:-0.998833 43:-0.997499 44:-0.998177 45:-0.995549 46:-0.995546 47:-0.998165 48:-0.996578 49:-0.998195 50:-0.997945 51:-0.995619 52:-0.986559 53:-0.996101 54:-1 55:-0.983051 56:-0.984211 57:-0.989717 58:-0.97546 59:-1 60:-0.989529 61:-0.922957 
18.00522915053815 1:-0.994639 2:-0.752118 3:-0.990936 4:0.00212317 5:-0.0474333 6:-0.806088 7:-0.350484 8:0.600852 9:-0.999983 10:-0.652717 11:0.029386 12:-0.99999 13:-0.0914617 14:-0.99999 15:-0.985645 16:-0.986401 17:-0.970042 18:-0.964821 19:-0.973502 20:-0.975028 21:-0.966972 22:-0.977239 23:-0.966853 24:-0.970957 25:-0.966288 26:-0.978983 27:-0.95471 28:-0.978093 29:-0.943359 30:-0.975603 31:-0.930111 32:-0.980243 33:-0.978877 34:-0.995819 35:-1 36:-1 37:-0.999532 38:-0.999369 39:-0.999648 40:-0.998232 41:-0.99774 42:-0.999416 43:-0.993331 44:-0.997265 45:-0.995549 46:-0.992576 47:-0.992661 48:-0.994867 49:-0.99278 50:-0.985612 51:-0.997809 52:-0.997312 53:-1 54:-0.99022 55:-0.988701 56:-0.989474 57:-0.989717 58:-1 59:-0.959184 60:-0.989116 61:-0.932624 
27.37584380723082 1:-0.984175 2:-0.949592 3:-0.999323 4:-0.0426742 5:0.0375228 6:-0.997797 7:-0.070407 8:0.649516 9:-0.999867 10:-0.652717 11:0.0294043 12:-0.999956 13:-0.0914579 14:-0.999949 15:-0.947606 16:-0.956834 17:-0.943866 18:-0.957431 19:-0.924694 20:-0.935743 21:-0.923466 22:-0.937913 23:-0.925753 24:-0.939224 25:-0.933524 26:-0.943085 27:-0.949968 28:-0.952929 29:-0.967929 30:-0.966977 31:-0.986699 32:-0.983717 33:-0.973753 34:-0.989328 35:-0.999708 36:-0.997921 37:-0.999065 38:-0.997265 39:-0.996124 40:-0.992929 41:-0.990054 42:-0.992413 43:-0.991663 44:-0.989973 45:-0.988131 46:-0.994061 47:-0.987156 48:-0.989735 49:-0.98556 50:-0.997945 51:-0.984666 52:-0.991935 53:-0.988304 54:-0.94132 55:-0.983051 56:-0.989474 57:-0.979434 58:-0.97546 59:-0.959184 60:-0.986233 61:-0.944304 
27.04483914448187 1:-0.987461 2:-0.954898 3:-0.999373 4:-0.0354338 5:0.0169958 6:-0.93428 7:-0.076674 8:-0.926473 9:-0.999916 10:-0.652717 11:0.0293871 12:-0.999973 13:-0.0914612 14:-0.999964 15:-0.960637 16:-0.978957 17:-0.949977 18:-0.985757 19:-0.937181 20:-0.978551 21:-0.928466 22:-0.980553 23:-0.920452 24:-0.977107 25:-0.921661 26:-0.978536 27:-0.9231 28:-0.97841 29:-0.920494 30:-0.979763 31:-0.932838 32:-0.989601 33:-0.950227 34:-0.994501 35:-0.99922 36:-0.998181 37:-0.997896 38:-0.998948 39:-0.997181 40:-0.998232 41:-0.997288 42:-0.998249 43:-0.993331 44:-0.989061 45:-0.991098 46:-0.992576 47:-0.979817 48:-0.989735 49:-0.994585 50:-0.983556 51:-0.986857 52:-0.983871 53:-0.984405 54:-0.97555 55:-0.977401 56:-0.978947 57:-0.979434 58:-0.96319 59:-0.918367 60:-0.984378 61:-0.949773 
12.75564102370907 1:-0.989796 2:-0.8665 3:-0.998302 4:-0.0249967 5:0.0188861 6:-0.843507 7:-0.053571 8:-0.994918 9:-0.999935 10:-0.652727 11:0.0293957 12:-0.99998 13:-0.0913418 14:-0.999972 15:-0.949844 16:-0.986712 17:-0.947395 18:-0.98186 19:-0.93386 20:-0.980455 21:-0.924582 22:-0.977876 23:-0.92487 24:-0.977667 25:-0.923582 26:-0.978836 27:-0.921765 28:-0.977865 29:-0.919798 30:-0.976818 31:-0.934794 32:-0.987115 33:-0.955265 34:-0.991719 35:-0.999415 36:-0.99948 37:-0.998831 38:-0.999158 39:-0.998591 40:-0.997172 41:-0.998192 42:-0.995331 43:-0.994998 44:-0.999088 45:-0.986647 46:-0.988122 47:-0.988991 48:-0.993157 49:-0.98917 50:-0.987667 51:-0.984666 52:-0.983871 53:-0.988304 54:-0.97066 55:-0.99435 56:-0.984211 57:-0.979434 58:-1 59:-0.836735 60:-0.984637 61:-0.939898 
32 1:-0.990488 2:-0.734834 3:-0.99612 4:-0.00773349 5:0.0363306 6:-0.724085 7:0.0961233 8:-0.794007 9:-0.999936 10:-0.652718 11:0.0293812 12:-0.999981 13:-0.0914611 14:-0.999973 15:-0.975039 16:-0.995666 17:-0.953846 18:-0.989388 19:-0.937018 20:-0.985293 21:-0.923693 22:-0.981133 23:-0.92472 24:-0.98087 25:-0.915734 26:-0.981041 27:-0.928505 28:-0.980304 29:-0.92642 30:-0.978251 31:-0.931322 32:-0.983951 33:-0.954639 34:-0.991794 35:-0.999805 36:-0.99974 37:-0.998831 38:-0.997686 39:-0.997533 40:-0.998939 41:-0.998644 42:-0.994748 43:-0.991663 44:-0.996354 45:-0.994065 46:-0.985152 47:-0.981651 48:-0.994867 49:-0.99278 50:-0.989723 51:-0.984666 52:-0.994624 53:-0.984405 54:-0.96577 55:-0.988701 56:-1 57:-1 58:-1 59:-1 60:-0.985114 61:-0.940625 
0.456903848157126 1:-0.993341 2:-0.446147 3:-0.979589 4:0.0615764 5:0.125116 6:-0.522147 7:0.465 8:0.678393 9:-0.99996 10:-0.652717 11:0.0293863 12:-0.999986 13:-0.0914618 14:-0.999983 15:-0.909272 16:-0.937471 17:-0.946156 18:-0.969342 19:-0.937 20:-0.974203 21:-0.940676 22:-0.981928 23:-0.943225 24:-0.986008 25:-0.939584 26:-0.984442 27:-0.939364 28:-0.985614 29:-0.933219 30:-0.985043 31:-0.932387 32:-0.985872 33:-0.963346 34:-0.985001 35:-1 36:-1 37:-0.999766 38:-0.999579 39:-0.999648 40:-0.997879 41:-0.998192 42:-0.997666 43:-0.995832 44:-0.995442 45:-0.992582 46:-0.995546 47:-0.99633 48:-0.989735 49:-0.987365 50:-0.991778 51:-0.982475 52:-0.994624 53:-0.984405 54:-0.99022 55:-0.988701 56:-0.989474 57:-0.994859 58:-0.95092 59:-1 60:-0.990818 61:-0.938739 
3.29221140455754 1:-0.992304 2:-0.500651 3:-0.96694 4:0.0802196 5:0.154177 6:-0.58932 7:0.429821 8:0.689104 9:-0.999954 10:-0.652718 11:0.0293995 12:-0.999985 13:-0.0914586 14:-0.99998 15:-0.929487 16:-0.941207 17:-0.942971 18:-0.963813 19:-0.936981 20:-0.973857 21:-0.937943 22:-0.975303 23:-0.936437 24:-0.977707 25:-0.947248 26:-0.979142 27:-0.935166 28:-0.980864 29:-0.930467 30:-0.982847 31:-0.936211 32:-0.981515 33:-0.951128 34:-0.986478 35:-0.999513 36:-0.99922 37:-0.999532 38:-0.999579 39:-0.998238 40:-0.998232 41:-0.999096 42:-0.994164 43:-0.998333 44:-0.997265 45:-0.98368 46:-0.991091 47:-0.983486 48:-0.996578 49:-0.990975 50:-0.985612 51:-0.995619 52:-0.994624 53:-0.992203 54:-0.98533 55:-1 56:-0.994737 57:-0.994859 58:-0.97546 59:-1 60:-0.989594 61:-0.933519 
17.61288822093626 1:-0.993687 2:-0.629489 3:-0.964165 4:0.0632366 5:0.158454 6:-0.719555 7:0.345188 8:0.65882 9:-0.999977 10:-0.652717 11:0.0293836 12:-0.999988 13:-0.0914618 14:-0.999987 15:-0.938762 16:-0.971343 17:-0.942134 18:-0.962879 19:-0.934628 20:-0.974786 21:-0.933788 22:-0.97544 23:-0.931486 24:-0.97321 25:-0.944756 26:-0.986308 27:-0.943224 28:-0.972848 29:-0.948146 30:-0.979093 31:-0.959469 32:-0.988764 33:-0.96801 34:-0.985529 35:-0.999903 36:-0.99948 37:-0.999766 38:-0.99979 39:-0.999295 40:-0.999646 41:-0.998192 42:-0.998833 43:-0.996665 44:-0.996354 45:-0.997033 46:-0.988122 47:-0.99633 48:-0.993157 49:-0.98917 50:-0.993834 51:-0.993428 52:-0.986559 53:-0.976608 54:-0.98533 55:-0.966102 56:-0.989474 57:-0.994859 58:-0.97546 59:-0.959184 60:-0.990642 61:-0.925243 
32 1:-0.996109 2:-0.938307 3:-0.99914 4:-0.0418977 5:0.00159448 6:-0.999667 7:-0.0282806 8:0.755734 9:-0.999967 10:-0.652717 11:0.0293995 12:-0.999986 13:-0.0914608 14:-0.999982 15:-0.942005 16:-0.974699 17:-0.937785 18:-0.965375 19:-0.94676 20:-0.96506 21:-0.947796 22:-0.986076 23:-0.923425 24:-0.979392 25:-0.971177 26:-0.929151 27:-0.975857 28:-0.931605 29:-0.970998 30:-0.937207 31:-0.94786 32:-0.972982 33:-0.96693 34:-0.977467 35:-1 36:-1 37:-0.999766 38:-0.999579 39:-0.999295 40:-0.999646 41:-0.99774 42:-0.998833 43:-0.999166 44:-0.996354 45:-0.997033 46:-0.998515 47:-0.998165 48:-0.998289 49:-0.998195 50:-0.993834 51:-1 52:-0.991935 53:-0.996101 54:-1 55:-0.988701 56:-1 57:-0.969152 58:-0.93865 59:-0.836735 60:-0.993576 61:-0.962443 
32 1:-0.990488 2:-0.942003 3:-0.99962 4:-0.042072 5:0.0100854 6:-0.998607 7:-0.0124774 8:0.701948 9:-0.999904 10:-0.652718 11:0.0293892 12:-0.99997 13:-0.0914611 14:-0.999958 15:-0.946158 16:-0.972116 17:-0.923889 18:-0.909056 19:-0.931052 20:-0.940123 21:-0.923817 22:-0.924222 23:-0.924058 24:-0.939248 25:-0.924008 26:-0.922885 27:-0.923383 28:-0.929148 29:-0.938047 30:-0.941157 31:-0.922715 32:-0.967623 33:-0.927591 34:-0.974547 35:-0.999903 36:-0.99896 37:-0.998831 38:-0.998948 39:-0.999295 40:-0.998232 41:-0.997288 42:-0.996498 43:-0.994998 44:-0.994531 45:-0.992582 46:-0.989607 47:-0.987156 48:-0.993157 49:-0.98917 50:-0.993834 51:-0.991238 52:-0.978495 53:-0.968811 54:-0.97555 55:-0.983051 56:-0.984211 57:-0.989717 58:-0.97546 59:-1 60:-0.992506 61:-0.96664 
32 1:-0.995763 2:-0.941187 3:-0.999749 4:-0.0418098 5:0.0131035 6:-0.9994 7:-0.0200953 8:0.742691 9:-0.999989 10:-0.652717 11:0.0293889 12:-0.999988 13:-0.0914617 14:-0.999989 15:-0.923724 16:-0.97159 17:-0.986826 18:-0.977173 19:-0.927108 20:-0.96685 21:-0.936816 22:-0.985418 23:-0.943414 24:-0.978715 25:-0.931464 26:-0.977697 27:-0.926393 28:-0.971092 29:-0.975609 30:-0.976392 31:-0.984419 32:-0.983237 33:-0.996358 34:-0.997172 35:-0.999708 36:-0.99896 37:-0.999766 38:-0.999369 39:-0.999648 40:-0.999293 41:-0.999096 42:-0.999416 43:-0.999166 44:-1 45:-1 46:-0.998515 47:-0.99633 48:-0.993157 49:-0.99278 50:-0.995889 51:-0.989047 52:-0.994624 53:-0.996101 54:-0.98533 55:-0.99435 56:-0.973684 57:-0.989717 58:-0.98773 59:-0.959184 60:-0.991691 61:-0.97135 
32 1:-0.991352 2:-0.874567 3:-0.9845 4:-0.0105143 5:-0.0699122 6:-0.942728 7:-0.210501 8:0.65629 9:-0.99996 10:-0.652717 11:0.029393 12:-0.99998 13:-0.091463 14:-0.999979 15:-0.922467 16:-0.950534 17:-0.931648 18:-0.958967 19:-0.934307 20:-0.955961 21:-0.938068 22:-0.962739 23:-0.936265 24:-0.973566 25:-0.93756 26:-0.969919 27:-0.941201 28:-0.970641 29:-0.931896 30:-0.976045 31:-0.94633 32:-0.976045 33:-0.941078 34:-0.980831 35:-0.999805 36:-0.99948 37:-0.999299 38:-0.998738 39:-0.998591 40:-0.998586 41:-0.995931 42:-0.998249 43:-0.998333 44:-0.997265 45:-0.997033 46:-0.991091 47:-0.988991 48:-0.991446 49:-0.987365 50:-0.989723 51:-0.982475 52:-0.983871 53:-0.980507 54:-0.97555 55:-0.966102 56:-0.994737 57:-0.989717 58:-0.98773 59:-1 60:-0.983629 61:-0.925533 
11.07292415330649 1:-0.99092 2:-0.784032 3:-0.820791 4:0.0123652 5:-0.231684 6:-0.985063 7:-0.109619 8:0.106816 9:-0.999946 10:-0.652717 11:0.0293996 12:-0.999981 13:-0.0914605 14:-0.999976 15:-0.984684 16:-0.962359 17:-0.980122 18:-0.941203 19:-0.97246 20:-0.94111 21:-0.951426 22:-0.9411 23:-0.947541 24:-0.943214 25:-0.956476 26:-0.938604 27:-0.957181 28:-0.940847 29:-0.957818 30:-0.945664 31:-0.96146 32:-0.95736 33:-0.973451 34:-0.971441 35:-0.999903 36:-0.99948 37:-1 38:-0.999369 39:-0.998238 40:-0.996465 41:-0.99774 42:-0.994748 43:-0.99083 44:-0.994531 45:-0.994065 46:-0.986637 47:-0.992661 48:-0.991446 49:-0.990975 50:-0.983556 51:-0.989047 52:-0.994624 53:-0.992203 54:-0.99022 55:-0.983051 56:-0.994737 57:-0.989717 58:-0.97546 59:-0.918367 60:-0.987747 61:-0.940269 
5.093048314069777 1:-0.991525 2:-0.650295 3:-0.693067 4:-0.0256778 5:-0.378926 6:-0.999144 7:-0.0572929 8:0.620868 9:-0.99995 10:-0.652717 11:0.0293879 12:-0.999983 13:-0.091461 14:-0.999979 15:-0.97231 16:-0.937709 17:-0.976502 18:-0.93148 19:-0.96868 20:-0.934103 21:-0.966674 22:-0.937619 23:-0.963321 24:-0.943133 25:-0.974318 26:-0.943613 27:-0.968885 28:-0.939982 29:-0.975915 30:-0.947337 31:-0.965115 32:-0.95719 33:-0.969675 34:-0.96581 35:-0.999903 36:-0.99974 37:-0.999766 38:-0.999369 39:-0.998591 40:-0.998232 41:-0.99774 42:-0.995915 43:-0.995832 44:-0.991796 45:-0.991098 46:-0.991091 47:-0.990826 48:-0.994867 49:-0.98917 50:-0.987667 51:-0.991238 52:-0.986559 53:-0.988304 54:-0.98044 55:-0.977401 56:-0.984211 57:-0.994859 58:-0.95092 59:-1 60:-0.987199 61:-0.919075 
17.82529363092002 1:-0.991958 2:-0.648431 3:-0.691775 4:-0.0240946 5:-0.380175 6:-0.998991 7:-0.059222 8:0.624209 9:-0.999953 10:-0.652722 11:0.0294009 12:-0.999983 13:-0.091461 14:-0.999979 15:-0.974618 16:-0.939842 17:-0.969712 18:-0.932536 19:-0.97254 20:-0.928537 21:-0.976367 22:-0.942678 23:-0.969651 24:-0.944247 25:-0.964593 26:-0.94026 27:-0.983748 28:-0.948452 29:-0.95935 30:-0.941983 31:-0.975171 32:-0.952893 33:-0.973479 34:-0.966106 35:-1 36:-0.99948 37:-0.999766 38:-0.999579 39:-0.997886 40:-0.997879 41:-0.998644 42:-0.997666 43:-0.99083 44:-0.996354 45:-0.994065 46:-0.991091 47:-0.983486 48:-0.994867 49:-0.98917 50:-0.989723 51:-0.993428 52:-0.994624 53:-0.984405 54:-0.97555 55:-0.988701 56:-0.994737 57:-0.994859 58:-0.97546 59:-0.836735 60:-0.987784 61:-0.920226 
32 1:-0.994379 2:-0.906817 3:-0.927605 4:0.0193027 5:0.0712291 6:-0.9532 7:0.00272223 8:-0.88904 9:-0.999986 10:-0.652717 11:0.0293893 12:-0.999989 13:-0.0914644 14:-0.99999 15:-0.99049 16:-0.972331 17:-0.996071 18:-0.956759 19:-0.984966 20:-0.949343 21:-0.975865 22:-0.96549 23:-0.972043 24:-0.977881 25:-0.972784 26:-0.988912 27:-0.973548 28:-0.990361 29:-0.973159 30:-0.99228 31:-0.979076 32:-0.987595 33:-0.985538 34:-0.992508 35:-0.999903 36:-0.99974 37:-0.999299 38:-0.998948 39:-0.997886 40:-0.998586 41:-0.998192 42:-0.998833 43:-0.994998 44:-0.997265 45:-0.995549 46:-0.998515 47:-0.99633 48:-0.994867 49:-0.994585 50:-0.997945 51:-0.984666 52:-0.997312 53:-0.992203 54:-0.99511 55:-0.988701 56:-1 57:-0.989717 58:-0.95092 59:-0.959184 60:-0.991779 61:-0.965381 
32 1:-0.989018 2:-0.793287 3:-0.877118 4:0.0338038 5:-0.2283 6:-0.957636 7:-0.182359 8:0.571799 9:-0.999926 10:-0.652717 11:0.0293904 12:-0.999975 13:-0.091463 14:-0.999968 15:-0.957226 16:-0.944811 17:-0.963756 18:-0.94555 19:-0.950016 20:-0.937593 21:-0.951321 22:-0.946921 23:-0.961088 24:-0.947604 25:-0.9596 26:-0.951151 27:-0.964692 28:-0.949318 29:-0.966282 30:-0.949491 31:-0.96558 32:-0.961698 33:-0.98533 34:-0.977791 35:-0.999903 36:-0.998701 37:-0.999065 38:-0.998738 39:-0.997181 40:-0.996465 41:-0.993671 42:-0.997082 43:-0.993331 44:-0.996354 45:-0.98368 46:-0.989607 47:-0.987156 48:-0.988024 49:-0.99639 50:-0.987667 51:-0.986857 52:-0.983871 53:-0.984405 54:-1 55:-0.977401 56:-0.984211 57:-0.994859 58:-0.98773 59:-1 60:-0.990253 61:-0.947318 
3.974340429374503 1:-0.993601 2:-0.75954 3:-0.758897 4:-0.0213606 5:-0.188814 6:-0.998364 7:-0.0543242 8:-0.433626 9:-0.999972 10:-0.652717 11:0.0293895 12:-0.99999 13:-0.0914615 14:-0.999986 15:-0.99789 16:-0.968715 17:-0.995529 18:-0.950739 19:-0.995802 20:-0.961248 21:-0.991834 22:-0.972473 23:-0.988945 24:-0.943806 25:-0.98648 26:-0.940443 27:-0.987451 28:-0.940964 29:-0.985232 30:-0.946245 31:-0.98894 32:-0.962433 33:-0.993181 34:-0.963757 35:-0.999708 36:-0.99974 37:-0.998831 38:-0.999158 39:-0.998238 40:-0.998586 41:-0.999096 42:-0.998249 43:-0.996665 44:-0.997265 45:-0.997033 46:-0.992576 47:-0.992661 48:-0.996578 49:-0.99278 50:-0.987667 51:-1 52:-0.991935 53:-0.988304 54:-0.97555 55:-0.983051 56:-1 57:-0.984576 58:-0.96319 59:-1 60:-0.987763 61:-0.924407 
17.14789409615554 1:-0.991785 2:-0.830353 3:-0.880594 4:-0.0146983 5:-0.222698 6:-0.994396 7:-0.0895775 8:0.545583 9:-0.999961 10:-0.65272 11:0.029423 12:-0.999981 13:-0.0914618 14:-0.99998 15:-1 16:-1 17:-0.972919 18:-0.926828 19:-0.969739 20:-0.92595 21:-0.965693 22:-0.934401 23:-0.962482 24:-0.940925 25:-0.97623 26:-0.947991 27:-0.975949 28:-0.945145 29:-0.98306 30:-0.954839 31:-0.987772 32:-0.968356 33:-0.99208 34:-0.990645 35:-0.999805 36:-0.99948 37:-0.999532 38:-0.998317 39:-0.998591 40:-0.997879 41:-0.999548 42:-0.994748 43:-0.994998 44:-0.994531 45:-0.997033 46:-0.986637 47:-0.983486 48:-0.988024 49:-0.98556 50:-0.989723 51:-0.997809 52:-0.991935 53:-0.988304 54:-0.99511 55:-0.99435 56:-1 57:-0.994859 58:-1 59:-0.918367 60:-0.990799 61:-0.950374 
32 1:-0.99533 2:-0.936305 3:-0.948166 4:0.00319981 5:0.0518096 6:-0.964629 7:-0.0120684 8:-0.941045 9:-0.999991 10:-0.652717 11:0.0293926 12:-0.999991 13:-0.0914617 14:-0.999992 15:-0.977687 16:-0.982218 17:-0.975701 18:-0.985752 19:-0.976876 20:-0.990665 21:-0.974906 22:-0.991528 23:-0.961875 24:-0.994504 25:-0.957094 26:-0.994108 27:-0.959652 28:-0.99475 29:-0.962439 30:-0.99591 31:-0.982939 32:-0.999345 33:-0.981906 34:-0.996303 35:-0.999805 36:-0.99896 37:-0.999299 38:-1 39:-1 40:-0.999293 41:-0.998644 42:-0.998249 43:-0.997499 44:-0.996354 45:-0.998516 46:-0.995546 47:-0.990826 48:-0.989735 49:-0.994585 50:-0.995889 51:-0.997809 52:-0.991935 53:-0.992203 54:-0.99511 55:-0.988701 56:-0.989474 57:-0.994859 58:-1 59:-0.959184 60:-0.991896 61:-0.963406 
0.696575170557761 1:-0.990228 2:-0.790628 3:-0.85617 4:0.0169726 5:-0.250259 6:-0.978118 7:-0.142137 8:0.589996 9:-0.999936 10:-0.652717 11:0.0293776 12:-0.999979 13:-0.0914624 14:-0.999974 15:-0.956935 16:-0.939921 17:-0.969431 18:-0.947698 19:-0.97414 20:-0.942927 21:-0.969163 22:-0.948273 23:-0.971214 24:-0.943786 25:-0.964571 26:-0.941956 27:-0.96444 28:-0.94273 29:-0.965527 30:-0.941066 31:-0.963368 32:-0.954243 33:-0.970355 34:-0.961945 35:-1 36:-1 37:-1 38:-1 39:-0.998943 40:-0.999646 41:-0.99774 42:-0.995331 43:-0.993331 44:-0.996354 45:-0.992582 46:-0.991091 47:-0.977982 48:-0.996578 49:-0.987365 50:-0.975334 51:-0.982475 52:-0.975806 53:-0.984405 54:-0.98044 55:-0.966102 56:-0.994737 57:-0.979434 58:-0.96319 59:-0.836735 60:-0.991683 61:-0.938907 
23.43248528310352 1:-0.990228 2:-0.840749 3:-0.878056 4:0.0131097 5:-0.173746 6:-0.977479 7:-0.120253 8:-0.0344572 9:-0.999931 10:-0.652717 11:0.0293742 12:-0.999979 13:-0.0914628 14:-0.999973 15:-0.948239 16:-0.942953 17:-0.958919 18:-0.942736 19:-0.950885 20:-0.936851 21:-0.954655 22:-0.951456 23:-0.958971 24:-0.947907 25:-0.967839 26:-0.945581 27:-0.971064 28:-0.942831 29:-0.965743 30:-0.943589 31:-0.971403 32:-0.962128 33:-0.982902 34:-0.965807 35:-0.999903 36:-0.998701 37:-0.997662 38:-0.999158 39:-0.999295 40:-0.998939 41:-0.998192 42:-0.996498 43:-0.993331 44:-0.991796 45:-0.989614 46:-0.982183 47:-0.992661 48:-0.986313 49:-0.98917 50:-0.991778 51:-0.989047 52:-0.986559 53:-0.996101 54:-0.98533 55:-0.988701 56:-0.989474 57:-0.994859 58:-0.98773 59:-0.877551 60:-0.988166 61:-0.939123 
13.49826919465605 1:-0.988412 2:-0.844768 3:-0.889828 4:0.022362 5:-0.152653 6:-0.965985 7:-0.132967 8:-0.1505 9:-0.999925 10:-0.652717 11:0.0293783 12:-0.999971 13:-0.0914638 14:-0.999966 15:-0.973932 16:-0.965421 17:-0.975054 18:-0.952422 19:-0.965214 20:-0.949034 21:-0.961915 22:-0.955582 23:-0.966589 24:-0.949275 25:-0.962397 26:-0.946035 27:-0.962082 28:-0.943451 29:-0.957137 30:-0.943765 31:-0.959919 32:-0.953858 33:-0.960684 34:-0.958107 35:-0.999805 36:-0.998441 37:-0.998597 38:-0.998948 39:-0.998238 40:-0.998586 41:-0.994123 42:-0.995915 43:-0.994164 44:-0.993619 45:-0.98368 46:-0.994061 47:-0.988991 48:-0.984602 49:-0.987365 50:-0.985612 51:-0.989047 52:-0.986559 53:-0.97271 54:-0.98044 55:-0.99435 56:-0.973684 57:-0.989717 58:-0.98773 59:-0.959184 60:-0.986275 61:-0.943554 
32 1:-0.988499 2:-0.815191 3:-0.901678 4:0.0282785 5:-0.197666 6:-0.954524 7:-0.184695 8:0.51156 9:-0.999922 10:-0.652717 11:0.0293821 12:-0.999968 13:-0.0914618 14:-0.999963 15:-0.96194 16:-0.959205 17:-0.966821 18:-0.962325 19:-0.970881 20:-0.955919 21:-0.953086 22:-0.960653 23:-0.955893 24:-0.948831 25:-0.956434 26:-0.949812 27:-0.955993 28:-0.942893 29:-0.958128 30:-0.947394 31:-0.960878 32:-0.955707 33:-0.962444 34:-0.970994 35:-0.999318 36:-0.997141 37:-0.997896 38:-0.997896 39:-0.996124 40:-0.996465 41:-0.998644 42:-0.994748 43:-0.994164 44:-0.992707 45:-0.989614 46:-0.991091 47:-0.992661 48:-0.994867 49:-0.99278 50:-0.993834 51:-0.982475 52:-0.989247 53:-0.996101 54:-0.99022 55:-0.988701 56:-0.984211 57:-0.984576 58:-0.98773 59:-1 60:-0.99012 61:-0.957914 
32 1:-0.991785 2:-0.831598 3:-0.850304 4:0.0213155 5:0.176607 6:-0.975775 7:0.0244156 8:-0.492531 9:-0.999958 10:-0.652717 11:0.0293877 12:-0.999987 13:-0.0914611 14:-0.999981 15:-0.979962 16:-0.974057 17:-0.972114 18:-0.954594 19:-0.973291 20:-0.949809 21:-0.961656 22:-0.951624 23:-0.963025 24:-0.948978 25:-0.966449 26:-0.962168 27:-0.973035 28:-0.939261 29:-0.971044 30:-0.944436 31:-0.972697 32:-0.958547 33:-0.980528 34:-0.970433 35:-0.999903 36:-0.99922 37:-0.999065 38:-0.999369 39:-0.997886 40:-0.998939 41:-0.998192 42:-0.996498 43:-0.994998 44:-0.993619 45:-0.992582 46:-0.989607 47:-0.988991 48:-0.991446 49:-0.987365 50:-0.989723 51:-0.989047 52:-0.991935 53:-0.996101 54:-0.99511 55:-0.988701 56:-0.989474 57:-0.984576 58:-0.96319 59:-1 60:-0.98999 61:-0.944445 
12.64650223468154 1:-0.990488 2:-0.579061 3:-0.775346 4:0.153883 5:-0.313406 6:-0.844594 7:-0.312987 8:0.548358 9:-0.999942 10:-0.652717 11:0.0293984 12:-0.999974 13:-0.0914608 14:-0.999973 15:-0.920691 16:-0.966464 17:-0.958988 18:-0.968593 19:-0.951197 20:-0.959829 21:-0.957176 22:-0.966565 23:-0.95434 24:-0.961635 25:-0.949297 26:-0.954401 27:-0.951916 28:-0.947648 29:-0.957098 30:-0.944513 31:-0.962032 32:-0.954969 33:-0.973242 34:-0.963006 35:-0.999805 36:-0.99948 37:-0.999532 38:-0.998738 39:-0.997533 40:-0.998232 41:-0.998644 42:-0.997082 43:-0.998333 44:-0.995442 45:-0.991098 46:-0.988122 47:-0.979817 48:-0.982891 49:-0.99278 50:-0.991778 51:-0.989047 52:-0.975806 53:-0.980507 54:-0.98044 55:-0.971751 56:-0.994737 57:-0.994859 58:-1 59:-0.959184 60:-0.989504 61:-0.951224 
28.44025607924251 1:-0.997406 2:-0.593046 3:-0.762455 4:0.134411 5:-0.337385 6:-0.880957 7:-0.288816 8:0.68064 9:-0.999995 10:-0.652717 11:0.0293897 12:-0.999997 13:-0.0914615 14:-0.999997 15:-0.953522 16:-0.98617 17:-0.982616 18:-0.98742 19:-0.973108 20:-0.984462 21:-0.974857 22:-0.985794 23:-0.984145 24:-0.992372 25:-0.978759 26:-0.987995 27:-0.984273 28:-0.98398 29:-0.987672 30:-0.987595 31:-0.995398 32:-0.992878 33:-0.998772 34:-0.994259 35:-1 36:-1 37:-1 38:-0.999579 39:-1 40:-0.999293 41:-0.999548 42:-0.998833 43:-0.999166 44:-0.999088 45:-0.997033 46:-0.99703 47:-0.99633 48:-0.996578 49:-0.994585 50:-0.995889 51:-0.993428 52:-0.994624 53:-0.996101 54:-0.99511 55:-1 56:-0.989474 57:-0.994859 58:-0.98773 59:-1 60:-0.990031 61:-0.931236 
7.38782576626391 1:-0.991525 2:-0.838603 3:-0.845169 4:0.0359366 5:0.0115415 6:-0.964465 7:-0.0419605 8:-0.998525 9:-0.999955 10:-0.652717 11:0.0293877 12:-0.999987 13:-0.0914615 14:-0.999981 15:-0.971907 16:-0.967239 17:-0.964248 18:-0.96406 19:-0.961897 20:-0.95135 21:-0.967067 22:-0.949334 23:-0.966447 24:-0.948969 25:-0.969091 26:-0.95662 27:-0.965263 28:-0.94652 29:-0.967163 30:-0.949597 31:-0.968443 32:-0.958387 33:-0.97974 34:-0.967644 35:-0.999903 36:-0.998181 37:-0.999299 38:-0.999579 39:-0.998943 40:-0.998939 41:-0.998192 42:-0.996498 43:-0.995832 44:-0.996354 45:-0.997033 46:-0.995546 47:-0.99633 48:-0.988024 49:-0.99278 50:-0.981501 51:-0.989047 52:-0.997312 53:-0.957115 54:-0.98044 55:-0.983051 56:-0.978947 57:-0.969152 58:-0.98773 59:-0.959184 60:-0.983357 61:-0.91897 
25.98672748822261 1:-0.991698 2:-0.828484 3:-0.844176 4:0.0449757 5:0.0239848 6:-0.956005 7:-0.0358788 8:-0.999912 9:-0.999958 10:-0.652717 11:0.0293881 12:-0.999987 13:-0.0914611 14:-0.999981 15:-0.973373 16:-0.971414 17:-0.975914 18:-0.956345 19:-0.971162 20:-0.949309 21:-0.971592 22:-0.951984 23:-0.970137 24:-0.948986 25:-0.982308 26:-0.952154 27:-0.976078 28:-0.947863 29:-0.972579 30:-0.94388 31:-0.975364 32:-0.957657 33:-0.983707 34:-0.974595 35:-0.999903 36:-0.99896 37:-0.999532 38:-0.999369 39:-0.998238 40:-0.998939 41:-0.999096 42:-0.994748 43:-0.995832 44:-0.998177 45:-0.995549 46:-0.982183 47:-0.990826 48:-0.97947 49:-0.99639 50:-0.991778 51:-0.986857 52:-0.989247 53:-0.992203 54:-0.98533 55:-0.988701 56:-0.957895 57:-1 58:-1 59:-1 60:-0.98641 61:-0.929438 
19.81593558981745 1:-0.99559 2:-0.883326 3:-0.880589 4:-0.0914521 5:-0.0445902 6:-0.980935 7:-0.0119398 8:-0.889502 9:-0.999992 10:-0.652717 11:0.0293872 12:-0.999993 13:-0.0914615 14:-0.999993 15:-0.989549 16:-0.984681 17:-0.991587 18:-0.980356 19:-0.983322 20:-0.980641 21:-0.97616 22:-0.979654 23:-0.973887 24:-0.983723 25:-0.969586 26:-0.980426 27:-0.971011 28:-0.981603 29:-0.9782 30:-0.984863 31:-0.980093 32:-0.987407 33:-0.985886 34:-0.992731 35:-0.999805 36:-1 37:-1 38:-0.999579 39:-0.999295 40:-0.999293 41:-0.998192 42:-0.999416 43:-1 44:-0.996354 45:-0.997033 46:-0.994061 47:-0.998165 48:-0.994867 49:-0.99639 50:-0.993834 51:-0.986857 52:-0.994624 53:-0.984405 54:-0.99022 55:-0.988701 56:-0.989474 57:-0.979434 58:-1 59:-1 60:-0.993533 61:-0.957953 
10.58890333348866 1:-0.992217 2:-0.820385 3:-0.79558 4:-0.0485793 5:0.109972 6:-0.999693 7:-0.0406184 8:-0.877889 9:-0.999964 10:-0.652717 11:0.0293863 12:-0.999985 13:-0.0914628 14:-0.999982 15:-0.994702 16:-0.979298 17:-0.98921 18:-0.949559 19:-0.975381 20:-0.953878 21:-0.962379 22:-0.946635 23:-0.963019 24:-0.943239 25:-0.958895 26:-0.941228 27:-0.960562 28:-0.952692 29:-0.966449 30:-0.940877 31:-0.958326 32:-0.953788 33:-0.964011 34:-0.964037 35:-0.999415 36:-0.998701 37:-0.999299 38:-0.999369 39:-0.998238 40:-0.998586 41:-0.99774 42:-0.996498 43:-0.994998 44:-0.996354 45:-0.992582 46:-0.994061 47:-0.994495 48:-0.991446 49:-0.990975 50:-0.989723 51:-0.991238 52:-0.991935 53:-0.984405 54:-1 55:-0.988701 56:-0.994737 57:-0.989717 58:-0.97546 59:-0.959184 60:-0.989131 61:-0.933695 
10.11634077552356 1:-0.993601 2:-0.629308 3:-0.677739 4:0.085419 5:-0.253673 6:-0.954236 7:-0.14004 8:-0.272874 9:-0.999973 10:-0.652717 11:0.0293889 12:-0.99999 13:-0.0914612 14:-0.999987 15:-0.98997 16:-0.98058 17:-0.973921 18:-0.954357 19:-0.96426 20:-0.951877 21:-1 22:-1 23:-0.959917 24:-0.952278 25:-0.96794 26:-0.946085 27:-0.974983 28:-0.953639 29:-0.963493 30:-0.95349 31:-0.968272 32:-0.960512 33:-0.973951 34:-0.983828 35:-0.99961 36:-0.99922 37:-0.999532 38:-0.998738 39:-1 40:-0.998586 41:-0.999548 42:-0.996498 43:-0.995832 44:-0.994531 45:-0.991098 46:-0.995546 47:-1 48:-0.994867 49:-0.99639 50:-0.995889 51:-0.984666 52:-0.983871 53:-0.992203 54:-0.98533 55:-0.983051 56:-0.994737 57:-0.994859 58:-0.98773 59:-1 60:-0.988483 61:-0.917651 
1.737703663640907 1:-0.99239 2:-0.645774 3:-0.755506 4:0.109841 5:-0.282205 6:-0.914285 7:-0.215281 8:0.168477 9:-0.999958 10:-0.652717 11:0.0293876 12:-0.999988 13:-0.0914623 14:-0.999983 15:-0.981354 16:-0.96883 17:-0.975007 18:-0.943169 19:-0.972765 20:-0.954311 21:-0.975964 22:-0.953555 23:-0.968183 24:-0.94523 25:-0.966126 26:-0.942866 27:-0.96727 28:-0.948695 29:-0.977806 30:-0.949966 31:-0.970617 32:-0.956979 33:-0.980975 34:-0.970077 35:-0.999708 36:-0.99922 37:-0.998831 38:-0.999369 39:-0.998591 40:-0.998232 41:-0.998644 42:-0.995915 43:-0.996665 44:-0.993619 45:-0.997033 46:-0.998515 47:-0.985321 48:-0.989735 49:-1 50:-0.985612 51:-0.997809 52:-0.991935 53:-0.97271 54:-0.97555 55:-0.988701 56:-0.984211 57:-0.994859 58:-0.98773 59:-1 60:-0.989566 61:-0.930459 
32 1:-0.993514 2:-0.649676 3:-0.819494 4:0.113881 5:-0.285199 6:-0.877676 7:-0.287129 8:0.614423 9:-0.999972 10:-0.652717 11:0.0293895 12:-0.999988 13:-0.0914598 14:-0.999986 15:-0.943193 16:-0.989704 17:-0.955091 18:-0.976697 19:-0.957077 20:-0.974797 21:-0.963369 22:-0.972529 23:-0.952003 24:-0.972924 25:-0.952131 26:-0.966105 27:-0.954788 28:-0.962185 29:-0.953952 30:-0.964333 31:-0.964883 32:-0.978245 33:-0.977696 34:-0.98797 35:-1 36:-1 37:-0.999299 38:-0.999579 39:-0.999295 40:-0.998939 41:-0.999096 42:-0.994748 43:-0.994998 44:-0.997265 45:-0.995549 46:-0.991091 47:-0.994495 48:-0.991446 49:-0.98917 50:-0.995889 51:-0.991238 52:-0.989247 53:-0.984405 54:-0.98044 55:-0.99435 56:-0.978947 57:-0.994859 58:-0.98773 59:-1 60:-0.992179 61:-0.953637 
-0.0830293366336739 1:-0.993255 2:-0.924959 3:-0.964303 4:-0.0885871 5:0.0971062 6:-0.942963 7:-0.134032 8:-0.483818 9:-0.999986 10:-0.652717 11:0.0293891 12:-0.999972 13:-0.0914622 14:-0.999974 15:-1 16:-1 17:-0.946352 18:-0.982303 19:-0.942485 20:-0.980133 21:-0.95891 22:-0.987092 23:-0.895584 24:-0.96514 25:-0.946408 26:-0.950969 27:-0.899223 28:-0.947442 29:-0.904184 30:-0.934302 31:-0.994145 32:-0.992621 33:-1 34:-1 35:-0.999903 36:-0.99974 37:-0.999766 38:-1 39:-0.999648 40:-0.999646 41:-1 42:-0.997082 43:-0.999166 44:-0.996354 45:-0.995549 46:-0.994061 47:-0.990826 48:-0.996578 49:-0.99278 50:-0.979445 51:-0.984666 52:-0.986559 53:-0.988304 54:-0.97066 55:-0.977401 56:-0.968421 57:-0.974293 58:-0.97546 59:-1 60:-0.994542 61:-0.968973 
-0.06269124970995085 1:-0.980889 2:-0.883244 3:-0.959023 4:-0.0958324 5:0.149134 6:-0.933262 7:-0.200992 8:0.275735 9:-0.999632 10:-0.652719 11:0.0294126 12:-0.999851 13:-0.0914554 14:-0.999838 15:-0.957611 16:-0.963049 17:-0.979192 18:-0.982259 19:-1 20:-1 21:-1 22:-1 23:-1 24:-1 25:-0.932879 26:-0.88969 27:-0.938344 28:-0.883062 29:-0.981864 30:-0.962143 31:-0.966179 32:-0.980824 33:-0.973782 34:-0.986676 35:-0.99961 36:-1 37:-0.999299 38:-0.999369 39:-0.999648 40:-0.999293 41:-0.996383 42:-0.994164 43:-0.985827 44:-0.989061 45:-0.986647 46:-0.977728 47:-0.977982 48:-0.97947 49:-0.972924 50:-0.965057 51:-0.96057 52:-0.922043 53:-0.94152 54:-0.98044 55:-0.960452 56:-0.973684 57:-0.989717 58:-0.96319 59:-0.959184 60:-0.991052 61:-0.948713 
-0.004299823836675182 1:-1 2:-0.102426 3:-0.312525 4:-0.395884 5:0.646091 6:-0.833303 7:-0.343051 8:0.774099 9:-1 10:-0.652717 11:0.029389 12:-1 13:-0.0914616 14:-1 15:-1 16:-1 17:-1 18:-1 19:-1 20:-1 21:-1 22:-1 23:-1 24:-1 25:-1 26:-1 27:-1 28:-1 29:-1 30:-1 31:-1 32:-1 33:-1 34:-1 35:-1 36:-1 37:-1 38:-0.999579 39:-1 40:-1 41:-1 42:-1 43:-1 44:-1 45:-1 46:-1 47:-1 48:-1 49:-0.998195 50:-1 51:-1 52:-1 53:-1 54:-1 55:-1 56:-1 57:-1 58:-1 59:-1 60:-0.99547 61:-0.976395 
-11.84100695864303 1:-0.992736 2:-0.939484 3:-0.997995 4:-0.0368945 5:0.0521255 6:-0.989673 7:0.0341944 8:0.602565 9:-0.999966 10:-0.652703 11:0.0293872 12:-0.999989 13:-0.0914775 14:-0.999985 15:-0.941429 16:-0.961839 17:-0.958586 18:-0.97941 19:-0.955384 20:-0.977922 21:-0.949522 22:-0.981111 23:-0.946698 24:-0.980185 25:-0.953695 26:-0.967991 27:-0.959354 28:-0.96842 29:-0.951227 30:-0.970532 31:-0.957433 32:-0.987073 33:-0.994963 34:-0.999575 35:-0.99961 36:-0.997661 37:-0.999299 38:-0.998948 39:-0.998943 40:-0.997172 41:-0.998192 42:-0.998833 43:-0.996665 44:-0.995442 45:-0.997033 46:-0.995546 47:-0.992661 48:-0.994867 49:-0.99278 50:-1 51:-0.991238 52:-0.989247 53:-0.984405 54:-1 55:-0.983051 56:-0.989474 57:-1 58:-0.97546 59:-0.795918 60:-0.99442 61:-0.982375 
-32 1:-0.995763 2:-0.927642 3:-0.933485 4:0.00131916 5:0.0916819 6:-0.974667 7:0.00585366 8:-0.762252 9:-0.999992 10:-0.652717 11:0.0293857 12:-0.999988 13:-0.0914619 14:-0.999989 15:-0.967684 16:-0.981617 17:-0.979043 18:-0.968803 19:-0.96856 20:-0.991362 21:-0.933209 22:-0.980996 23:-0.921384 24:-0.978797 25:-0.949002 26:-0.989145 27:-0.948093 28:-0.990668 29:-0.980382 30:-0.998283 31:-0.968267 32:-0.994466 33:-0.992777 34:-0.995134 35:-0.99844 36:-1 37:-0.999299 38:-0.99979 39:-0.998943 40:-0.998586 41:-0.999096 42:-0.998249 43:-0.999166 44:-1 45:-0.998516 46:-0.995546 47:-0.99633 48:-0.998289 49:-0.994585 50:-1 51:-0.995619 52:-0.994624 53:-0.992203 54:-1 55:-0.988701 56:-1 57:-1 58:-0.98773 59:-1 60:-0.988782 61:-0.976559 
-0.07042628219161692 1:-0.993947 2:-0.854427 3:-0.864493 4:0.0338227 5:0.00819394 6:-0.961478 7:-0.0442346 8:-0.996753 9:-0.999996 10:-0.652718 11:0.0294087 12:-0.999936 13:-0.09146 14:-0.999948 15:-0.996305 16:-0.996436 17:-0.985092 18:-0.990609 19:-0.976848 20:-0.988531 21:-0.984757 22:-0.994568 23:-0.986848 24:-0.99283 25:-0.983993 26:-0.992039 27:-0.989465 28:-0.993903 29:-0.992945 30:-0.996471 31:-0.987365 32:-0.995796 33:-0.992019 34:-0.995186 35:-0.999708 36:-0.99896 37:-0.999532 38:-0.999579 39:-0.999648 40:-0.999646 41:-0.999548 42:-0.999416 43:-0.999166 44:-0.998177 45:-0.997033 46:-1 47:-1 48:-0.994867 49:-0.99639 50:-0.997945 51:-0.986857 52:-0.973118 53:-0.968811 54:-0.97066 55:-0.988701 56:-0.989474 57:-0.989717 58:-0.91411 59:-0.836735 60:-0.98241 61:-0.92648 
-0.09124800221573502 1:-0.99412 2:-0.890212 3:-0.878653 4:-0.00358648 5:0.135327 6:-0.989005 7:-0.00362077 8:-0.660965 9:-0.999964 10:-0.652736 11:0.0293869 12:-0.999981 13:-0.091342 14:-0.999977 15:-0.998149 16:-0.998608 17:-0.992477 18:-0.986514 19:-0.991171 20:-0.986886 21:-0.92718 22:-0.95079 23:-0.940977 24:-0.969581 25:-0.982946 26:-0.983842 27:-0.990521 28:-0.985822 29:-0.994346 30:-0.985438 31:-0.980987 32:-0.984537 33:-0.991004 34:-0.985161 35:-0.999415 36:-0.998441 37:-0.998597 38:-0.998527 39:-0.998943 40:-1 41:-0.997288 42:-0.995915 43:-0.998333 44:-0.998177 45:-0.995549 46:-1 47:-0.992661 48:-0.996578 49:-0.99278 50:-0.997945 51:-0.993428 52:-1 53:-0.992203 54:-0.98533 55:-1 56:-0.989474 57:-0.994859 58:-0.98773 59:-1 60:-0.99791 61:-0.99398 
-0.06697136832304916 1:-0.985818 2:-0.873711 3:-0.98379 4:-0.0022004 5:0.101008 6:-0.90931 7:0.154554 8:0.293886 9:-0.999951 10:-0.652717 11:0.0298365 12:-0.999888 13:-0.0912665 14:-0.9999 15:-0.945826 16:-0.982538 17:-0.958543 18:-0.980517 19:-0.950597 20:-0.985251 21:-0.945286 22:-0.988287 23:-0.943876 24:-0.98949 25:-0.951091 26:-0.989346 27:-0.954566 28:-0.988243 29:-0.951598 30:-0.987648 31:-0.955961 32:-0.988533 33:-0.960196 34:-0.990384 35:-0.999123 36:-0.998701 37:-0.999766 38:-0.999158 39:-0.999648 40:-0.999293 41:-0.999096 42:-0.998833 43:-0.996665 44:-1 45:-0.997033 46:-0.998515 47:-0.990826 48:-0.994867 49:-0.987365 50:-0.969168 51:-0.951807 52:-0.905914 53:-0.957115 54:-0.9511 55:-0.932203 56:-0.968421 57:-0.969152 58:-0.98773 59:-0.959184 60:-0.982259 61:-0.911868 
-0.1652323062001601 1:-0.990142 2:-0.898747 3:-0.992821 4:-0.0143972 5:0.053095 6:-0.898824 7:0.0881236 8:-0.503214 9:-0.999963 10:-0.652717 11:0.0293974 12:-0.99993 13:-0.0914704 14:-0.999938 15:-0.946683 16:-0.982898 17:-0.930366 18:-0.972267 19:-0.939648 20:-0.977153 21:-0.947954 22:-0.980421 23:-1 24:-1 25:-0.923857 26:-0.975679 27:-0.940755 28:-0.985583 29:-0.963532 30:-0.974094 31:-0.977287 32:-0.987693 33:-0.9856 34:-0.994654 35:-0.997953 36:-0.998181 37:-0.999299 38:-1 39:-0.998591 40:-0.999293 41:-0.998644 42:-0.997082 43:-1 44:-0.999088 45:-0.995549 46:-0.992576 47:-0.998165 48:-0.996578 49:-0.98917 50:-0.987667 51:-0.984666 52:-0.986559 53:-0.968811 54:-0.98533 55:-0.988701 56:-0.963158 57:-0.96401 58:-0.92638 59:-0.877551 60:-0.974158 61:-0.926322 
-0.02187850293456045 1:-0.98651 2:-0.734056 3:-0.800926 4:0.0750364 5:-0.274407 6:-0.937159 7:-0.202023 8:0.367971 9:-0.999856 10:-0.652717 11:0.0293484 12:-0.999845 13:-0.0914634 14:-0.99985 15:-0.998932 16:-0.998473 17:-0.998808 18:-0.992168 19:-0.992917 20:-0.981678 21:-0.989766 22:-0.977357 23:-0.99071 24:-0.996209 25:-0.957259 26:-0.940667 27:-0.963053 28:-0.934831 29:-0.937644 30:-0.934952 31:-0.780369 32:-0.904339 33:-0.846404 34:-0.937104 35:-0.99922 36:-0.996362 37:-0.994156 38:-0.996634 39:-0.995067 40:-0.991161 41:-0.990506 42:-0.989495 43:-0.996665 44:-0.995442 45:-0.997033 46:-0.995546 47:-1 48:-1 49:-1 50:-1 51:-1 52:-0.997312 53:-0.996101 54:-0.99511 55:-1 56:-1 57:-0.994859 58:-1 59:-1 60:-0.997175 61:-0.991996 
-0.07936972011646222 1:-0.994293 2:-0.781216 3:-0.910695 4:0.0739451 5:-0.128362 6:-0.86265 7:-0.22109 8:-0.22168 9:-0.999938 10:-0.652717 11:0.0293773 12:-0.999958 13:-0.0914621 14:-0.999956 15:-0.986734 16:-0.991906 17:-0.997958 18:-0.99841 19:-0.99071 20:-0.993827 21:-1 22:-1 23:-1 24:-1 25:-1 26:-1 27:-0.991049 28:-0.995992 29:-0.925729 30:-0.945168 31:-0.896478 32:-0.931045 33:-0.909557 34:-0.915037 35:-0.999903 36:-0.99974 37:-0.997896 38:-0.999579 39:-0.997181 40:-0.998232 41:-0.994575 42:-0.998249 43:-0.995832 44:-0.999088 45:-0.995549 46:-1 47:-0.998165 48:-0.998289 49:-0.998195 50:-0.995889 51:-0.993428 52:-0.991935 53:-1 54:-0.98533 55:-0.983051 56:-0.994737 57:-1 58:-0.98773 59:-1 60:-0.992409 61:-0.97132 
-0.07978116689260546 1:-0.997665 2:-0.556423 3:-0.607107 4:0.00211042 5:0.520952 6:-0.995505 7:0.0150171 8:0.988257 9:-0.999992 10:-0.652717 11:0.0294508 12:-0.999988 13:-0.0914307 14:-0.999989 15:-0.987162 16:-0.969479 17:-1 18:-1 19:-1 20:-1 21:-0.983281 22:-0.971621 23:-1 24:-1 25:-1 26:-1 27:-0.986995 28:-0.952412 29:-0.974275 30:-0.960814 31:-0.932631 32:-0.901167 33:-0.892863 34:-0.929098 35:-0.999903 36:-0.99948 37:-1 38:-0.999579 39:-0.999648 40:-0.998939 41:-1 42:-1 43:-0.999166 44:-0.997265 45:-0.998516 46:-0.998515 47:-0.998165 48:-0.998289 49:-1 50:-0.997945 51:-0.993428 52:-0.994624 53:-0.988304 54:-0.99511 55:-1 56:-0.994737 57:-0.994859 58:-0.98773 59:-1 60:-0.986174 61:-0.906816 
-0.02826759452312509 1:-0.993601 2:-0.766007 3:-0.843493 4:0.0466784 5:-0.265099 6:-0.954458 7:-0.190345 8:0.625776 9:-0.999973 10:-0.652717 11:0.0293845 12:-0.999984 13:-0.0914476 14:-0.999982 15:-0.909135 16:-0.96711 17:-1 18:-1 19:-0.985932 20:-0.992577 21:-0.929008 22:-0.973764 23:-0.930937 24:-0.96894 25:-0.934787 26:-0.974789 27:-0.939416 28:-0.971278 29:-0.940504 30:-0.975194 31:-0.939815 32:-0.9752 33:-0.957853 34:-0.985661 35:-0.999708 36:-0.99896 37:-0.99813 38:-0.999579 39:-0.998238 40:-0.999293 41:-0.999548 42:-0.998833 43:-0.997499 44:-1 45:-0.994065 46:-0.99703 47:-0.994495 48:-0.994867 49:-0.998195 50:-0.991778 51:-0.986857 52:-0.983871 53:-0.992203 54:-0.99022 55:-1 56:-0.984211 57:-0.984576 58:-0.97546 59:-0.755102 60:-0.990515 61:-0.955041 
-0.1545949545118796 1:-0.998616 2:-0.410025 3:-0.76469 4:0.238719 5:-0.346752 6:-0.695232 7:-0.451971 8:0.786309 9:-0.999997 10:-0.652717 11:0.029389 12:-0.999999 13:-0.0914616 14:-0.999999 15:-0.978759 16:-0.99391 17:-0.985377 18:-0.993215 19:-0.985636 20:-0.991013 21:-0.979193 22:-0.995695 23:-0.988164 24:-0.999194 25:-0.970251 26:-0.997754 27:-1 28:-1 29:-0.971371 30:-0.997384 31:-1 32:-1 33:-0.992005 34:-0.999067 35:-1 36:-0.99974 37:-0.999766 38:-0.999369 39:-0.997533 40:-1 41:-0.999548 42:-1 43:-1 44:-0.999088 45:-1 46:-0.998515 47:-1 48:-1 49:-1 50:-1 51:-1 52:-0.997312 53:-0.996101 54:-1 55:-0.99435 56:-1 57:-1 58:-1 59:-0.959184 60:-0.991116 61:-0.96239 
-0.09826779358427398 1:-0.978987 2:-0.899085 3:-0.90586 4:-0.0453258 5:-0.143641 6:-0.999711 7:-0.0314495 8:-0.100392 9:-0.999817 10:-0.652718 11:0.0292582 12:-0.999798 13:-0.0914592 14:-0.999817 15:-0.981528 16:-0.899981 17:-0.985546 18:-0.95571 19:-0.962882 20:-0.952394 21:-0.959052 22:-0.950589 23:-0.967554 24:-0.945846 25:-0.980598 26:-0.94755 27:-0.968741 28:-0.924736 29:-0.929321 30:-0.918528 31:-0.936497 32:-0.948925 33:-0.979439 34:-0.982755 35:-0.988399 36:-0.987266 37:-0.996961 38:-0.996213 39:-0.995772 40:-0.996465 41:-0.998192 42:-0.995915 43:-1 44:-0.999088 45:-0.998516 46:-0.99703 47:-0.998165 48:-0.998289 49:-0.998195 50:-0.997945 51:-0.997809 52:-0.997312 53:-1 54:-0.99511 55:-1 56:-1 57:-0.994859 58:-0.98773 59:-0.959184 60:-0.993569 61:-0.99225 
-0.2548719824177473 1:-0.990661 2:-0.892745 3:-0.997181 4:-0.0289661 5:-0.0183506 6:-0.945604 7:-0.211594 8:0.765421 9:-0.999965 10:-0.652717 11:0.0293776 12:-0.999974 13:-0.0914614 14:-0.999975 15:-0.957008 16:-0.901013 17:-0.966433 18:-0.909744 19:-0.964336 20:-0.919886 21:-0.964569 22:-0.934679 23:-0.966063 24:-0.943329 25:-0.98628 26:-0.963983 27:-0.975419 28:-0.951142 29:-0.985289 30:-0.951821 31:-0.981632 32:-0.967 33:-0.995042 34:-0.998329 35:-0.999708 36:-0.997921 37:-0.998831 38:-0.998738 39:-0.998591 40:-0.997525 41:-0.998192 42:-0.997082 43:-0.999166 44:-0.996354 45:-0.994065 46:-0.989607 47:-0.987156 48:-0.991446 49:-0.990975 50:-0.995889 51:-0.986857 52:-0.989247 53:-0.976608 54:-0.98044 55:-0.966102 56:-0.968421 57:-0.994859 58:-0.98773 59:-1 60:-0.991882 61:-0.960999 
-32 1:-0.990055 2:-0.94326 3:-0.999725 4:-0.0415271 5:0.0134825 6:-0.99978 7:-0.0404034 8:0.707797 9:-0.999898 10:-0.652717 11:0.0293928 12:-0.999968 13:-0.0914598 14:-0.999956 15:-0.989165 16:-0.973528 17:-0.978139 18:-0.943442 19:-0.967968 20:-0.936155 21:-0.956433 22:-0.970874 23:-0.919506 24:-0.933066 25:-0.930418 26:-0.929379 27:-0.918939 28:-0.928334 29:-0.917347 30:-0.925879 31:-0.914821 32:-0.938074 33:-0.936957 34:-0.944855 35:-0.999805 36:-0.99922 37:-0.999532 38:-0.999369 39:-0.997886 40:-0.998232 41:-0.996383 42:-0.997082 43:-0.991663 44:-0.996354 45:-0.995549 46:-0.995546 47:-0.985321 48:-0.991446 49:-0.98556 50:-0.989723 51:-0.982475 52:-0.989247 53:-0.980507 54:-0.98533 55:-0.954802 56:-0.978947 57:-0.989717 58:-0.97546 59:-0.918367 60:-0.993339 61:-0.961591 
-0.1301028012100142 1:-0.98331 2:-0.820898 3:-0.975562 4:-0.0987295 5:0.125364 6:-0.875523 7:-0.274313 8:0.428699 9:-0.999873 10:-0.652718 11:0.029463 12:-0.999895 13:-0.091467 14:-0.999897 15:-0.998421 16:-0.988788 17:-1 18:-1 19:-0.891293 20:-0.951669 21:-0.888163 22:-0.95098 23:-0.916396 24:-0.951952 25:-0.933347 26:-0.94476 27:-0.95862 28:-0.947331 29:-0.971268 30:-0.955218 31:-0.969278 32:-0.969617 33:-0.96516 34:-0.996743 35:-0.999318 36:-0.997401 37:-0.996026 38:-0.995582 39:-0.99401 40:-0.988333 41:-0.990054 42:-0.994748 43:-0.992497 44:-0.992707 45:-0.992582 46:-0.994061 47:-0.994495 48:-0.996578 49:-0.99639 50:-0.995889 51:-0.991238 52:-0.989247 53:-0.988304 54:-0.98533 55:-0.977401 56:-0.994737 57:-0.984576 58:-0.97546 59:-0.959184 60:-0.986349 61:-0.95928 
-0.001121989145987153 1:-0.984348 2:-0.616535 3:-0.604719 4:0.0794221 5:0.297431 6:-0.965616 7:0.0428032 8:-0.393082 9:-0.999651 10:-0.652714 11:0.0292894 12:-0.999763 13:-0.0914946 14:-0.999742 15:-0.99757 16:-0.999835 17:-0.995355 18:-0.998153 19:-0.999969 20:-0.99688 21:-0.989568 22:-0.992171 23:-0.999048 24:-0.988498 25:-0.993432 26:-0.973264 27:-0.842667 28:-0.789637 29:-0.859911 30:-0.785241 31:-0.89334 32:-0.876436 33:-0.978495 34:-0.990748 35:-0.998733 36:-0.992983 37:-0.991585 38:-0.993688 39:-0.99401 40:-0.993636 41:-0.993671 42:-0.994748 43:-0.992497 44:-0.998177 45:-1 46:-0.998515 47:-0.998165 48:-1 49:-1 50:-0.993834 51:-0.995619 52:-1 53:-0.996101 54:-1 55:-1 56:-1 57:-1 58:-1 59:-0.959184 60:-0.991099 61:-0.973543 
-0.09358163731411138 1:-0.982618 2:-0.583299 3:-0.912075 4:0.130121 5:0.222542 6:-0.691326 7:0.338905 8:0.460917 9:-0.99976 10:-0.652716 11:0.0294099 12:-0.999818 13:-0.0914552 14:-0.999841 15:-0.945681 16:-0.975844 17:-0.964717 18:-0.981701 19:-0.953194 20:-0.98045 21:-0.955406 22:-0.97663 23:-0.911232 24:-0.921962 25:-0.867138 26:-0.909783 27:-0.85598 28:-0.916589 29:-0.987111 30:-0.980142 31:-0.990045 32:-0.982508 33:-0.998053 34:-0.97355 35:-0.999903 36:-0.998701 37:-0.992052 38:-0.98948 39:-0.987315 40:-0.99399 41:-0.994123 42:-0.997666 43:-0.992497 44:-0.991796 45:-0.986647 46:-0.99703 47:-0.994495 48:-0.994867 49:-0.998195 50:-1 51:-0.997809 52:-0.994624 53:-0.996101 54:-0.99511 55:-0.99435 56:-0.994737 57:-1 58:-0.98773 59:-1 60:-0.993632 61:-0.980784 
-0.03087827404451707 1:-0.985213 2:-0.774037 3:-0.922468 4:0.0868941 5:0.139069 6:-0.803258 7:0.150455 8:-0.427769 9:-0.999819 10:-0.652717 11:0.0293872 12:-0.999828 13:-0.0914619 14:-0.999834 15:-0.998286 16:-0.972361 17:-0.9973 18:-0.96824 19:-0.917227 20:-0.811749 21:-0.906348 22:-0.823048 23:-0.975432 24:-0.959952 25:-0.981192 26:-0.959426 27:-0.985613 28:-0.968554 29:-0.990619 30:-0.973413 31:-0.993073 32:-0.970294 33:-0.994286 34:-0.968861 35:-0.99922 36:-0.993503 37:-0.995091 38:-0.995582 39:-0.992248 40:-0.997172 41:-0.998192 42:-0.99358 43:-0.997499 44:-0.993619 45:-0.988131 46:-0.994061 47:-0.998165 48:-0.991446 49:-0.994585 50:-0.985612 51:-0.993428 52:-0.986559 53:-0.996101 54:-0.98533 55:-0.977401 56:-1 57:-1 58:-1 59:-1 60:-0.993776 61:-0.983828 
-0.00991443067175176 1:-0.988412 2:-0.594561 3:-0.870527 4:-0.22554 5:-0.234189 6:-0.760551 7:0.305972 8:0.565729 9:-0.999915 10:-0.652675 11:0.0293984 12:-0.999942 13:-0.0917843 14:-0.999936 15:-0.967218 16:-0.886591 17:-0.968034 18:-0.902813 19:-0.972882 20:-0.920555 21:-0.973889 22:-0.939438 23:-0.971756 24:-0.949489 25:-0.965564 26:-0.954634 27:-0.972587 28:-0.950445 29:-0.967326 30:-0.961364 31:-0.971859 32:-0.969679 33:-0.980409 34:-0.993135 35:-0.999805 36:-0.99948 37:-0.999532 38:-0.998527 39:-1 40:-0.999293 41:-1 42:-0.998833 43:-0.998333 44:-0.994531 45:-0.98368 46:-0.992576 47:-0.988991 48:-0.991446 49:-0.98917 50:-0.995889 51:-0.995619 52:-0.983871 53:-0.984405 54:-0.96088 55:-0.949153 56:-0.894737 57:-0.933162 58:-0.877301 59:-0.795918 60:-0.982267 61:-0.908819 
-32 1:-0.99386 2:-0.940336 3:-0.998938 4:-0.0399775 5:0.0447257 6:-0.997773 7:-0.00311327 8:0.739457 9:-0.999974 10:-0.652717 11:0.0293856 12:-0.999991 13:-0.0914615 14:-0.999993 15:-0.944152 16:-0.956959 17:-0.964537 18:-0.988648 19:-0.963421 20:-0.97027 21:-0.959601 22:-0.972894 23:-0.956333 24:-0.970153 25:-0.969236 26:-0.962366 27:-0.953157 28:-0.969207 29:-0.963444 30:-0.958056 31:-0.952507 32:-0.964213 33:-0.952427 34:-0.973807 35:-0.999708 36:-0.99922 37:-0.999766 38:-0.998317 39:-0.998943 40:-1 41:-0.998192 42:-0.997082 43:-0.995832 44:-0.997265 45:-0.997033 46:-0.994061 47:-0.985321 48:-0.991446 49:-0.994585 50:-0.993834 51:-1 52:-0.997312 53:-0.996101 54:-0.99022 55:-0.983051 56:-0.984211 57:-0.984576 58:-0.98773 59:-1 60:-0.991982 61:-0.956938 
-5.444759875153905 1:-0.974317 2:-0.803261 3:-0.896374 4:0.0772804 5:0.0414049 6:-0.870492 7:-0.0141255 8:-0.986249 9:-0.999713 10:-0.652715 11:0.0297679 12:-0.998803 13:-0.09147 14:-0.99899 15:-0.92867 16:-0.964781 17:-0.946104 18:-0.951346 19:-0.937731 20:-0.942919 21:-0.93698 22:-0.951204 23:-0.935308 24:-0.94556 25:-0.933792 26:-0.950275 27:-0.934101 28:-0.947488 29:-0.935635 30:-0.948563 31:-0.939996 32:-0.973265 33:-0.960479 34:-0.976384 35:-1 36:-0.99948 37:-0.997896 38:-0.997896 39:-0.997886 40:-0.995757 41:-0.995479 42:-0.991246 43:-0.987495 44:-0.980857 45:-0.946588 46:-0.949517 47:-0.943119 48:-0.967494 49:-0.974729 50:-0.97739 51:-0.964951 52:-0.973118 53:-0.953216 54:-0.97555 55:-0.960452 56:-0.994737 57:-0.989717 58:-0.97546 59:-1 60:-0.995289 61:-0.965482 
-0.008427472220682082 1:-0.983656 2:-0.823419 3:-0.994347 4:-0.0737703 5:0.0524195 6:-0.820779 7:-0.22177 8:-0.399866 9:-0.999868 10:-0.652717 11:0.029312 12:-0.999917 13:-0.0914597 14:-0.999906 15:-0.939256 16:-0.989768 17:-0.906544 18:-0.981278 19:-0.890906 20:-0.974121 21:-0.875801 22:-0.972769 23:-0.877722 24:-0.97546 25:-0.876226 26:-0.976628 27:-0.876228 28:-0.976098 29:-0.860272 30:-0.965596 31:-0.873146 32:-0.977062 33:-0.89163 34:-0.98416 35:-0.999025 36:-0.99922 37:-0.998364 38:-0.999579 39:-0.999295 40:-0.998232 41:-0.998192 42:-0.995331 43:-0.992497 44:-0.989061 45:-0.988131 46:-0.979213 47:-0.976147 48:-0.976048 49:-0.983755 50:-0.967112 51:-0.967141 52:-0.975806 53:-0.964912 54:-0.97555 55:-0.977401 56:-0.978947 57:-0.979434 58:-0.95092 59:-0.918367 60:-0.980313 61:-0.916017 
-0.1464743167043157 1:-0.982618 2:-0.79186 3:-0.925942 4:-0.140074 5:-0.146403 6:-0.877772 7:0.17692 8:0.197683 9:-0.999863 10:-0.652715 11:0.0292322 12:-0.999667 13:-0.0914561 14:-0.999721 15:-0.982651 16:-0.985753 17:-0.983239 18:-0.981794 19:-0.928777 20:-0.917647 21:-0.970107 22:-0.984082 23:-0.981889 24:-0.995372 25:-0.9909 26:-0.988924 27:-0.976403 28:-0.957471 29:-0.970607 30:-0.944421 31:-0.967167 32:-0.970688 33:-0.945824 34:-0.967084 35:-0.997855 36:-0.990644 37:-0.99439 38:-0.997265 39:-0.996829 40:-0.997879 41:-0.998192 42:-0.998833 43:-0.997499 44:-0.995442 45:-0.995549 46:-0.99703 47:-0.994495 48:-0.993157 49:-0.998195 50:-0.991778 51:-0.993428 52:-0.986559 53:-0.953216 54:-0.94132 55:-0.920904 56:-0.963158 57:-0.953728 58:-1 59:-0.959184 60:-0.970757 61:-0.918261 
-0.08238141937111697 1:-0.982791 2:-0.753009 3:-0.968198 4:0.0372338 5:0.145911 6:-0.819262 7:0.260337 8:0.561715 9:-0.9998 10:-0.652717 11:0.0293652 12:-0.999898 13:-0.0914612 14:-0.999886 15:-0.931921 16:-0.977016 17:-0.924427 18:-0.970038 19:-0.916101 20:-0.961028 21:-0.931574 22:-0.975715 23:-0.974494 24:-0.990025 25:-0.982577 26:-0.99685 27:-0.880653 28:-0.951711 29:-0.862116 30:-0.909264 31:-0.870002 32:-0.955064 33:-0.89842 34:-0.975835 35:-0.999903 36:-0.99948 37:-0.995559 38:-0.99474 39:-0.989429 40:-0.993283 41:-0.994123 42:-0.988328 43:-0.985827 44:-0.992707 45:-0.988131 46:-0.986637 47:-0.985321 48:-0.991446 49:-0.99278 50:-0.987667 51:-1 52:-0.986559 53:-1 54:-1 55:-0.988701 56:-0.994737 57:-1 58:-1 59:-1 60:-0.989354 61:-0.950438 
-0.0542348570666578 1:-0.996973 2:-0.783782 3:-0.929297 4:0.0730893 5:0.0562477 6:-0.829933 7:0.0172913 8:-0.943767 9:-0.999998 10:-0.652717 11:0.0293909 12:-0.999992 13:-0.0914621 14:-0.999993 15:-0.997911 16:-0.98677 17:-0.998876 18:-0.986128 19:-0.99512 20:-0.985385 21:-0.991453 22:-0.990427 23:-0.979032 24:-0.987914 25:-0.983956 26:-0.989128 27:-0.988369 28:-0.991142 29:-0.987274 30:-0.994041 31:-0.993509 32:-0.997986 33:-0.996028 34:-0.998153 35:-1 36:-1 37:-0.999766 38:-1 39:-0.999648 40:-1 41:-0.998192 42:-0.998249 43:-0.998333 44:-0.997265 45:-0.994065 46:-0.998515 47:-0.992661 48:-0.996578 49:-0.99639 50:-0.991778 51:-0.995619 52:-0.994624 53:-0.992203 54:-1 55:-1 56:-1 57:-0.994859 58:-1 59:-1 60:-0.998685 61:-0.979694 
-0.04660548731722652 1:-0.99533 2:-0.636354 3:-0.908493 4:0.126856 5:0.152483 6:-0.71655 7:0.192691 8:-0.40599 9:-0.999989 10:-0.652717 11:0.0293886 12:-0.999988 13:-0.0914615 14:-0.999988 15:-0.967421 16:-0.994666 17:-0.939712 18:-0.983775 19:-0.923855 20:-0.96918 21:-0.941962 22:-0.986437 23:-0.91025 24:-0.9728 25:-0.901716 26:-0.973175 27:-0.947206 28:-0.974561 29:-0.955512 30:-0.972703 31:-0.970704 32:-0.986083 33:-0.941099 34:-0.961223 35:-0.999513 36:-0.99896 37:-0.999532 38:-0.998106 39:-0.997533 40:-0.998586 41:-0.999548 42:-0.997666 43:-0.999166 44:-0.997265 45:-0.997033 46:-0.998515 47:-0.998165 48:-0.996578 49:-0.99639 50:-1 51:-1 52:-1 53:-0.992203 54:-0.99511 55:-0.988701 56:-0.989474 57:-0.994859 58:-1 59:-0.959184 60:-0.991703 61:-0.977035 
-0.01856131102700768 1:-0.992909 2:-0.593654 3:-0.947205 4:-0.186017 5:-0.0806181 6:-0.637985 7:0.225165 8:-0.394181 9:-0.999972 10:-0.652717 11:0.0293784 12:-0.999978 13:-0.0915376 14:-0.999979 15:-1 16:-1 17:-0.993387 18:-0.983989 19:-0.917843 20:-0.952593 21:-0.909147 22:-0.955823 23:-0.923224 24:-0.958621 25:-0.915747 26:-0.960949 27:-0.916116 28:-0.960339 29:-0.921418 30:-0.967083 31:-0.916094 32:-0.967126 33:-0.944783 34:-0.990939 35:-0.999513 36:-0.99896 37:-0.998364 38:-0.998948 39:-0.997181 40:-0.997879 41:-0.996835 42:-0.996498 43:-0.998333 44:-0.995442 45:-0.991098 46:-0.994061 47:-0.994495 48:-0.998289 49:-0.99639 50:-0.997945 51:-1 52:-0.997312 53:-0.996101 54:-0.98044 55:-0.988701 56:-0.984211 57:-0.989717 58:-1 59:-1 60:-0.988436 61:-0.959911 
-2.607083254021607 1:-0.988931 2:-0.798258 3:-0.908271 4:0.0583569 5:-0.150845 6:-0.900247 7:-0.2149 8:0.000115648 9:-0.999914 10:-0.652717 11:0.0293924 12:-0.999961 13:-0.0914616 14:-0.999953 15:-0.959158 16:-0.972231 17:-0.95773 18:-0.941077 19:-0.958649 20:-0.923383 21:-0.952346 22:-0.930722 23:-0.893669 24:-0.912619 25:-0.904171 26:-0.899512 27:-0.946593 28:-0.911564 29:-0.983056 30:-0.989296 31:-1 32:-1 33:-1 34:-1 35:-0.998343 36:-0.997401 37:-0.999766 38:-0.998527 39:-0.998943 40:-1 41:-0.997288 42:-0.998249 43:-0.994998 44:-0.985415 45:-0.968843 46:-0.983667 47:-0.985321 48:-0.998289 49:-0.998195 50:-0.983556 51:-0.997809 52:-1 53:-0.996101 54:-0.99022 55:-0.99435 56:-0.994737 57:-0.984576 58:-0.98773 59:-0.918367 60:-0.987864 61:-0.963146 
-32 1:-0.994466 2:-0.94335 3:-0.998584 4:-0.0397984 5:-0.0068967 6:-0.997938 7:-0.070383 8:0.669715 9:-0.999984 10:-0.652717 11:0.029389 12:-0.999993 13:-0.091462 14:-0.999994 15:-0.946503 16:-0.978669 17:-1 18:-1 19:-0.965808 20:-0.983947 21:-0.972887 22:-0.970842 23:-0.951578 24:-0.9673 25:-0.95635 26:-0.962571 27:-0.967581 28:-0.978136 29:-0.944632 30:-0.961452 31:-0.955979 32:-0.971182 33:-0.955576 34:-0.976626 35:-0.999805 36:-0.99922 37:-0.999299 38:-0.998738 39:-0.998238 40:-0.999293 41:-0.998192 42:-0.996498 43:-0.994164 44:-0.996354 45:-0.994065 46:-0.994061 47:-0.987156 48:-0.994867 49:-0.998195 50:-0.995889 51:-0.997809 52:-0.997312 53:-0.996101 54:-0.99511 55:-1 56:-1 57:-1 58:-1 59:-1 60:-0.992162 61:-0.955601 
-32 1:-0.994033 2:-0.941537 3:-0.999823 4:-0.0408812 5:0.0113498 6:-0.997242 7:-0.0757134 8:0.678821 9:-0.999984 10:-0.652717 11:0.0293904 12:-0.999992 13:-0.0914608 14:-0.999993 15:-0.994809 16:-0.991527 17:-0.975493 18:-0.947757 19:-0.967289 20:-0.974281 21:-0.989878 22:-0.967727 23:-0.969515 24:-0.960463 25:-0.966082 26:-0.975854 27:-0.971706 28:-0.952153 29:-0.964666 30:-0.949332 31:-0.972345 32:-0.957061 33:-0.986245 34:-0.97162 35:-0.999903 36:-0.998701 37:-0.999532 38:-0.998948 39:-0.998591 40:-0.998939 41:-0.996835 42:-0.997082 43:-0.995832 44:-0.990884 45:-0.992582 46:-0.995546 47:-0.987156 48:-1 49:-0.99278 50:-0.997945 51:-0.997809 52:-0.997312 53:-0.996101 54:-0.99511 55:-0.99435 56:-1 57:-1 58:-1 59:-1 60:-0.991842 61:-0.956428 
-0.1608049612300482 1:-0.987288 2:-0.597129 3:-0.981121 4:0.0430395 5:-0.0758404 6:-0.649545 7:-0.451542 8:0.550889 9:-0.999894 10:-0.652717 11:0.0293881 12:-0.999956 13:-0.0914616 14:-0.999942 15:-0.913533 16:-0.978907 17:-0.916778 18:-0.974128 19:-0.904001 20:-0.970396 21:-0.906831 22:-0.972315 23:-0.905544 24:-0.972426 25:-0.904104 26:-0.972169 27:-0.904497 28:-0.974576 29:-0.899534 30:-0.978755 31:-0.916852 32:-0.982902 33:-0.942031 34:-0.988916 35:-0.999708 36:-0.995842 37:-0.992987 38:-0.997686 39:-0.996829 40:-0.997879 41:-0.99774 42:-0.998249 43:-0.996665 44:-0.993619 45:-0.991098 46:-0.989607 47:-0.987156 48:-0.98118 49:-0.98917 50:-0.991778 51:-0.984666 52:-0.986559 53:-0.992203 54:-0.99511 55:-1 56:-1 57:-1 58:-1 59:-1 60:-0.991558 61:-0.977014 
-32 1:-0.994033 2:-0.941056 3:-0.997577 4:-0.0399515 5:-0.0157151 6:-0.998978 7:-0.0608738 8:0.713271 9:-0.999986 10:-0.652717 11:0.0293889 12:-0.999991 13:-0.0914616 14:-0.999993 15:-0.942763 16:-0.96305 17:-0.962255 18:-0.975917 19:-0.952624 20:-0.96874 21:-0.984627 22:-0.981464 23:-0.946561 24:-0.970675 25:-0.960407 26:-0.968948 27:-0.943542 28:-0.963588 29:-0.958911 30:-0.964087 31:-0.949883 32:-0.970489 33:-0.944472 34:-0.972561 35:-1 36:-1 37:-0.999532 38:-0.999158 39:-0.998591 40:-0.997525 41:-0.998192 42:-0.997666 43:-0.992497 44:-0.993619 45:-0.992582 46:-0.99703 47:-0.99633 48:-0.988024 49:-0.98917 50:-1 51:-0.997809 52:-1 53:-0.984405 54:-0.99022 55:-0.99435 56:-1 57:-0.994859 58:-1 59:-1 60:-0.991617 61:-0.95366 
-32 1:-0.992909 2:-0.767106 3:-0.866399 4:0.0599954 5:-0.238769 6:-0.929365 7:-0.224602 8:0.57011 9:-0.999975 10:-0.652717 11:0.0293834 12:-0.99998 13:-0.0914619 14:-0.999979 15:-0.976694 16:-0.988646 17:-0.960945 18:-0.978916 19:-0.932388 20:-0.971902 21:-0.925239 22:-0.970838 23:-0.925766 24:-0.970873 25:-0.933188 26:-0.975872 27:-0.938273 28:-0.976953 29:-0.927921 30:-0.965045 31:-0.93801 32:-0.970239 33:-0.921686 34:-0.973191 35:-0.999903 36:-0.99896 37:-0.999532 38:-0.998738 39:-0.998591 40:-0.998232 41:-0.998644 42:-0.997666 43:-0.996665 44:-0.998177 45:-0.986647 46:-0.994061 47:-0.990826 48:-0.996578 49:-0.990975 50:-0.991778 51:-0.991238 52:-0.989247 53:-0.984405 54:-0.98533 55:-0.988701 56:-0.989474 57:-0.994859 58:-0.98773 59:-1 60:-0.99164 61:-0.959647 
-0.07732513716442156 1:-0.996714 2:-0.87159 3:-0.914214 4:0.0367924 5:-0.090733 6:-0.934458 7:-0.134241 8:-0.549166 9:-0.999999 10:-0.652717 11:0.0293888 12:-0.999986 13:-0.0914649 14:-0.999988 15:-0.995791 16:-0.981246 17:-1 18:-1 19:-0.984716 20:-0.939141 21:-0.99663 22:-0.984266 23:-0.972623 24:-0.929 25:-0.991413 26:-0.964761 27:-0.981598 28:-0.932364 29:-0.964233 30:-0.914536 31:-0.956781 32:-0.946195 33:-0.965462 34:-0.925481 35:-0.999903 36:-0.99948 37:-0.999532 38:-0.999158 39:-0.999295 40:-0.999646 41:-0.998192 42:-0.999416 43:-0.997499 44:-0.996354 45:-0.995549 46:-0.995546 47:-0.998165 48:-0.994867 49:-0.99639 50:-1 51:-1 52:-0.994624 53:-0.992203 54:-0.99511 55:-1 56:-1 57:-1 58:-1 59:-1 60:-0.998748 61:-0.994268 
-21.20415190607736 1:-0.994898 2:-0.793637 3:-0.892445 4:0.0430341 5:-0.212831 6:-0.939159 7:-0.211621 8:0.578512 9:-0.999983 10:-0.652717 11:0.0293894 12:-0.999992 13:-0.091457 14:-0.99999 15:-0.947264 16:-0.979614 17:-0.958977 18:-0.98391 19:-0.948699 20:-0.976673 21:-0.946969 22:-0.976539 23:-0.944606 24:-0.976413 25:-0.94791 26:-0.975606 27:-0.957126 28:-0.981334 29:-0.95457 30:-0.973594 31:-0.994661 32:-0.998121 33:-0.994833 34:-0.99371 35:-1 36:-1 37:-0.999532 38:-0.999579 39:-0.997533 40:-0.998232 41:-0.998644 42:-0.998833 43:-0.997499 44:-0.998177 45:-0.997033 46:-0.99703 47:-0.992661 48:-0.996578 49:-0.99639 50:-0.997945 51:-0.991238 52:-0.997312 53:-0.992203 54:-0.96577 55:-0.983051 56:-0.994737 57:-0.984576 58:-0.98773 59:-0.959184 60:-0.992047 61:-0.962957 
-0.02324322520572913 1:-0.981494 2:-0.777965 3:-0.999143 4:-0.0523594 5:0.03731 6:-0.815865 7:-0.334676 8:0.521186 9:-0.999803 10:-0.652717 11:0.029345 12:-0.999925 13:-0.0914613 14:-0.999898 15:-0.896954 16:-0.960949 17:-0.90249 18:-0.965534 19:-0.898576 20:-0.970236 21:-0.890592 22:-0.97313 23:-0.889823 24:-0.973575 25:-0.887035 26:-0.970946 27:-0.892314 28:-0.965296 29:-0.899326 30:-0.97096 31:-0.916405 32:-0.983549 33:-0.923433 34:-0.982962 35:-0.998635 36:-0.984667 37:-0.991819 38:-0.997054 39:-0.999295 40:-0.997879 41:-0.996835 42:-0.996498 43:-0.994998 44:-0.993619 45:-0.994065 46:-0.989607 47:-0.968807 48:-0.984602 49:-0.978339 50:-0.989723 51:-0.991238 52:-1 53:-0.996101 54:-0.99511 55:-1 56:-0.994737 57:-1 58:-1 59:-1 60:-0.99014 61:-0.978202 
-4.620853207734486 1:-0.993255 2:-0.924959 3:-0.964303 4:-0.0885871 5:0.0971062 6:-0.942963 7:-0.134032 8:-0.483818 9:-0.999986 10:-0.652717 11:0.0293891 12:-0.999972 13:-0.0914622 14:-0.999974 15:-1 16:-1 17:-0.946352 18:-0.982303 19:-0.942485 20:-0.980133 21:-0.95891 22:-0.987092 23:-0.895584 24:-0.96514 25:-0.946408 26:-0.950969 27:-0.899223 28:-0.947442 29:-0.904184 30:-0.934302 31:-0.994145 32:-0.992621 33:-1 34:-1 35:-0.999903 36:-0.99974 37:-0.999766 38:-1 39:-0.999648 40:-0.999646 41:-1 42:-0.997082 43:-0.999166 44:-0.996354 45:-0.995549 46:-0.994061 47:-0.990826 48:-0.996578 49:-0.99278 50:-0.979445 51:-0.984666 52:-0.986559 53:-0.988304 54:-0.97066 55:-0.977401 56:-0.968421 57:-0.974293 58:-0.97546 59:-1 60:-0.994542 61:-0.968973 
-9.838140750879749 1:-0.980889 2:-0.883244 3:-0.959023 4:-0.0958324 5:0.149134 6:-0.933262 7:-0.200992 8:0.275735 9:-0.999632 10:-0.652719 11:0.0294126 12:-0.999851 13:-0.0914554 14:-0.999838 15:-0.957611 16:-0.963049 17:-0.979192 18:-0.982259 19:-1 20:-1 21:-1 22:-1 23:-1 24:-1 25:-0.932879 26:-0.88969 27:-0.938344 28:-0.883062 29:-0.981864 30:-0.962143 31:-0.966179 32:-0.980824 33:-0.973782 34:-0.986676 35:-0.99961 36:-1 37:-0.999299 38:-0.999369 39:-0.999648 40:-0.999293 41:-0.996383 42:-0.994164 43:-0.985827 44:-0.989061 45:-0.986647 46:-0.977728 47:-0.977982 48:-0.97947 49:-0.972924 50:-0.965057 51:-0.96057 52:-0.922043 53:-0.94152 54:-0.98044 55:-0.960452 56:-0.973684 57:-0.989717 58:-0.96319 59:-0.959184 60:-0.991052 61:-0.948713 
-0.4336651099271804 1:-1 2:-0.102426 3:-0.312525 4:-0.395884 5:0.646091 6:-0.833303 7:-0.343051 8:0.774099 9:-1 10:-0.652717 11:0.029389 12:-1 13:-0.0914616 14:-1 15:-1 16:-1 17:-1 18:-1 19:-1 20:-1 21:-1 22:-1 23:-1 24:-1 25:-1 26:-1 27:-1 28:-1 29:-1 30:-1 31:-1 32:-1 33:-1 34:-1 35:-1 36:-1 37:-1 38:-0.999579 39:-1 40:-1 41:-1 42:-1 43:-1 44:-1 45:-1 46:-1 47:-1 48:-1 49:-0.998195 50:-1 51:-1 52:-1 53:-1 54:-1 55:-1 56:-1 57:-1 58:-1 59:-1 60:-0.99547 61:-0.976395 
-32 1:-0.992736 2:-0.939484 3:-0.997995 4:-0.0368945 5:0.0521255 6:-0.989673 7:0.0341944 8:0.602565 9:-0.999966 10:-0.652703 11:0.0293872 12:-0.999989 13:-0.0914775 14:-0.999985 15:-0.941429 16:-0.961839 17:-0.958586 18:-0.97941 19:-0.955384 20:-0.977922 21:-0.949522 22:-0.981111 23:-0.946698 24:-0.980185 25:-0.953695 26:-0.967991 27:-0.959354 28:-0.96842 29:-0.951227 30:-0.970532 31:-0.957433 32:-0.987073 33:-0.994963 34:-0.999575 35:-0.99961 36:-0.997661 37:-0.999299 38:-0.998948 39:-0.998943 40:-0.997172 41:-0.998192 42:-0.998833 43:-0.996665 44:-0.995442 45:-0.997033 46:-0.995546 47:-0.992661 48:-0.994867 49:-0.99278 50:-1 51:-0.991238 52:-0.989247 53:-0.984405 54:-1 55:-0.983051 56:-0.989474 57:-1 58:-0.97546 59:-0.795918 60:-0.99442 61:-0.982375 
-7.62801939223135 1:-0.967572 2:-0.985282 3:-0.996483 4:-0.04652 5:0.0483708 6:-0.990524 7:-0.0918339 8:0.00185882 9:-0.99968 10:-0.652715 11:0.0298403 12:-0.999548 13:-0.0911002 14:-0.999587 15:-0.87894 16:-0.980341 17:-0.895865 18:-0.970671 19:-0.898259 20:-0.938634 21:-0.905618 22:-0.957489 23:-0.941552 24:-0.977588 25:-0.949052 26:-0.980282 27:-0.953971 28:-0.983761 29:-0.934497 30:-0.940433 31:-0.952159 32:-0.96476 33:-0.969351 34:-0.980411 35:-0.997075 36:-0.996102 37:-0.99439 38:-0.995161 39:-0.991896 40:-0.994697 41:-0.996383 42:-0.989495 43:-0.994164 44:-0.979945 45:-0.967359 46:-0.96882 47:-0.963303 48:-0.96065 49:-0.960289 50:-0.954779 51:-0.96276 52:-0.973118 53:-0.961014 54:-0.96088 55:-0.971751 56:-0.989474 57:-0.979434 58:-0.91411 59:-1 60:-0.98769 61:-0.949616 
-1.545407901487541 1:-0.995936 2:0.0057448 3:-0.228215 4:-0.45416 5:0.654762 6:-0.798456 7:-0.358883 8:0.625004 9:-0.999966 10:-0.652717 11:0.0293887 12:-0.999989 13:-0.0914617 14:-0.999985 15:-0.958863 16:-0.911386 17:-0.965788 18:-0.924372 19:-0.973553 20:-0.944602 21:-0.978723 22:-0.96865 23:-0.991852 24:-0.983879 25:-1 26:-1 27:-0.975746 28:-0.954076 29:-0.936815 30:-0.951095 31:-0.992032 32:-0.982885 33:-0.976845 34:-0.99399 35:-1 36:-0.99974 37:-1 38:-0.999579 39:-1 40:-0.999293 41:-0.999096 42:-1 43:-0.996665 44:-0.999088 45:-0.992582 46:-0.99703 47:-0.987156 48:-0.991446 49:-0.998195 50:-0.995889 51:-0.995619 52:-1 53:-0.984405 54:-0.99022 55:-0.988701 56:-0.989474 57:-1 58:-0.98773 59:-0.877551 60:-0.994703 61:-0.971226 
-3.49510027057058 1:-0.997492 2:-0.758445 3:-0.899588 4:-0.139888 5:0.256915 6:-0.912094 7:-0.25695 8:0.734832 9:-0.999997 10:-0.652717 11:0.0293883 12:-0.999998 13:-0.0914615 14:-0.999998 15:-0.989387 16:-0.964806 17:-0.976258 18:-0.978082 19:-0.971368 20:-0.972539 21:-0.974273 22:-0.980904 23:-0.965142 24:-0.981189 25:-0.969938 26:-0.976457 27:-0.984622 28:-0.995167 29:-0.992264 30:-0.996459 31:-1 32:-1 33:-1 34:-1 35:-0.999708 36:-1 37:-0.999299 38:-1 39:-1 40:-0.999646 41:-1 42:-0.999416 43:-0.998333 44:-1 45:-0.995549 46:-0.998515 47:-0.99633 48:-0.996578 49:-1 50:-0.997945 51:-0.991238 52:-1 53:-1 54:-0.99022 55:-0.983051 56:-1 57:-0.984576 58:-1 59:-0.959184 60:-0.9923 61:-0.961897 
-32 1:-0.995763 2:-0.927642 3:-0.933485 4:0.00131916 5:0.0916819 6:-0.974667 7:0.00585366 8:-0.762252 9:-0.999992 10:-0.652717 11:0.0293857 12:-0.999988 13:-0.0914619 14:-0.999989 15:-0.967684 16:-0.981617 17:-0.979043 18:-0.968803 19:-0.96856 20:-0.991362 21:-0.933209 22:-0.980996 23:-0.921384 24:-0.978797 25:-0.949002 26:-0.989145 27:-0.948093 28:-0.990668 29:-0.980382 30:-0.998283 31:-0.968267 32:-0.994466 33:-0.992777 34:-0.995134 35:-0.99844 36:-1 37:-0.999299 38:-0.99979 39:-0.998943 40:-0.998586 41:-0.999096 42:-0.998249 43:-0.999166 44:-1 45:-0.998516 46:-0.995546 47:-0.99633 48:-0.998289 49:-0.994585 50:-1 51:-0.995619 52:-0.994624 53:-0.992203 54:-1 55:-0.988701 56:-1 57:-1 58:-0.98773 59:-1 60:-0.988782 61:-0.976559 
-4.796436580253972 1:-0.974144 2:-0.896403 3:-0.875979 4:-0.00148637 5:0.153915 6:-0.98785 7:0.00328262 8:-0.54895 9:-0.999569 10:-0.652717 11:0.0293315 12:-0.999798 13:-0.0914494 14:-0.999795 15:-0.984855 16:-0.985323 17:-0.988335 18:-0.984264 19:-0.952552 20:-0.971512 21:-0.956119 22:-0.963026 23:-0.946741 24:-0.964573 25:-0.924949 26:-0.943972 27:-0.862671 28:-0.894683 29:-0.924457 30:-0.897145 31:-0.984783 32:-0.982668 33:-0.986044 34:-0.981381 35:-0.994053 36:-0.981549 37:-0.989014 38:-0.993478 39:-0.992248 40:-0.994697 41:-0.995479 42:-0.992413 43:-0.99083 44:-0.995442 45:-0.995549 46:-0.992576 47:-0.99633 48:-0.998289 49:-0.998195 50:-0.993834 51:-1 52:-1 53:-1 54:-0.99511 55:-1 56:-1 57:-1 58:-1 59:-1 60:-0.99634 61:-0.992919 
-6.098811683222234 1:-0.991093 2:-0.608756 3:-0.609825 4:-0.0300827 5:-0.393249 6:-0.999617 7:-0.0492478 8:0.368781 9:-0.999961 10:-0.652717 11:0.0293797 12:-0.99996 13:-0.0914613 14:-0.999963 15:-0.999295 16:-0.995605 17:-0.999232 18:-0.995526 19:-0.988356 20:-0.975226 21:-0.990311 22:-0.97798 23:-0.98593 24:-0.930133 25:-0.965139 26:-0.905834 27:-0.960209 28:-0.900223 29:-0.916754 30:-0.90277 31:-0.91592 32:-0.92301 33:-0.953155 34:-0.956685 35:-0.999805 36:-0.99948 37:-0.999065 38:-0.998106 39:-0.997181 40:-0.996465 41:-0.998192 42:-0.992997 43:-0.989162 44:-0.995442 45:-0.991098 46:-0.986637 47:-0.990826 48:-0.994867 49:-0.99639 50:-0.995889 51:-1 52:-0.997312 53:-0.988304 54:-0.99022 55:-0.99435 56:-0.989474 57:-0.994859 58:-1 59:-1 60:-0.996229 61:-0.984556 
-29.54229693123124 1:-0.993947 2:-0.854427 3:-0.864493 4:0.0338227 5:0.00819394 6:-0.961478 7:-0.0442346 8:-0.996753 9:-0.999996 10:-0.652718 11:0.0294087 12:-0.999936 13:-0.09146 14:-0.999948 15:-0.996305 16:-0.996436 17:-0.985092 18:-0.990609 19:-0.976848 20:-0.988531 21:-0.984757 22:-0.994568 23:-0.986848 24:-0.99283 25:-0.983993 26:-0.992039 27:-0.989465 28:-0.993903 29:-0.992945 30:-0.996471 31:-0.987365 32:-0.995796 33:-0.992019 34:-0.995186 35:-0.999708 36:-0.99896 37:-0.999532 38:-0.999579 39:-0.999648 40:-0.999646 41:-0.999548 42:-0.999416 43:-0.999166 44:-0.998177 45:-0.997033 46:-1 47:-1 48:-0.994867 49:-0.99639 50:-0.997945 51:-0.986857 52:-0.973118 53:-0.968811 54:-0.97066 55:-0.988701 56:-0.989474 57:-0.989717 58:-0.91411 59:-0.836735 60:-0.98241 61:-0.92648 
-0.9959447003703036 1:-0.99412 2:-0.890212 3:-0.878653 4:-0.00358648 5:0.135327 6:-0.989005 7:-0.00362077 8:-0.660965 9:-0.999964 10:-0.652736 11:0.0293869 12:-0.999981 13:-0.091342 14:-0.999977 15:-0.998149 16:-0.998608 17:-0.992477 18:-0.986514 19:-0.991171 20:-0.986886 21:-0.92718 22:-0.95079 23:-0.940977 24:-0.969581 25:-0.982946 26:-0.983842 27:-0.990521 28:-0.985822 29:-0.994346 30:-0.985438 31:-0.980987 32:-0.984537 33:-0.991004 34:-0.985161 35:-0.999415 36:-0.998441 37:-0.998597 38:-0.998527 39:-0.998943 40:-1 41:-0.997288 42:-0.995915 43:-0.998333 44:-0.998177 45:-0.995549 46:-1 47:-0.992661 48:-0.996578 49:-0.99278 50:-0.997945 51:-0.993428 52:-1 53:-0.992203 54:-0.98533 55:-1 56:-0.989474 57:-0.994859 58:-0.98773 59:-1 60:-0.99791 61:-0.99398 
-15.88451580562741 1:-0.992304 2:-0.873953 3:-0.95794 4:-0.00156206 5:0.168489 6:-0.964938 7:0.0966297 8:0.635601 9:-0.999975 10:-0.652717 11:0.0293867 12:-0.999963 13:-0.0914611 14:-0.999966 15:-0.867957 16:-0.97468 17:-0.887312 18:-0.966167 19:-0.912614 20:-0.978393 21:-0.924918 22:-0.977622 23:-0.932002 24:-0.980767 25:-0.944066 26:-0.979678 27:-0.944826 28:-0.980661 29:-0.957247 30:-0.977966 31:-0.955977 32:-0.97671 33:-0.96594 34:-0.97882 35:-1 36:-0.99948 37:-0.998831 38:-0.998317 39:-0.997886 40:-0.997879 41:-0.999548 42:-1 43:-0.998333 44:-0.994531 45:-0.997033 46:-0.994061 47:-0.988991 48:-0.986313 49:-0.983755 50:-0.981501 51:-0.984666 52:-0.983871 53:-0.996101 54:-0.98533 55:-1 56:-1 57:-0.994859 58:-1 59:-1 60:-0.992621 61:-0.963489 
-0.01802655784294657 1:-0.997233 2:-0.899603 3:-0.975292 4:0.00548362 5:0.0806411 6:-0.918097 7:0.0708848 8:-0.543175 9:-0.999996 10:-0.652717 11:0.0293883 12:-0.999996 13:-0.0914615 14:-0.999997 15:-0.990884 16:-0.993321 17:-0.968053 18:-0.985496 19:-0.953802 20:-0.971037 21:-0.959584 22:-0.975767 23:-1 24:-1 25:-0.98468 26:-0.995835 27:-1 28:-1 29:-0.993304 30:-0.998133 31:-1 32:-1 33:-1 34:-1 35:-0.999025 36:-0.99948 37:-0.999766 38:-0.99979 39:-1 40:-1 41:-0.999548 42:-0.998833 43:-0.999166 44:-0.999088 45:-0.997033 46:-0.998515 47:-0.998165 48:-1 49:-0.99639 50:-0.997945 51:-0.997809 52:-0.994624 53:-1 54:-0.99022 55:-0.988701 56:-0.994737 57:-0.994859 58:-1 59:-1 60:-0.979016 61:-0.951558 
-24.86641692579496 1:-0.985818 2:-0.873711 3:-0.98379 4:-0.0022004 5:0.101008 6:-0.90931 7:0.154554 8:0.293886 9:-0.999951 10:-0.652717 11:0.0298365 12:-0.999888 13:-0.0912665 14:-0.9999 15:-0.945826 16:-0.982538 17:-0.958543 18:-0.980517 19:-0.950597 20:-0.985251 21:-0.945286 22:-0.988287 23:-0.943876 24:-0.98949 25:-0.951091 26:-0.989346 27:-0.954566 28:-0.988243 29:-0.951598 30:-0.987648 31:-0.955961 32:-0.988533 33:-0.960196 34:-0.990384 35:-0.999123 36:-0.998701 37:-0.999766 38:-0.999158 39:-0.999648 40:-0.999293 41:-0.999096 42:-0.998833 43:-0.996665 44:-1 45:-0.997033 46:-0.998515 47:-0.990826 48:-0.994867 49:-0.987365 50:-0.969168 51:-0.951807 52:-0.905914 53:-0.957115 54:-0.9511 55:-0.932203 56:-0.968421 57:-0.969152 58:-0.98773 59:-0.959184 60:-0.982259 61:-0.911868 
-1.378595563211419 1:-0.999654 2:-0.0891045 3:-0.112349 4:0.0195723 5:0.720069 6:-0.99615 7:0.00792009 8:0.718233 9:-1 10:-0.652717 11:0.0293889 12:-1 13:-0.0914629 14:-1 15:-0.999048 16:-0.993671 17:-1 18:-1 19:-1 20:-1 21:-1 22:-1 23:-1 24:-1 25:-1 26:-1 27:-1 28:-1 29:-1 30:-1 31:-0.987366 32:-0.989372 33:-0.961797 34:-0.997032 35:-0.999903 36:-1 37:-1 38:-1 39:-1 40:-1 41:-1 42:-0.999416 43:-1 44:-1 45:-0.998516 46:-0.998515 47:-1 48:-1 49:-1 50:-1 51:-1 52:-0.997312 53:-0.996101 54:-1 55:-1 56:-1 57:-0.994859 58:-1 59:-1 60:-0.99683 61:-0.980407 
-16.95659459756046 1:-0.990142 2:-0.898747 3:-0.992821 4:-0.0143972 5:0.053095 6:-0.898824 7:0.0881236 8:-0.503214 9:-0.999963 10:-0.652717 11:0.0293974 12:-0.99993 13:-0.0914704 14:-0.999938 15:-0.946683 16:-0.982898 17:-0.930366 18:-0.972267 19:-0.939648 20:-0.977153 21:-0.947954 22:-0.980421 23:-1 24:-1 25:-0.923857 26:-0.975679 27:-0.940755 28:-0.985583 29:-0.963532 30:-0.974094 31:-0.977287 32:-0.987693 33:-0.9856 34:-0.994654 35:-0.997953 36:-0.998181 37:-0.999299 38:-1 39:-0.998591 40:-0.999293 41:-0.998644 42:-0.997082 43:-1 44:-0.999088 45:-0.995549 46:-0.992576 47:-0.998165 48:-0.996578 49:-0.98917 50:-0.987667 51:-0.984666 52:-0.986559 53:-0.968811 54:-0.98533 55:-0.988701 56:-0.963158 57:-0.96401 58:-0.92638 59:-0.877551 60:-0.974158 61:-0.926322 
-0.1720243080883676 1:-0.98651 2:-0.734056 3:-0.800926 4:0.0750364 5:-0.274407 6:-0.937159 7:-0.202023 8:0.367971 9:-0.999856 10:-0.652717 11:0.0293484 12:-0.999845 13:-0.0914634 14:-0.99985 15:-0.998932 16:-0.998473 17:-0.998808 18:-0.992168 19:-0.992917 20:-0.981678 21:-0.989766 22:-0.977357 23:-0.99071 24:-0.996209 25:-0.957259 26:-0.940667 27:-0.963053 28:-0.934831 29:-0.937644 30:-0.934952 31:-0.780369 32:-0.904339 33:-0.846404 34:-0.937104 35:-0.99922 36:-0.996362 37:-0.994156 38:-0.996634 39:-0.995067 40:-0.991161 41:-0.990506 42:-0.989495 43:-0.996665 44:-0.995442 45:-0.997033 46:-0.995546 47:-1 48:-1 49:-1 50:-1 51:-1 52:-0.997312 53:-0.996101 54:-0.99511 55:-1 56:-1 57:-0.994859 58:-1 59:-1 60:-0.997175 61:-0.991996 
-2.463494784595533 1:-0.980197 2:-0.486419 3:-0.562472 4:0.130289 5:-0.44011 6:-0.938112 7:-0.209291 8:0.51468 9:-0.999785 10:-0.652717 11:0.0293104 12:-0.999827 13:-0.0914513 14:-0.999839 15:-0.957426 16:-0.884824 17:-0.964022 18:-0.861359 19:-0.959044 20:-0.848477 21:-0.95631 22:-0.925289 23:-0.962766 24:-0.933117 25:-0.973632 26:-0.913365 27:-0.917552 28:-0.871141 29:-0.920288 30:-0.872205 31:-0.939388 32:-0.913808 33:-0.953781 34:-0.92518 35:-0.999708 36:-0.99948 37:-0.998831 38:-0.997054 39:-0.995419 40:-0.997172 41:-0.996835 42:-0.996498 43:-0.99083 44:-0.995442 45:-0.986647 46:-0.992576 47:-0.974312 48:-0.98118 49:-0.987365 50:-0.954779 51:-0.953998 52:-0.956989 53:-0.964912 54:-0.94621 55:-0.932203 56:-0.952632 57:-0.984576 58:-0.91411 59:-0.918367 60:-0.992449 61:-0.9613 
-15.20736842017722 1:-0.984002 2:-0.841342 3:-0.991984 4:-0.0105502 5:-0.0421815 6:-0.883401 7:-0.282076 8:0.626724 9:-0.999905 10:-0.652718 11:0.0293502 12:-0.999885 13:-0.0914658 14:-0.999907 15:-0.950804 16:-0.962409 17:-0.928939 18:-0.908175 19:-0.970006 20:-0.91546 21:-0.974987 22:-0.933495 23:-0.948231 24:-0.9218 25:-0.929973 26:-0.897124 27:-0.942326 28:-0.896762 29:-0.947844 30:-0.890164 31:-0.95094 32:-0.956037 33:-0.977667 34:-0.995252 35:-0.998928 36:-0.989345 37:-0.994624 38:-0.996634 39:-0.996829 40:-0.997172 41:-0.996383 42:-0.995331 43:-0.989996 44:-0.991796 45:-0.980712 46:-0.989607 47:-0.990826 48:-0.98118 49:-0.994585 50:-0.995889 51:-0.997809 52:-0.997312 53:-1 54:-1 55:-1 56:-1 57:-1 58:-1 59:-1 60:-0.994563 61:-0.984699 
-10.74536092316134 1:-0.994293 2:-0.761351 3:-0.921179 4:0.0800431 5:-0.119695 6:-0.827465 7:-0.243855 8:-0.217345 9:-0.999942 10:-0.652717 11:0.0293821 12:-0.999958 13:-0.0914033 14:-0.999958 15:-0.989121 16:-0.997288 17:-0.994188 18:-0.998359 19:-1 20:-1 21:-0.991449 22:-0.995726 23:-1 24:-1 25:-0.992974 26:-0.997685 27:-0.990253 28:-0.992632 29:-0.932247 30:-0.937641 31:-0.894216 32:-0.914841 33:-0.909507 34:-0.919853 35:-0.999903 36:-1 37:-0.998597 38:-0.998948 39:-0.996124 40:-0.998232 41:-0.995027 42:-0.999416 43:-0.995832 44:-0.997265 45:-0.997033 46:-0.998515 47:-1 48:-0.998289 49:-1 50:-0.991778 51:-0.991238 52:-0.997312 53:-1 54:-0.99511 55:-0.988701 56:-0.984211 57:-1 58:-1 59:-0.918367 60:-0.990295 61:-0.95858 
-1.750303497886626 1:-0.994293 2:-0.781216 3:-0.910695 4:0.0739451 5:-0.128362 6:-0.86265 7:-0.22109 8:-0.22168 9:-0.999938 10:-0.652717 11:0.0293773 12:-0.999958 13:-0.0914621 14:-0.999956 15:-0.986734 16:-0.991906 17:-0.997958 18:-0.99841 19:-0.99071 20:-0.993827 21:-1 22:-1 23:-1 24:-1 25:-1 26:-1 27:-0.991049 28:-0.995992 29:-0.925729 30:-0.945168 31:-0.896478 32:-0.931045 33:-0.909557 34:-0.915037 35:-0.999903 36:-0.99974 37:-0.997896 38:-0.999579 39:-0.997181 40:-0.998232 41:-0.994575 42:-0.998249 43:-0.995832 44:-0.999088 45:-0.995549 46:-1 47:-0.998165 48:-0.998289 49:-0.998195 50:-0.995889 51:-0.993428 52:-0.991935 53:-1 54:-0.98533 55:-0.983051 56:-0.994737 57:-1 58:-0.98773 59:-1 60:-0.992409 61:-0.97132 
-6.518249181812913 1:-0.996022 2:-0.831056 3:-0.892377 4:-0.0175483 5:0.277404 6:-0.995097 7:0.0166642 8:0.91421 9:-0.999997 10:-0.652718 11:0.0293892 12:-0.999988 13:-0.0914616 14:-0.99999 15:-1 16:-1 17:-1 18:-1 19:-0.972977 20:-0.938279 21:-0.978727 22:-0.933545 23:-0.973353 24:-0.948417 25:-0.970288 26:-0.953658 27:-0.988842 28:-0.923933 29:-0.996172 30:-0.988348 31:-0.979716 32:-0.970567 33:-0.989375 34:-0.975869 35:-0.999805 36:-1 37:-1 38:-1 39:-0.999295 40:-0.998586 41:-0.998644 42:-0.997082 43:-0.997499 44:-0.998177 45:-0.992582 46:-1 47:-0.998165 48:-1 49:-0.998195 50:-0.995889 51:-0.995619 52:-0.997312 53:-0.992203 54:-0.99511 55:-0.977401 56:-0.968421 57:-0.984576 58:-1 59:-1 60:-0.995561 61:-0.982348 
-0.02089553088687017 1:-0.998011 2:-0.541689 3:-0.595293 4:0.00345391 5:0.528656 6:-0.995388 7:0.0158615 8:0.989961 9:-0.999996 10:-0.652717 11:0.0294078 12:-0.99999 13:-0.0914488 14:-0.999991 15:-1 16:-1 17:-1 18:-1 19:-1 20:-1 21:-0.973108 22:-0.951142 23:-0.990291 24:-0.976903 25:-0.965607 26:-0.933496 27:-0.985138 28:-0.974463 29:-0.969975 30:-0.9469 31:-0.920894 32:-0.943704 33:-0.912405 34:-0.878211 35:-1 36:-1 37:-0.999532 38:-0.99979 39:-1 40:-0.999646 41:-1 42:-1 43:-0.998333 44:-0.998177 45:-0.995549 46:-0.995546 47:-0.994495 48:-1 49:-0.99639 50:-0.997945 51:-1 52:-0.997312 53:-1 54:-0.99511 55:-0.99435 56:-0.989474 57:-0.994859 58:-1 59:-1 60:-0.989298 61:-0.914492 
-1.386914034987997 1:-0.997665 2:-0.556423 3:-0.607107 4:0.00211042 5:0.520952 6:-0.995505 7:0.0150171 8:0.988257 9:-0.999992 10:-0.652717 11:0.0294508 12:-0.999988 13:-0.0914307 14:-0.999989 15:-0.987162 16:-0.969479 17:-1 18:-1 19:-1 20:-1 21:-0.983281 22:-0.971621 23:-1 24:-1 25:-1 26:-1 27:-0.986995 28:-0.952412 29:-0.974275 30:-0.960814 31:-0.932631 32:-0.901167 33:-0.892863 34:-0.929098 35:-0.999903 36:-0.99948 37:-1 38:-0.999579 39:-0.999648 40:-0.998939 41:-1 42:-1 43:-0.999166 44:-0.997265 45:-0.998516 46:-0.998515 47:-0.998165 48:-0.998289 49:-1 50:-0.997945 51:-0.993428 52:-0.994624 53:-0.988304 54:-0.99511 55:-1 56:-0.994737 57:-0.994859 58:-0.98773 59:-1 60:-0.986174 61:-0.906816 
