svm_type c_svc
kernel_type rbf
gamma 8
nr_class 2
total_sv 1690
rho 0.995056
label 1 -1
nr_sv 127 1563
SV
6.491742816568221 1:-0.942758 2:-0.965592 3:-0.947897 4:0.185192 5:0.441268 6:-0.990557 7:0.276254 8:-0.721578 9:-0.999434 10:-0.44015 11:0.573787 12:-0.998306 13:-0.180065 14:-0.998465 15:-0.920762 16:-0.958881 17:-0.968984 18:-0.960763 19:-0.970298 20:-0.979142 21:-0.961499 22:-0.979575 23:-0.936052 24:-0.920056 25:-0.951151 26:-0.895242 27:-0.953571 28:-0.910165 29:-0.960112 30:-0.931797 31:-0.954349 32:-0.932562 33:-0.96057 34:-0.954003 35:-0.984237 36:-0.983129 37:-0.975454 38:-0.940788 39:-0.95182 40:-0.990301 41:-0.990491 42:-0.99268 43:-0.98526 44:-0.981925 45:-0.991903 46:-0.994337 47:-0.995163 48:-0.994809 49:-0.991707 50:-0.998566 51:-0.996503 52:-0.997608 53:-0.99778 54:-0.99485 55:-0.991489 56:-0.997593 57:-0.97549 58:-0.974249 59:-0.943662 60:-0.97039 61:-0.876636 
1.501879168273149 1:-0.987845 2:-0.662942 3:-0.532869 4:0.220629 5:0.493773 6:-0.99312 7:0.258067 8:-0.919811 9:-0.999978 10:-0.44013 11:0.58758 12:-0.999908 13:-0.180105 14:-0.999917 15:-0.984878 16:-0.9718 17:-0.972676 18:-0.965897 19:-0.97695 20:-0.970177 21:-0.981288 22:-0.965457 23:-0.981538 24:-0.967478 25:-0.972835 26:-0.967449 27:-0.960241 28:-0.975934 29:-0.965621 30:-0.965566 31:-0.981715 32:-0.987059 33:-0.981168 34:-0.990907 35:-0.999922 36:-0.998166 37:-0.99561 38:-0.994343 39:-0.994239 40:-0.996321 41:-0.99185 42:-0.994932 43:-0.994473 44:-0.985114 45:-0.987276 46:-0.98641 47:-0.991536 48:-0.993511 49:-0.988943 50:-0.997133 51:-0.994172 52:-0.998804 53:-0.99889 54:-0.99485 55:-0.997872 56:-0.997593 57:-1 58:-0.991416 59:-1 60:-0.986341 61:-0.879856 
0.2605877389824571 1:-0.988693 2:-0.653051 3:-0.502945 4:0.224417 5:0.614341 6:-0.992625 7:0.272371 8:-0.724553 9:-0.999972 10:-0.440169 11:0.587594 12:-0.999837 13:-0.180112 14:-0.999853 15:-0.980895 16:-0.98247 17:-0.993091 18:-0.984665 19:-0.977979 20:-0.971487 21:-0.987617 22:-0.975991 23:-0.990882 24:-0.976422 25:-0.975615 26:-0.965683 27:-0.987399 28:-0.959709 29:-0.974854 30:-0.979305 31:-0.977351 32:-0.98904 33:-0.967495 34:-0.988533 35:-0.999922 36:-0.997249 37:-0.991818 38:-0.987554 39:-0.993192 40:-0.99699 41:-0.99683 42:-0.996622 43:-0.989866 44:-0.995747 45:-0.998843 46:-0.99547 47:-0.997582 48:-1 49:-0.997236 50:-1 51:-0.998834 52:-0.998804 53:-0.99556 54:-0.996567 55:-0.995745 56:-0.997593 57:-0.990196 58:-0.991416 59:-1 60:-0.981674 61:-0.872562 
2.004319088126191 1:-0.979647 2:-0.634907 3:-0.497875 4:0.230316 5:0.645242 6:-0.991187 7:0.278981 8:-0.656011 9:-0.999941 10:-0.44013 11:0.584496 12:-0.999527 13:-0.18011 14:-0.999573 15:-0.97084 16:-0.919272 17:-0.993504 18:-0.966071 19:-0.993168 20:-0.971408 21:-0.99175 22:-0.967266 23:-0.981197 24:-0.962675 25:-0.973207 26:-0.959282 27:-0.982418 28:-0.950646 29:-0.977165 30:-0.966866 31:-0.989148 32:-0.982223 33:-0.979627 34:-0.978804 35:-0.999686 36:-0.994865 37:-0.984235 38:-0.97624 39:-0.988479 40:-0.996321 41:-0.992755 42:-0.993243 43:-0.991709 44:-0.992557 45:-0.99306 46:-0.996602 47:-0.998791 48:-0.993511 49:-1 50:-0.997133 51:-0.993007 52:-0.998804 53:-0.99778 54:-0.996567 55:-0.989362 56:-0.990373 57:-0.995098 58:-0.982833 59:-1 60:-0.978279 61:-0.855992 
0.4375417766815356 1:-0.940143 2:-0.499478 3:-0.755847 4:0.480947 5:0.474091 6:-0.586214 7:0.385551 8:-0.887 9:-0.998892 10:-0.440119 11:0.58765 12:-0.998074 13:-0.180099 14:-0.998136 15:-0.952498 16:-0.971757 17:-0.960671 18:-0.968642 19:-0.967538 20:-0.981992 21:-0.942323 22:-0.9701 23:-0.893662 24:-0.94614 25:-0.872948 26:-0.939309 27:-0.881602 28:-0.944529 29:-0.878729 30:-0.960942 31:-0.901399 32:-0.970303 33:-0.975737 34:-0.978252 35:-0.999608 36:-0.992665 37:-0.987029 38:-0.974731 39:-0.976434 40:-0.990301 41:-0.990038 42:-0.98536 43:-0.986181 44:-0.974482 45:-0.956044 46:-0.97282 47:-0.961306 48:-0.941596 49:-0.946095 50:-0.908244 51:-0.93007 52:-0.919856 53:-0.938957 54:-0.92103 55:-0.970213 56:-0.963899 57:-0.97549 58:-0.974249 59:-0.859155 60:-0.951771 61:-0.530302 
0.07166343025271506 1:-0.962757 2:-0.403316 3:-0.769144 4:0.518006 5:0.438501 6:-0.459221 7:0.356944 8:-0.944405 9:-0.999278 10:-0.440127 11:0.587564 12:-0.999536 13:-0.180113 14:-0.999485 15:-0.984792 16:-0.969832 17:-0.973824 18:-0.977476 19:-0.913026 20:-0.931931 21:-0.901792 22:-0.930153 23:-0.879897 24:-0.958935 25:-0.882175 26:-0.962753 27:-0.896627 28:-0.966958 29:-0.906 30:-0.962493 31:-0.967807 32:-0.974632 33:-0.986399 34:-0.984041 35:-0.999922 36:-0.996699 37:-0.996408 38:-0.995097 39:-0.990573 40:-0.993645 41:-0.989133 42:-0.989302 43:-0.973284 44:-0.9479 45:-0.94679 46:-0.919592 47:-0.939541 48:-0.911746 49:-0.955771 50:-0.956989 51:-0.988345 52:-0.990431 53:-0.99667 54:-0.996567 55:-0.997872 56:-0.997593 57:-1 58:-1 59:-1 60:-0.95949 61:-0.452802 
0.002560731988802986 1:-0.967139 2:-0.108201 3:-0.601799 4:0.712214 5:0.457737 6:-0.249897 7:0.370723 8:-0.949596 9:-0.999434 10:-0.440125 11:0.587615 12:-0.999503 13:-0.18009 14:-0.999481 15:-0.983093 16:-0.985815 17:-0.977229 18:-0.975318 19:-0.911975 20:-0.966454 21:-0.908832 22:-0.936122 23:-0.916568 24:-0.931419 25:-0.89458 26:-0.931319 27:-0.88141 28:-0.941871 29:-0.901749 30:-0.940913 31:-0.950419 32:-0.971621 33:-0.973991 34:-0.981116 35:-0.999765 36:-0.999633 37:-0.997805 38:-0.995097 39:-0.992668 40:-0.993645 41:-0.990491 42:-0.990428 43:-0.976969 44:-0.977671 45:-0.976865 46:-0.938845 47:-0.945586 48:-0.936405 49:-0.926745 50:-0.94552 51:-0.977855 52:-0.980861 53:-0.986681 54:-0.986266 55:-0.995745 56:-0.995187 57:-0.990196 58:-0.982833 59:-1 60:-0.958085 61:-0.370769 
0.1681117519889485 1:-0.956539 2:-0.202352 3:-0.627355 4:0.663866 5:0.479644 6:-0.332726 7:0.396088 8:-0.919169 9:-0.999208 10:-0.440127 11:0.587585 12:-0.999227 13:-0.180109 14:-0.999201 15:-0.946962 16:-0.95357 17:-0.954051 18:-0.957986 19:-0.930264 20:-0.895233 21:-0.91738 22:-0.856959 23:-0.907338 24:-0.892049 25:-0.908664 26:-0.901437 27:-0.909614 28:-0.906751 29:-0.914465 30:-0.919223 31:-0.941063 32:-0.956489 33:-0.961048 34:-0.984281 35:-0.999608 36:-0.994865 37:-0.992616 38:-0.984537 39:-0.976957 40:-0.989632 41:-0.986869 42:-0.978041 43:-0.961308 44:-0.933014 45:-0.917872 46:-0.93658 47:-0.94075 48:-0.948086 49:-0.975121 50:-0.981362 51:-0.993007 52:-0.996411 53:-0.99778 54:-1 55:-0.997872 56:-1 57:-1 58:-1 59:-1 60:-0.952401 61:-0.429532 
0.1563715432352957 1:-0.947988 2:-0.361387 3:-0.696717 4:0.562892 5:0.483617 6:-0.474152 7:0.399233 8:-0.89295 9:-0.998972 10:-0.440141 11:0.587633 12:-0.998317 13:-0.180059 14:-0.998373 15:-0.945457 16:-0.953601 17:-0.947442 18:-0.964129 19:-0.933464 20:-0.964216 21:-0.944129 22:-0.978059 23:-0.923379 24:-0.894318 25:-0.904559 26:-0.869399 27:-0.911814 28:-0.87561 29:-0.90386 30:-0.887991 31:-0.923743 32:-0.910934 33:-0.971467 34:-0.974425 35:-0.999216 36:-0.994315 37:-0.992616 38:-0.983028 39:-0.983242 40:-0.986622 41:-0.990491 42:-0.992117 43:-0.983418 44:-0.967039 45:-0.967611 46:-0.95017 47:-0.938331 48:-0.924724 49:-0.894955 50:-0.919713 51:-0.939394 52:-0.954545 53:-0.964484 54:-0.9897 55:-0.985106 56:-0.98556 57:-0.980392 58:-0.991416 59:-0.971831 60:-0.954429 61:-0.466438 
0.4406321889817378 1:-0.932299 2:-0.509796 3:-0.760374 4:0.474979 5:0.481374 6:-0.593805 7:0.394885 8:-0.868257 9:-0.998547 10:-0.440115 11:0.587413 12:-0.997722 13:-0.180115 14:-0.997838 15:-0.972894 16:-0.822811 17:-0.961654 18:-0.874421 19:-0.959441 20:-0.901745 21:-0.940841 22:-0.915776 23:-0.882698 24:-0.945551 25:-0.87108 26:-0.953902 27:-0.879369 28:-0.950211 29:-0.875328 30:-0.949741 31:-0.894436 32:-0.960973 33:-0.965988 34:-0.956939 35:-0.998667 36:-0.986796 37:-0.977649 38:-0.963794 39:-0.957057 40:-0.982943 41:-0.985963 42:-0.981419 43:-0.946568 44:-0.913876 45:-0.876229 46:-0.899207 47:-0.903265 48:-0.96366 49:-0.983414 50:-0.991398 51:-0.996503 52:-0.997608 53:-1 54:-0.998283 55:-1 56:-1 57:-1 58:-1 59:-1 60:-0.953471 61:-0.552955 
0.1869617199881761 1:-0.940143 2:-0.587326 3:-0.761053 4:0.43891 5:0.468032 6:-0.681358 7:0.362633 8:-0.896557 9:-0.999024 10:-0.440149 11:0.586845 12:-0.997952 13:-0.180985 14:-0.998043 15:-0.968821 16:-0.91158 17:-0.980935 18:-0.94332 19:-0.965627 20:-0.980874 21:-0.945181 22:-0.966676 23:-0.889354 24:-0.973157 25:-0.876222 26:-0.964687 27:-0.872492 28:-0.963005 29:-0.880187 30:-0.971268 31:-0.919676 32:-0.961998 33:-0.964551 34:-0.969136 35:-0.99749 36:-0.988447 37:-0.987029 38:-0.981143 39:-0.976434 40:-0.989298 41:-0.98868 42:-0.992117 43:-0.979733 44:-0.970229 45:-0.964141 46:-0.935447 47:-0.900846 48:-0.898767 49:-0.892191 50:-0.926882 51:-0.954545 52:-0.972488 53:-0.986681 54:-0.986266 55:-0.982979 56:-0.990373 57:-0.985294 58:-1 59:-1 60:-0.953021 61:-0.521174 
0.2904801766402925 1:-0.936398 2:-0.61775 3:-0.72373 4:0.422056 5:0.50446 6:-0.756527 7:0.373717 8:-0.838153 9:-0.998855 10:-0.440118 11:0.587522 12:-0.997156 13:-0.180073 14:-0.997341 15:-0.901383 16:-0.950159 17:-0.911096 18:-0.966321 19:-0.903283 20:-0.968827 21:-0.904128 22:-0.965118 23:-0.912021 24:-0.915249 25:-0.935072 26:-0.916787 27:-0.929239 28:-0.957109 29:-0.925398 30:-0.965127 31:-0.928534 32:-0.969097 33:-0.953302 34:-0.96663 35:-0.999608 36:-0.98918 37:-0.975853 38:-0.953234 39:-0.961246 40:-0.982274 41:-0.990491 42:-0.980293 43:-0.982497 44:-0.970229 45:-0.95373 46:-0.955832 47:-0.962515 48:-0.932511 49:-0.94886 50:-0.946953 51:-0.972028 52:-0.972488 53:-0.981132 54:-0.963948 55:-0.970213 56:-0.978339 57:-0.960784 58:-0.93133 59:-0.887324 60:-0.952255 61:-0.624925 
0.3873966354001559 1:-0.938447 2:-0.600795 3:-0.674253 4:0.426869 5:0.532403 6:-0.785832 7:0.377881 8:-0.804144 9:-0.998504 10:-0.440111 11:0.587962 12:-0.996967 13:-0.178769 14:-0.997118 15:-0.838288 16:-0.895983 17:-0.881187 18:-0.907075 19:-0.905571 20:-0.95462 21:-0.932678 22:-0.964389 23:-0.92442 24:-0.923865 25:-0.940436 26:-0.926398 27:-0.934909 28:-0.953609 29:-0.948279 30:-0.962188 31:-0.936993 32:-0.965388 33:-0.957749 34:-0.96083 35:-0.999529 36:-0.996882 37:-0.986629 38:-0.950594 39:-0.93768 40:-0.976589 41:-0.985963 42:-0.982545 43:-0.981575 44:-0.95428 45:-0.945633 46:-0.928652 47:-0.933495 48:-0.932511 49:-0.951624 50:-0.984229 51:-0.979021 52:-0.979665 53:-0.981132 54:-0.974249 55:-0.989362 56:-0.99278 57:-1 58:-0.991416 59:-1 60:-0.953793 61:-0.622328 
0.1995177907333 1:-0.940991 2:-0.58611 3:-0.615747 4:0.427478 5:0.546273 6:-0.818071 7:0.366508 8:-0.80596 9:-0.99847 10:-0.440121 11:0.587469 12:-0.997148 13:-0.180062 14:-0.997296 15:-0.866795 16:-0.763977 17:-0.919849 18:-0.849517 19:-0.955794 20:-0.8723 21:-0.965086 22:-0.889913 23:-0.945703 24:-0.91366 25:-0.931174 26:-0.928681 27:-0.934292 28:-0.951689 29:-0.947775 30:-0.972488 31:-0.93267 32:-0.963149 33:-0.954896 34:-0.953894 35:-0.999451 36:-0.993948 37:-0.975454 38:-0.944937 39:-0.966483 40:-0.988294 41:-0.990944 42:-0.983108 43:-0.982497 44:-0.977671 45:-0.968768 46:-0.969422 47:-0.952842 48:-0.955873 49:-0.94886 50:-0.941219 51:-0.960373 52:-0.966507 53:-0.973363 54:-0.974249 55:-0.976596 56:-0.973526 57:-0.960784 58:-0.974249 59:-0.971831 60:-0.950157 61:-0.62405 
0.4564130885815417 1:-0.940709 2:-0.582179 3:-0.589992 4:0.423779 5:0.54842 6:-0.834334 7:0.358391 8:-0.813596 9:-0.998655 10:-0.440143 11:0.58761 12:-0.996999 13:-0.180183 14:-0.997207 15:-0.901477 16:-0.814904 17:-0.932813 18:-0.830155 19:-0.96861 20:-0.894997 21:-0.948604 22:-0.963312 23:-0.946309 24:-0.929173 25:-0.932297 26:-0.92495 27:-0.929791 28:-0.955396 29:-0.949782 30:-0.967639 31:-0.941677 32:-0.962291 33:-0.947182 34:-0.953851 35:-0.998902 36:-0.98753 37:-0.96807 38:-0.962285 39:-0.974339 40:-0.992642 41:-0.985963 42:-0.980293 43:-0.953017 44:-0.952153 45:-0.936379 46:-0.951302 47:-0.946796 48:-0.951979 49:-0.957153 50:-0.967025 51:-0.980186 52:-0.990431 53:-0.99667 54:-0.99485 55:-0.995745 56:-1 57:-0.995098 58:-1 59:-1 60:-0.946988 61:-0.601029 
0.1081837327134258 1:-0.936751 2:-0.579946 3:-0.565708 4:0.415635 5:0.53951 6:-0.853669 7:0.343224 8:-0.841194 9:-0.999211 10:-0.440127 11:0.587625 12:-0.997119 13:-0.180107 14:-0.997374 15:-0.935283 16:-0.97134 17:-0.938483 18:-0.940804 19:-0.944287 20:-0.951394 21:-0.931305 22:-0.932551 23:-0.9215 24:-0.917963 25:-0.933085 26:-0.937999 27:-0.9322 28:-0.965167 29:-0.933789 30:-0.961086 31:-0.929386 32:-0.940949 33:-0.968723 34:-0.951832 35:-0.999451 36:-0.991381 37:-0.974257 38:-0.943428 39:-0.964912 40:-0.988294 41:-0.990038 42:-0.987613 43:-0.97789 44:-0.977671 45:-0.956044 46:-0.967157 47:-0.949214 48:-0.92732 49:-0.947478 50:-0.941219 51:-0.960373 52:-0.960526 53:-0.983352 54:-0.967382 55:-0.970213 56:-0.983153 57:-0.980392 58:-0.965665 59:-1 60:-0.950038 61:-0.61886 
0.2831360298406701 1:-0.911099 2:-0.625185 3:-0.544962 4:0.332511 5:0.531451 6:-0.937198 7:0.303841 8:-0.862537 9:-0.998288 10:-0.440128 11:0.587596 12:-0.996676 13:-0.180207 14:-0.996817 15:-0.951956 16:-0.965921 17:-0.958059 18:-0.946573 19:-0.961617 20:-0.922282 21:-0.949168 22:-0.895975 23:-0.914167 24:-0.871717 25:-0.904283 26:-0.863934 27:-0.913898 28:-0.864998 29:-0.911209 30:-0.879677 31:-0.925995 32:-0.918883 33:-0.967575 34:-0.948078 35:-0.996863 36:-0.973959 37:-0.958292 38:-0.94984 39:-0.956009 40:-0.982609 41:-0.966493 42:-0.945383 43:-0.874712 44:-0.817119 45:-0.917872 46:-0.97282 47:-0.987908 48:-0.992213 49:-0.991707 50:-0.994265 51:-1 52:-1 53:-1 54:-0.998283 55:-1 56:-1 57:-1 58:-1 59:-1 60:-0.954951 61:-0.613595 
0.05058010818397165 1:-0.902194 2:-0.683436 3:-0.593511 4:0.300729 5:0.52111 6:-0.953457 7:0.294922 8:-0.860118 9:-0.996854 10:-0.440116 11:0.587919 12:-0.996046 13:-0.180059 14:-0.99634 15:-0.858541 16:-0.832514 17:-0.892548 18:-0.862192 19:-0.936085 20:-0.897747 21:-0.901053 22:-0.883089 23:-0.907395 24:-0.864883 25:-0.916694 26:-0.854338 27:-0.902834 28:-0.825969 29:-0.925279 30:-0.834564 31:-0.948553 32:-0.897363 33:-0.947989 34:-0.944952 35:-0.96016 36:-0.95232 37:-0.920974 38:-0.922685 39:-0.991621 40:-0.999666 41:-1 42:-1 43:-1 44:-0.998937 45:-1 46:-1 47:-1 48:-1 49:-1 50:-1 51:-1 52:-1 53:-1 54:-1 55:-1 56:-1 57:-1 58:-1 59:-1 60:-0.94515 61:-0.628993 
1.891811502204588 1:-0.898873 2:-0.732764 3:-0.65938 4:0.273221 5:0.511875 6:-0.96438 7:0.289718 8:-0.854251 9:-0.997553 10:-0.442317 11:0.589801 12:-0.995933 13:-0.180124 14:-0.996165 15:-0.880237 16:-0.938979 17:-0.923473 18:-0.921572 19:-0.928679 20:-0.927724 21:-0.947293 22:-0.875044 23:-0.956261 24:-0.841447 25:-0.970489 26:-0.82591 27:-0.967527 28:-0.820208 29:-0.960188 30:-0.811495 31:-0.956862 32:-0.886427 33:-0.959257 34:-0.957777 35:-0.997961 36:-0.985513 37:-0.966274 38:-0.924571 39:-0.934014 40:-0.975585 41:-0.976002 42:-0.981982 43:-0.976969 44:-0.956406 45:-0.944477 46:-0.903737 47:-0.893591 48:-0.880597 49:-0.854872 50:-0.862366 51:-0.951049 52:-0.978469 53:-0.988901 54:-0.981116 55:-0.978723 56:-0.995187 57:-0.985294 58:-1 59:-1 60:-0.953525 61:-0.644155 
3.30748907156241 1:-0.894138 2:-0.834778 3:-0.792797 4:0.236404 5:0.483547 6:-0.973841 7:0.284676 8:-0.836195 9:-0.995993 10:-0.440575 11:0.588051 12:-0.995461 13:-0.180139 14:-0.995916 15:-0.791822 16:-0.894933 17:-0.87028 18:-0.908973 19:-0.900232 20:-0.936152 21:-0.948726 22:-0.87498 23:-0.92249 24:-0.848504 25:-0.936544 26:-0.838021 27:-0.953913 28:-0.829208 29:-0.960666 30:-0.833749 31:-0.956083 32:-0.867132 33:-0.95543 34:-0.958299 35:-0.993099 36:-0.983312 37:-0.975254 38:-0.921931 39:-0.935062 40:-0.976923 41:-0.980077 42:-0.980856 43:-0.967757 44:-0.963849 45:-0.94679 46:-0.902605 47:-0.906892 48:-0.906554 49:-0.90463 50:-0.881004 51:-0.882284 52:-0.964115 53:-0.961154 54:-0.963948 55:-0.968085 56:-0.990373 57:-0.965686 58:-0.974249 59:-0.943662 60:-0.950508 61:-0.655338 
32 1:-0.901488 2:-0.85967 3:-0.822956 4:0.228213 5:0.467107 6:-0.975807 7:0.280541 8:-0.858543 9:-0.997277 10:-0.440156 11:0.587762 12:-0.995913 13:-0.180052 14:-0.996209 15:-0.866303 16:-0.914897 17:-0.883904 18:-0.919518 19:-0.971832 20:-0.925915 21:-0.972376 22:-0.85116 23:-0.968237 24:-0.844071 25:-0.971223 26:-0.842707 27:-0.962671 28:-0.843075 29:-0.965831 30:-0.841433 31:-0.955966 32:-0.874758 33:-0.954659 34:-0.959871 35:-0.995451 36:-0.987346 37:-0.978447 38:-0.937771 39:-0.932443 40:-0.970234 41:-0.974643 42:-0.981419 43:-0.941041 44:-0.927698 45:-0.887796 46:-0.902605 47:-0.920193 48:-0.902661 49:-0.90463 50:-0.881004 51:-0.968531 52:-0.970096 53:-0.987791 54:-0.982833 55:-0.985106 56:-0.995187 57:-1 58:-1 59:-1 60:-0.954589 61:-0.653382 
10.58963376510315 1:-0.907353 2:-0.85967 3:-0.8263 4:0.227241 5:0.457296 6:-0.976153 7:0.277027 8:-0.884273 9:-0.998157 10:-0.440125 11:0.587661 12:-0.996793 13:-0.180107 14:-0.996885 15:-0.967445 16:-0.963616 17:-0.942045 18:-0.919518 19:-0.971832 20:-0.925915 21:-0.972376 22:-0.85116 23:-0.968237 24:-0.844071 25:-0.971223 26:-0.842707 27:-0.962671 28:-0.843075 29:-0.965831 30:-0.841433 31:-0.955966 32:-0.874758 33:-0.954659 34:-0.959871 35:-0.995451 36:-0.988263 37:-0.981441 38:-0.943051 39:-0.936109 40:-0.970903 41:-0.976455 42:-0.984797 43:-0.945647 44:-0.933014 45:-0.892423 46:-0.90487 47:-0.922612 48:-0.907852 49:-0.907395 50:-0.883871 51:-0.969697 52:-0.970096 53:-0.988901 54:-0.984549 55:-0.987234 56:-0.995187 57:-1 58:-1 59:-1 60:-0.954531 61:-0.650094 
7.946077152929399 1:-0.921134 2:-0.953242 3:-0.94485 4:0.195803 5:0.437458 6:-0.980026 7:0.287916 8:-0.761167 9:-0.998593 10:-0.440149 11:0.587638 12:-0.997506 13:-0.179967 14:-0.997628 15:-0.887217 16:-0.948569 17:-0.877521 18:-0.934535 19:-0.91421 20:-0.930155 21:-0.956059 22:-0.942331 23:-0.953669 24:-0.917915 25:-0.935263 26:-0.911957 27:-0.938066 28:-0.922439 29:-0.932937 30:-0.917467 31:-0.946665 32:-0.939291 33:-0.960981 34:-0.976083 35:-0.977884 36:-0.965157 37:-0.962283 38:-0.957383 39:-0.962817 40:-0.986288 41:-0.985058 42:-0.98536 43:-0.975127 44:-0.956406 45:-0.954887 46:-0.969422 47:-0.980653 48:-0.996106 49:-0.993089 50:-0.998566 51:-1 52:-0.997608 53:-0.99778 54:-0.996567 55:-0.997872 56:-0.990373 57:-1 58:-0.965665 59:-1 60:-0.966972 61:-0.850885 
25.20999294148527 1:-0.981414 2:-0.95899 3:-0.954851 4:0.191882 5:0.421175 6:-0.981363 7:0.280937 8:-0.820133 9:-0.999976 10:-0.440908 11:0.587597 12:-0.999482 13:-0.180092 14:-0.999535 15:-0.989392 16:-0.976618 17:-0.983408 18:-0.98188 19:-0.990507 20:-0.973027 21:-0.996257 22:-0.98468 23:-0.996615 24:-0.990626 25:-0.98169 26:-0.976153 27:-0.983471 28:-0.975843 29:-0.981831 30:-0.969146 31:-0.979374 32:-0.970376 33:-0.977447 34:-0.976404 35:-0.995687 36:-0.982578 37:-0.992816 38:-0.99472 39:-0.994763 40:-0.997993 41:-0.995925 42:-0.996622 43:-0.998158 44:-0.992557 45:-0.99653 46:-0.997735 47:-0.993954 48:-0.994809 49:-1 50:-0.997133 51:-0.998834 52:-0.998804 53:-0.99778 54:-0.998283 55:-0.995745 56:-0.997593 57:-0.995098 58:-0.991416 59:-1 60:-0.99035 61:-0.964751 
12.08922843344198 1:-0.971167 2:-0.951712 3:-0.95456 4:0.195467 5:0.427697 6:-0.977375 7:0.288238 8:-0.78878 9:-0.999789 10:-0.440128 11:0.587588 12:-0.999659 13:-0.179959 14:-0.999676 15:-0.96551 16:-0.912975 17:-0.957712 18:-0.936489 19:-0.963042 20:-0.947858 21:-0.969745 22:-0.927562 23:-0.969056 24:-0.944003 25:-0.975934 26:-0.978174 27:-0.979516 28:-0.924622 29:-0.978477 30:-0.93146 31:-0.983689 32:-0.966783 33:-0.98663 34:-0.975978 35:-0.991765 36:-0.989364 37:-0.988625 38:-0.976617 39:-0.970673 40:-0.99097 41:-0.995472 42:-0.996622 43:-0.999079 44:-0.99681 45:-0.997687 46:-0.997735 47:-0.996372 48:-1 49:-0.998618 50:-0.997133 51:-0.998834 52:-0.997608 53:-0.99778 54:-0.996567 55:-0.997872 56:-0.99278 57:-0.985294 58:-0.982833 59:-1 60:-0.975861 61:-0.902143 
7.585788485079887 1:-0.959295 2:-0.951712 3:-0.951838 4:0.196882 5:0.443975 6:-0.976149 7:0.300088 8:-0.682915 9:-0.999735 10:-0.440126 11:0.587609 12:-0.99909 13:-0.180074 14:-0.999168 15:-0.958075 16:-0.976164 17:-0.973472 18:-0.966643 19:-0.953718 20:-0.922433 21:-0.954565 22:-0.919454 23:-0.958627 24:-0.946244 25:-0.96755 26:-0.920242 27:-0.969586 28:-0.957585 29:-0.97856 30:-0.924056 31:-0.978891 32:-0.956826 33:-0.986365 34:-0.975978 35:-0.988079 36:-0.978544 37:-0.981441 38:-0.9736 39:-0.968054 40:-0.989632 41:-0.994114 42:-0.994932 43:-0.998158 44:-0.994684 45:-0.997687 46:-0.997735 47:-0.996372 48:-1 49:-0.998618 50:-0.997133 51:-0.998834 52:-0.997608 53:-0.99778 54:-0.996567 55:-0.997872 56:-0.99278 57:-0.985294 58:-0.982833 59:-1 60:-0.978563 61:-0.914478 
9.376525134080566 1:-0.913643 2:-0.950635 3:-0.945251 4:0.19746 5:0.437568 6:-0.977984 7:0.290536 8:-0.758895 9:-0.998924 10:-0.440143 11:0.587519 12:-0.997382 13:-0.180211 14:-0.997621 15:-0.934887 16:-0.924016 17:-0.964238 18:-0.918805 19:-0.942921 20:-0.917987 21:-0.938609 22:-0.936285 23:-0.938388 24:-0.910019 25:-0.930943 26:-0.897698 27:-0.936126 28:-0.931378 29:-0.931783 30:-0.914651 31:-0.939616 32:-0.942218 33:-0.95199 34:-0.969148 35:-0.979217 36:-0.971759 37:-0.97705 38:-0.927211 39:-0.900498 40:-0.974247 41:-0.980983 42:-0.98536 43:-0.980654 44:-0.974482 45:-0.981492 46:-0.97282 47:-0.968561 48:-0.98183 49:-0.994471 50:-0.995699 51:-0.995338 52:-0.994019 53:-0.99667 54:-0.99485 55:-1 56:-0.98556 57:-0.97549 58:-0.982833 59:-0.915493 60:-0.972425 61:-0.868839 
0.6145131129414548 1:-0.894138 2:-0.874112 3:-0.84364 4:0.22262 5:0.474286 6:-0.977057 7:0.284708 8:-0.815666 9:-0.99673 10:-0.440132 11:0.587574 12:-0.995354 13:-0.180046 14:-0.995808 15:-0.818113 16:-0.912292 17:-0.88008 18:-0.927749 19:-0.905136 20:-0.957868 21:-0.962364 22:-0.841827 23:-0.93079 24:-0.830104 25:-0.944292 26:-0.831321 27:-0.965094 28:-0.839325 29:-0.964965 30:-0.867183 31:-0.940193 32:-0.909764 33:-0.952886 34:-0.960288 35:-0.992863 36:-0.980928 37:-0.977649 38:-0.881954 39:-0.924588 40:-0.982609 41:-0.980077 42:-0.970721 43:-0.958544 44:-0.94471 45:-0.921342 46:-0.908267 47:-0.931076 48:-0.902661 49:-0.919834 50:-0.931183 51:-0.960373 52:-0.9689 53:-0.991121 54:-0.9897 55:-0.980851 56:-0.971119 57:-0.970588 58:-0.974249 59:-0.971831 60:-0.953686 61:-0.698622 
0.01155227568332407 1:-0.944313 2:-0.565529 3:-0.433412 4:0.262497 5:0.546945 6:-0.982578 7:0.273823 8:-0.869153 9:-0.998986 10:-0.440134 11:0.587662 12:-0.99866 13:-0.1801 14:-0.998675 15:-0.969902 16:-0.963084 17:-0.988352 18:-0.975183 19:-0.985829 20:-0.980337 21:-0.975122 22:-0.943393 23:-0.970131 24:-0.911129 25:-0.951179 26:-0.853326 27:-0.958043 28:-0.83852 29:-0.966036 30:-0.846373 31:-0.976772 32:-0.865578 33:-0.983741 34:-0.928241 35:-0.999216 36:-0.991014 37:-0.969667 38:-0.947954 39:-0.973291 40:-0.990635 41:-0.990038 42:-0.984797 43:-0.976969 44:-0.976608 45:-0.965298 46:-0.961495 47:-0.958888 48:-0.926022 49:-0.954388 50:-0.959857 51:-0.977855 52:-0.991627 53:-0.99778 54:-0.99485 55:-0.985106 56:-0.990373 57:-0.97549 58:-0.974249 59:-0.971831 60:-0.965539 61:-0.742281 
1.342540721024778 1:-0.98311 2:-0.445185 3:-0.273828 4:0.274599 5:0.614891 6:-0.983151 7:0.279959 8:-0.81044 9:-0.999941 10:-0.440133 11:0.587595 12:-0.999573 13:-0.180117 14:-0.999614 15:-0.984624 16:-0.971114 17:-0.980617 18:-0.988748 19:-0.973176 20:-0.977938 21:-0.980829 22:-0.976903 23:-0.988431 24:-0.970755 25:-0.98678 26:-0.952054 27:-0.980181 28:-0.946743 29:-0.979132 30:-0.947725 31:-0.970835 32:-0.944414 33:-0.979683 34:-0.954862 35:-0.999608 36:-0.99835 37:-0.997007 38:-0.993589 39:-0.992145 40:-0.991973 41:-0.994566 42:-0.99268 43:-0.989866 44:-0.980861 45:-0.991903 46:-0.988675 47:-0.981862 48:-0.987021 49:-0.98065 50:-0.991398 51:-0.98951 52:-0.989234 53:-0.994451 54:-0.99485 55:-0.989362 56:-0.995187 57:-0.97549 58:-0.974249 59:-1 60:-0.98448 61:-0.831698 
0.3681153246785095 1:-0.938659 2:-0.535192 3:-0.387244 4:0.276802 5:0.571222 6:-0.978914 7:0.280088 8:-0.843537 9:-0.998688 10:-0.440145 11:0.587615 12:-0.997601 13:-0.180129 14:-0.99776 15:-0.904493 16:-0.949151 17:-0.912788 18:-0.977044 19:-0.925619 20:-0.961982 21:-0.945557 22:-0.952437 23:-0.959352 24:-0.829494 25:-0.9489 26:-0.822733 27:-0.953415 28:-0.840541 29:-0.958556 30:-0.874434 31:-0.958903 32:-0.913384 33:-0.96297 34:-0.964336 35:-0.999373 36:-0.991014 37:-0.980044 38:-0.951725 39:-0.954438 40:-0.977926 41:-0.982341 42:-0.980293 43:-0.966836 44:-0.970229 45:-0.964141 46:-0.96376 47:-0.963724 48:-0.946788 49:-0.950242 50:-0.956989 51:-0.9662 52:-0.976077 53:-0.973363 54:-0.986266 55:-0.993617 56:-0.990373 57:-0.990196 58:-0.991416 59:-0.887324 60:-0.969553 61:-0.750075 
0.1256398973621672 1:-0.931875 2:-0.603141 3:-0.691688 4:0.43194 5:0.525374 6:-0.765529 7:0.381901 8:-0.809229 9:-0.997892 10:-0.440163 11:0.587737 12:-0.997283 13:-0.180049 14:-0.997362 15:-0.890061 16:-0.720941 17:-0.92481 18:-0.839393 19:-0.928831 20:-0.886094 21:-0.914249 22:-0.894727 23:-0.894801 24:-0.955892 25:-0.901076 26:-0.971195 27:-0.910594 28:-0.975759 29:-0.906068 30:-0.972902 31:-0.914936 32:-0.944137 33:-0.977887 34:-0.974946 35:-0.996941 36:-0.978544 37:-0.973658 38:-0.96304 39:-0.977481 40:-0.992642 41:-0.988227 42:-0.983108 43:-0.973284 44:-0.958533 45:-0.969925 46:-0.961495 47:-0.927449 48:-0.92732 49:-0.910159 50:-0.931183 51:-0.95338 52:-0.964115 53:-0.982242 54:-0.991416 55:-0.991489 56:-0.995187 57:-0.985294 58:-0.974249 59:-1 60:-0.953204 61:-0.625283 
0.288252487966431 1:-0.94721 2:-0.473852 3:-0.748911 4:0.500106 5:0.490213 6:-0.547687 7:0.411074 8:-0.853744 9:-0.998377 10:-0.439116 11:0.593765 12:-0.998231 13:-0.180099 14:-0.99831 15:-0.908946 16:-0.741251 17:-0.932927 18:-0.834424 19:-0.933046 20:-0.898447 21:-0.929891 22:-0.923264 23:-0.899633 24:-0.954642 25:-0.895058 26:-0.947589 27:-0.874436 28:-0.966413 29:-0.878919 30:-0.967672 31:-0.895618 32:-0.974291 33:-0.979886 34:-0.979299 35:-0.999686 36:-0.995415 37:-0.983436 38:-0.975108 39:-0.981671 40:-0.991973 41:-0.989133 42:-0.990428 43:-0.980654 44:-0.968102 45:-0.954887 46:-0.9547 47:-0.945586 48:-0.949384 49:-0.939185 50:-0.928315 51:-0.940559 52:-0.955742 53:-0.958935 54:-0.963948 55:-0.976596 56:-0.990373 57:-0.995098 58:-0.982833 59:-1 60:-0.952291 61:-0.542656 
0.7313441275570022 1:-0.96509 2:-0.360949 3:-0.767682 4:0.535014 5:0.431752 6:-0.41062 7:0.35107 8:-0.953918 9:-0.999276 10:-0.44013 11:0.587589 12:-0.999659 13:-0.180103 14:-0.999596 15:-0.893493 16:-0.954732 17:-0.896336 18:-0.960486 19:-0.887067 20:-0.948019 21:-0.895391 22:-0.948922 23:-0.88009 24:-0.953253 25:-0.890317 26:-0.959734 27:-0.907398 28:-0.973032 29:-0.95494 30:-0.975481 31:-0.967833 32:-0.983141 33:-0.989444 34:-0.990594 35:-0.999843 36:-0.99945 37:-0.998803 38:-0.996229 39:-0.998429 40:-0.994314 41:-0.994566 42:-0.993243 43:-0.984339 44:-0.976608 45:-0.968768 46:-0.96829 47:-0.95526 48:-0.954575 49:-0.933656 50:-0.911111 51:-0.938228 52:-0.956938 53:-0.968923 54:-0.975966 55:-0.97234 56:-0.98556 57:-1 58:-0.982833 59:-0.887324 60:-0.967607 61:-0.41897 
0.2038129915432852 1:-0.970884 2:-0.281228 3:-0.771718 4:0.561092 5:0.428163 6:-0.312936 7:0.354729 8:-0.957854 9:-0.999534 10:-0.440131 11:0.587599 12:-0.999704 13:-0.180105 14:-0.999672 15:-0.971477 16:-0.953736 17:-0.931289 18:-0.929419 19:-0.915012 20:-0.962827 21:-0.88974 22:-0.962378 23:-0.89719 24:-0.967591 25:-0.896882 26:-0.971428 27:-0.900317 28:-0.974047 29:-0.921343 30:-0.974077 31:-0.97617 32:-0.98184 33:-0.978732 34:-0.987715 35:-0.999608 36:-0.999633 37:-0.997206 38:-0.995851 39:-0.991097 40:-0.998662 41:-0.994114 42:-0.992117 43:-0.983418 44:-0.960659 45:-0.95373 46:-0.947905 47:-0.949214 48:-0.916937 49:-0.944713 50:-0.971326 51:-0.986014 52:-0.994019 53:-0.992231 54:-0.998283 55:-0.995745 56:-0.997593 57:-1 58:-1 59:-1 60:-0.965457 61:-0.429991 
0.5067720541953472 1:-0.959577 2:-0.188222 3:-0.772106 4:0.592006 5:0.444604 6:-0.199868 7:0.39369 8:-0.934497 9:-0.998881 10:-0.440137 11:0.587608 12:-0.999543 13:-0.180101 14:-0.999428 15:-0.891465 16:-0.935741 17:-0.848173 18:-0.930515 19:-0.849782 20:-0.941173 21:-0.887924 22:-0.943347 23:-0.882905 24:-0.950405 25:-0.880701 26:-0.940744 27:-0.885299 28:-0.94818 29:-0.900128 30:-0.959886 31:-0.963089 32:-0.985156 33:-0.981193 34:-0.991308 35:-0.999765 36:-0.997983 37:-0.996807 38:-0.993589 39:-0.987955 40:-0.993645 41:-0.990491 42:-0.974662 43:-0.943805 44:-0.935141 45:-0.909774 46:-0.917327 47:-0.935913 48:-0.946788 49:-0.965446 50:-0.991398 51:-0.98951 52:-0.995215 53:-0.99778 54:-0.998283 55:-0.993617 56:-1 57:-0.990196 58:-0.991416 59:-1 60:-0.961525 61:-0.412417 
0.3705539160128374 1:-0.966291 2:-0.151627 3:-0.766392 4:0.607187 5:0.434618 6:-0.162811 7:0.376909 8:-0.950733 9:-0.999237 10:-0.440119 11:0.587587 12:-0.999582 13:-0.180093 14:-0.999508 15:-0.931895 16:-0.961837 17:-0.868669 18:-0.893755 19:-0.863186 20:-0.907728 21:-0.915405 22:-0.898038 23:-0.906092 24:-0.894102 25:-0.911284 26:-0.903036 27:-0.908061 28:-0.924929 29:-0.907369 30:-0.944339 31:-0.968616 32:-0.983581 33:-0.974523 34:-0.992074 35:-0.999843 36:-0.998716 37:-0.998404 38:-0.988686 39:-0.991621 40:-0.992977 41:-0.985511 42:-0.976914 43:-0.929065 44:-0.948963 45:-0.93985 46:-0.926387 47:-0.968561 48:-0.962362 49:-0.986178 50:-0.994265 51:-0.996503 52:-0.996411 53:-0.99889 54:-1 55:-1 56:-0.997593 57:-1 58:-0.974249 59:-0.971831 60:-0.961128 61:-0.417525 
0.05390576586359034 1:-0.974135 2:-0.111497 3:-0.762493 4:0.623539 5:0.439917 6:-0.115875 7:0.38937 8:-0.944495 9:-0.999656 10:-0.440127 11:0.587627 12:-0.999732 13:-0.180104 14:-0.999708 15:-0.938225 16:-0.969833 17:-0.916654 18:-0.955351 19:-0.926634 20:-0.950912 21:-0.926456 22:-0.919235 23:-0.92835 24:-0.928195 25:-0.914797 26:-0.925636 27:-0.920408 28:-0.92597 29:-0.915443 30:-0.931529 31:-0.94772 32:-0.955863 33:-0.978634 34:-0.994117 35:-0.999843 36:-0.99945 37:-0.998603 38:-0.998491 39:-0.99581 40:-0.99699 41:-0.995019 42:-0.996622 43:-0.988945 44:-0.979798 45:-0.974552 46:-0.979615 47:-0.973398 48:-0.954575 49:-0.965446 50:-0.949821 51:-0.959207 52:-0.973684 53:-0.972253 54:-0.969099 55:-0.970213 56:-0.983153 57:-0.97549 58:-0.965665 59:-0.971831 60:-0.964685 61:-0.428302 
0.618319089638006 1:-0.978022 2:0.0162994 3:-0.71845 4:0.69715 5:0.435185 6:0.0028988 7:0.377434 8:-0.958192 9:-0.999676 10:-0.440134 11:0.587609 12:-0.999773 13:-0.180114 14:-0.999756 15:-0.935861 16:-0.899286 17:-0.91998 18:-0.924037 19:-0.902215 20:-0.934072 21:-0.917771 22:-0.934281 23:-0.924772 24:-0.929468 25:-0.930499 26:-0.934759 27:-0.928833 28:-0.950034 29:-0.942435 30:-0.964889 31:-0.964848 32:-0.986926 33:-0.972231 34:-0.985218 35:-1 36:-0.999633 37:-1 38:-0.996983 39:-0.997382 40:-0.995987 41:-0.995472 42:-0.984797 43:-0.974205 44:-0.971292 45:-0.961828 46:-0.96376 47:-0.962515 48:-0.950681 49:-0.969592 50:-0.981362 51:-0.982517 52:-0.991627 53:-0.99778 54:-0.998283 55:-1 56:-1 57:-0.995098 58:-1 59:-1 60:-0.967355 61:-0.388886 
0.7336739121786848 1:-0.976255 2:0.0650226 3:-0.572831 4:0.801791 5:0.464101 6:-0.0547971 7:0.390589 8:-0.946311 9:-0.999507 10:-0.440132 11:0.587597 12:-0.999709 13:-0.180105 14:-0.999679 15:-0.962766 16:-0.92278 17:-0.897333 18:-0.920944 19:-0.888098 20:-0.938129 21:-0.884274 22:-0.946733 23:-0.88721 24:-0.94578 25:-0.890419 26:-0.961206 27:-0.90655 28:-0.962909 29:-0.914693 30:-0.963414 31:-0.970198 32:-0.965703 33:-0.973344 34:-0.971559 35:-0.999059 36:-0.994498 37:-0.985632 38:-0.956628 39:-0.962294 40:-0.992308 41:-0.995019 42:-0.997748 43:-1 44:-1 45:-1 46:-1 47:-1 48:-1 49:-1 50:-1 51:-1 52:-1 53:-1 54:-1 55:-1 56:-1 57:-1 58:-1 59:-1 60:-0.94687 61:-0.325945 
0.953136748625465 1:-0.974135 2:0.0433782 3:-0.559294 4:0.79565 5:0.48086 6:-0.100882 7:0.408001 8:-0.930449 9:-0.999539 10:-0.440138 11:0.587603 12:-0.999626 13:-0.180098 14:-0.999599 15:-0.981783 16:-0.960517 17:-0.964208 18:-0.982019 19:-0.935474 20:-0.959997 21:-0.920842 22:-0.966893 23:-0.87054 24:-0.961257 25:-0.865639 26:-0.941534 27:-0.899932 28:-0.959315 29:-0.909098 30:-0.978444 31:-0.968206 32:-0.98243 33:-0.975275 34:-0.97435 35:-1 36:-0.999083 37:-1 38:-0.996606 39:-0.99581 40:-0.995652 41:-0.995019 42:-0.996059 43:-0.989866 44:-0.977671 45:-0.987276 46:-0.97735 47:-0.967352 48:-0.970149 49:-0.954388 50:-0.962724 51:-0.965035 52:-0.967703 53:-0.968923 54:-0.958798 55:-0.970213 56:-0.983153 57:-0.970588 58:-0.974249 59:-0.859155 60:-0.958649 61:-0.348714 
0.4511427599196361 1:-0.962687 2:-0.189379 3:-0.584283 4:0.687988 5:0.48127 6:-0.343118 7:0.38873 8:-0.924711 9:-0.999284 10:-0.440137 11:0.587409 12:-0.999318 13:-0.180101 14:-0.999316 15:-0.976927 16:-0.866771 17:-0.956359 18:-0.894227 19:-0.898837 20:-0.941957 21:-0.88758 22:-0.958462 23:-0.888172 24:-0.967404 25:-0.895391 26:-0.962702 27:-0.896373 28:-0.955301 29:-0.89867 30:-0.952172 31:-0.965728 32:-0.977112 33:-0.9686 34:-0.985134 35:-0.999216 36:-0.997983 37:-0.995011 38:-0.991326 39:-0.991097 40:-0.993645 41:-0.990944 42:-0.990428 43:-0.982497 44:-0.989367 45:-0.965298 46:-0.958097 47:-0.952842 48:-0.936405 49:-0.955771 50:-0.938351 51:-0.955711 52:-0.938995 53:-0.982242 54:-0.972532 55:-0.993617 56:-0.997593 57:-0.990196 58:-0.974249 59:-1 60:-0.951013 61:-0.394289 
0.06226296934604568 1:-0.948765 2:-0.23348 3:-0.590996 4:0.661056 5:0.503496 6:-0.39806 7:0.409977 8:-0.893708 9:-0.999034 10:-0.440139 11:0.587968 12:-0.998787 13:-0.179432 14:-0.998781 15:-0.967135 16:-0.965389 17:-0.935557 18:-0.934115 19:-0.936975 20:-0.955721 21:-0.887577 22:-0.95247 23:-0.863828 24:-0.950633 25:-0.88392 26:-0.946802 27:-0.88647 28:-0.950149 29:-0.889901 30:-0.955448 31:-0.896605 32:-0.959222 33:-0.971469 34:-0.96866 35:-0.999294 36:-0.993948 37:-0.987228 38:-0.988686 39:-0.976957 40:-0.98796 41:-0.986869 42:-0.992117 43:-0.984339 44:-0.965976 45:-0.956044 46:-0.930917 47:-0.927449 48:-0.913043 49:-0.918452 50:-0.939785 51:-0.95338 52:-0.970096 53:-0.991121 54:-0.977682 55:-0.993617 56:-0.997593 57:-0.990196 58:-1 59:-0.971831 60:-0.94811 61:-0.432982 
0.6165185653499834 1:-0.949896 2:-0.311434 3:-0.610562 4:0.610698 5:0.481661 6:-0.490046 7:0.376046 8:-0.919661 9:-0.998867 10:-0.44013 11:0.587611 12:-0.999117 13:-0.180102 14:-0.999064 15:-0.970507 16:-0.986283 17:-0.940435 18:-0.955739 19:-0.917603 20:-0.890154 21:-0.910181 22:-0.880008 23:-0.892204 24:-0.894079 25:-0.88087 26:-0.892943 27:-0.882142 28:-0.901081 29:-0.897058 30:-0.933382 31:-0.973224 32:-0.974352 33:-0.971088 34:-0.972098 35:-0.999686 36:-0.997799 37:-0.996009 38:-0.980766 39:-0.974339 40:-0.989298 41:-0.983699 42:-0.984234 43:-0.978812 44:-0.960659 45:-0.962984 46:-0.942242 47:-0.931076 48:-0.924724 49:-0.911541 50:-0.889606 51:-0.960373 52:-0.972488 53:-0.988901 54:-0.991416 55:-0.987234 56:-0.995187 57:-1 58:-0.991416 59:-1 60:-0.951813 61:-0.440082 
0.3619591588412013 1:-0.938235 2:-0.452588 3:-0.635211 4:0.534182 5:0.512836 6:-0.623828 7:0.39221 8:-0.861204 9:-0.99842 10:-0.440215 11:0.586369 12:-0.997793 13:-0.180094 14:-0.997949 15:-0.975974 16:-0.905328 17:-0.960316 18:-0.814082 19:-0.958597 20:-0.854028 21:-0.902 22:-0.880437 23:-0.87499 24:-0.947435 25:-0.872844 26:-0.95426 27:-0.883814 28:-0.951461 29:-0.879307 30:-0.950473 31:-0.920875 32:-0.952228 33:-0.970314 34:-0.963088 35:-0.999843 36:-0.995782 37:-0.988226 38:-0.971337 39:-0.96177 40:-0.979599 41:-0.983247 42:-0.983671 43:-0.979733 44:-0.979798 45:-0.95373 46:-0.949037 47:-0.934704 48:-0.932511 49:-0.944713 50:-0.936918 51:-0.944056 52:-0.944976 53:-0.954495 54:-0.967382 55:-0.968085 56:-0.975933 57:-0.95098 58:-0.93133 59:-0.887324 60:-0.949634 61:-0.537379 
0.1301173364507909 1:-0.934137 2:-0.500824 3:-0.6487 4:0.490135 5:0.491293 6:-0.696844 7:0.359894 8:-0.89589 9:-0.998691 10:-0.440127 11:0.587626 12:-0.997925 13:-0.180069 14:-0.997981 15:-0.955421 16:-0.967353 17:-0.964357 18:-0.978009 19:-0.958968 20:-0.977097 21:-0.936851 22:-0.960585 23:-0.899046 24:-0.892036 25:-0.8912 26:-0.892072 27:-0.88682 28:-0.918333 29:-0.875916 30:-0.935373 31:-0.907226 32:-0.958351 33:-0.965694 34:-0.961422 35:-0.999843 36:-0.995599 37:-0.988825 38:-0.968697 39:-0.960723 40:-0.980602 41:-0.981435 42:-0.983671 43:-0.97789 44:-0.953216 45:-0.951417 46:-0.928652 47:-0.883918 48:-0.894873 49:-0.881133 50:-0.91828 51:-0.969697 52:-0.982057 53:-0.984462 54:-0.987983 55:-0.991489 56:-0.995187 57:-0.990196 58:-0.991416 59:-0.915493 60:-0.953949 61:-0.536187 
0.6698802460748607 1:-0.911523 2:-0.706287 3:-0.691082 4:0.338446 5:0.513513 6:-0.900342 7:0.32668 8:-0.832395 9:-0.996835 10:-0.440149 11:0.587552 12:-0.99604 13:-0.180095 14:-0.996353 15:-0.933256 16:-0.69817 17:-0.936426 18:-0.80702 19:-0.958426 20:-0.867149 21:-0.916412 22:-0.927561 23:-0.90528 24:-0.855342 25:-0.885449 26:-0.894736 27:-0.888917 28:-0.928514 29:-0.87308 30:-0.940994 31:-0.909406 32:-0.941742 33:-0.948482 34:-0.95617 35:-0.999137 36:-0.989547 37:-0.979445 38:-0.935885 39:-0.935062 40:-0.977926 41:-0.979624 42:-0.980293 43:-0.964072 44:-0.965976 45:-0.937536 46:-0.938845 47:-0.916566 48:-0.881895 49:-0.860401 50:-0.85233 51:-0.946387 52:-0.980861 53:-0.984462 54:-0.9897 55:-0.980851 56:-0.990373 57:-0.970588 58:-1 59:-1 60:-0.951531 61:-0.614413 
0.4623631731889682 1:-0.906152 2:-0.766874 3:-0.710648 4:0.278666 5:0.510744 6:-0.953733 7:0.300568 8:-0.828499 9:-0.996979 10:-0.440028 11:0.587498 12:-0.996009 13:-0.180111 14:-0.996308 15:-0.961112 16:-0.705363 17:-0.961771 18:-0.802823 19:-0.955808 20:-0.856354 21:-0.939207 22:-0.897565 23:-0.913916 24:-0.894594 25:-0.877524 26:-0.924231 27:-0.877094 28:-0.945892 29:-0.873717 30:-0.947857 31:-0.906368 32:-0.942432 33:-0.957006 34:-0.951568 35:-0.997412 36:-0.986613 37:-0.978048 38:-0.941165 39:-0.92773 40:-0.973913 41:-0.971927 42:-0.984797 43:-0.971442 44:-0.967039 45:-0.954887 46:-0.933182 47:-0.933495 48:-0.916937 49:-0.90463 50:-0.908244 51:-0.93007 52:-0.950957 53:-0.942286 54:-0.963948 55:-0.955319 56:-0.951865 57:-0.926471 58:-0.965665 59:-0.774648 60:-0.953452 61:-0.657405 
0.3060510458492778 1:-0.896117 2:-0.803539 3:-0.725115 4:0.220856 5:0.502541 6:-0.987616 7:0.271263 8:-0.837123 9:-0.996212 10:-0.433784 11:0.587611 12:-0.995354 13:-0.187865 14:-0.995732 15:-0.928022 16:-0.715209 17:-0.936912 18:-0.801398 19:-0.942746 20:-0.869015 21:-0.928344 22:-0.909569 23:-0.89439 24:-0.87475 25:-0.89518 26:-0.884722 27:-0.887518 28:-0.903963 29:-0.888602 30:-0.909269 31:-0.914645 32:-0.927976 33:-0.961385 34:-0.932054 35:-0.996236 36:-0.983495 37:-0.971064 38:-0.904959 39:-0.92354 40:-0.97291 41:-0.97736 42:-0.984797 43:-0.950253 44:-0.955343 45:-0.951417 46:-0.930917 47:-0.918984 48:-0.907852 49:-0.900484 50:-0.898208 51:-0.938228 52:-0.9689 53:-0.968923 54:-0.974249 55:-0.970213 56:-0.971119 57:-0.990196 58:-0.974249 59:-0.971831 60:-0.956779 61:-0.709391 
9.797494027676427 1:-0.987421 2:-0.801238 3:-0.74735 4:0.188778 5:0.644861 6:-0.997503 7:0.26967 8:-0.320562 9:-0.99997 10:-0.440132 11:0.587597 12:-0.999924 13:-0.180106 14:-0.999929 15:-0.984505 16:-0.934676 17:-0.976909 18:-0.934437 19:-0.977325 20:-0.952902 21:-0.985083 22:-0.959814 23:-0.986865 24:-0.957034 25:-0.984567 26:-0.945657 27:-0.986297 28:-0.950728 29:-0.988823 30:-0.979959 31:-0.986568 32:-0.995842 33:-0.992313 34:-0.996336 35:-0.99749 36:-0.983862 37:-0.995011 38:-0.996983 39:-0.998429 40:-0.997659 41:-0.999094 42:-0.997748 43:-0.996315 44:-0.99681 45:-0.998843 46:-1 47:-1 48:-0.998702 49:-1 50:-1 51:-0.998834 52:-1 53:-0.99889 54:-1 55:-1 56:-1 57:-0.995098 58:-1 59:-1 60:-0.983239 61:-0.92546 
1.465484231621974 1:-0.96304 2:-0.824245 3:-0.739245 4:0.185914 5:0.566048 6:-0.998059 7:0.259443 8:-0.65383 9:-0.999784 10:-0.440146 11:0.587586 12:-0.999222 13:-0.180126 14:-0.999304 15:-0.973204 16:-0.957732 17:-0.945651 18:-0.946778 19:-0.974489 20:-0.957584 21:-0.965964 22:-0.934947 23:-0.966014 24:-0.932274 25:-0.96911 26:-0.939983 27:-0.94322 28:-0.947765 29:-0.967024 30:-0.945726 31:-0.958166 32:-0.964825 33:-0.978922 34:-0.973844 35:-0.994432 36:-0.975977 37:-0.983436 38:-0.962663 39:-0.9801 40:-0.992308 41:-0.993208 42:-0.985923 43:-0.993551 44:-0.994684 45:-0.995373 46:-0.994337 47:-0.998791 48:-0.996106 49:-1 50:-0.995699 51:-0.997669 52:-0.998804 53:-0.99778 54:-0.996567 55:-0.993617 56:-0.997593 57:-0.990196 58:-1 59:-1 60:-0.981508 61:-0.905276 
0.3418423010932812 1:-0.924172 2:-0.835841 3:-0.76441 4:0.192813 5:0.521554 6:-0.996033 7:0.261824 8:-0.762822 9:-0.998186 10:-0.440256 11:0.587496 12:-0.997765 13:-0.181256 14:-0.997845 15:-0.925282 16:-0.909702 17:-0.952544 18:-0.832026 19:-0.957448 20:-0.853065 21:-0.974483 22:-0.867196 23:-0.967151 24:-0.872156 25:-0.925161 26:-0.884448 27:-0.940331 28:-0.888136 29:-0.948359 30:-0.904439 31:-0.964361 32:-0.912682 33:-0.931022 34:-0.919402 35:-0.988079 36:-0.96424 37:-0.952904 38:-0.934 39:-0.96596 40:-0.983278 41:-0.984605 42:-0.980293 43:-0.959466 44:-0.969165 45:-0.983806 46:-0.994337 47:-0.991536 48:-0.992213 49:-0.991707 50:-0.994265 51:-0.995338 52:-0.997608 53:-0.99556 54:-0.99485 55:-0.991489 56:-0.995187 57:-1 58:-1 59:-1 60:-0.968929 61:-0.837083 
0.3218372118669193 1:-0.894067 2:-0.843361 3:-0.778489 4:0.199714 5:0.500982 6:-0.993611 7:0.264816 8:-0.806379 9:-0.996781 10:-0.440227 11:0.587698 12:-0.995601 13:-0.180417 14:-0.995759 15:-0.906678 16:-0.785915 17:-0.9125 18:-0.793503 19:-0.930921 20:-0.873323 21:-0.966331 22:-0.880402 23:-0.930996 24:-0.853896 25:-0.933128 26:-0.852562 27:-0.953459 28:-0.890101 29:-0.948516 30:-0.883795 31:-0.952363 32:-0.893755 33:-0.964513 34:-0.948448 35:-0.988079 36:-0.971575 37:-0.976452 38:-0.920422 39:-0.908353 40:-0.972575 41:-0.966946 42:-0.967905 43:-0.949332 44:-0.955343 45:-0.931752 46:-0.95017 47:-0.94075 48:-0.944192 49:-0.957153 50:-0.94552 51:-0.944056 52:-0.967703 53:-0.978912 54:-0.993133 55:-0.993617 56:-0.978339 57:-0.990196 58:-0.974249 59:-0.915493 60:-0.962996 61:-0.775766 
5.820549955075417 1:-0.897106 2:-0.887465 3:-0.851124 4:0.208733 5:0.473241 6:-0.985756 7:0.276115 8:-0.809772 9:-0.996693 10:-0.440101 11:0.587082 12:-0.99549 13:-0.182589 14:-0.995918 15:-0.823159 16:-0.934215 17:-0.849064 18:-0.945219 19:-0.893973 20:-0.950423 21:-0.958678 22:-0.892683 23:-0.946349 24:-0.820096 25:-0.955834 26:-0.837633 27:-0.963361 28:-0.845622 29:-0.957826 30:-0.873802 31:-0.961559 32:-0.886039 33:-0.955563 34:-0.951752 35:-0.988471 36:-0.984045 37:-0.967871 38:-0.914388 39:-0.942393 40:-0.981605 41:-0.981435 42:-0.972973 43:-0.931829 44:-0.937267 45:-0.913245 46:-0.947905 47:-0.922612 48:-0.928618 49:-0.892191 50:-0.928315 51:-0.969697 52:-0.979665 53:-0.986681 54:-0.982833 55:-0.976596 56:-0.995187 57:-0.980392 58:-1 59:-1 60:-0.952576 61:-0.70388 
0.9608386331656591 1:-0.899226 2:-0.934599 3:-0.917117 4:0.200219 5:0.455065 6:-0.982845 7:0.284207 8:-0.76207 9:-0.997244 10:-0.440146 11:0.587421 12:-0.99635 13:-0.180072 14:-0.996426 15:-0.835591 16:-0.899015 17:-0.849982 18:-0.876875 19:-0.916021 20:-0.917185 21:-0.946275 22:-0.917318 23:-0.923962 24:-0.916041 25:-0.914476 26:-0.927853 27:-0.932201 28:-0.910794 29:-0.935879 30:-0.906428 31:-0.941974 32:-0.916286 33:-0.950848 34:-0.934792 35:-0.994432 36:-0.986796 37:-0.967272 38:-0.904959 39:-0.9094 40:-0.977258 41:-0.974643 42:-0.960586 43:-0.953938 44:-0.919192 45:-0.928282 46:-0.925255 47:-0.920193 48:-0.929916 49:-0.940567 50:-0.959857 51:-0.982517 52:-0.991627 53:-0.991121 54:-0.981116 55:-0.987234 56:-0.990373 57:-0.980392 58:-0.974249 59:-1 60:-0.960981 61:-0.735254 
1.447517674940551 1:-0.926151 2:-0.942691 3:-0.939633 4:0.196069 5:0.419924 6:-0.981997 7:0.273543 8:-0.874555 9:-0.998364 10:-0.440141 11:0.587561 12:-0.998746 13:-0.180124 14:-0.998711 15:-0.969097 16:-0.949202 17:-0.956044 18:-0.937018 19:-0.941851 20:-0.949954 21:-0.937808 22:-0.830785 23:-0.926843 24:-0.813094 25:-0.932763 26:-0.82423 27:-0.941189 28:-0.900614 29:-0.939497 30:-0.915312 31:-0.941279 32:-0.909384 33:-0.968755 34:-0.941581 35:-0.995922 36:-0.991564 37:-0.984235 38:-0.940411 39:-0.941346 40:-0.976923 41:-0.973285 42:-0.969595 43:-0.953017 44:-0.942584 45:-0.920185 46:-0.93205 47:-0.941959 48:-0.937703 49:-0.972357 50:-0.975627 51:-0.990676 52:-0.990431 53:-0.987791 54:-0.9897 55:-0.993617 56:-0.98556 57:-0.980392 58:-0.948498 59:-1 60:-0.963727 61:-0.741549 
3.478098270101786 1:-0.897177 2:-0.942691 3:-0.936874 4:0.196944 5:0.440433 6:-0.981435 7:0.284781 8:-0.775262 9:-0.997714 10:-0.440096 11:0.587572 12:-0.996758 13:-0.180073 14:-0.996969 15:-0.949142 16:-0.943114 17:-0.937756 18:-0.914705 19:-0.929378 20:-0.940608 21:-0.925708 22:-0.928556 23:-0.927071 24:-0.857219 25:-0.924968 26:-0.797138 27:-0.932425 28:-0.823223 29:-0.938442 30:-0.90029 31:-0.941279 32:-0.909384 33:-0.967201 34:-0.937889 35:-0.994746 36:-0.984412 37:-0.972461 38:-0.869131 39:-0.920398 40:-0.973579 41:-0.968757 42:-0.960023 43:-0.949332 44:-0.933014 45:-0.917872 46:-0.92752 47:-0.938331 48:-0.937703 49:-0.970974 50:-0.975627 51:-0.987179 52:-0.990431 53:-0.986681 54:-0.984549 55:-0.991489 56:-0.98556 57:-0.980392 58:-0.948498 59:-1 60:-0.965403 61:-0.772643 
32 1:-0.931239 2:-0.953734 3:-0.945976 4:0.194264 5:0.43227 6:-0.981781 7:0.283309 8:-0.789235 9:-0.999163 10:-0.440149 11:0.587505 12:-0.998075 13:-0.18002 14:-0.998255 15:-0.960991 16:-0.941506 17:-0.965176 18:-0.966668 19:-0.917598 20:-0.945515 21:-0.933295 22:-0.950099 23:-0.94133 24:-0.910766 25:-0.938748 26:-0.893082 27:-0.939726 28:-0.929007 29:-0.941614 30:-0.925925 31:-0.940628 32:-0.930542 33:-0.956921 34:-0.961159 35:-0.984315 36:-0.986796 37:-0.976651 38:-0.923817 39:-0.930872 40:-0.985953 41:-0.987775 42:-0.984797 43:-0.980654 44:-0.968102 45:-0.982649 46:-0.970555 47:-0.984281 48:-0.983128 49:-0.986178 50:-0.98853 51:-0.997669 52:-0.995215 53:-0.994451 54:-0.996567 55:-0.995745 56:-0.99278 57:-0.990196 58:-0.991416 59:-1 60:-0.972175 61:-0.857468 
1.819621266621776 1:-0.965726 2:-0.582841 3:-0.648268 4:-0.116125 5:0.465234 6:-0.777882 7:0.162332 8:-0.933912 9:-0.999647 10:-0.440141 11:0.587591 12:-0.999087 13:-0.180109 14:-0.999138 15:-0.970818 16:-0.922143 17:-0.98538 18:-0.975931 19:-0.978566 20:-0.981861 21:-0.981702 22:-0.985569 23:-0.964864 24:-0.967929 25:-0.913918 26:-0.93348 27:-0.910897 28:-0.937381 29:-0.91093 30:-0.958984 31:-0.922819 32:-0.976616 33:-0.953151 34:-0.983239 35:-0.998039 36:-0.991198 37:-0.989224 38:-0.98152 39:-0.980623 40:-0.989967 41:-0.985511 42:-0.980856 43:-0.981575 44:-0.977671 45:-0.980335 46:-0.975085 47:-0.975816 48:-0.972745 49:-0.98065 50:-0.987097 51:-0.981352 52:-0.989234 53:-0.99667 54:-0.998283 55:-1 56:-0.995187 57:-0.995098 58:-1 59:-0.915493 60:-0.97369 61:-0.809035 
2.419620122880125 1:-0.97781 2:-0.515104 3:-0.609082 4:-0.150822 5:0.550823 6:-0.748336 7:0.0948295 8:-0.802846 9:-0.9999 10:-0.440132 11:0.587588 12:-0.99954 13:-0.180118 14:-0.999584 15:-0.969642 16:-0.906052 17:-0.976596 18:-0.974253 19:-0.964525 20:-0.962871 21:-0.960281 22:-0.966835 23:-0.961426 24:-0.973044 25:-0.963791 26:-0.9885 27:-0.971162 28:-0.985976 29:-0.957576 30:-0.964218 31:-0.960666 32:-0.968316 33:-0.980738 34:-0.97203 35:-0.997177 36:-0.993215 37:-0.993414 38:-0.992457 39:-0.995287 40:-0.997324 41:-0.995472 42:-0.993243 43:-0.990788 44:-0.99362 45:-0.989589 46:-0.99094 47:-0.98549 48:-0.990915 49:-0.984796 50:-0.989964 51:-0.98951 52:-0.988038 53:-0.985572 54:-0.972532 55:-0.985106 56:-0.968712 57:-0.985294 58:-0.939914 59:-0.887324 60:-0.951955 61:-0.694496 
0.1128730162836642 1:-0.909473 2:-0.525323 3:-0.499444 4:-0.116464 5:0.469666 6:-0.842928 7:0.183557 8:-0.947674 9:-0.997787 10:-0.440089 11:0.587697 12:-0.995704 13:-0.177696 14:-0.995949 15:-0.92324 16:-0.737267 17:-0.938622 18:-0.821894 19:-0.955808 20:-0.878165 21:-0.965512 22:-0.870436 23:-0.933458 24:-0.888318 25:-0.933309 26:-0.918098 27:-0.931098 28:-0.935007 29:-0.929363 30:-0.934572 31:-0.938011 32:-0.923371 33:-0.964558 34:-0.940393 35:-0.994353 36:-0.973042 37:-0.987827 38:-0.975108 39:-0.982718 40:-0.987625 41:-0.974191 42:-0.946509 43:-0.913404 44:-0.894737 45:-0.901677 46:-0.943375 47:-0.938331 48:-0.926022 49:-0.932274 50:-0.942652 51:-0.961538 52:-0.956938 53:-0.963374 54:-0.948498 55:-0.96383 56:-0.956679 57:-0.936275 58:-0.914163 59:-0.971831 60:-0.931069 61:-0.497445 
0.5233964524467433 1:-0.922688 2:-0.535041 3:-0.474355 4:-0.0879376 5:0.451699 6:-0.879555 7:0.200511 8:-0.9649 9:-0.998923 10:-0.440142 11:0.587546 12:-0.996473 13:-0.17996 14:-0.996792 15:-0.973225 16:-0.903743 17:-0.942868 18:-0.920658 19:-0.93917 20:-0.923897 21:-0.942083 22:-0.926246 23:-0.936414 24:-0.901666 25:-0.949773 26:-0.923995 27:-0.944388 28:-0.919238 29:-0.926333 30:-0.928258 31:-0.945736 32:-0.939577 33:-0.972513 34:-0.931406 35:-0.996392 36:-0.98973 37:-0.992816 38:-0.984914 39:-0.982718 40:-0.987291 41:-0.985963 42:-0.970158 43:-0.929065 44:-0.89261 45:-0.903991 46:-0.9094 47:-0.929867 48:-0.924724 49:-0.947478 50:-0.936918 51:-0.95338 52:-0.952153 53:-0.974473 54:-0.969099 55:-0.953191 56:-0.932611 57:-0.916667 58:-0.776824 59:-0.690141 60:-0.933094 61:-0.426123 
0.2214978302369166 1:-0.915197 2:-0.539385 3:-0.452149 4:-0.061716 5:0.477125 6:-0.907082 7:0.196271 8:-0.94616 9:-0.997912 10:-0.440113 11:0.587519 12:-0.996415 13:-0.180044 14:-0.996552 15:-0.938292 16:-0.768894 17:-0.943866 18:-0.824477 19:-0.95175 20:-0.871273 21:-0.943341 22:-0.891156 23:-0.909636 24:-0.900311 25:-0.914904 26:-0.913178 27:-0.944723 28:-0.905651 29:-0.930248 30:-0.925914 31:-0.935754 32:-0.937168 33:-0.97867 34:-0.934847 35:-0.998039 36:-0.991748 37:-0.989224 38:-0.989063 39:-0.97172 40:-0.982609 41:-0.967399 42:-0.951014 43:-0.894058 44:-0.901116 45:-0.892423 46:-0.92299 47:-0.935913 48:-0.944192 49:-0.94886 50:-0.939785 51:-0.965035 52:-0.950957 53:-0.950055 54:-0.950215 55:-0.944681 56:-0.937425 57:-0.921569 58:-0.845494 59:-0.71831 60:-0.930817 61:-0.390322 
0.3341259328517864 1:-0.916328 2:-0.544406 3:-0.442297 4:-0.0445705 5:0.457686 6:-0.922004 7:0.207585 8:-0.962433 9:-0.998004 10:-0.440113 11:0.587482 12:-0.996134 13:-0.180089 14:-0.996352 15:-0.939519 16:-0.841306 17:-0.94471 18:-0.875562 19:-0.971085 20:-0.922428 21:-0.898364 22:-0.932419 23:-0.8762 24:-0.895381 25:-0.874769 26:-0.913293 27:-0.918865 28:-0.914927 29:-0.918173 30:-0.91437 31:-0.957074 32:-0.932323 33:-0.977035 34:-0.942544 35:-0.995608 36:-0.986613 37:-0.991219 38:-0.976617 39:-0.964912 40:-0.971906 41:-0.961512 42:-0.938063 43:-0.889452 44:-0.883041 45:-0.912088 46:-0.930917 47:-0.950423 48:-0.957171 49:-0.935038 50:-0.952688 51:-0.974359 52:-0.98445 53:-0.985572 54:-0.981116 55:-0.957447 56:-0.990373 57:-0.995098 58:-0.991416 59:-1 60:-0.935966 61:-0.450215 
0.1957241382531376 1:-0.899438 2:-0.611072 3:-0.475952 4:0.0354855 5:0.464431 6:-0.968293 7:0.218026 8:-0.95385 9:-0.9973 10:-0.440128 11:0.587619 12:-0.995655 13:-0.180071 14:-0.995898 15:-0.913711 16:-0.775664 17:-0.97945 18:-0.821709 19:-0.962987 20:-0.863856 21:-0.953658 22:-0.880255 23:-0.907642 24:-0.86117 25:-0.908185 26:-0.875836 27:-0.913378 28:-0.887486 29:-0.911852 30:-0.886468 31:-0.929926 32:-0.920843 33:-0.974378 34:-0.945463 35:-0.992785 36:-0.982395 37:-0.989224 38:-0.983406 39:-0.983242 40:-0.982274 41:-0.961965 42:-0.934122 43:-0.882082 44:-0.861776 45:-0.878543 46:-0.899207 47:-0.934704 48:-0.928618 49:-0.954388 50:-0.951254 51:-0.968531 52:-0.962919 53:-0.954495 54:-0.967382 55:-0.931915 56:-0.932611 57:-0.838235 58:-0.896996 59:-0.915493 60:-0.929158 61:-0.445986 
0.3247551252817225 1:-0.900286 2:-0.618464 3:-0.490484 4:0.0479072 5:0.456985 6:-0.97334 7:0.221419 8:-0.95921 9:-0.997406 10:-0.440121 11:0.587312 12:-0.995916 13:-0.17955 14:-0.996118 15:-0.935257 16:-0.809139 17:-0.963187 18:-0.830774 19:-0.968287 20:-0.866601 21:-0.952822 22:-0.87938 23:-0.92302 24:-0.857549 25:-0.915248 26:-0.856909 27:-0.923091 28:-0.867705 29:-0.92499 30:-0.864143 31:-0.95086 32:-0.902567 33:-0.970453 34:-0.945416 35:-0.982354 36:-0.972859 37:-0.921573 38:-0.877428 39:-0.930348 40:-0.96689 41:-0.961965 42:-0.996059 43:-1 44:-1 45:-1 46:-1 47:-1 48:-1 49:-1 50:-1 51:-1 52:-1 53:-1 54:-1 55:-1 56:-1 57:-1 58:-1 59:-1 60:-0.929129 61:-0.429943 
0.06553626381225042 1:-0.899156 2:-0.641887 3:-0.524479 4:0.0648319 5:0.438352 6:-0.979102 7:0.226978 8:-0.971885 9:-0.997734 10:-0.440162 11:0.587541 12:-0.995981 13:-0.180094 14:-0.996158 15:-0.928736 16:-0.925373 17:-0.946615 18:-0.902824 19:-0.944975 20:-0.891339 21:-0.953228 22:-0.880611 23:-0.968998 24:-0.831914 25:-0.961117 26:-0.819705 27:-0.959738 28:-0.830279 29:-0.968905 30:-0.83274 31:-0.963972 32:-0.883354 33:-0.969255 34:-0.945319 35:-0.980315 36:-0.961489 37:-0.892836 38:-0.929097 39:-0.932443 40:-0.970569 41:-0.987775 42:-1 43:-1 44:-1 45:-1 46:-1 47:-1 48:-1 49:-1 50:-1 51:-1 52:-1 53:-1 54:-1 55:-1 56:-1 57:-1 58:-1 59:-1 60:-0.927855 61:-0.439205 
0.1931156115420473 1:-0.894774 2:-0.659133 3:-0.542401 4:0.065469 5:0.43997 6:-0.978576 7:0.226133 8:-0.969159 9:-0.997541 10:-0.44013 11:0.587522 12:-0.995887 13:-0.180103 14:-0.99609 15:-0.9059 16:-0.922359 17:-0.935157 18:-0.902857 19:-0.944002 20:-0.884532 21:-0.968233 22:-0.884994 23:-0.967399 24:-0.83412 25:-0.965308 26:-0.82249 27:-0.965292 28:-0.826265 29:-0.973443 30:-0.830731 31:-0.966767 32:-0.890934 33:-0.966589 34:-0.943604 35:-0.98604 36:-0.976893 37:-0.970066 38:-0.901188 39:-0.806756 40:-0.96087 41:-0.958343 42:-0.971847 43:-0.945647 44:-0.927698 45:-0.976865 46:-1 47:-1 48:-1 49:-0.998618 50:-1 51:-1 52:-1 53:-1 54:-1 55:-1 56:-1 57:-1 58:-1 59:-1 60:-0.929515 61:-0.451326 
0.3234202441586309 1:-0.890393 2:-0.677016 3:-0.561338 4:0.0631405 5:0.438262 6:-0.976613 7:0.225388 8:-0.969337 9:-0.997577 10:-0.440179 11:0.587705 12:-0.995547 13:-0.180054 14:-0.995786 15:-0.90302 16:-0.902428 17:-0.956697 18:-0.887666 19:-0.971284 20:-0.885323 21:-0.978117 22:-0.861663 23:-0.963177 24:-0.836212 25:-0.957976 26:-0.836025 27:-0.960299 28:-0.835412 29:-0.963089 30:-0.83896 31:-0.966877 32:-0.885372 33:-0.972943 34:-0.942987 35:-0.992628 36:-0.984045 37:-0.985632 38:-0.979634 39:-0.97591 40:-0.984615 41:-0.970115 42:-0.947635 43:-0.874712 44:-0.803296 45:-0.766339 46:-0.894677 47:-0.949214 48:-0.964958 49:-0.943331 50:-0.958423 51:-0.97669 52:-0.966507 53:-0.975583 54:-0.945064 55:-0.925532 56:-0.935018 57:-0.79902 58:-0.793991 59:-0.661972 60:-0.930072 61:-0.455968 
0.7776494087833428 1:-0.878167 2:-0.754207 3:-0.707019 4:0.0160065 5:0.433617 6:-0.924931 7:0.207023 8:-0.959874 9:-0.996747 10:-0.440106 11:0.587408 12:-0.995616 13:-0.180137 14:-0.995732 15:-0.949624 16:-0.916714 17:-0.960028 18:-0.911021 19:-0.93769 20:-0.812554 21:-0.939823 22:-0.827085 23:-0.925621 24:-0.84034 25:-0.929437 26:-0.842133 27:-0.937877 28:-0.846642 29:-0.941763 30:-0.842186 31:-0.959565 32:-0.874357 33:-0.957093 34:-0.939296 35:-0.983609 36:-0.980378 37:-0.986031 38:-0.978503 39:-0.971197 40:-0.977592 41:-0.959248 42:-0.949324 43:-0.874712 44:-0.811802 45:-0.798728 46:-0.892412 47:-0.929867 48:-0.944192 49:-0.966828 50:-0.956989 51:-0.9662 52:-0.966507 53:-0.986681 54:-0.972532 55:-0.942553 56:-0.925391 57:-0.75 58:-0.742489 59:-0.408451 60:-0.928965 61:-0.528379 
32 1:-0.914773 2:-0.815937 3:-0.77328 4:0.0722061 5:0.455087 6:-0.962666 7:0.205569 8:-0.915074 9:-0.998575 10:-0.440141 11:0.587529 12:-0.997346 13:-0.179762 14:-0.997496 15:-0.960941 16:-0.825952 17:-0.944146 18:-0.864493 19:-0.947419 20:-0.907011 21:-0.951226 22:-0.92197 23:-0.95409 24:-0.920766 25:-0.945415 26:-0.909684 27:-0.943587 28:-0.905377 29:-0.935906 30:-0.912238 31:-0.938987 32:-0.92769 33:-0.95332 34:-0.944391 35:-0.990903 36:-0.989547 37:-0.988226 38:-0.9868 39:-0.97172 40:-0.965217 41:-0.952456 42:-0.95214 43:-0.933671 44:-0.912812 45:-0.917872 46:-0.92299 47:-0.951632 48:-0.94549 49:-0.950242 50:-0.96129 51:-0.9662 52:-0.973684 53:-0.980022 54:-0.974249 55:-0.974468 56:-0.973526 57:-0.95098 58:-0.828326 59:-0.464789 60:-0.934703 61:-0.552575 
0.1591673258593516 1:-0.943748 2:-0.541009 3:-0.352508 4:0.194107 5:0.509071 6:-0.998218 7:0.249221 8:-0.926904 9:-0.998822 10:-0.440096 11:0.587567 12:-0.998374 13:-0.1801 14:-0.998403 15:-0.85741 16:-0.95469 17:-0.891878 18:-0.936062 19:-0.907469 20:-0.942597 21:-0.928855 22:-0.938275 23:-0.933794 24:-0.927363 25:-0.924082 26:-0.912201 27:-0.932442 28:-0.914836 29:-0.941609 30:-0.910779 31:-0.949432 32:-0.931181 33:-0.965371 34:-0.950951 35:-0.998353 36:-0.992481 37:-0.986829 38:-0.975863 39:-0.97591 40:-0.986622 41:-0.982794 42:-0.973536 43:-0.961308 44:-0.9479 45:-0.930596 46:-0.96376 47:-0.967352 48:-0.966256 49:-0.957153 50:-0.967025 51:-0.980186 52:-0.97488 53:-0.977802 54:-0.957082 55:-0.955319 56:-0.959085 57:-0.931373 58:-0.948498 59:-0.859155 60:-0.953513 61:-0.629483 
0.3128761879851132 1:-0.947634 2:-0.476569 3:-0.268595 4:0.215935 5:0.501878 6:-0.996084 7:0.252218 8:-0.940721 9:-0.999224 10:-0.440148 11:0.587652 12:-0.998356 13:-0.180112 14:-0.998474 15:-0.970769 16:-0.870267 17:-0.979071 18:-0.877207 19:-0.985255 20:-0.90107 21:-0.979271 22:-0.911444 23:-0.956301 24:-0.918612 25:-0.944454 26:-0.923453 27:-0.912394 28:-0.932098 29:-0.913052 30:-0.919422 31:-0.911001 32:-0.936365 33:-0.945404 34:-0.950025 35:-0.998745 36:-0.989364 37:-0.986031 38:-0.974354 39:-0.970673 40:-0.983278 41:-0.975549 42:-0.970158 43:-0.951175 44:-0.959596 45:-0.969925 46:-0.973952 47:-0.970979 48:-0.966256 49:-0.959917 50:-0.956989 51:-0.97669 52:-0.985646 53:-0.99667 54:-0.986266 55:-0.974468 56:-0.975933 57:-0.985294 58:-0.982833 59:-1 60:-0.949389 61:-0.617284 
2.757680097220792 1:-0.96516 2:-0.461606 3:-0.255873 4:0.223333 5:0.516519 6:-0.995164 7:0.254531 8:-0.929846 9:-0.999732 10:-0.44014 11:0.587578 12:-0.999058 13:-0.180109 14:-0.999146 15:-0.979686 16:-0.951372 17:-0.986213 18:-0.958861 19:-0.979337 20:-0.944824 21:-0.989814 22:-0.94124 23:-0.95363 24:-0.937957 25:-0.942553 26:-0.943563 27:-0.941978 28:-0.955376 29:-0.929187 30:-0.9567 31:-0.937017 32:-0.964392 33:-0.952862 34:-0.97295 35:-0.986119 36:-0.971942 37:-0.987627 38:-0.974731 39:-0.981671 40:-0.999666 41:-1 42:-1 43:-1 44:-0.998937 45:-1 46:-1 47:-1 48:-1 49:-1 50:-1 51:-1 52:-1 53:-1 54:-1 55:-1 56:-1 57:-1 58:-1 59:-1 60:-0.934638 61:-0.630983 
4.00249640289498 1:-0.994205 2:-0.407123 3:-0.238011 4:0.233224 5:0.730606 6:-0.993706 7:0.274992 8:-0.618392 9:-0.99999 10:-0.440131 11:0.587594 12:-0.999978 13:-0.180105 14:-0.999979 15:-0.996147 16:-0.974927 17:-0.996368 18:-0.957117 19:-0.99652 20:-0.965 21:-0.993915 22:-0.954079 23:-0.993671 24:-0.952442 25:-0.993409 26:-0.96496 27:-0.990253 28:-0.957871 29:-0.995536 30:-0.967618 31:-0.993155 32:-0.977836 33:-0.992694 34:-0.988388 35:-0.999843 36:-0.996149 37:-0.998404 38:-0.993589 39:-0.993192 40:-0.995318 41:-0.99683 42:-1 43:-0.999079 44:-1 45:-1 46:-1 47:-0.998791 48:-1 49:-0.998618 50:-1 51:-1 52:-1 53:-1 54:-1 55:-1 56:-1 57:-1 58:-1 59:-1 60:-0.949509 61:-0.668771 
0.4107401165292471 1:-0.983251 2:-0.579987 3:-0.433202 4:0.189991 5:0.606317 6:-0.99873 7:0.253492 8:-0.773167 9:-0.99992 10:-0.440131 11:0.587589 12:-0.999686 13:-0.180105 14:-0.999715 15:-0.96505 16:-0.905766 17:-0.989411 18:-0.969978 19:-0.984761 20:-0.97052 21:-0.984041 22:-0.947772 23:-0.974991 24:-0.937757 25:-0.985726 26:-0.976942 27:-0.965985 28:-0.981586 29:-0.974935 30:-0.977903 31:-0.987738 32:-0.98634 33:-0.979702 34:-0.990557 35:-0.999529 36:-0.995232 37:-0.996607 38:-0.995097 39:-0.99005 40:-0.993645 41:-0.998642 42:-0.990991 43:-0.988945 44:-0.987241 45:-0.984962 46:-0.98641 47:-0.989117 48:-0.992213 49:-0.993089 50:-0.985663 51:-0.980186 52:-0.990431 53:-0.993341 54:-0.991416 55:-0.995745 56:-0.997593 57:-0.995098 58:-0.991416 59:-0.971831 60:-0.96483 61:-0.749896 
0.7856448979026408 1:-0.904385 2:-0.648201 3:-0.503832 4:0.0901168 5:0.46017 6:-0.988687 7:0.228277 8:-0.955825 9:-0.997547 10:-0.440134 11:0.587615 12:-0.99591 13:-0.180079 14:-0.9961 15:-0.955722 16:-0.78503 17:-0.947316 18:-0.843349 19:-0.952554 20:-0.885172 21:-0.918663 22:-0.892815 23:-0.894601 24:-0.879762 25:-0.895775 26:-0.890782 27:-0.922271 28:-0.906737 29:-0.910195 30:-0.90487 31:-0.927916 32:-0.929449 33:-0.978902 34:-0.940983 35:-0.996471 36:-0.981111 37:-0.988226 38:-0.98416 39:-0.975386 40:-0.977926 41:-0.966493 42:-0.948198 43:-0.899585 44:-0.877725 45:-0.892423 46:-0.90034 47:-0.916566 48:-0.937703 49:-0.932274 50:-0.962724 51:-0.963869 52:-0.962919 53:-0.962264 54:-0.967382 55:-0.946809 56:-0.954272 57:-0.882353 58:-0.742489 59:-0.492958 60:-0.931935 61:-0.464099 
0.428741129981475 1:-0.899509 2:-0.633454 3:-0.563937 4:-0.0118522 5:0.425506 6:-0.92906 7:0.21747 8:-0.97831 9:-0.997608 10:-0.440119 11:0.587671 12:-0.996291 13:-0.180097 14:-0.996419 15:-0.883201 16:-0.961788 17:-0.946709 18:-0.929868 19:-0.946135 20:-0.91584 21:-0.959383 22:-0.860727 23:-0.960906 24:-0.825957 25:-0.949228 26:-0.822756 27:-0.96788 28:-0.825668 29:-0.971754 30:-0.828354 31:-0.965073 32:-0.883715 33:-0.960231 34:-0.944813 35:-0.984942 36:-0.975793 37:-0.971662 38:-0.874034 39:-0.834512 40:-0.969231 41:-0.964682 42:-0.970721 43:-0.957623 44:-0.958533 45:-0.997687 46:-1 47:-1 48:-1 49:-1 50:-1 51:-1 52:-1 53:-1 54:-1 55:-1 56:-1 57:-1 58:-1 59:-1 60:-0.931464 61:-0.460927 
1.174790109088185 1:-0.882902 2:-0.855777 3:-0.80374 4:0.0711211 5:0.43427 6:-0.955631 7:0.209036 8:-0.93684 9:-0.994853 10:-0.440107 11:0.587546 12:-0.997133 13:-0.180084 14:-0.997066 15:-0.869195 16:-0.926263 17:-0.880326 18:-0.901386 19:-0.917277 20:-0.913657 21:-0.916842 22:-0.889203 23:-0.927314 24:-0.886305 25:-0.882889 26:-0.82783 27:-0.907962 28:-0.776281 29:-0.913172 30:-0.745515 31:-0.956939 32:-0.833557 33:-0.966295 34:-0.86515 35:-0.97906 36:-0.984962 37:-0.98623 38:-0.973223 39:-0.955486 40:-0.973244 41:-0.952004 42:-0.938626 43:-0.835099 44:-0.838384 45:-0.913245 46:-0.939977 47:-0.967352 48:-0.944192 49:-0.970974 50:-0.98853 51:-0.975524 52:-0.970096 53:-0.980022 54:-0.958798 55:-0.929787 56:-0.920578 57:-0.857843 58:-0.742489 59:-0.43662 60:-0.928156 61:-0.57884 
0.0123024942720294 1:-0.884174 2:-0.85808 3:-0.826908 4:0.0754364 5:0.434692 6:-0.954261 7:0.206099 8:-0.930605 9:-0.995498 10:-0.440137 11:0.587471 12:-0.997508 13:-0.180085 14:-0.997281 15:-0.877318 16:-0.926672 17:-0.889459 18:-0.927556 19:-0.932378 20:-0.911354 21:-0.950003 22:-0.889516 23:-0.946236 24:-0.879483 25:-0.931979 26:-0.866483 27:-0.893379 28:-0.847922 29:-0.898925 30:-0.737831 31:-0.915456 32:-0.837824 33:-0.949406 34:-0.861769 35:-0.967767 36:-0.978177 37:-0.983436 38:-0.979257 39:-0.955486 40:-0.967224 41:-0.940684 42:-0.925676 43:-0.907877 44:-0.939394 45:-0.958357 46:-0.964892 47:-0.958888 48:-0.971447 49:-0.977885 50:-0.985663 51:-0.980186 52:-0.98445 53:-0.970033 54:-0.945064 55:-0.934043 56:-0.90373 57:-0.813725 58:-0.828326 59:-0.887324 60:-0.919526 61:-0.616138 
0.7562812579728427 1:-0.918024 2:-0.860986 3:-0.8417 4:0.0782661 5:0.436227 6:-0.95301 7:0.203056 8:-0.922899 9:-0.997088 10:-0.440114 11:0.587578 12:-0.998139 13:-0.180102 14:-0.997912 15:-0.957807 16:-0.936637 17:-0.957076 18:-0.917916 19:-0.957138 20:-0.907735 21:-0.971327 22:-0.88788 23:-0.946117 24:-0.876882 25:-0.945621 26:-0.874077 27:-0.930411 28:-0.870941 29:-0.949318 30:-0.757844 31:-0.902504 32:-0.757145 33:-0.890551 34:-0.839534 35:-0.973571 36:-0.982028 37:-0.987228 38:-0.97624 39:-0.96177 40:-0.976923 41:-0.952456 42:-0.951577 43:-0.953017 44:-0.963849 45:-0.980335 46:-0.980747 47:-0.974607 48:-0.988319 49:-0.993089 50:-0.981362 51:-0.994172 52:-0.990431 53:-0.984462 54:-0.986266 55:-0.978723 56:-0.973526 57:-0.926471 58:-0.828326 59:-0.71831 60:-0.929663 61:-0.69809 
1.837193408638635 1:-0.978446 2:-0.855678 3:-0.844037 4:0.0804093 5:0.456262 6:-0.954634 7:0.192841 8:-0.874669 9:-0.999373 10:-0.440143 11:0.587607 12:-0.999433 13:-0.180093 14:-0.999398 15:-0.969306 16:-0.974767 17:-0.962942 18:-0.931829 19:-0.971511 20:-0.942066 21:-0.977936 22:-0.955924 23:-0.979316 24:-0.933959 25:-1 26:-1 27:-0.937295 28:-0.869544 29:-0.944212 30:-0.874257 31:-0.928516 32:-0.804404 33:-0.935632 34:-0.910521 35:-0.990981 36:-0.994498 37:-0.996807 38:-0.997737 39:-0.993716 40:-0.997324 41:-0.995925 42:-0.995495 43:-0.989866 44:-0.979798 45:-0.989589 46:-0.993205 47:-0.996372 48:-0.984426 49:-0.988943 50:-0.991398 51:-0.98951 52:-0.988038 53:-0.994451 54:-0.998283 55:-0.997872 56:-0.995187 57:-1 58:-1 59:-0.943662 60:-0.952562 61:-0.800519 
11.65260759058953 1:-0.968764 2:-0.846248 3:-0.835636 4:0.0675009 5:0.411566 6:-0.943951 7:0.214177 8:-0.966653 9:-0.999775 10:-0.440132 11:0.587607 12:-0.999736 13:-0.180112 14:-0.999748 15:-0.985774 16:-0.96513 17:-0.999732 18:-0.999186 19:-0.971876 20:-0.984015 21:-0.99153 22:-0.965795 23:-0.968182 24:-0.95731 25:-0.967706 26:-0.940031 27:-0.959194 28:-0.93384 29:-0.968445 30:-0.92862 31:-0.947867 32:-0.94491 33:-0.951907 34:-0.948265 35:-0.982354 36:-0.989547 37:-0.99541 38:-0.992457 39:-0.994763 40:-0.996321 41:-0.995472 42:-0.996622 43:-0.991709 44:-0.997873 45:-0.994216 46:-0.988675 47:-0.993954 48:-0.997404 49:-0.991707 50:-0.98853 51:-0.996503 52:-0.990431 53:-0.993341 54:-0.9897 55:-0.991489 56:-0.990373 57:-0.985294 58:-0.982833 59:-1 60:-0.962454 61:-0.883914 
0.6996524263621643 1:-0.913431 2:-0.519879 3:-0.65594 4:-0.164161 5:0.442489 6:-0.686334 7:0.167102 8:-0.955747 9:-0.997975 10:-0.440097 11:0.587874 12:-0.996113 13:-0.180334 14:-0.996417 15:-0.926172 16:-0.762047 17:-0.94714 18:-0.833294 19:-0.931816 20:-0.894148 21:-0.894905 22:-0.944702 23:-0.895702 24:-0.954683 25:-0.891326 26:-0.976575 27:-0.912097 28:-0.962134 29:-0.905899 30:-0.962881 31:-0.948528 32:-0.940503 33:-0.960388 34:-0.956519 35:-0.956788 36:-0.900422 37:-0.973259 38:-1 39:-1 40:-1 41:-1 42:-1 43:-1 44:-1 45:-1 46:-1 47:-1 48:-1 49:-1 50:-1 51:-1 52:-1 53:-1 54:-1 55:-1 56:-1 57:-1 58:-1 59:-1 60:-0.899447 61:-0.377593 
0.1328866763560731 1:-0.929543 2:-0.493939 3:-0.670295 4:-0.179007 5:0.424918 6:-0.642264 7:0.178075 8:-0.971569 9:-0.999078 10:-0.440159 11:0.587497 12:-0.996823 13:-0.18014 14:-0.997135 15:-0.960582 16:-0.89398 17:-0.9716 18:-0.941642 19:-0.962434 20:-0.935592 21:-0.942663 22:-0.952288 23:-0.920034 24:-0.928896 25:-0.920821 26:-0.940182 27:-0.935127 28:-0.941289 29:-0.921783 30:-0.96931 31:-0.960234 32:-0.92956 33:-0.938034 34:-0.956103 35:-0.999373 36:-0.995599 37:-0.99082 38:-0.982274 39:-0.973815 40:-0.984281 41:-0.975096 42:-0.967342 43:-0.921695 44:-0.890484 45:-0.903991 46:-0.912797 47:-0.941959 48:-0.962362 49:-0.965446 50:-0.951254 51:-0.9662 52:-0.966507 53:-0.977802 54:-0.975966 55:-0.970213 56:-0.954272 57:-0.892157 58:-0.776824 59:-0.746479 60:-0.940021 61:-0.437272 
0.6776829131895745 1:-0.921982 2:-0.451504 3:-0.685848 4:-0.199618 5:0.426403 6:-0.578134 7:0.169197 8:-0.969611 9:-0.998004 10:-0.440156 11:0.587717 12:-0.996841 13:-0.180067 14:-0.996944 15:-0.95281 16:-0.889173 17:-0.965801 18:-0.875081 19:-0.96959 20:-0.921439 21:-0.962406 22:-0.882248 23:-0.943336 24:-0.816522 25:-0.927974 26:-0.805104 27:-0.948717 28:-0.822335 29:-0.952627 30:-0.851268 31:-0.936336 32:-0.919057 33:-0.95195 34:-0.982526 35:-0.998667 36:-0.996699 37:-0.995211 38:-0.986423 39:-0.976434 40:-0.979933 41:-0.966946 42:-0.943131 43:-0.905113 44:-0.8958 45:-0.870445 46:-0.911665 47:-0.928658 48:-0.940299 49:-0.953006 50:-0.949821 51:-0.954545 52:-0.978469 53:-0.975583 54:-0.960515 55:-0.965957 56:-0.968712 57:-0.921569 58:-0.888412 59:-0.774648 60:-0.947491 61:-0.414234 
1.027918670409841 1:-0.919155 2:-0.44709 3:-0.693346 4:-0.19706 5:0.413074 6:-0.574309 7:0.183334 8:-0.979935 9:-0.998053 10:-0.445037 11:0.597551 12:-0.996998 13:-0.180113 14:-0.99709 15:-0.930741 16:-0.93018 17:-0.946238 18:-0.915444 19:-0.971138 20:-0.881245 21:-0.962965 22:-0.867755 23:-0.925327 24:-0.825781 25:-0.92022 26:-0.824999 27:-0.925438 28:-0.837992 29:-0.930515 30:-0.856432 31:-0.931613 32:-0.91804 33:-0.948187 34:-0.980907 35:-0.99553 36:-0.975243 37:-0.927759 38:-0.880822 39:-0.944488 40:-0.973579 41:-0.970568 42:-0.985923 43:-1 44:-1 45:-0.998843 46:-1 47:-1 48:-1 49:-1 50:-1 51:-1 52:-1 53:-1 54:-1 55:-0.997872 56:-1 57:-1 58:-1 59:-1 60:-0.937816 61:-0.405934 
0.2138103202811274 1:-0.903113 2:-0.482742 3:-0.704752 4:-0.182632 5:0.420555 6:-0.592435 7:0.174908 8:-0.973269 9:-0.997875 10:-0.440119 11:0.587539 12:-0.996472 13:-0.180057 14:-0.996601 15:-0.978449 16:-0.888853 17:-0.960977 18:-0.889027 19:-0.93329 20:-0.935651 21:-0.89293 22:-0.942858 23:-0.873406 24:-0.93431 25:-0.864046 26:-0.924274 27:-0.872489 28:-0.923685 29:-0.879704 30:-0.928136 31:-0.915645 32:-0.951537 33:-0.965726 34:-0.960216 35:-0.986276 36:-0.882267 37:-0.934145 38:-0.947577 39:-0.954438 40:-0.999666 41:-1 42:-1 43:-1 44:-1 45:-1 46:-1 47:-1 48:-1 49:-1 50:-1 51:-1 52:-1 53:-1 54:-1 55:-1 56:-1 57:-1 58:-1 59:-1 60:-0.935525 61:-0.417584 
0.5916819757276133 1:-0.910887 2:-0.521724 3:-0.706068 4:-0.167088 5:0.419913 6:-0.626119 7:0.178295 8:-0.972598 9:-0.997811 10:-0.440135 11:0.587576 12:-0.996497 13:-0.180069 14:-0.996684 15:-0.959835 16:-0.787392 17:-0.96499 18:-0.8834 19:-0.931893 20:-0.958733 21:-0.917729 22:-0.959245 23:-0.87296 24:-0.944312 25:-0.867862 26:-0.96 27:-0.879924 28:-0.944825 29:-0.874106 30:-0.95162 31:-0.907938 32:-0.944579 33:-0.969151 34:-0.947094 35:-0.999137 36:-0.995232 37:-0.994213 38:-0.980388 39:-0.972244 40:-0.982609 41:-0.965588 42:-0.9375 43:-0.874712 44:-0.8437 45:-0.847311 46:-0.876557 47:-0.935913 48:-0.924724 49:-0.958535 50:-0.962724 51:-0.965035 52:-0.956938 53:-0.980022 54:-0.970815 55:-0.957447 56:-0.951865 57:-0.926471 58:-0.948498 59:-0.971831 60:-0.947387 61:-0.441657 
0.05017956494848699 1:-0.903042 2:-0.564452 3:-0.471797 4:-0.0478528 5:0.475973 6:-0.915063 7:0.197946 8:-0.944227 9:-0.997324 10:-0.440162 11:0.587751 12:-0.995961 13:-0.179996 14:-0.996147 15:-0.962807 16:-0.763136 17:-0.955001 18:-0.822703 19:-0.94821 20:-0.862583 21:-0.951097 22:-0.882881 23:-0.883926 24:-0.877708 25:-0.870108 26:-0.896026 27:-0.94183 28:-0.902602 29:-0.904383 30:-0.911045 31:-0.930037 32:-0.92515 33:-0.97726 34:-0.947066 35:-0.995765 36:-0.98918 37:-0.986629 38:-0.971714 39:-0.96177 40:-0.968896 41:-0.937967 42:-0.934122 43:-0.912483 44:-0.89899 45:-0.916715 46:-0.95017 47:-0.938331 48:-0.942894 49:-0.926745 50:-0.926882 51:-0.951049 52:-0.955742 53:-0.980022 54:-0.953648 55:-0.942553 56:-0.942238 57:-0.936275 58:-0.939914 59:-1 60:-0.942948 61:-0.541516 
0.390456213219287 1:-0.906152 2:-0.679158 3:-0.754783 4:-0.0546936 5:0.431159 6:-0.803398 7:0.181537 8:-0.953736 9:-0.99773 10:-0.440095 11:0.587716 12:-0.995737 13:-0.180092 14:-0.996075 15:-0.930258 16:-0.774951 17:-0.95921 18:-0.856491 19:-0.963558 20:-0.896285 21:-0.925549 22:-0.914986 23:-0.895032 24:-0.911366 25:-0.896745 26:-0.928989 27:-0.905379 28:-0.958266 29:-0.908409 30:-0.95928 31:-0.937563 32:-0.93289 33:-0.962368 34:-0.954688 35:-0.995843 36:-0.987346 37:-0.984035 38:-0.980388 39:-0.969626 40:-0.977258 41:-0.968304 42:-0.95045 43:-0.919853 44:-0.90218 45:-0.907461 46:-0.9094 47:-0.91052 48:-0.914341 49:-0.954388 50:-0.941219 51:-0.941725 52:-0.966507 53:-0.970033 54:-0.951931 55:-0.942553 56:-0.947052 57:-0.906863 58:-0.811159 59:-0.521127 60:-0.936136 61:-0.503406 
0.4162061788432747 1:-0.901205 2:-0.571642 3:-0.753552 4:-0.117581 5:0.42161 6:-0.676682 7:0.175317 8:-0.965488 9:-0.99742 10:-0.440117 11:0.587839 12:-0.996166 13:-0.180015 14:-0.996378 15:-0.863397 16:-0.916671 17:-0.912581 18:-0.949325 19:-0.922805 20:-0.94558 21:-0.931233 22:-0.922389 23:-0.908287 24:-0.896734 25:-0.905882 26:-0.827169 27:-0.923889 28:-0.850214 29:-0.906933 30:-0.872748 31:-0.913136 32:-0.916078 33:-0.948532 34:-0.97755 35:-0.997647 36:-0.991198 37:-0.988825 38:-0.984914 39:-0.966483 40:-0.974247 41:-0.960154 42:-0.947635 43:-0.923538 44:-0.861776 45:-0.871602 46:-0.892412 47:-0.918984 48:-0.950681 49:-0.943331 50:-0.944086 51:-0.959207 52:-0.952153 53:-0.940067 54:-0.941631 55:-0.925532 56:-0.894103 57:-0.803922 58:-0.914163 59:-0.746479 60:-0.937465 61:-0.441868 
0.04715444222870894 1:-0.899933 2:-0.55691 3:-0.739772 4:-0.129063 5:0.424997 6:-0.668775 7:0.17263 8:-0.963883 9:-0.997595 10:-0.44013 11:0.587527 12:-0.996209 13:-0.180136 14:-0.996436 15:-0.869719 16:-0.909772 17:-0.913554 18:-0.94303 19:-0.933272 20:-0.933437 21:-0.941126 22:-0.879504 23:-0.918506 24:-0.870941 25:-0.920326 26:-0.82704 27:-0.939836 28:-0.829621 29:-0.923111 30:-0.865698 31:-0.937497 32:-0.935112 33:-0.942914 34:-0.977173 35:-0.993883 36:-0.985146 37:-0.974257 38:-0.937771 39:-0.866981 40:-0.920401 41:-0.960154 42:-0.953266 43:-0.929986 44:-0.907496 45:-0.922499 46:-0.935447 47:-0.981862 48:-0.998702 49:-1 50:-1 51:-1 52:-1 53:-1 54:-1 55:-1 56:-1 57:-1 58:-1 59:-1 60:-0.937214 61:-0.416556 
0.4889182850394717 1:-0.913643 2:-0.52812 3:-0.642814 4:-0.155061 5:0.437776 6:-0.714706 7:0.176081 8:-0.961771 9:-0.998039 10:-0.44013 11:0.587694 12:-0.99628 13:-0.180104 14:-0.996577 15:-0.945056 16:-0.815447 17:-0.966481 18:-0.863452 19:-0.960082 20:-0.893087 21:-0.91529 22:-0.928668 23:-0.889909 24:-0.925778 25:-0.879618 26:-0.937473 27:-0.883915 28:-0.958321 29:-0.888184 30:-0.957699 31:-0.916613 32:-0.953167 33:-0.962182 34:-0.95832 35:-0.999059 36:-0.991198 37:-0.99102 38:-0.987931 39:-0.968578 40:-0.982609 41:-0.972832 42:-0.95777 43:-0.909719 44:-0.886231 45:-0.879699 46:-0.87316 47:-0.892382 48:-0.907852 49:-0.94886 50:-0.935484 51:-0.95338 52:-0.955742 53:-0.968923 54:-0.955365 55:-0.980851 56:-0.98556 57:-0.960784 58:-0.922747 59:-0.577465 60:-0.944229 61:-0.444663 
0.01725765199804604 1:-0.880782 2:-0.7486 3:-0.734494 4:0.000197838 5:0.446797 6:-0.898431 7:0.191186 8:-0.937924 9:-0.995697 10:-0.440095 11:0.588016 12:-0.995843 13:-0.180099 14:-0.995858 15:-0.957485 16:-0.782648 17:-0.957056 18:-0.817996 19:-0.937718 20:-0.730574 21:-0.939513 22:-0.880598 23:-0.894172 24:-0.899076 25:-0.887532 26:-0.904687 27:-0.917973 28:-0.884363 29:-0.888037 30:-0.920828 31:-0.902814 32:-0.929706 33:-0.968319 34:-0.945442 35:-0.975296 36:-0.981478 37:-0.987228 38:-0.980388 39:-0.967531 40:-0.965552 41:-0.953815 42:-0.948761 43:-0.909719 44:-0.893674 45:-0.851938 46:-0.925255 47:-0.94075 48:-0.941596 49:-0.947478 50:-0.935484 51:-0.951049 52:-0.965311 53:-0.971143 54:-0.945064 55:-0.929787 56:-0.949458 57:-0.823529 58:-0.939914 59:-0.859155 60:-0.926013 61:-0.556224 
0.7626452657588689 1:-0.923678 2:-0.824314 3:-0.759547 4:0.100964 5:0.296835 6:-0.983232 7:0.259196 8:-0.959533 9:-0.998747 10:-0.440175 11:0.587534 12:-0.996317 13:-0.180139 14:-0.996655 15:-0.920157 16:-0.853207 17:-0.94747 18:-0.880283 19:-0.97239 20:-0.905232 21:-0.970465 22:-0.954668 23:-0.905657 24:-0.92432 25:-0.937492 26:-0.93184 27:-0.94563 28:-0.942975 29:-0.950493 30:-0.942445 31:-0.950494 32:-0.959592 33:-0.96876 34:-0.955429 35:-0.990903 36:-0.955988 37:-0.927958 38:-0.908731 39:-0.948154 40:-0.992642 41:-1 42:-1 43:-1 44:-1 45:-0.998843 46:-1 47:-1 48:-1 49:-1 50:-1 51:-1 52:-1 53:-0.99889 54:-1 55:-0.997872 56:-1 57:-1 58:-1 59:-1 60:-0.936987 61:-0.443359 
0.5065889297750683 1:-0.898237 2:-0.810258 3:-0.751434 4:0.0743514 5:0.30925 6:-0.967312 7:0.261002 8:-0.974251 9:-0.997718 10:-0.440089 11:0.587713 12:-0.995999 13:-0.180134 14:-0.9962 15:-0.899872 16:-0.947674 17:-0.905913 18:-0.934453 19:-0.924432 20:-0.918908 21:-0.949679 22:-0.899681 23:-0.939311 24:-0.848208 25:-0.946449 26:-0.841944 27:-0.947071 28:-0.847134 29:-0.940557 30:-0.852015 31:-0.951706 32:-0.892589 33:-0.969644 34:-0.952136 35:-0.998353 36:-0.987163 37:-0.989423 38:-0.978503 39:-0.977481 40:-0.98194 41:-0.973285 42:-0.960023 43:-0.901428 44:-0.782031 45:-0.720069 46:-0.849377 47:-0.927449 48:-0.944192 49:-0.954388 50:-0.944086 51:-0.959207 52:-0.970096 53:-0.967814 54:-0.974249 55:-0.957447 56:-0.956679 57:-0.960784 58:-0.991416 59:-0.943662 60:-0.94334 61:-0.420224 
0.1967782362948318 1:-0.889333 2:-0.850589 3:-0.795886 4:0.0794645 5:0.315227 6:-0.964488 7:0.261397 8:-0.975303 9:-0.99748 10:-0.440116 11:0.587618 12:-0.995589 13:-0.18007 14:-0.995799 15:-0.931503 16:-0.92638 17:-0.941471 18:-0.898374 19:-0.962541 20:-0.893417 21:-0.95354 22:-0.884152 23:-0.905494 24:-0.87726 25:-0.897928 26:-0.866704 27:-0.918939 28:-0.870822 29:-0.919204 30:-0.872129 31:-0.939584 32:-0.904924 33:-0.965668 34:-0.950069 35:-0.996941 36:-0.987163 37:-0.985632 38:-0.970583 39:-0.962817 40:-0.983946 41:-0.977813 42:-0.962838 43:-0.90327 44:-0.884104 45:-0.823019 46:-0.790487 47:-0.837969 48:-0.893576 49:-0.953006 50:-0.954122 51:-0.9662 52:-0.964115 53:-0.974473 54:-0.936481 55:-0.929787 56:-0.937425 57:-0.818627 58:-0.888412 59:-0.605634 60:-0.936422 61:-0.442179 
0.06517054384544112 1:-0.888909 2:-0.857443 3:-0.818016 4:0.0764288 5:0.320502 6:-0.957251 7:0.262008 8:-0.977216 9:-0.997414 10:-0.440143 11:0.587621 12:-0.995582 13:-0.180084 14:-0.995853 15:-0.920245 16:-0.864498 17:-0.946779 18:-0.873325 19:-0.960454 20:-0.88807 21:-0.93499 22:-0.88763 23:-0.896741 24:-0.895544 25:-0.89389 26:-0.888454 27:-0.893958 28:-0.883354 29:-0.890656 30:-0.887374 31:-0.920674 32:-0.924394 33:-0.96033 34:-0.953336 35:-0.996314 36:-0.987346 37:-0.987827 38:-0.974354 39:-0.965436 40:-0.980268 41:-0.973285 42:-0.962275 43:-0.926301 44:-0.877725 45:-0.792944 46:-0.833522 47:-0.811366 48:-0.850746 49:-0.946095 50:-0.955556 51:-0.94289 52:-0.956938 53:-0.960044 54:-0.953648 55:-0.959574 56:-0.963899 57:-0.916667 58:-0.845494 59:-1 60:-0.941121 61:-0.459732 
5.147589139646518 1:-0.97145 2:-0.792446 3:-0.864252 4:0.0238356 5:0.290135 6:-0.8565 7:0.313992 8:-0.918518 9:-0.999693 10:-0.44013 11:0.587601 12:-0.999762 13:-0.180106 14:-0.999752 15:-0.978141 16:-0.957949 17:-0.961711 18:-0.966084 19:-0.972006 20:-0.951493 21:-0.975532 22:-0.950867 23:-0.904188 24:-0.944841 25:-0.883664 26:-0.946564 27:-0.904583 28:-0.968934 29:-0.935548 30:-0.982396 31:-0.981069 32:-0.990307 33:-0.990975 34:-0.996002 35:-0.99749 36:-0.978544 37:-0.983037 38:-0.987931 39:-0.982194 40:-0.996321 41:-0.994114 42:-0.996059 43:-0.994473 44:-0.991494 45:-0.99306 46:-0.992072 47:-0.995163 48:-0.992213 49:-0.991707 50:-0.991398 51:-0.997669 52:-0.996411 53:-0.994451 54:-0.99485 55:-0.989362 56:-0.99278 57:-0.990196 58:-0.991416 59:-0.915493 60:-0.989849 61:-0.955256 
0.2005064021402213 1:-0.90601 2:-0.811534 3:-0.738558 4:0.0872527 5:0.306959 6:-0.9771 7:0.258194 8:-0.97296 9:-0.997496 10:-0.440189 11:0.587587 12:-0.996339 13:-0.180153 14:-0.996489 15:-0.923186 16:-0.793642 17:-0.952382 18:-0.823532 19:-0.979282 20:-0.868591 21:-0.970294 22:-0.878937 23:-0.90855 24:-0.865591 25:-0.908034 26:-0.87224 27:-0.921981 28:-0.874973 29:-0.91489 30:-0.882359 31:-0.935865 32:-0.915205 33:-0.972624 34:-0.957518 35:-0.997647 36:-0.98918 37:-0.985632 38:-0.971714 39:-0.953915 40:-0.958863 41:-0.906724 42:-0.865428 43:-0.836942 44:-0.907496 45:-0.922499 46:-0.962627 47:-0.974607 48:-0.971447 49:-0.982032 50:-0.975627 51:-0.995338 52:-1 53:-1 54:-1 55:-1 56:-1 57:-1 58:-1 59:-1 60:-0.946568 61:-0.41815 
0.07252709818498151 1:-0.912159 2:-0.78193 3:-0.704195 4:0.102069 5:0.302033 6:-0.986858 7:0.254693 8:-0.971984 9:-0.998552 10:-0.440135 11:0.587345 12:-0.99619 13:-0.180153 14:-0.996503 15:-0.903594 16:-0.950488 17:-0.917314 18:-0.934733 19:-0.946268 20:-0.924003 21:-0.966651 22:-0.898452 23:-0.955631 24:-0.873372 25:-0.964746 26:-0.872352 27:-0.985999 28:-0.856037 29:-0.972768 30:-0.86044 31:-0.949455 32:-0.902339 33:-0.945835 34:-0.969301 35:-0.996785 36:-0.991198 37:-0.98623 38:-0.97888 39:-0.969102 40:-0.973579 41:-0.959248 42:-0.915541 43:-0.864579 44:-0.807549 45:-0.892423 46:-0.938845 47:-0.937122 48:-0.944192 49:-0.958535 50:-0.984229 51:-0.988345 52:-0.983254 53:-0.986681 54:-0.9897 55:-0.997872 56:-1 57:-1 58:-1 59:-1 60:-0.943305 61:-0.425402 
0.1165021922534885 1:-0.900145 2:-0.805877 3:-0.752967 4:0.0790136 5:0.306921 6:-0.970437 7:0.260946 8:-0.972333 9:-0.998096 10:-0.443028 11:0.587619 12:-0.995933 13:-0.172648 14:-0.996164 15:-0.963426 16:-0.918568 17:-0.95826 18:-0.899377 19:-0.950121 20:-0.908752 21:-0.97661 22:-0.888155 23:-0.973788 24:-0.851841 25:-0.962057 26:-0.846317 27:-0.964504 28:-0.842174 29:-0.974635 30:-0.840197 31:-0.967302 32:-0.892828 33:-0.970918 34:-0.952357 35:-0.99851 36:-0.991931 37:-0.987029 38:-0.985291 39:-0.979052 40:-0.980936 41:-0.971021 42:-0.958333 43:-0.897743 44:-0.868155 45:-0.844997 46:-0.82333 47:-0.844015 48:-0.906554 49:-0.926745 50:-0.935484 51:-0.955711 52:-0.95933 53:-0.975583 54:-0.969099 55:-0.96383 56:-0.971119 57:-0.921569 58:-0.845494 59:-0.577465 60:-0.942621 61:-0.417309 
1.756614427445358 1:-0.952581 2:-0.909047 3:-0.886959 4:0.114847 5:0.310584 6:-0.978397 7:0.2644 8:-0.948886 9:-0.999623 10:-0.440135 11:0.587557 12:-0.998665 13:-0.18011 14:-0.998768 15:-0.973424 16:-0.981713 17:-0.968621 18:-0.975236 19:-0.958141 20:-0.95803 21:-0.948712 22:-0.943533 23:-0.94837 24:-0.937575 25:-0.922308 26:-0.968749 27:-0.940665 28:-0.978613 29:-0.951998 30:-0.96938 31:-0.959602 32:-0.955928 33:-0.964777 34:-0.969181 35:-0.992863 36:-0.988997 37:-0.989822 38:-0.980011 39:-0.972768 40:-0.984615 41:-0.981888 42:-0.97241 43:-0.966836 44:-0.95428 45:-0.958357 46:-0.970555 47:-0.978235 48:-0.977936 49:-0.986178 50:-0.979928 51:-0.991841 52:-0.995215 53:-0.99778 54:-0.993133 55:-0.993617 56:-0.99278 57:-0.985294 58:-0.974249 59:-0.915493 60:-0.966697 61:-0.797309 
30.69387414084032 1:-0.975973 2:-0.983064 3:-0.999082 4:0.161361 5:0.360184 6:-0.977157 7:0.256096 8:-0.981347 9:-0.999879 10:-0.44013 11:0.587597 12:-0.999825 13:-0.180105 14:-0.99983 15:-0.962638 16:-0.963245 17:-0.935012 18:-0.954921 19:-0.948033 20:-0.9597 21:-0.955283 22:-0.970722 23:-0.964894 24:-0.960733 25:-0.975415 26:-0.951987 27:-0.979168 28:-0.984722 29:-0.987323 30:-0.987476 31:-0.989169 32:-0.97657 33:-0.991366 34:-0.977674 35:-0.984315 36:-0.993031 37:-0.995011 38:-0.993589 39:-0.996334 40:-0.995987 41:-0.997736 42:-0.996622 43:-0.996315 44:-0.99681 45:-0.99306 46:-0.998867 47:-0.997582 48:-0.997404 49:-0.997236 50:-1 51:-0.997669 52:-0.995215 53:-0.99778 54:-1 55:-0.997872 56:-0.995187 57:-0.990196 58:-1 59:-1 60:-0.987772 61:-0.962594 
0.8383667680284589 1:-0.937317 2:-0.986567 3:-0.997283 4:0.163465 5:0.36157 6:-0.980816 7:0.246594 8:-0.996044 9:-0.999152 10:-0.440127 11:0.58765 12:-0.998399 13:-0.17993 14:-0.998534 15:-0.931778 16:-0.920095 17:-0.931431 18:-0.903254 19:-0.927167 20:-0.92625 21:-0.936611 22:-0.930116 23:-0.948784 24:-0.914481 25:-0.947599 26:-0.945243 27:-0.954498 28:-0.963088 29:-0.95084 30:-0.925576 31:-0.94829 32:-0.976723 33:-0.952347 34:-0.984366 35:-0.974512 36:-0.987346 37:-0.991219 38:-0.97888 39:-0.972244 40:-0.984615 41:-0.982341 42:-0.98536 43:-0.976048 44:-0.972355 45:-0.973395 46:-0.97735 47:-0.975816 48:-0.977936 49:-0.977885 50:-0.969892 51:-0.975524 52:-0.980861 53:-0.99556 54:-0.99485 55:-0.987234 56:-0.995187 57:-0.970588 58:-0.974249 59:-0.943662 60:-0.962102 61:-0.837267 
0.1207483973920575 1:-0.907494 2:-0.976113 3:-0.957369 4:0.174405 5:0.379361 6:-0.996605 7:0.247303 8:-0.978242 9:-0.997035 10:-0.440168 11:0.587454 12:-0.996156 13:-0.180199 14:-0.996394 15:-0.817107 16:-0.91512 17:-0.878425 18:-0.928572 19:-0.908797 20:-0.968192 21:-0.908225 22:-0.897106 23:-0.902929 24:-0.86988 25:-0.916722 26:-0.844677 27:-0.937264 28:-0.856045 29:-0.929265 30:-0.86202 31:-0.939189 32:-0.906661 33:-0.950541 34:-0.965417 35:-0.994589 36:-0.984412 37:-0.989224 38:-0.975486 39:-0.975386 40:-0.980602 41:-0.974643 42:-0.96509 43:-0.928144 44:-0.866029 45:-0.871602 46:-0.831257 47:-0.845224 48:-0.898767 49:-0.954388 50:-0.959857 51:-0.974359 52:-0.976077 53:-0.986681 54:-0.991416 55:-0.987234 56:-0.975933 57:-0.990196 58:-0.93133 59:-1 60:-0.940878 61:-0.488519 
1.062561979912659 1:-0.904597 2:-0.968463 3:-0.946136 4:0.173748 5:0.382238 6:-0.997573 7:0.246533 8:-0.97841 9:-0.99721 10:-0.440145 11:0.587577 12:-0.996248 13:-0.180165 14:-0.996447 15:-0.834347 16:-0.912506 17:-0.87062 18:-0.921576 19:-0.969035 20:-0.970454 21:-0.91964 22:-0.886545 23:-0.896105 24:-0.889766 25:-0.923934 26:-0.848205 27:-0.91881 28:-0.850701 29:-0.923655 30:-0.870091 31:-0.940927 32:-0.904902 33:-0.952223 34:-0.953771 35:-0.964709 36:-0.860627 37:-0.97286 38:-0.998114 39:-1 40:-0.999666 41:-1 42:-1 43:-1 44:-1 45:-1 46:-1 47:-1 48:-1 49:-0.998618 50:-1 51:-1 52:-1 53:-1 54:-1 55:-1 56:-1 57:-1 58:-1 59:-1 60:-0.911398 61:-0.468919 
0.04488035819215064 1:-0.92283 2:-0.863725 3:-0.813032 4:0.126211 5:0.398608 6:-0.992029 7:0.235224 8:-0.981563 9:-0.998001 10:-0.440025 11:0.587453 12:-0.997548 13:-0.178837 14:-0.99764 15:-0.88067 16:-0.818466 17:-0.911856 18:-0.851521 19:-0.954297 20:-0.869964 21:-0.962391 22:-0.853555 23:-0.933206 24:-0.849901 25:-0.916037 26:-0.867154 27:-0.924142 28:-0.854764 29:-0.929487 30:-0.857351 31:-0.944658 32:-0.901329 33:-0.959942 34:-0.963735 35:-0.992001 36:-0.984412 37:-0.970465 38:-0.898548 39:-0.821419 40:-0.974916 41:-0.98053 42:-0.986486 43:-0.996315 44:-1 45:-1 46:-1 47:-0.998791 48:-0.998702 49:-1 50:-0.998566 51:-1 52:-0.998804 53:-1 54:-1 55:-1 56:-1 57:-1 58:-1 59:-1 60:-0.937647 61:-0.39944 
0.1967428807440632 1:-0.905092 2:-0.941422 3:-0.911748 4:0.182928 5:0.391151 6:-0.995248 7:0.249047 8:-0.974942 9:-0.997461 10:-0.440123 11:0.587415 12:-0.996076 13:-0.180079 14:-0.996298 15:-0.852724 16:-0.952018 17:-0.881551 18:-0.925477 19:-0.918503 20:-0.918415 21:-0.940769 22:-0.900951 23:-0.952924 24:-0.83826 25:-0.955767 26:-0.81665 27:-0.946299 28:-0.841185 29:-0.950751 30:-0.837563 31:-0.954184 32:-0.89577 33:-0.963603 34:-0.961278 35:-0.995687 36:-0.988997 37:-0.989024 38:-0.978503 39:-0.972768 40:-0.989967 41:-0.981435 42:-0.974099 43:-0.94749 44:-0.906433 45:-0.84037 46:-0.833522 47:-0.7763 48:-0.865023 49:-0.940567 50:-0.944086 51:-0.963869 52:-0.967703 53:-0.972253 54:-0.969099 55:-0.97234 56:-0.987966 57:-0.955882 58:-0.896996 59:-0.746479 60:-0.94167 61:-0.43748 
0.04786870440109831 1:-0.914349 2:-0.978962 3:-0.969099 4:0.179289 5:0.369699 6:-0.990916 7:0.246927 8:-0.994138 9:-0.998281 10:-0.440159 11:0.587526 12:-0.997335 13:-0.1801 14:-0.997394 15:-0.982243 16:-0.968343 17:-0.973322 18:-0.902254 19:-0.974645 20:-0.91861 21:-0.94608 22:-0.88682 23:-0.941512 24:-0.851556 25:-0.94231 26:-0.843578 27:-0.943239 28:-0.843531 29:-0.950934 30:-0.852073 31:-0.951048 32:-0.899522 33:-0.947494 34:-0.962163 35:-0.996 36:-0.990831 37:-0.992018 38:-0.988309 39:-0.977481 40:-0.99097 41:-0.983247 42:-0.976351 43:-0.961308 44:-0.939394 45:-0.895894 46:-0.838052 47:-0.833132 48:-0.832576 49:-0.87284 50:-0.941219 51:-0.967366 52:-0.961722 53:-0.972253 54:-0.958798 55:-0.970213 56:-0.978339 57:-0.970588 58:-0.888412 59:-0.690141 60:-0.942625 61:-0.451242 
0.4026279749369831 1:-0.928059 2:-0.978962 3:-0.970381 4:0.179202 5:0.360468 6:-0.99109 7:0.241893 8:-0.999061 9:-0.998417 10:-0.44012 11:0.587647 12:-0.99878 13:-0.180078 14:-0.998697 15:-0.957321 16:-0.903765 17:-0.94262 18:-0.839603 19:-0.950894 20:-0.85079 21:-0.947179 22:-0.846481 23:-0.944885 24:-0.848706 25:-0.949829 26:-0.847449 27:-0.956452 28:-0.867715 29:-0.952522 30:-0.886674 31:-0.954166 32:-0.958642 33:-0.947494 34:-0.971853 35:-0.996236 36:-0.992848 37:-0.995011 38:-0.991703 39:-0.986908 40:-0.993311 41:-0.988227 42:-0.980856 43:-0.969599 44:-0.952153 45:-0.902834 46:-0.851642 47:-0.844015 48:-0.848151 49:-0.897719 50:-0.952688 51:-0.973193 52:-0.970096 53:-0.981132 54:-0.967382 55:-0.970213 56:-0.980746 57:-0.970588 58:-0.888412 59:-0.690141 60:-0.943168 61:-0.438419 
11.99211028933761 1:-0.978799 2:-0.986306 3:-0.998533 4:0.161098 5:0.360555 6:-0.980691 7:0.250195 8:-0.992896 9:-0.999943 10:-0.44013 11:0.587595 12:-0.999766 13:-0.180106 14:-0.999785 15:-0.973296 16:-0.967452 17:-0.963517 18:-0.967888 19:-0.964368 20:-0.961491 21:-0.969629 22:-0.958309 23:-0.978984 24:-0.969496 25:-0.980139 26:-0.961281 27:-0.981641 28:-0.974521 29:-0.979977 30:-0.960316 31:-0.980299 32:-0.958997 33:-0.986768 34:-0.976655 35:-0.986432 36:-0.994132 37:-0.998004 38:-0.998491 39:-0.998429 40:-0.997659 41:-0.998189 42:-0.998311 43:-0.997236 44:-0.997873 45:-0.995373 46:-0.99547 47:-0.998791 48:-0.993511 49:-0.995853 50:-0.995699 51:-0.995338 52:-0.997608 53:-0.990011 54:-0.991416 55:-0.970213 56:-0.983153 57:-1 58:-1 59:-0.971831 60:-0.977812 61:-0.927876 
0.8991939480400886 1:-0.971026 2:-0.986193 3:-0.997829 4:0.161065 5:0.360999 6:-0.977601 7:0.247658 8:-0.996679 9:-0.99982 10:-0.440129 11:0.587584 12:-0.999488 13:-0.18011 14:-0.999529 15:-0.950195 16:-0.942816 17:-0.96066 18:-0.950633 19:-0.969922 20:-0.932104 21:-0.974826 22:-0.932646 23:-0.97724 24:-0.918612 25:-0.98719 26:-0.943423 27:-0.996568 28:-0.978033 29:-0.992937 30:-0.994441 31:-0.982673 32:-0.96871 33:-0.981588 34:-0.96925 35:-0.987138 36:-0.979461 37:-0.994013 38:-0.994343 39:-0.995287 40:-0.997324 41:-0.99683 42:-0.996059 43:-0.994473 44:-0.994684 45:-0.994216 46:-0.99094 47:-0.993954 48:-0.996106 49:-0.991707 50:-0.995699 51:-0.997669 52:-0.998804 53:-0.99889 54:-0.998283 55:-0.991489 56:-0.98556 57:-0.985294 58:-0.982833 59:-1 60:-0.988884 61:-0.963982 
2.812500799138209 1:-0.940921 2:-0.98569 3:-0.99763 4:0.163678 5:0.361623 6:-0.977659 7:0.244374 8:-0.997112 9:-0.999137 10:-0.440127 11:0.587563 12:-0.998651 13:-0.1801 14:-0.998777 15:-0.975235 16:-0.947083 17:-0.945349 18:-0.923823 19:-0.910221 20:-0.962709 21:-0.920886 22:-0.928706 23:-0.931929 24:-0.925301 25:-0.94189 26:-0.948577 27:-0.952921 28:-0.958508 29:-0.953327 30:-0.913386 31:-0.94504 32:-0.974613 33:-0.953062 34:-0.982668 35:-0.979609 36:-0.982762 37:-0.987627 38:-0.980011 39:-0.98586 40:-0.986957 41:-0.982341 42:-0.984234 43:-0.973284 44:-0.970229 45:-0.972238 46:-0.976217 47:-0.954051 48:-0.959766 49:-0.973739 50:-0.981362 51:-0.996503 52:-0.994019 53:-0.992231 54:-0.993133 55:-0.997872 56:-0.990373 57:-0.985294 58:-0.965665 59:-0.915493 60:-0.957184 61:-0.80813 
0.8498322745016094 1:-0.905516 2:-0.993765 3:-0.99502 4:0.16835 5:0.363847 6:-0.985162 7:0.24907 8:-0.990714 9:-0.995581 10:-0.440564 11:0.587499 12:-0.996964 13:-0.182042 14:-0.996734 15:-0.930804 16:-0.69566 17:-0.954689 18:-0.795899 19:-0.948767 20:-0.822657 21:-0.911574 22:-0.815364 23:-0.91975 24:-0.849208 25:-0.924811 26:-0.86116 27:-0.929565 28:-0.856254 29:-0.934304 30:-0.887282 31:-0.948402 32:-0.97342 33:-0.942645 34:-0.97651 35:-0.984942 36:-0.975426 37:-0.987627 38:-0.983783 39:-0.982194 40:-0.991304 41:-0.985511 42:-0.971284 43:-0.934592 44:-0.942584 45:-0.907461 46:-0.872027 47:-0.874244 48:-0.914341 49:-0.878369 50:-0.889606 51:-0.944056 52:-0.973684 53:-0.983352 54:-0.987983 55:-0.991489 56:-0.98556 57:-0.985294 58:-0.965665 59:-0.887324 60:-0.947991 61:-0.645772 
0.6115200053590903 1:-0.902194 2:-0.986222 3:-0.976686 4:0.177848 5:0.372746 6:-0.989476 7:0.250282 8:-0.985131 9:-0.99768 10:-0.440167 11:0.587704 12:-0.996618 13:-0.18016 14:-0.996705 15:-0.929656 16:-0.955474 17:-0.925572 18:-0.918129 19:-0.957917 20:-0.919673 21:-0.914146 22:-0.879684 23:-0.89533 24:-0.873885 25:-0.902677 26:-0.87715 27:-0.906276 28:-0.881083 29:-0.910348 30:-0.892609 31:-0.944567 32:-0.923474 33:-0.96121 34:-0.960403 35:-0.994824 36:-0.991014 37:-0.989423 38:-0.975486 39:-0.975386 40:-0.985953 41:-0.985963 42:-0.970158 43:-0.952096 44:-0.943647 45:-0.906304 46:-0.88675 47:-0.88029 48:-0.852044 49:-0.805114 50:-0.769176 51:-0.918415 52:-0.954545 53:-0.971143 54:-0.975966 55:-0.976596 56:-0.973526 57:-0.990196 58:-0.957082 59:-0.915493 60:-0.949244 61:-0.516656 
0.1931803117824199 1:-0.901134 2:-0.974766 3:-0.953944 4:0.177372 5:0.379667 6:-0.995245 7:0.248152 8:-0.980821 9:-0.997453 10:-0.44365 11:0.603047 12:-0.996426 13:-0.180122 14:-0.996607 15:-0.924374 16:-0.855959 17:-0.958277 18:-0.890436 19:-0.941428 20:-0.914999 21:-0.910433 22:-0.870921 23:-0.910124 24:-0.875112 25:-0.897241 26:-0.879966 27:-0.900407 28:-0.887367 29:-0.894829 30:-0.887423 31:-0.93807 32:-0.921609 33:-0.954399 34:-0.965233 35:-0.984158 36:-0.971392 37:-0.970066 38:-0.906468 39:-0.786855 40:-0.949833 41:-0.976455 42:-0.981419 43:-0.998158 44:-1 45:-1 46:-0.998867 47:-1 48:-1 49:-1 50:-1 51:-1 52:-1 53:-0.99889 54:-1 55:-1 56:-1 57:-1 58:-1 59:-1 60:-0.938637 61:-0.485339 
0.11906492859446 1:-0.89965 2:-0.970099 3:-0.945113 4:0.1754 5:0.380556 6:-0.996927 7:0.246738 8:-0.98366 9:-0.997689 10:-0.440128 11:0.5875 12:-0.996028 13:-0.18021 14:-0.996171 15:-0.931772 16:-0.941362 17:-0.926691 18:-0.922894 19:-0.926754 20:-0.95353 21:-0.909028 22:-0.911837 23:-0.887654 24:-0.872559 25:-0.913209 26:-0.849824 27:-0.908288 28:-0.858592 29:-0.891675 30:-0.858829 31:-0.92161 32:-0.919688 33:-0.950539 34:-0.959033 35:-0.890126 36:-0.996516 37:-1 38:-0.999246 39:-0.999476 40:-1 41:-1 42:-1 43:-1 44:-1 45:-1 46:-1 47:-1 48:-1 49:-1 50:-1 51:-1 52:-1 53:-1 54:-1 55:-1 56:-1 57:-1 58:-1 59:-1 60:-0.823796 61:-0.472036 
0.9996468276041173 1:-0.90813 2:-0.953468 3:-0.917402 4:0.164724 5:0.387719 6:-0.999604 7:0.242836 8:-0.97999 9:-0.997897 10:-0.440114 11:0.587622 12:-0.996645 13:-0.180127 14:-0.996772 15:-0.932093 16:-0.946982 17:-0.944022 18:-0.924 19:-0.950194 20:-0.902313 21:-0.908638 22:-0.869846 23:-0.912339 24:-0.903936 25:-0.857073 26:-0.909437 27:-0.88674 28:-0.918929 29:-0.887652 30:-0.910566 31:-0.915768 32:-0.928955 33:-0.959458 34:-0.958128 35:-0.987609 36:-0.974693 37:-0.969268 38:-0.914765 39:-0.799424 40:-0.951171 41:-0.96921 42:-0.984797 43:-0.999079 44:-1 45:-0.998843 46:-1 47:-1 48:-1 49:-1 50:-1 51:-1 52:-1 53:-1 54:-1 55:-0.997872 56:-1 57:-1 58:-1 59:-1 60:-0.93734 61:-0.448823 
1.484057055597017 1:-0.911169 2:-0.94186 3:-0.90236 4:0.15293 5:0.387702 6:-0.998374 7:0.239616 8:-0.981254 9:-0.997529 10:-0.440091 11:0.587416 12:-0.996725 13:-0.180121 14:-0.996904 15:-0.945638 16:-0.800241 17:-0.93929 18:-0.801021 19:-0.959721 20:-0.852314 21:-0.935945 22:-0.897746 23:-0.902039 24:-0.901485 25:-0.878515 26:-0.901199 27:-0.887193 28:-0.916798 29:-0.885179 30:-0.878179 31:-0.915793 32:-0.906969 33:-0.95185 34:-0.952363 35:-0.901419 36:-0.999817 37:-0.9998 38:-0.999623 39:-1 40:-1 41:-1 42:-1 43:-1 44:-1 45:-1 46:-1 47:-1 48:-1 49:-1 50:-1 51:-1 52:-1 53:-1 54:-1 55:-1 56:-1 57:-1 58:-1 59:-1 60:-0.690473 61:-0.41168 
30.97455143433288 1:-0.916611 2:-0.895546 3:-0.854578 4:0.126752 5:0.401491 6:-0.990088 7:0.232473 8:-0.973926 9:-0.998023 10:-0.440124 11:0.587503 12:-0.997064 13:-0.180107 14:-0.997197 15:-0.869938 16:-0.912672 17:-0.914638 18:-0.937952 19:-0.934459 20:-0.914672 21:-0.921152 22:-0.882913 23:-0.91037 24:-0.858719 25:-0.92157 26:-0.859051 27:-0.925893 28:-0.870742 29:-0.925647 30:-0.863854 31:-0.93951 32:-0.92305 33:-0.961497 34:-0.965406 35:-0.992393 36:-0.982212 37:-0.980842 38:-0.952857 39:-0.899974 40:-0.90301 41:-0.932533 42:-0.963401 43:-0.941962 44:-0.992557 45:-0.997687 46:-1 47:-1 48:-1 49:-1 50:-0.998566 51:-1 52:-1 53:-1 54:-1 55:-1 56:-1 57:-1 58:-1 59:-1 60:-0.939938 61:-0.403225 
0.005307259794845679 1:-0.940285 2:-0.755746 3:-0.637373 4:0.164441 5:0.411603 6:-0.999672 7:0.242611 8:-0.984035 9:-0.998857 10:-0.440137 11:0.587698 12:-0.998086 13:-0.180128 14:-0.998158 15:-0.962372 16:-0.880011 17:-1 18:-1 19:-0.93307 20:-0.936002 21:-0.931435 22:-0.934532 23:-0.903539 24:-0.910671 25:-0.887245 26:-0.922883 27:-0.894652 28:-0.932058 29:-0.898852 30:-0.923343 31:-0.923012 32:-0.946285 33:-0.985956 34:-0.947233 35:-0.999294 36:-0.996516 37:-0.994612 38:-0.989817 39:-0.981147 40:-0.992977 41:-0.986416 42:-0.976914 43:-0.964993 44:-0.918129 45:-0.920185 46:-0.929785 47:-0.891173 48:-0.881895 49:-0.919834 50:-0.965591 51:-0.972028 52:-0.979665 53:-0.978912 54:-0.972532 55:-0.965957 56:-0.966306 57:-0.931373 58:-0.922747 59:-1 60:-0.946514 61:-0.392699 
0.477141024234233 1:-0.919437 2:-0.821887 3:-0.752743 4:0.189698 5:0.408624 6:-0.996832 7:0.247362 8:-0.978684 9:-0.997923 10:-0.44012 11:0.587668 12:-0.996835 13:-0.180102 14:-0.996957 15:-0.896776 16:-0.906828 17:-0.936687 18:-0.90468 19:-0.964153 20:-0.915253 21:-0.979302 22:-0.868716 23:-0.969317 24:-0.839471 25:-0.964726 26:-0.824548 27:-0.968538 28:-0.825695 29:-0.970403 30:-0.829536 31:-0.964267 32:-0.884813 33:-0.968831 34:-0.95198 35:-0.997569 36:-0.991748 37:-0.985632 38:-0.980011 39:-0.977481 40:-0.987291 41:-0.978266 42:-0.970158 43:-0.931829 44:-0.871345 45:-0.813765 46:-0.842582 47:-0.927449 48:-0.957171 49:-0.953006 50:-0.958423 51:-0.963869 52:-0.978469 53:-0.978912 54:-0.975966 55:-0.974468 56:-0.971119 57:-0.990196 58:-0.991416 59:-1 60:-0.940871 61:-0.44101 
1.065400190865919 1:-0.919084 2:-0.872468 3:-0.814972 4:0.180739 5:0.400967 6:-0.998062 7:0.246092 8:-0.977361 9:-0.997713 10:-0.440127 11:0.587441 12:-0.99658 13:-0.180052 14:-0.996857 15:-0.858415 16:-0.926008 17:-0.878977 18:-0.955578 19:-0.927149 20:-0.978657 21:-0.975649 22:-0.856621 23:-0.975977 24:-0.84515 25:-0.965872 26:-0.824269 27:-0.966179 28:-0.835361 29:-0.970535 30:-0.828534 31:-0.958744 32:-0.884263 33:-0.965538 34:-0.95451 35:-0.997569 36:-0.990647 37:-0.988825 38:-0.98416 39:-0.980623 40:-0.986957 41:-0.981435 42:-0.971284 43:-0.924459 44:-0.890484 45:-0.865818 46:-0.865232 47:-0.874244 48:-0.90915 49:-0.951624 50:-0.941219 51:-0.959207 52:-0.97488 53:-0.978912 54:-0.982833 55:-0.961702 56:-0.975933 57:-0.931373 58:-0.982833 59:-0.971831 60:-0.940597 61:-0.421892 
1.041463274177069 1:-0.898802 2:-0.993739 3:-0.994807 4:0.168746 5:0.364273 6:-0.985159 7:0.249714 8:-0.990302 9:-0.995506 10:-0.440166 11:0.587222 12:-0.996846 13:-0.180224 14:-0.996544 15:-0.938209 16:-0.715814 17:-0.962226 18:-0.768194 19:-0.958958 20:-0.78769 21:-0.927733 22:-0.79789 23:-0.940124 24:-0.829019 25:-0.943687 26:-0.840914 27:-0.947995 28:-0.851349 29:-0.948807 30:-0.862633 31:-0.948661 32:-0.976421 33:-0.946607 34:-0.975052 35:-0.979531 36:-0.981845 37:-0.985232 38:-0.972846 39:-0.957581 40:-0.966555 41:-0.947476 42:-0.920045 43:-0.851681 44:-0.907496 45:-0.894737 46:-0.956965 47:-0.948005 48:-0.955873 49:-0.970974 50:-0.992832 51:-0.990676 52:-0.997608 53:-1 54:-1 55:-1 56:-1 57:-1 58:-1 59:-1 60:-0.941303 61:-0.601146 
1.211694812445359 1:-0.983605 2:-0.992217 3:-0.998962 4:0.161484 5:0.361156 6:-0.983332 7:0.24592 8:-0.998377 9:-0.999922 10:-0.440131 11:0.587596 12:-0.999873 13:-0.180104 14:-0.999874 15:-0.992918 16:-0.982926 17:-0.973277 18:-0.94247 19:-0.976254 20:-0.941487 21:-0.981262 22:-0.954629 23:-0.968167 24:-0.904553 25:-0.975657 26:-0.926749 27:-0.981942 28:-0.959007 29:-0.980873 30:-0.968866 31:-0.981625 32:-0.97389 33:-0.987099 34:-0.98285 35:-0.993099 36:-0.995415 37:-0.998204 38:-0.997737 39:-0.997382 40:-0.99699 41:-0.998642 42:-0.998311 43:-0.996315 44:-0.995747 45:-0.99306 46:-0.998867 47:-0.990326 48:-0.992213 49:-0.993089 50:-0.991398 51:-0.996503 52:-0.992823 53:-0.994451 54:-0.99485 55:-0.989362 56:-0.99278 57:-0.965686 58:-0.948498 59:-0.746479 60:-0.978302 61:-0.908511 
-21.53272219356884 1:-0.901488 2:-0.85967 3:-0.822956 4:0.228213 5:0.467107 6:-0.975807 7:0.280541 8:-0.858543 9:-0.997277 10:-0.440156 11:0.587762 12:-0.995913 13:-0.180052 14:-0.996209 15:-0.866303 16:-0.914897 17:-0.883904 18:-0.919518 19:-0.971832 20:-0.925915 21:-0.972376 22:-0.85116 23:-0.968237 24:-0.844071 25:-0.971223 26:-0.842707 27:-0.962671 28:-0.843075 29:-0.965831 30:-0.841433 31:-0.955966 32:-0.874758 33:-0.954659 34:-0.959871 35:-0.995451 36:-0.987346 37:-0.978447 38:-0.937771 39:-0.932443 40:-0.970234 41:-0.974643 42:-0.981419 43:-0.941041 44:-0.927698 45:-0.887796 46:-0.902605 47:-0.920193 48:-0.902661 49:-0.90463 50:-0.881004 51:-0.968531 52:-0.970096 53:-0.987791 54:-0.982833 55:-0.985106 56:-0.995187 57:-1 58:-1 59:-1 60:-0.954589 61:-0.653382 
-29.86359166464653 1:-0.931239 2:-0.953734 3:-0.945976 4:0.194264 5:0.43227 6:-0.981781 7:0.283309 8:-0.789235 9:-0.999163 10:-0.440149 11:0.587505 12:-0.998075 13:-0.18002 14:-0.998255 15:-0.960991 16:-0.941506 17:-0.965176 18:-0.966668 19:-0.917598 20:-0.945515 21:-0.933295 22:-0.950099 23:-0.94133 24:-0.910766 25:-0.938748 26:-0.893082 27:-0.939726 28:-0.929007 29:-0.941614 30:-0.925925 31:-0.940628 32:-0.930542 33:-0.956921 34:-0.961159 35:-0.984315 36:-0.986796 37:-0.976651 38:-0.923817 39:-0.930872 40:-0.985953 41:-0.987775 42:-0.984797 43:-0.980654 44:-0.968102 45:-0.982649 46:-0.970555 47:-0.984281 48:-0.983128 49:-0.986178 50:-0.98853 51:-0.997669 52:-0.995215 53:-0.994451 54:-0.996567 55:-0.995745 56:-0.99278 57:-0.990196 58:-0.991416 59:-1 60:-0.972175 61:-0.857468 
-0.004758079530730874 1:-0.142221 2:-0.623745 3:-0.910114 4:0.205892 5:0.347435 6:-0.369463 7:0.0375374 8:-0.817712 9:-0.67084 10:-0.42005 11:0.543 12:-0.347321 13:-0.168181 14:-0.3836 15:0.810387 16:-0.376996 17:0.716802 18:-0.375451 19:0.558229 20:-0.448016 21:0.435884 22:-0.461069 23:0.412783 24:-0.553475 25:0.29886 26:-0.532309 27:0.327905 28:-0.538547 29:0.383205 30:-0.687632 31:0.240074 32:-0.749496 33:-0.779733 34:-0.958134 35:-0.990197 36:-0.901889 37:-0.810218 38:-0.578352 39:-0.504059 40:-0.655518 41:-0.41046 42:-0.0304054 43:0.810226 44:0.450292 45:-0.229612 46:-0.686297 47:-0.882709 48:-0.966256 49:-0.994471 50:-0.992832 51:-1 52:-1 53:-0.99889 54:-0.99485 55:-0.995745 56:-1 57:-1 58:-1 59:-0.971831 60:-0.922937 61:-0.0928503 
