svm_type c_svc
kernel_type rbf
gamma 8
nr_class 2
total_sv 533
rho 1.58179
label 1 -1
nr_sv 227 306
SV
1.803015211901896 1:-0.942758 2:-0.980047 3:-0.972964 4:-0.181976 5:0.10909 6:-0.992055 7:0.271025 8:-0.721578 9:-0.999434 10:-0.44015 11:0.573787 12:-0.998306 13:-0.180065 14:-0.998465 15:-0.920762 16:-0.962738 17:-0.968984 18:-0.965817 19:-0.970298 20:-0.980599 21:-0.961499 22:-0.981797 23:-0.936052 24:-0.927285 25:-0.951151 26:-0.902557 27:-0.953571 28:-0.915559 29:-0.960112 30:-0.938912 31:-0.954349 32:-0.932664 33:-0.96057 34:-0.954003 35:-0.984237 36:-0.983129 37:-0.975454 38:-0.941841 39:-0.95182 40:-0.990301 41:-0.990491 42:-0.993376 43:-0.990071 44:-0.983924 45:-0.991903 46:-0.994337 47:-0.995163 48:-0.994809 49:-0.991707 50:-0.998566 51:-0.996503 52:-0.997608 53:-0.99778 54:-0.99485 55:-0.991489 56:-0.997593 57:-0.97549 58:-0.974249 59:-0.943662 60:-0.990167 61:-0.982409 
1.206818036268802 1:-0.928766 2:-0.975313 3:-0.969913 4:-0.181779 5:0.109536 6:-0.992658 7:0.267977 8:-0.748626 9:-0.999044 10:-0.440109 11:0.587631 12:-0.998094 13:-0.180486 14:-0.998259 15:-0.959546 16:-0.973914 17:-0.908019 18:-0.924981 19:-0.91171 20:-0.930961 21:-0.950688 22:-0.944429 23:-0.950302 24:-0.952834 25:-0.942006 26:-0.937123 27:-0.933773 28:-0.892676 29:-0.939552 30:-0.932815 31:-0.941313 32:-0.92331 33:-0.943254 34:-0.9432 35:-0.986825 36:-0.984412 37:-0.97705 38:-0.928505 39:-0.936633 40:-0.984615 41:-0.976907 42:-0.986752 43:-0.985107 44:-0.965957 45:-0.975709 46:-0.97735 47:-0.975816 48:-0.971447 49:-0.982032 50:-0.991398 51:-0.987179 52:-0.995215 53:-0.99889 54:-0.99485 55:-0.993617 56:-0.98556 57:-0.970588 58:-0.957082 59:-0.859155 60:-0.987608 61:-0.974129 
7.024713742209315 1:-0.987845 2:-0.804544 3:-0.757608 4:-0.163341 5:0.147878 6:-0.994212 7:0.252913 8:-0.919811 9:-0.999978 10:-0.44013 11:0.58758 12:-0.999908 13:-0.180105 14:-0.999917 15:-0.984878 16:-0.974445 17:-0.972676 18:-0.970289 19:-0.97695 20:-0.972261 21:-0.981288 22:-0.969214 23:-0.981538 24:-0.970419 25:-0.972835 26:-0.969722 27:-0.960241 28:-0.977379 29:-0.965621 30:-0.969158 31:-0.981715 32:-0.987079 33:-0.981168 34:-0.990907 35:-0.999922 36:-0.998166 37:-0.99561 38:-0.994443 39:-0.994239 40:-0.996321 41:-0.99185 42:-0.995414 43:-0.996277 44:-0.986761 45:-0.987276 46:-0.98641 47:-0.991536 48:-0.993511 49:-0.988943 50:-0.997133 51:-0.994172 52:-0.998804 53:-0.99889 54:-0.99485 55:-0.997872 56:-0.997593 57:-1 58:-0.991416 59:-1 60:-0.995464 61:-0.982868 
0.6208042809828549 1:-0.966079 2:-0.633719 3:-0.880839 4:-0.000241537 5:0.101279 6:-0.509385 7:0.343995 8:-0.954925 9:-0.999365 10:-0.44013 11:0.587607 12:-0.999626 13:-0.180106 14:-0.999575 15:-0.920812 16:-0.975681 17:-0.912637 18:-0.960073 19:-0.918167 20:-0.971354 21:-0.891469 22:-0.97291 23:-0.881987 24:-0.958834 25:-0.874847 26:-0.960496 27:-0.897838 28:-0.969221 29:-0.912023 30:-0.977415 31:-0.965032 32:-0.977905 33:-0.980568 34:-0.98871 35:-0.999843 36:-0.999266 37:-0.998204 38:-0.996296 39:-0.997382 40:-0.996321 41:-0.993661 42:-0.990828 43:-0.983245 44:-0.981087 45:-0.967611 46:-0.962627 47:-0.951632 48:-0.949384 49:-0.918452 50:-0.935484 51:-0.939394 52:-0.95933 53:-0.986681 54:-0.984549 55:-0.989362 56:-0.99278 57:-0.985294 58:-1 59:-0.971831 60:-0.988401 61:-0.920397 
0.4938999199099584 1:-0.964524 2:-0.61631 3:-0.886448 4:0.00292774 5:0.102199 6:-0.467736 7:0.353233 8:-0.951179 9:-0.999366 10:-0.440134 11:0.587614 12:-0.999578 13:-0.18009 14:-0.999528 15:-0.923366 16:-0.962325 17:-0.888035 18:-0.961725 19:-0.883856 20:-0.97282 21:-0.885972 22:-0.974844 23:-0.881107 24:-0.970287 25:-0.893784 26:-0.96869 27:-0.89322 28:-0.976464 29:-0.936386 30:-0.981657 31:-0.969865 32:-0.978413 33:-0.969902 34:-0.988966 35:-0.999686 36:-0.999266 37:-0.996807 38:-0.997036 39:-0.992145 40:-0.995652 41:-0.994114 42:-0.989809 43:-0.990692 44:-0.974468 45:-0.969925 46:-0.962627 47:-0.952842 48:-0.926022 49:-0.946095 50:-0.915412 51:-0.959207 52:-0.960526 53:-0.977802 54:-0.979399 55:-0.978723 56:-0.995187 57:-0.985294 58:-1 59:-0.943662 60:-0.987939 61:-0.919566 
0.5383641613074482 1:-0.963464 2:-0.520201 3:-0.875019 4:0.0388978 5:0.107581 6:-0.323272 7:0.374741 8:-0.945969 9:-0.999159 10:-0.440126 11:0.58759 12:-0.999575 13:-0.180102 14:-0.999493 15:-0.948684 16:-0.959914 17:-0.86109 18:-0.934511 19:-0.869782 20:-0.946022 21:-0.892846 22:-0.9499 23:-0.896469 24:-0.948725 25:-0.905934 26:-0.947826 27:-0.909949 28:-0.960496 29:-0.91782 30:-0.969716 31:-0.967242 32:-0.989125 33:-0.968953 34:-0.991302 35:-0.999529 36:-0.995782 37:-0.996807 38:-0.996296 39:-0.981147 40:-0.987291 41:-0.989133 42:-0.964331 43:-0.945392 44:-0.936643 45:-0.941006 46:-0.94564 47:-0.981862 48:-0.980532 49:-0.994471 50:-0.998566 51:-0.997669 52:-0.998804 53:-1 54:-0.996567 55:-1 56:-0.995187 57:-0.995098 58:-1 59:-1 60:-0.987307 61:-0.917631 
2.794649425377268 1:-0.971167 2:-0.503922 3:-0.869909 4:0.0476621 5:0.102695 6:-0.300639 7:0.362534 8:-0.956636 9:-0.999493 10:-0.440134 11:0.587609 12:-0.999716 13:-0.180105 14:-0.999669 15:-0.906178 16:-0.920393 17:-0.902272 18:-0.923572 19:-0.922568 20:-0.954452 21:-0.916324 22:-0.927324 23:-0.907609 24:-0.916079 25:-0.909535 26:-0.92913 27:-0.91689 28:-0.932651 29:-0.916515 30:-0.949748 31:-0.965246 32:-0.983717 33:-0.97582 34:-0.993047 35:-0.999843 36:-0.998716 37:-0.998404 38:-0.994073 39:-0.986384 40:-0.984281 41:-0.965135 42:-0.960764 43:-0.954701 44:-0.962175 45:-0.979179 46:-0.98641 47:-0.997582 48:-0.996106 49:-0.998618 50:-0.998566 51:-1 52:-1 53:-0.99889 54:-1 55:-1 56:-1 57:-1 58:-1 59:-1 60:-0.987791 61:-0.91545 
4.36732539335678 1:-0.978305 2:-0.488274 3:-0.862474 4:0.059058 5:0.101674 6:-0.274951 7:0.358881 8:-0.960532 9:-0.999742 10:-0.440141 11:0.58755 12:-0.999806 13:-0.180105 14:-0.99979 15:-0.926004 16:-0.916225 17:-0.923566 18:-0.928636 19:-0.932385 20:-0.93499 21:-0.938842 22:-0.9384 23:-0.936364 24:-0.913453 25:-0.935884 26:-0.905125 27:-0.941666 28:-0.928068 29:-0.959832 30:-0.971951 31:-0.974109 32:-0.988168 33:-0.975568 34:-0.988516 35:-0.999922 36:-0.99945 37:-0.9998 38:-0.99963 39:-0.997382 40:-0.998662 41:-0.998642 42:-0.993885 43:-0.994415 44:-0.986761 45:-0.974552 46:-0.976217 47:-0.968561 48:-0.959766 49:-0.957153 50:-0.958423 51:-0.975524 52:-0.978469 53:-0.978912 54:-0.975966 55:-0.982979 56:-0.983153 57:-0.97549 58:-0.965665 59:-0.971831 60:-0.990112 61:-0.915345 
0.7013291661118018 1:-0.956539 2:-0.537455 3:-0.806636 4:0.0697429 5:0.137441 6:-0.438587 7:0.390368 8:-0.919169 9:-0.999208 10:-0.440127 11:0.587585 12:-0.999227 13:-0.180109 14:-0.999201 15:-0.946962 16:-0.957925 17:-0.954051 18:-0.963398 19:-0.930264 20:-0.902552 21:-0.91738 22:-0.872516 23:-0.907338 24:-0.901811 25:-0.908664 26:-0.908319 27:-0.909614 28:-0.912349 29:-0.914465 30:-0.92765 31:-0.941063 32:-0.956555 33:-0.961048 34:-0.984281 35:-0.999608 36:-0.994865 37:-0.992616 38:-0.984812 39:-0.976957 40:-0.989632 41:-0.986869 42:-0.980127 43:-0.973937 44:-0.940426 45:-0.917872 46:-0.93658 47:-0.94075 48:-0.948086 49:-0.975121 50:-0.981362 51:-0.993007 52:-0.996411 53:-0.99778 54:-1 55:-0.997872 56:-1 57:-1 58:-1 59:-1 60:-0.984194 61:-0.918653 
0.2805036944199206 1:-0.947988 2:-0.629677 3:-0.842628 4:0.0166439 5:0.140376 6:-0.557577 7:0.393501 8:-0.89295 9:-0.998972 10:-0.440141 11:0.587633 12:-0.998317 13:-0.180059 14:-0.998373 15:-0.945457 16:-0.957953 17:-0.947442 18:-0.968749 19:-0.933464 20:-0.966716 21:-0.944129 22:-0.980445 23:-0.923379 24:-0.903875 25:-0.904559 26:-0.878519 27:-0.911814 28:-0.883079 29:-0.90386 30:-0.899676 31:-0.923743 32:-0.911069 33:-0.971467 34:-0.974425 35:-0.999216 36:-0.994315 37:-0.992616 38:-0.98333 39:-0.983242 40:-0.986622 41:-0.990491 42:-0.992866 43:-0.98883 44:-0.970686 45:-0.967611 46:-0.95017 47:-0.938331 48:-0.924724 49:-0.894955 50:-0.919713 51:-0.939394 52:-0.954545 53:-0.964484 54:-0.9897 55:-0.985106 56:-0.98556 57:-0.980392 58:-0.991416 59:-0.971831 60:-0.984867 61:-0.923916 
0.6003610749200523 1:-0.938447 2:-0.768506 3:-0.830972 4:-0.0548861 5:0.176417 6:-0.81981 7:0.372236 8:-0.804144 9:-0.998504 10:-0.440111 11:0.587962 12:-0.996967 13:-0.178769 14:-0.997118 15:-0.838288 16:-0.90574 17:-0.881187 18:-0.919045 19:-0.905571 20:-0.95779 21:-0.932678 22:-0.968262 23:-0.92442 24:-0.93075 25:-0.940436 26:-0.931538 27:-0.934909 28:-0.956395 29:-0.948279 30:-0.966133 31:-0.936993 32:-0.96544 33:-0.957749 34:-0.96083 35:-0.999529 36:-0.996882 37:-0.986629 38:-0.951472 39:-0.93768 40:-0.976589 41:-0.985963 42:-0.984204 43:-0.987589 44:-0.959338 45:-0.945633 46:-0.928652 47:-0.933495 48:-0.932511 49:-0.951624 50:-0.984229 51:-0.979021 52:-0.979665 53:-0.981132 54:-0.974249 55:-0.989362 56:-0.99278 57:-1 58:-0.991416 59:-1 60:-0.984656 61:-0.946146 
3.359348440567647 1:-0.901488 2:-0.918625 3:-0.908133 4:-0.159353 5:0.128179 6:-0.979646 7:0.275295 8:-0.858543 9:-0.997277 10:-0.440156 11:0.587762 12:-0.995913 13:-0.180052 14:-0.996209 15:-0.866303 16:-0.92288 17:-0.883904 18:-0.929884 19:-0.971832 20:-0.931091 21:-0.972376 22:-0.867348 23:-0.968237 24:-0.858172 25:-0.971223 26:-0.853691 27:-0.962671 28:-0.852496 29:-0.965831 30:-0.857974 31:-0.955966 32:-0.874948 33:-0.954659 34:-0.959871 35:-0.995451 36:-0.987346 37:-0.978447 38:-0.938878 39:-0.932443 40:-0.970234 41:-0.974643 42:-0.983185 43:-0.960285 44:-0.935697 45:-0.887796 46:-0.902605 47:-0.920193 48:-0.902661 49:-0.90463 50:-0.881004 51:-0.968531 52:-0.970096 53:-0.987791 54:-0.982833 55:-0.985106 56:-0.995187 57:-1 58:-1 59:-1 60:-0.98492 61:-0.950574 
1.368735577337446 1:-0.901064 2:-0.964511 3:-0.964735 4:-0.173819 5:0.110694 6:-0.981869 7:0.282733 8:-0.77184 9:-0.996347 10:-0.440148 11:0.587693 12:-0.996393 13:-0.180108 14:-0.996613 15:-0.789347 16:-0.92022 17:-0.854608 18:-0.916473 19:-0.882082 20:-0.915446 21:-0.905386 22:-0.943528 23:-0.912883 24:-0.854196 25:-0.914134 26:-0.852106 27:-0.945928 28:-0.848592 29:-0.944288 30:-0.910439 31:-0.944899 32:-0.90922 33:-0.958658 34:-0.941902 35:-0.984707 36:-0.980745 37:-0.970465 38:-0.903686 39:-0.950249 40:-0.980936 41:-0.965135 42:-0.967389 43:-0.966491 44:-0.952719 45:-0.929439 46:-0.949037 47:-0.939541 48:-0.935107 49:-0.966828 50:-0.975627 51:-0.990676 52:-0.986842 53:-0.991121 54:-0.987983 55:-0.995745 56:-0.980746 57:-0.985294 58:-0.974249 59:-0.971831 60:-0.986531 61:-0.967098 
6.050471659657586 1:-0.921134 2:-0.972886 3:-0.971383 4:-0.176397 5:0.106275 6:-0.983195 7:0.28264 8:-0.761167 9:-0.998593 10:-0.440149 11:0.587638 12:-0.997506 13:-0.179967 14:-0.997628 15:-0.887217 16:-0.953393 17:-0.877521 18:-0.942967 19:-0.91421 20:-0.935035 21:-0.956059 22:-0.948603 23:-0.953669 24:-0.925337 25:-0.935263 26:-0.918106 27:-0.938066 28:-0.927096 29:-0.932937 30:-0.926077 31:-0.946665 32:-0.939383 33:-0.960981 34:-0.976083 35:-0.977884 36:-0.965157 37:-0.962283 38:-0.95814 39:-0.962817 40:-0.986288 41:-0.985058 42:-0.986752 43:-0.983245 44:-0.961229 45:-0.954887 46:-0.969422 47:-0.980653 48:-0.996106 49:-0.993089 50:-0.998566 51:-1 52:-0.997608 53:-0.99778 54:-0.996567 55:-0.997872 56:-0.990373 57:-1 58:-0.965665 59:-1 60:-0.989032 61:-0.978737 
8 1:-0.981414 2:-0.976219 3:-0.976573 4:-0.178458 5:0.0942458 6:-0.984319 7:0.27569 8:-0.820133 9:-0.999976 10:-0.440908 11:0.587597 12:-0.999482 13:-0.180092 14:-0.999535 15:-0.989392 16:-0.978812 17:-0.983408 18:-0.984214 19:-0.990507 20:-0.974911 21:-0.996257 22:-0.986346 23:-0.996615 24:-0.991474 25:-0.98169 26:-0.977818 27:-0.983471 28:-0.977293 29:-0.981831 30:-0.972364 31:-0.979374 32:-0.970421 33:-0.977447 34:-0.976404 35:-0.995687 36:-0.982578 37:-0.992816 38:-0.994814 39:-0.994763 40:-0.997993 41:-0.995925 42:-0.996943 43:-0.998759 44:-0.993381 45:-0.99653 46:-0.997735 47:-0.993954 48:-0.994809 49:-1 50:-0.997133 51:-0.998834 52:-0.998804 53:-0.99778 54:-0.998283 55:-0.995745 56:-0.997593 57:-0.995098 58:-0.991416 59:-1 60:-0.996796 61:-0.994974 
8 1:-0.971167 2:-0.971999 3:-0.976422 4:-0.176573 5:0.0990639 6:-0.980965 7:0.282961 8:-0.78878 9:-0.999789 10:-0.440128 11:0.587588 12:-0.999659 13:-0.179959 14:-0.999676 15:-0.96551 16:-0.921138 17:-0.957712 18:-0.944669 19:-0.963042 20:-0.951501 21:-0.969745 22:-0.93544 23:-0.969056 24:-0.949067 25:-0.975934 26:-0.979698 27:-0.979516 28:-0.929147 29:-0.978477 30:-0.93861 31:-0.983689 32:-0.966833 33:-0.98663 34:-0.975978 35:-0.991765 36:-0.989364 37:-0.988625 38:-0.977033 39:-0.970673 40:-0.99097 41:-0.995472 42:-0.996943 43:-0.999379 44:-0.997163 45:-0.997687 46:-0.997735 47:-0.996372 48:-1 49:-0.998618 50:-0.997133 51:-0.998834 52:-0.997608 53:-0.99778 54:-0.996567 55:-0.997872 56:-0.99278 57:-0.985294 58:-0.982833 59:-1 60:-0.991984 61:-0.986046 
8 1:-0.959295 2:-0.971999 3:-0.975009 4:-0.175829 5:0.111089 6:-0.979933 7:0.294762 8:-0.682915 9:-0.999735 10:-0.440126 11:0.587609 12:-0.99909 13:-0.180074 14:-0.999168 15:-0.958075 16:-0.9784 17:-0.973472 18:-0.97094 19:-0.953718 20:-0.927851 21:-0.954565 22:-0.928214 23:-0.958627 24:-0.951105 25:-0.96755 26:-0.925812 27:-0.969586 28:-0.960131 29:-0.97856 30:-0.931978 31:-0.978891 32:-0.956892 33:-0.986365 34:-0.975978 35:-0.988079 36:-0.978544 37:-0.981441 38:-0.974069 39:-0.968054 40:-0.989632 41:-0.994114 42:-0.995414 43:-0.998759 44:-0.995272 45:-0.997687 46:-0.997735 47:-0.996372 48:-1 49:-0.998618 50:-0.997133 51:-0.998834 52:-0.997608 53:-0.99778 54:-0.996567 55:-0.997872 56:-0.99278 57:-0.985294 58:-0.982833 59:-1 60:-0.992881 61:-0.987805 
8 1:-0.98311 2:-0.67827 3:-0.623193 4:-0.13496 5:0.237356 6:-0.985824 7:0.274715 8:-0.81044 9:-0.999941 10:-0.440133 11:0.587595 12:-0.999573 13:-0.180117 14:-0.999614 15:-0.984624 16:-0.973824 17:-0.980617 18:-0.990197 19:-0.973176 20:-0.979479 21:-0.980829 22:-0.979415 23:-0.988431 24:-0.9734 25:-0.98678 26:-0.955402 27:-0.980181 28:-0.949941 29:-0.979132 30:-0.953178 31:-0.970835 32:-0.944498 33:-0.979683 34:-0.954862 35:-0.999608 36:-0.99835 37:-0.997007 38:-0.993703 39:-0.992145 40:-0.991973 41:-0.994566 42:-0.993376 43:-0.993174 44:-0.982979 45:-0.991903 46:-0.988675 47:-0.981862 48:-0.987021 49:-0.98065 50:-0.991398 51:-0.98951 52:-0.989234 53:-0.994451 54:-0.99485 55:-0.989362 56:-0.995187 57:-0.97549 58:-0.974249 59:-1 60:-0.994846 61:-0.976001 
5.729516588819278 1:-0.979011 2:-0.704042 3:-0.638686 4:-0.136648 5:0.277462 6:-0.985978 7:0.28329 8:-0.708112 9:-0.999804 10:-0.44013 11:0.587587 12:-0.999468 13:-0.180104 14:-0.999506 15:-0.95755 16:-0.929677 17:-0.981128 18:-0.975168 19:-0.981914 20:-0.969316 21:-0.98455 22:-0.964513 23:-0.9865 24:-0.970235 25:-0.931212 26:-0.933334 27:-0.919332 28:-0.93061 29:-0.948819 30:-0.943055 31:-0.968608 32:-0.954411 33:-0.97697 34:-0.962678 35:-0.999529 36:-0.99945 37:-0.997007 38:-0.990369 39:-0.988479 40:-0.992642 41:-0.988227 42:-0.989299 43:-0.985728 44:-0.978251 45:-0.979179 46:-0.984145 47:-0.987908 48:-0.987021 49:-0.976503 50:-0.992832 51:-0.991841 52:-0.992823 53:-0.994451 54:-0.987983 55:-0.987234 56:-0.987966 57:-0.985294 58:-1 59:-1 60:-0.994243 61:-0.974598 
0.06939657662581071 1:-0.94721 2:-0.694894 3:-0.869711 4:-0.0163731 5:0.145249 6:-0.619445 7:0.405293 8:-0.853744 9:-0.998377 10:-0.439116 11:0.593765 12:-0.998231 13:-0.180099 14:-0.99831 15:-0.908946 16:-0.765523 17:-0.932927 18:-0.855751 19:-0.933046 20:-0.905541 21:-0.929891 22:-0.93161 23:-0.899633 24:-0.958743 25:-0.895058 26:-0.951249 27:-0.874436 28:-0.96843 29:-0.878919 30:-0.971044 31:-0.895618 32:-0.97433 33:-0.979886 34:-0.979299 35:-0.999686 36:-0.995415 37:-0.983436 38:-0.975551 39:-0.981671 40:-0.991973 41:-0.989133 42:-0.991338 43:-0.986969 44:-0.971631 45:-0.954887 46:-0.9547 47:-0.945586 48:-0.949384 49:-0.939185 50:-0.928315 51:-0.940559 52:-0.955742 53:-0.958935 54:-0.963948 55:-0.976596 56:-0.990373 57:-0.995098 58:-0.982833 59:-1 60:-0.984157 61:-0.934785 
0.07493533126923622 1:-0.96509 2:-0.629423 3:-0.879452 4:0.00198373 5:0.10206 6:-0.504124 7:0.345535 8:-0.953918 9:-0.999276 10:-0.44013 11:0.587589 12:-0.999659 13:-0.180103 14:-0.999596 15:-0.893493 16:-0.958979 17:-0.896336 18:-0.965575 19:-0.887067 20:-0.951651 21:-0.895391 22:-0.954477 23:-0.88009 24:-0.95748 25:-0.890317 26:-0.962546 27:-0.907398 28:-0.974651 29:-0.95494 30:-0.978039 31:-0.967833 32:-0.983167 33:-0.989444 34:-0.990594 35:-0.999843 36:-0.99945 37:-0.998803 38:-0.996296 39:-0.998429 40:-0.994314 41:-0.994566 42:-0.993885 43:-0.989451 44:-0.979196 45:-0.968768 46:-0.96829 47:-0.95526 48:-0.954575 49:-0.933656 50:-0.911111 51:-0.938228 52:-0.956938 53:-0.968923 54:-0.975966 55:-0.97234 56:-0.98556 57:-1 58:-0.982833 59:-0.887324 60:-0.989243 61:-0.917147 
3.841128926019935 1:-0.970884 2:-0.583193 3:-0.881546 4:0.0156973 5:0.099408 6:-0.421937 7:0.34918 8:-0.957854 9:-0.999534 10:-0.440131 11:0.587599 12:-0.999704 13:-0.180105 14:-0.999672 15:-0.971477 16:-0.958076 17:-0.931289 18:-0.938511 19:-0.915012 20:-0.965424 21:-0.88974 22:-0.96647 23:-0.89719 24:-0.970521 25:-0.896882 26:-0.973423 27:-0.900317 28:-0.975605 29:-0.921343 30:-0.976781 31:-0.97617 32:-0.981868 33:-0.978732 34:-0.987715 35:-0.999608 36:-0.999633 37:-0.997206 38:-0.995925 39:-0.991097 40:-0.998662 41:-0.994114 42:-0.992866 43:-0.98883 44:-0.965012 45:-0.95373 46:-0.947905 47:-0.949214 48:-0.916937 49:-0.944713 50:-0.971326 51:-0.986014 52:-0.994019 53:-0.992231 54:-0.998283 55:-0.995745 56:-0.997593 57:-1 58:-1 59:-1 60:-0.988529 61:-0.918719 
2.164291392934017 1:-0.974135 2:-0.484769 3:-0.876759 4:0.0485358 5:0.108092 6:-0.256139 7:0.383678 8:-0.944495 9:-0.999656 10:-0.440127 11:0.587627 12:-0.999732 13:-0.180104 14:-0.999708 15:-0.938225 16:-0.972663 17:-0.916654 18:-0.961102 19:-0.926634 20:-0.954341 21:-0.926456 22:-0.928019 23:-0.92835 24:-0.934688 25:-0.914797 26:-0.930829 27:-0.920408 28:-0.930414 29:-0.915443 30:-0.938672 31:-0.94772 32:-0.95593 33:-0.978634 34:-0.994117 35:-0.999843 36:-0.99945 37:-0.998603 38:-0.998518 39:-0.99581 40:-0.99699 41:-0.995019 42:-0.996943 43:-0.992554 44:-0.982033 45:-0.974552 46:-0.979615 47:-0.973398 48:-0.954575 49:-0.965446 50:-0.949821 51:-0.959207 52:-0.973684 53:-0.972253 54:-0.969099 55:-0.970213 56:-0.983153 57:-0.97549 58:-0.965665 59:-0.971831 60:-0.988273 61:-0.918478 
1.55066326242699 1:-0.978022 2:-0.410661 3:-0.853905 4:0.0872455 5:0.104596 6:-0.156209 7:0.371791 8:-0.958192 9:-0.999676 10:-0.440134 11:0.587609 12:-0.999773 13:-0.180114 14:-0.999756 15:-0.935861 16:-0.908734 17:-0.91998 18:-0.933822 19:-0.902215 20:-0.938678 21:-0.917771 22:-0.941429 23:-0.924772 24:-0.935846 25:-0.930499 26:-0.939315 27:-0.928833 28:-0.953034 29:-0.942435 30:-0.968552 31:-0.964848 32:-0.986946 33:-0.972231 34:-0.985218 35:-1 36:-0.999633 37:-1 38:-0.997036 39:-0.997382 40:-0.995987 41:-0.995472 42:-0.986242 43:-0.982625 44:-0.974468 45:-0.961828 46:-0.96376 47:-0.962515 48:-0.950681 49:-0.969592 50:-0.981362 51:-0.982517 52:-0.991627 53:-0.99778 54:-0.998283 55:-1 56:-1 57:-0.995098 58:-1 59:-1 60:-0.989159 61:-0.912858 
4.884890926826501 1:-0.976255 2:-0.382407 3:-0.778344 4:0.142273 5:0.125958 6:-0.204751 7:0.384892 8:-0.946311 9:-0.999507 10:-0.440132 11:0.587597 12:-0.999709 13:-0.180105 14:-0.999679 15:-0.962766 16:-0.930024 17:-0.897333 18:-0.931127 19:-0.888098 20:-0.942451 21:-0.884274 22:-0.952526 23:-0.88721 24:-0.950683 25:-0.890419 26:-0.963915 27:-0.90655 28:-0.965136 29:-0.914693 30:-0.967231 31:-0.970198 32:-0.965755 33:-0.973344 34:-0.971559 35:-0.999059 36:-0.994498 37:-0.985632 38:-0.9574 39:-0.962294 40:-0.992308 41:-0.995019 42:-0.997962 43:-1 44:-1 45:-1 46:-1 47:-1 48:-1 49:-1 50:-1 51:-1 52:-1 53:-1 54:-1 55:-1 56:-1 57:-1 58:-1 59:-1 60:-0.982357 61:-0.903882 
2.54622949398379 1:-0.974135 2:-0.394959 3:-0.77132 4:0.139044 5:0.138339 6:-0.243525 7:0.402233 8:-0.930449 9:-0.999539 10:-0.440138 11:0.587603 12:-0.999626 13:-0.180098 14:-0.999599 15:-0.981783 16:-0.96422 17:-0.964208 18:-0.984335 19:-0.935474 20:-0.962792 21:-0.920842 22:-0.970494 23:-0.87054 24:-0.96476 25:-0.865639 26:-0.945617 27:-0.899932 28:-0.961758 29:-0.909098 30:-0.980693 31:-0.968206 32:-0.982457 33:-0.975275 34:-0.97435 35:-1 36:-0.999083 37:-1 38:-0.996666 39:-0.99581 40:-0.995652 41:-0.995019 42:-0.996433 43:-0.993174 44:-0.980142 45:-0.987276 46:-0.97735 47:-0.967352 48:-0.970149 49:-0.954388 50:-0.962724 51:-0.965035 52:-0.967703 53:-0.968923 54:-0.958798 55:-0.970213 56:-0.983153 57:-0.970588 58:-0.974249 59:-0.859155 60:-0.986268 61:-0.907129 
0.3307489268168733 1:-0.948765 2:-0.555505 3:-0.78777 4:0.068265 5:0.155062 6:-0.493557 7:0.404201 8:-0.893708 9:-0.999034 10:-0.440139 11:0.587968 12:-0.998787 13:-0.179432 14:-0.998781 15:-0.967135 16:-0.968635 17:-0.935557 18:-0.942601 19:-0.936975 20:-0.958814 21:-0.887577 22:-0.957639 23:-0.863828 24:-0.955097 25:-0.88392 26:-0.950517 27:-0.88647 28:-0.953142 29:-0.889901 30:-0.960095 31:-0.896605 32:-0.959284 33:-0.971469 34:-0.96866 35:-0.999294 36:-0.993948 37:-0.987228 38:-0.988887 39:-0.976957 40:-0.98796 41:-0.986869 42:-0.992866 43:-0.989451 44:-0.96974 45:-0.956044 46:-0.930917 47:-0.927449 48:-0.913043 49:-0.918452 50:-0.939785 51:-0.95338 52:-0.970096 53:-0.991121 54:-0.977682 55:-0.993617 56:-0.997593 57:-0.990196 58:-1 59:-0.971831 60:-0.982768 61:-0.919146 
1.659743376692494 1:-0.954419 2:-0.573661 3:-0.793838 4:0.0555293 5:0.143106 6:-0.528444 7:0.382036 8:-0.913599 9:-0.999094 10:-0.44015 11:0.587669 12:-0.999028 13:-0.18011 14:-0.999021 15:-0.926894 16:-0.945137 17:-0.939063 18:-0.942723 19:-0.939699 20:-0.955799 21:-0.917665 22:-0.941947 23:-0.913115 24:-0.941443 25:-0.886248 26:-0.917116 27:-0.890806 28:-0.926413 29:-0.891195 30:-0.930403 31:-0.912791 32:-0.945641 33:-0.969775 34:-0.983031 35:-0.999137 36:-0.995599 37:-0.990421 38:-0.989628 39:-0.9801 40:-0.991973 41:-0.991397 42:-0.990828 43:-0.984487 44:-0.977305 45:-0.944477 46:-0.937712 47:-0.921403 48:-0.910448 49:-0.921216 50:-0.956989 51:-0.969697 52:-0.979665 53:-0.991121 54:-0.984549 55:-0.993617 56:-1 57:-0.995098 58:-0.991416 59:-1 60:-0.983701 61:-0.917018 
0.5909942194601925 1:-0.949896 2:-0.60071 3:-0.797923 4:0.0417832 5:0.13893 6:-0.570949 7:0.370408 8:-0.919661 9:-0.998867 10:-0.44013 11:0.587611 12:-0.999117 13:-0.180102 14:-0.999064 15:-0.970507 16:-0.98757 17:-0.940435 18:-0.96144 19:-0.917603 20:-0.897828 21:-0.910181 22:-0.893058 23:-0.892204 24:-0.903657 25:-0.88087 26:-0.900419 27:-0.882142 28:-0.90702 29:-0.897058 30:-0.940332 31:-0.973224 32:-0.974391 33:-0.971088 34:-0.972098 35:-0.999686 36:-0.997799 37:-0.996009 38:-0.981108 39:-0.974339 40:-0.989298 41:-0.983699 42:-0.985732 43:-0.985728 44:-0.965012 45:-0.962984 46:-0.942242 47:-0.931076 48:-0.924724 49:-0.911541 50:-0.889606 51:-0.960373 52:-0.972488 53:-0.988901 54:-0.991416 55:-0.987234 56:-0.995187 57:-1 58:-0.991416 59:-1 60:-0.983998 61:-0.920158 
0.8207816624081257 1:-0.94085 2:-0.635155 3:-0.804615 4:0.0265853 5:0.150955 6:-0.610702 7:0.383913 8:-0.893306 9:-0.998773 10:-0.440121 11:0.58774 12:-0.998481 13:-0.179828 14:-0.998468 15:-0.970985 16:-0.981379 17:-0.943026 18:-0.946535 19:-0.938976 20:-0.976893 21:-0.883961 22:-0.969252 23:-0.864351 24:-0.944311 25:-0.861792 26:-0.942789 27:-0.874757 28:-0.948619 29:-0.869369 30:-0.964225 31:-0.914975 32:-0.966959 33:-0.941193 34:-0.983799 35:-0.999373 36:-0.994865 37:-0.987827 38:-0.976292 39:-0.974339 40:-0.987291 41:-0.979171 42:-0.986242 43:-0.986969 44:-0.981087 45:-0.959514 46:-0.956965 47:-0.923821 48:-0.906554 49:-0.907395 50:-0.893907 51:-0.932401 52:-0.966507 53:-0.985572 54:-0.981116 55:-0.982979 56:-0.98556 57:-0.990196 58:-0.991416 59:-0.943662 60:-0.98329 61:-0.925858 
8 1:-0.987421 2:-0.884741 3:-0.868901 4:-0.18009 5:0.259497 6:-0.997899 7:0.264469 8:-0.320562 9:-0.99997 10:-0.440132 11:0.587597 12:-0.999924 13:-0.180106 14:-0.999929 15:-0.984505 16:-0.940804 17:-0.976909 18:-0.942882 19:-0.977325 20:-0.956192 21:-0.985083 22:-0.964184 23:-0.986865 24:-0.960919 25:-0.984567 26:-0.949452 27:-0.986297 28:-0.953686 29:-0.988823 30:-0.982049 31:-0.986568 32:-0.995849 33:-0.992313 34:-0.996336 35:-0.99749 36:-0.983862 37:-0.995011 38:-0.997036 39:-0.998429 40:-0.997659 41:-0.999094 42:-0.997962 43:-0.997518 44:-0.997163 45:-0.998843 46:-1 47:-1 48:-0.998702 49:-1 50:-1 51:-0.998834 52:-1 53:-0.99889 54:-1 55:-1 56:-1 57:-0.995098 58:-1 59:-1 60:-0.994434 61:-0.989371 
0.7614299975828553 1:-0.926151 2:-0.966767 3:-0.968676 4:-0.176256 5:0.0933216 6:-0.984853 7:0.268325 8:-0.874555 9:-0.998364 10:-0.440141 11:0.587561 12:-0.998746 13:-0.180124 14:-0.998711 15:-0.969097 16:-0.953967 17:-0.956044 18:-0.945131 19:-0.941851 20:-0.95345 21:-0.937808 22:-0.849189 23:-0.926843 24:-0.829995 25:-0.932763 26:-0.836505 27:-0.941189 28:-0.906581 29:-0.939497 30:-0.924146 31:-0.941279 32:-0.909522 33:-0.968755 34:-0.941581 35:-0.995922 36:-0.991564 37:-0.984235 38:-0.941471 39:-0.941346 40:-0.976923 41:-0.973285 42:-0.972484 43:-0.968352 44:-0.948936 45:-0.920185 46:-0.93205 47:-0.941959 48:-0.937703 49:-0.972357 50:-0.975627 51:-0.990676 52:-0.990431 53:-0.987791 54:-0.9897 55:-0.993617 56:-0.98556 57:-0.980392 58:-0.948498 59:-1 60:-0.987955 61:-0.963146 
2.619029825703039 1:-0.897177 2:-0.966767 3:-0.967244 4:-0.175796 5:0.108473 6:-0.984381 7:0.279518 8:-0.775262 9:-0.997714 10:-0.440096 11:0.587572 12:-0.996758 13:-0.180073 14:-0.996969 15:-0.949142 16:-0.94845 17:-0.937756 18:-0.925691 19:-0.929378 20:-0.944757 21:-0.925708 22:-0.936326 23:-0.927071 24:-0.87013 25:-0.924968 26:-0.811304 27:-0.932425 28:-0.833836 29:-0.938442 30:-0.910691 31:-0.941279 32:-0.909522 33:-0.967201 34:-0.937889 35:-0.994746 36:-0.984412 37:-0.972461 38:-0.871458 39:-0.920398 40:-0.973579 41:-0.968757 42:-0.963822 43:-0.96587 44:-0.940426 45:-0.917872 46:-0.92752 47:-0.938331 48:-0.937703 49:-0.970974 50:-0.975627 51:-0.987179 52:-0.990431 53:-0.986681 54:-0.984549 55:-0.991489 56:-0.98556 57:-0.980392 58:-0.948498 59:-1 60:-0.988511 61:-0.96758 
4.643982149060052 1:-0.931239 2:-0.973171 3:-0.971967 4:-0.177206 5:0.102442 6:-0.984671 7:0.278052 8:-0.789235 9:-0.999163 10:-0.440149 11:0.587505 12:-0.998075 13:-0.18002 14:-0.998255 15:-0.960991 16:-0.946993 17:-0.965176 18:-0.970962 19:-0.917598 20:-0.949321 21:-0.933295 22:-0.955526 23:-0.94133 24:-0.918835 25:-0.938748 26:-0.900548 27:-0.939726 28:-0.933269 29:-0.941614 30:-0.933652 31:-0.940628 32:-0.930647 33:-0.956921 34:-0.961159 35:-0.984315 36:-0.986796 37:-0.976651 38:-0.925171 39:-0.930872 40:-0.985953 41:-0.987775 42:-0.986242 43:-0.986969 44:-0.971631 45:-0.982649 46:-0.970555 47:-0.984281 48:-0.983128 49:-0.986178 50:-0.98853 51:-0.997669 52:-0.995215 53:-0.994451 54:-0.996567 55:-0.995745 56:-0.99278 57:-0.990196 58:-0.991416 59:-1 60:-0.99076 61:-0.979675 
5.565282630966498 1:-0.97781 2:-0.718815 3:-0.797155 4:-0.358675 5:0.190025 6:-0.788262 7:0.0903444 8:-0.802846 9:-0.9999 10:-0.440132 11:0.587588 12:-0.99954 13:-0.180118 14:-0.999584 15:-0.969642 16:-0.914865 17:-0.976596 18:-0.977569 19:-0.964525 20:-0.965465 21:-0.960281 22:-0.970442 23:-0.961426 24:-0.975482 25:-0.963791 26:-0.989303 27:-0.971162 28:-0.986818 29:-0.957576 30:-0.967951 31:-0.960666 32:-0.968364 33:-0.980738 34:-0.97203 35:-0.997177 36:-0.993215 37:-0.993414 38:-0.992591 39:-0.995287 40:-0.997324 41:-0.995472 42:-0.993885 43:-0.993795 44:-0.994326 45:-0.989589 46:-0.99094 47:-0.98549 48:-0.990915 49:-0.984796 50:-0.989964 51:-0.98951 52:-0.988038 53:-0.985572 54:-0.972532 55:-0.985106 56:-0.968712 57:-0.985294 58:-0.939914 59:-0.887324 60:-0.984045 61:-0.956436 
0.8100175205165012 1:-0.878167 2:-0.857468 3:-0.847974 4:-0.270945 5:0.103437 6:-0.93684 7:0.202079 8:-0.959874 9:-0.996747 10:-0.440106 11:0.587408 12:-0.995616 13:-0.180137 14:-0.995732 15:-0.949624 16:-0.924526 17:-0.960028 18:-0.922482 19:-0.93769 20:-0.825648 21:-0.939823 22:-0.845891 23:-0.925621 24:-0.854778 25:-0.929437 26:-0.853157 27:-0.937877 28:-0.85585 29:-0.941763 30:-0.858649 31:-0.959565 32:-0.874547 33:-0.957093 34:-0.939296 35:-0.983609 36:-0.980378 37:-0.986031 38:-0.978885 39:-0.971197 40:-0.977592 41:-0.959248 42:-0.95414 43:-0.915607 44:-0.832624 45:-0.798728 46:-0.892412 47:-0.929867 48:-0.944192 49:-0.966828 50:-0.956989 51:-0.9662 52:-0.966507 53:-0.986681 54:-0.972532 55:-0.942553 56:-0.925391 57:-0.75 58:-0.742489 59:-0.408451 60:-0.976411 61:-0.932749 
7.415293230010679 1:-0.914773 2:-0.893264 3:-0.882356 4:-0.241392 5:0.119299 6:-0.968589 7:0.20063 8:-0.915074 9:-0.998575 10:-0.440141 11:0.587529 12:-0.997346 13:-0.179762 14:-0.997496 15:-0.960941 16:-0.842278 17:-0.944146 18:-0.881947 19:-0.947419 20:-0.913507 21:-0.951226 22:-0.930456 23:-0.95409 24:-0.927931 25:-0.945415 26:-0.915991 27:-0.943587 28:-0.911058 29:-0.935906 30:-0.921393 31:-0.938987 32:-0.9278 33:-0.95332 34:-0.944391 35:-0.990903 36:-0.989547 37:-0.988226 38:-0.987035 39:-0.97172 40:-0.965217 41:-0.952456 42:-0.956688 43:-0.955321 44:-0.922459 45:-0.917872 46:-0.92299 47:-0.951632 48:-0.94549 49:-0.950242 50:-0.96129 51:-0.9662 52:-0.973684 53:-0.980022 54:-0.974249 55:-0.974468 56:-0.973526 57:-0.95098 58:-0.828326 59:-0.464789 60:-0.978316 61:-0.936199 
1.132243171667238 1:-0.96516 2:-0.687792 3:-0.613876 4:-0.161919 5:0.164682 6:-0.995931 7:0.249392 8:-0.929846 9:-0.999732 10:-0.44014 11:0.587578 12:-0.999058 13:-0.180109 14:-0.999146 15:-0.979686 16:-0.955933 17:-0.986213 18:-0.96416 19:-0.979337 20:-0.948678 21:-0.989814 22:-0.94763 23:-0.95363 24:-0.943567 25:-0.942553 26:-0.947504 27:-0.941978 28:-0.958055 29:-0.929187 30:-0.961217 31:-0.937017 32:-0.964446 33:-0.952862 34:-0.97295 35:-0.986119 36:-0.971942 37:-0.987627 38:-0.975181 39:-0.981671 40:-0.999666 41:-1 42:-1 43:-1 44:-0.999054 45:-1 46:-1 47:-1 48:-1 49:-1 50:-1 51:-1 52:-1 53:-1 54:-1 55:-1 56:-1 57:-1 58:-1 59:-1 60:-0.978295 61:-0.94738 
8 1:-0.994205 2:-0.656198 3:-0.604608 4:-0.156718 5:0.322842 6:-0.994704 7:0.269769 8:-0.618392 9:-0.99999 10:-0.440131 11:0.587594 12:-0.999978 13:-0.180105 14:-0.999979 15:-0.996147 16:-0.977279 17:-0.996368 18:-0.962641 19:-0.99652 20:-0.967445 21:-0.993915 22:-0.959073 23:-0.993671 24:-0.956742 25:-0.993409 26:-0.967407 27:-0.990253 28:-0.9604 29:-0.995536 30:-0.970996 31:-0.993155 32:-0.977869 33:-0.992694 34:-0.988388 35:-0.999843 36:-0.996149 37:-0.998404 38:-0.993703 39:-0.993192 40:-0.995318 41:-0.99683 42:-1 43:-0.999379 44:-1 45:-1 46:-1 47:-0.998791 48:-1 49:-0.998618 50:-1 51:-1 52:-1 53:-1 54:-1 55:-1 56:-1 57:-1 58:-1 59:-1 60:-0.983233 61:-0.952768 
0.4278128931525575 1:-0.899509 2:-0.787445 3:-0.773729 4:-0.285595 5:0.0974451 6:-0.940314 7:0.212482 8:-0.97831 9:-0.997608 10:-0.440119 11:0.587671 12:-0.996291 13:-0.180097 14:-0.996419 15:-0.883201 16:-0.965373 17:-0.946709 18:-0.938901 19:-0.946135 20:-0.921719 21:-0.959383 22:-0.875874 23:-0.960906 24:-0.841695 25:-0.949228 26:-0.835133 27:-0.96788 28:-0.836134 29:-0.971754 30:-0.846259 31:-0.965073 32:-0.883892 33:-0.960231 34:-0.944813 35:-0.984942 36:-0.975793 37:-0.971662 38:-0.876273 39:-0.834512 40:-0.969231 41:-0.964682 42:-0.973503 43:-0.971455 44:-0.963121 45:-0.997687 46:-1 47:-1 48:-1 49:-1 50:-1 51:-1 52:-1 53:-1 54:-1 55:-1 56:-1 57:-1 58:-1 59:-1 60:-0.977241 61:-0.92313 
0.7938180106156484 1:-0.882902 2:-0.916367 3:-0.898161 4:-0.241963 5:0.10392 6:-0.96267 7:0.204083 8:-0.93684 9:-0.994853 10:-0.440107 11:0.587546 12:-0.997133 13:-0.180084 14:-0.997066 15:-0.869195 16:-0.93318 17:-0.880326 18:-0.914088 19:-0.917277 20:-0.919688 21:-0.916842 22:-0.901253 23:-0.927314 24:-0.896586 25:-0.882889 26:-0.839853 27:-0.907962 28:-0.789712 29:-0.913172 30:-0.772062 31:-0.956939 32:-0.83381 33:-0.966295 34:-0.86515 35:-0.97906 36:-0.984962 37:-0.98623 38:-0.973699 39:-0.955486 40:-0.973244 41:-0.952004 42:-0.944459 43:-0.888923 44:-0.856265 45:-0.913245 46:-0.939977 47:-0.967352 48:-0.944192 49:-0.970974 50:-0.98853 51:-0.975524 52:-0.970096 53:-0.980022 54:-0.958798 55:-0.929787 56:-0.920578 57:-0.857843 58:-0.742489 59:-0.43662 60:-0.976142 61:-0.939944 
0.8799878075507509 1:-0.884174 2:-0.917702 3:-0.910183 4:-0.239693 5:0.104231 6:-0.961517 7:0.201158 8:-0.930605 9:-0.995498 10:-0.440137 11:0.587471 12:-0.997508 13:-0.180085 14:-0.997281 15:-0.877318 16:-0.933551 17:-0.889459 18:-0.936887 19:-0.932378 20:-0.917546 21:-0.950003 22:-0.901532 23:-0.946236 24:-0.890381 25:-0.931979 26:-0.875806 27:-0.893379 28:-0.857052 29:-0.898925 30:-0.76518 31:-0.915456 32:-0.83807 33:-0.949406 34:-0.861769 35:-0.967767 36:-0.978177 37:-0.983436 38:-0.979626 39:-0.955486 40:-0.967224 41:-0.940684 42:-0.932739 43:-0.937946 44:-0.946099 45:-0.958357 46:-0.964892 47:-0.958888 48:-0.971447 49:-0.977885 50:-0.985663 51:-0.980186 52:-0.98445 53:-0.970033 54:-0.945064 55:-0.934043 56:-0.90373 57:-0.813725 58:-0.828326 59:-0.887324 60:-0.973276 61:-0.945263 
1.901230885109695 1:-0.918024 2:-0.919388 3:-0.917859 4:-0.238205 5:0.105366 6:-0.960465 7:0.198128 8:-0.922899 9:-0.997088 10:-0.440114 11:0.587578 12:-0.998139 13:-0.180102 14:-0.997912 15:-0.957807 16:-0.942581 17:-0.957076 18:-0.928489 19:-0.957138 20:-0.914181 21:-0.971327 22:-0.900074 23:-0.946117 24:-0.888015 25:-0.945621 26:-0.88287 27:-0.930411 28:-0.878689 29:-0.949318 30:-0.783105 31:-0.902504 32:-0.757513 33:-0.890551 34:-0.839534 35:-0.973571 36:-0.982028 37:-0.987228 38:-0.976662 39:-0.96177 40:-0.976923 41:-0.952456 42:-0.956178 43:-0.968352 44:-0.967849 45:-0.980335 46:-0.980747 47:-0.974607 48:-0.988319 49:-0.993089 50:-0.981362 51:-0.994172 52:-0.990431 53:-0.984462 54:-0.986266 55:-0.978723 56:-0.973526 57:-0.926471 58:-0.828326 59:-0.71831 60:-0.976643 61:-0.956949 
8 1:-0.978446 2:-0.91631 3:-0.919072 4:-0.237078 5:0.120167 6:-0.961831 7:0.187954 8:-0.874669 9:-0.999373 10:-0.440143 11:0.587607 12:-0.999433 13:-0.180093 14:-0.999398 15:-0.969306 16:-0.977134 17:-0.962942 18:-0.94061 19:-0.971511 20:-0.946113 21:-0.977936 22:-0.960717 23:-0.979316 24:-0.939931 25:-1 26:-1 27:-0.937295 28:-0.877376 29:-0.944212 30:-0.887374 31:-0.928516 32:-0.804701 33:-0.935632 34:-0.910521 35:-0.990981 36:-0.994498 37:-0.996807 38:-0.997777 39:-0.993716 40:-0.997324 41:-0.995925 42:-0.995924 43:-0.993174 44:-0.982033 45:-0.989589 46:-0.993205 47:-0.996372 48:-0.984426 49:-0.988943 50:-0.991398 51:-0.98951 52:-0.988038 53:-0.994451 54:-0.998283 55:-0.997872 56:-0.995187 57:-1 58:-1 59:-0.943662 60:-0.984247 61:-0.971555 
8 1:-0.968764 2:-0.910841 3:-0.914712 4:-0.243866 5:0.0871467 6:-0.952843 7:0.209203 8:-0.966653 9:-0.999775 10:-0.440132 11:0.587607 12:-0.999736 13:-0.180112 14:-0.999748 15:-0.985774 16:-0.968401 17:-0.999732 18:-0.999291 19:-0.971876 20:-0.985131 21:-0.99153 22:-0.969515 23:-0.968182 24:-0.96117 25:-0.967706 26:-0.944218 27:-0.959194 28:-0.937812 29:-0.968445 30:-0.936066 31:-0.947867 32:-0.944994 33:-0.951907 34:-0.948265 35:-0.982354 36:-0.989547 37:-0.99541 38:-0.992591 39:-0.994763 40:-0.996321 41:-0.995472 42:-0.996943 43:-0.994415 44:-0.998109 45:-0.994216 46:-0.988675 47:-0.993954 48:-0.997404 49:-0.991707 50:-0.98853 51:-0.996503 52:-0.990431 53:-0.993341 54:-0.9897 55:-0.991489 56:-0.990373 57:-0.985294 58:-0.982833 59:-1 60:-0.987532 61:-0.983447 
1.251070763315604 1:-0.921982 2:-0.681934 3:-0.836988 4:-0.384336 5:0.0981083 6:-0.645063 7:0.164407 8:-0.969611 9:-0.998004 10:-0.440156 11:0.587717 12:-0.996841 13:-0.180067 14:-0.996944 15:-0.95281 16:-0.899569 17:-0.965801 18:-0.891171 19:-0.96959 20:-0.926927 21:-0.962406 22:-0.895054 23:-0.943336 24:-0.833113 25:-0.927974 26:-0.818714 27:-0.948717 28:-0.833002 29:-0.952627 30:-0.866783 31:-0.936336 32:-0.91918 33:-0.95195 34:-0.982526 35:-0.998667 36:-0.996699 37:-0.995211 38:-0.986664 39:-0.976434 40:-0.979933 41:-0.966946 42:-0.948535 43:-0.936084 44:-0.907329 45:-0.870445 46:-0.911665 47:-0.928658 48:-0.940299 49:-0.953006 50:-0.949821 51:-0.954545 52:-0.978469 53:-0.975583 54:-0.960515 55:-0.965957 56:-0.968712 57:-0.921569 58:-0.888412 59:-0.774648 60:-0.982563 61:-0.916472 
1.641225509049234 1:-0.919155 2:-0.679375 3:-0.840879 4:-0.38299 5:0.0882613 6:-0.641844 7:0.178486 8:-0.979935 9:-0.998053 10:-0.445037 11:0.597551 12:-0.996998 13:-0.180113 14:-0.99709 15:-0.930741 16:-0.93673 17:-0.946238 18:-0.926335 19:-0.971138 20:-0.889541 21:-0.962965 22:-0.882138 23:-0.925327 24:-0.841535 25:-0.92022 26:-0.83722 27:-0.925438 28:-0.847718 29:-0.930515 30:-0.871409 31:-0.931613 32:-0.918165 33:-0.948187 34:-0.980907 35:-0.99553 36:-0.975243 37:-0.927759 38:-0.882941 39:-0.944488 40:-0.973579 41:-0.970568 42:-0.987261 43:-1 44:-1 45:-0.998843 46:-1 47:-1 48:-1 49:-1 50:-1 51:-1 52:-1 53:-1 54:-1 55:-0.997872 56:-1 57:-1 58:-1 59:-1 60:-0.97935 61:-0.915289 
0.3858967346209827 1:-0.913643 2:-0.726363 3:-0.814658 4:-0.360905 5:0.10651 6:-0.759967 7:0.171263 8:-0.961771 9:-0.998039 10:-0.44013 11:0.587694 12:-0.99628 13:-0.180104 14:-0.996577 15:-0.945056 16:-0.832759 17:-0.966481 18:-0.88104 19:-0.960082 20:-0.900555 21:-0.91529 22:-0.936426 23:-0.889909 24:-0.932489 25:-0.879618 26:-0.941839 27:-0.883915 28:-0.960823 29:-0.888184 30:-0.962111 31:-0.916613 32:-0.953238 33:-0.962182 34:-0.95832 35:-0.999059 36:-0.991198 37:-0.99102 38:-0.988146 39:-0.968578 40:-0.982609 41:-0.972832 42:-0.961783 43:-0.939187 44:-0.898818 45:-0.879699 46:-0.87316 47:-0.892382 48:-0.907852 49:-0.94886 50:-0.935484 51:-0.95338 52:-0.955742 53:-0.968923 54:-0.955365 55:-0.980851 56:-0.98556 57:-0.960784 58:-0.922747 59:-0.577465 60:-0.98148 61:-0.920811 
0.3655470692905627 1:-0.898237 2:-0.889971 3:-0.87102 4:-0.240264 5:0.0115592 6:-0.972498 7:0.255836 8:-0.974251 9:-0.997718 10:-0.440089 11:0.587713 12:-0.995999 13:-0.180134 14:-0.9962 15:-0.899872 16:-0.952582 17:-0.905913 18:-0.942896 19:-0.924432 20:-0.924573 21:-0.949679 22:-0.910592 23:-0.939311 24:-0.861935 25:-0.946449 26:-0.852982 27:-0.947071 28:-0.856311 29:-0.940557 30:-0.867452 31:-0.951706 32:-0.892752 33:-0.969644 34:-0.952136 35:-0.998353 36:-0.987163 37:-0.989423 38:-0.978885 39:-0.977481 40:-0.98194 41:-0.973285 42:-0.963822 43:-0.933602 44:-0.806147 45:-0.720069 46:-0.849377 47:-0.927449 48:-0.944192 49:-0.954388 50:-0.944086 51:-0.959207 52:-0.970096 53:-0.967814 54:-0.974249 55:-0.957447 56:-0.956679 57:-0.960784 58:-0.991416 59:-0.943662 60:-0.981185 61:-0.917326 
8 1:-0.97145 2:-0.879642 3:-0.929561 4:-0.266828 5:-0.00256177 6:-0.879266 7:0.308609 8:-0.918518 9:-0.999693 10:-0.44013 11:0.587601 12:-0.999762 13:-0.180106 14:-0.999752 15:-0.978141 16:-0.961894 17:-0.961711 18:-0.970453 19:-0.972006 20:-0.954882 21:-0.975532 22:-0.956211 23:-0.904188 24:-0.949829 25:-0.883664 26:-0.950296 27:-0.904583 28:-0.970799 29:-0.935548 30:-0.984233 31:-0.981069 32:-0.990321 33:-0.990975 34:-0.996002 35:-0.99749 36:-0.978544 37:-0.983037 38:-0.988146 39:-0.982194 40:-0.996321 41:-0.994114 42:-0.996433 43:-0.996277 44:-0.992435 45:-0.99306 46:-0.992072 47:-0.995163 48:-0.992213 49:-0.991707 50:-0.991398 51:-0.997669 52:-0.996411 53:-0.994451 54:-0.99485 55:-0.989362 56:-0.99278 57:-0.990196 58:-0.991416 59:-0.915493 60:-0.996629 61:-0.99362 
0.3384733858888078 1:-0.899509 2:-0.909389 3:-0.892671 4:-0.241982 5:0.0253477 6:-0.964578 7:0.25219 8:-0.986109 9:-0.997755 10:-0.438887 11:0.582594 12:-0.996623 13:-0.180129 14:-0.996775 15:-0.982137 16:-0.970271 17:-0.901538 18:-0.95257 19:-0.920589 20:-0.96374 21:-0.921473 22:-0.925159 23:-0.904272 24:-0.87851 25:-0.929265 26:-0.865802 27:-0.903423 28:-0.867617 29:-0.921533 30:-0.880152 31:-0.919732 32:-0.914916 33:-0.966159 34:-0.945943 35:-0.99702 36:-0.986613 37:-0.987627 38:-0.984812 39:-0.979576 40:-0.980936 41:-0.976455 42:-0.963312 43:-0.957803 44:-0.885579 45:-0.812608 46:-0.812005 47:-0.823458 48:-0.844257 49:-0.965446 50:-0.948387 51:-0.955711 52:-0.976077 53:-0.972253 54:-0.965665 55:-0.980851 56:-0.983153 57:-0.931373 58:-0.957082 59:-0.746479 60:-0.981872 61:-0.924073 
0.2740915622424788 1:-0.90707 2:-0.879275 3:-0.858055 4:-0.239777 5:0.0144166 6:-0.975581 7:0.252721 8:-0.980189 9:-0.998216 10:-0.440161 11:0.587616 12:-0.996548 13:-0.180073 14:-0.996714 15:-0.932992 16:-0.942626 17:-0.942411 18:-0.915025 19:-0.9622 20:-0.923575 21:-0.976816 22:-0.916068 23:-0.961828 24:-0.858217 25:-0.95515 26:-0.850383 27:-0.94932 28:-0.856141 29:-0.960535 30:-0.868938 31:-0.95593 32:-0.891152 33:-0.958206 34:-0.963666 35:-0.997883 36:-0.994315 37:-0.994213 38:-0.987776 39:-0.984813 40:-0.986957 41:-0.978266 42:-0.971975 43:-0.939187 44:-0.85721 45:-0.773279 46:-0.784824 47:-0.898428 48:-0.935107 49:-0.951624 50:-0.952688 51:-0.962704 52:-0.967703 53:-0.962264 54:-0.962232 55:-0.948936 56:-0.959085 57:-0.906863 58:-0.879828 59:-0.971831 60:-0.98083 61:-0.911511 
2.213314533780967 1:-0.952581 2:-0.947257 3:-0.941344 4:-0.218969 5:0.0125451 6:-0.981824 7:0.25922 8:-0.948886 9:-0.999623 10:-0.440135 11:0.587557 12:-0.998665 13:-0.18011 14:-0.998768 15:-0.973424 16:-0.983429 17:-0.968621 18:-0.978426 19:-0.958141 20:-0.960962 21:-0.948712 22:-0.949674 23:-0.94837 24:-0.94322 25:-0.922308 26:-0.970931 27:-0.940665 28:-0.979897 29:-0.951998 30:-0.972574 31:-0.959602 32:-0.955995 33:-0.964777 34:-0.969181 35:-0.992863 36:-0.988997 37:-0.989822 38:-0.980367 39:-0.972768 40:-0.984615 41:-0.981888 42:-0.975032 43:-0.977661 44:-0.959338 45:-0.958357 46:-0.970555 47:-0.978235 48:-0.977936 49:-0.986178 50:-0.979928 51:-0.991841 52:-0.995215 53:-0.99778 54:-0.993133 55:-0.993617 56:-0.99278 57:-0.985294 58:-0.974249 59:-0.915493 60:-0.988941 61:-0.971097 
8 1:-0.975973 2:-0.990179 3:-0.999524 4:-0.194508 5:0.0491876 6:-0.980781 7:0.25095 8:-0.981347 9:-0.999879 10:-0.44013 11:0.587597 12:-0.999825 13:-0.180105 14:-0.99983 15:-0.962638 16:-0.966693 17:-0.935012 18:-0.960727 19:-0.948033 20:-0.962515 21:-0.955283 22:-0.973906 23:-0.964894 24:-0.964284 25:-0.975415 26:-0.95534 27:-0.979168 28:-0.985639 29:-0.987323 30:-0.988782 31:-0.989169 32:-0.976606 33:-0.991366 34:-0.977674 35:-0.984315 36:-0.993031 37:-0.995011 38:-0.993703 39:-0.996334 40:-0.995987 41:-0.997736 42:-0.996943 43:-0.997518 44:-0.997163 45:-0.99306 46:-0.998867 47:-0.997582 48:-0.997404 49:-0.997236 50:-1 51:-0.997669 52:-0.995215 53:-0.99778 54:-1 55:-0.997872 56:-0.995187 57:-0.990196 58:-1 59:-1 60:-0.995939 61:-0.994666 
1.472222724663664 1:-0.904597 2:-0.981712 3:-0.97205 4:-0.187994 5:0.0654807 6:-0.997958 7:0.241426 8:-0.97841 9:-0.99721 10:-0.440145 11:0.587577 12:-0.996248 13:-0.180165 14:-0.996447 15:-0.834347 16:-0.920713 17:-0.87062 18:-0.931678 19:-0.969035 20:-0.972518 21:-0.91964 22:-0.898884 23:-0.896105 24:-0.899734 25:-0.923934 26:-0.858805 27:-0.91881 28:-0.859665 29:-0.923655 30:-0.883642 31:-0.940927 32:-0.905046 33:-0.952223 34:-0.953771 35:-0.964709 36:-0.860627 37:-0.97286 38:-0.998148 39:-1 40:-0.999666 41:-1 42:-1 43:-1 44:-1 45:-1 46:-1 47:-1 48:-1 49:-0.998618 50:-1 51:-1 52:-1 53:-1 54:-1 55:-1 56:-1 57:-1 58:-1 59:-1 60:-0.970577 61:-0.92427 
0.852160448150176 1:-0.916752 2:-0.957388 3:-0.938341 4:-0.198405 5:0.0691089 6:-0.998982 7:0.235346 8:-0.986433 9:-0.998061 10:-0.440135 11:0.587565 12:-0.9973 13:-0.180088 14:-0.997372 15:-0.914496 16:-0.956768 17:-0.931045 18:-0.976751 19:-0.916736 20:-0.945724 21:-0.917774 22:-0.926811 23:-0.910309 24:-0.871835 25:-0.91535 26:-0.854909 27:-0.91234 28:-0.875654 29:-0.915553 30:-0.885978 31:-0.928462 32:-0.898636 33:-0.963338 34:-0.958649 35:-0.991295 36:-0.980011 37:-0.983237 38:-0.962586 39:-0.924588 40:-0.938127 41:-0.874576 42:-0.959745 43:-0.977661 44:-0.967849 45:-0.978022 46:-0.997735 47:-1 48:-1 49:-1 50:-1 51:-1 52:-1 53:-1 54:-1 55:-1 56:-1 57:-1 58:-1 59:-1 60:-0.979968 61:-0.92097 
0.1234852811343297 1:-0.92283 2:-0.920976 3:-0.902983 4:-0.212992 5:0.0775741 6:-0.993294 7:0.230164 8:-0.981563 9:-0.998001 10:-0.440025 11:0.587453 12:-0.997548 13:-0.178837 14:-0.99764 15:-0.88067 16:-0.835494 17:-0.911856 18:-0.870646 19:-0.954297 20:-0.879048 21:-0.962391 22:-0.869482 23:-0.933206 24:-0.863474 25:-0.916037 26:-0.876431 27:-0.924142 28:-0.863484 29:-0.929487 30:-0.872232 31:-0.944658 32:-0.901479 33:-0.959942 34:-0.963735 35:-0.992001 36:-0.984412 37:-0.970465 38:-0.900352 39:-0.821419 40:-0.974916 41:-0.98053 42:-0.987771 43:-0.997518 44:-1 45:-1 46:-1 47:-0.998791 48:-0.998702 49:-1 50:-0.998566 51:-1 52:-0.998804 53:-1 54:-1 55:-1 56:-1 57:-1 58:-1 59:-1 60:-0.979294 61:-0.914363 
0.3048085432330234 1:-0.905092 2:-0.966032 3:-0.954207 4:-0.183167 5:0.0720651 6:-0.996002 7:0.24393 8:-0.974942 9:-0.997461 10:-0.440123 11:0.587415 12:-0.996076 13:-0.180079 14:-0.996298 15:-0.852724 16:-0.956519 17:-0.881551 18:-0.935076 19:-0.918503 20:-0.924114 21:-0.940769 22:-0.911724 23:-0.952924 24:-0.852886 25:-0.955767 26:-0.829454 27:-0.946299 28:-0.85072 29:-0.950751 30:-0.854508 31:-0.954184 32:-0.895928 33:-0.963603 34:-0.961278 35:-0.995687 36:-0.988997 37:-0.989024 38:-0.978885 39:-0.972768 40:-0.989967 41:-0.981435 42:-0.976561 43:-0.964629 44:-0.916785 45:-0.84037 46:-0.833522 47:-0.7763 48:-0.865023 49:-0.940567 50:-0.944086 51:-0.963869 52:-0.967703 53:-0.972253 54:-0.969099 55:-0.97234 56:-0.987966 57:-0.955882 58:-0.896996 59:-0.746479 60:-0.98063 61:-0.919787 
0.4466263498937306 1:-0.929967 2:-0.972485 3:-0.963236 4:-0.183599 5:0.0511562 6:-0.995557 7:0.237736 8:-0.999163 9:-0.99832 10:-0.440129 11:0.587579 12:-0.998801 13:-0.180125 14:-0.998696 15:-0.958505 16:-0.878851 17:-0.952035 18:-0.849981 19:-0.959306 20:-0.84798 21:-0.952879 22:-0.846903 23:-0.951138 24:-0.857656 25:-0.953784 26:-0.84734 27:-0.959446 28:-0.848972 29:-0.94103 30:-0.900041 31:-0.948176 32:-0.953242 33:-0.952209 34:-0.967428 35:-0.996079 36:-0.989364 37:-0.994013 38:-0.989628 39:-0.988479 40:-0.99097 41:-0.989586 42:-0.985732 43:-0.972696 44:-0.953664 45:-0.898207 46:-0.879955 47:-0.857316 48:-0.832576 49:-0.941949 50:-0.964158 51:-0.979021 52:-0.97488 53:-0.973363 54:-0.970815 55:-0.968085 56:-0.987966 57:-0.960784 58:-0.854077 59:-0.943662 60:-0.979991 61:-0.918917 
0.05597799300736142 1:-0.914349 2:-0.9878 3:-0.983966 4:-0.18508 5:0.0562172 6:-0.992357 7:0.241819 8:-0.994138 9:-0.998281 10:-0.440159 11:0.587526 12:-0.997335 13:-0.1801 14:-0.997394 15:-0.982243 16:-0.971313 17:-0.973322 18:-0.914844 19:-0.974645 20:-0.924296 21:-0.94608 22:-0.89913 23:-0.941512 24:-0.86498 25:-0.94231 26:-0.854502 27:-0.943239 28:-0.852925 29:-0.950934 30:-0.867504 31:-0.951048 32:-0.899674 33:-0.947494 34:-0.962163 35:-0.996 36:-0.990831 37:-0.992018 38:-0.988516 39:-0.977481 40:-0.99097 41:-0.983247 42:-0.978599 43:-0.973937 44:-0.946099 45:-0.895894 46:-0.838052 47:-0.833132 48:-0.832576 49:-0.87284 50:-0.941219 51:-0.967366 52:-0.961722 53:-0.972253 54:-0.958798 55:-0.970213 56:-0.978339 57:-0.970588 58:-0.888412 59:-0.690141 60:-0.980947 61:-0.921749 
0.3181047669481049 1:-0.928059 2:-0.9878 3:-0.984631 4:-0.185126 5:0.0493978 6:-0.992504 7:0.236805 8:-0.999061 9:-0.998417 10:-0.44012 11:0.587647 12:-0.99878 13:-0.180078 14:-0.998697 15:-0.957321 16:-0.912792 17:-0.94262 18:-0.860263 19:-0.950894 20:-0.861214 21:-0.947179 22:-0.863178 23:-0.944885 24:-0.862388 25:-0.949829 26:-0.858102 27:-0.956452 28:-0.875657 29:-0.952522 30:-0.898496 31:-0.954166 32:-0.958704 33:-0.947494 34:-0.971853 35:-0.996236 36:-0.992848 37:-0.995011 38:-0.99185 39:-0.986908 40:-0.993311 41:-0.988227 42:-0.982675 43:-0.979522 44:-0.957447 45:-0.902834 46:-0.851642 47:-0.844015 48:-0.848151 49:-0.897719 50:-0.952688 51:-0.973193 52:-0.970096 53:-0.981132 54:-0.967382 55:-0.970213 56:-0.980746 57:-0.970588 58:-0.888412 59:-0.690141 60:-0.981128 61:-0.919921 
8 1:-0.978799 2:-0.992059 3:-0.999239 4:-0.194647 5:0.0494621 6:-0.983754 7:0.245073 8:-0.992896 9:-0.999943 10:-0.44013 11:0.587595 12:-0.999766 13:-0.180106 14:-0.999785 15:-0.973296 16:-0.970505 17:-0.963517 18:-0.972024 19:-0.964368 20:-0.964181 21:-0.969629 22:-0.962844 23:-0.978984 24:-0.972255 25:-0.980139 26:-0.963985 27:-0.981641 28:-0.976051 29:-0.979977 30:-0.964455 31:-0.980299 32:-0.959059 33:-0.986768 34:-0.976655 35:-0.986432 36:-0.994132 37:-0.998004 38:-0.998518 39:-0.998429 40:-0.997659 41:-0.998189 42:-0.998471 43:-0.998138 44:-0.998109 45:-0.995373 46:-0.99547 47:-0.998791 48:-0.993511 49:-0.995853 50:-0.995699 51:-0.995338 52:-0.997608 53:-0.990011 54:-0.991416 55:-0.970213 56:-0.983153 57:-1 58:-1 59:-0.971831 60:-0.992632 61:-0.989715 
8 1:-0.971026 2:-0.991993 3:-0.998873 4:-0.194664 5:0.0497899 6:-0.981155 7:0.242547 8:-0.996679 9:-0.99982 10:-0.440129 11:0.587584 12:-0.999488 13:-0.18011 14:-0.999529 15:-0.950195 16:-0.94818 17:-0.96066 18:-0.956992 19:-0.969922 20:-0.936847 21:-0.974826 22:-0.939971 23:-0.97724 24:-0.925972 25:-0.98719 26:-0.947374 27:-0.996568 28:-0.979351 29:-0.992937 30:-0.995021 31:-0.982673 32:-0.968758 33:-0.981588 34:-0.96925 35:-0.987138 36:-0.979461 37:-0.994013 38:-0.994443 39:-0.995287 40:-0.997324 41:-0.99683 42:-0.996433 43:-0.996277 44:-0.995272 45:-0.994216 46:-0.99094 47:-0.993954 48:-0.996106 49:-0.991707 50:-0.995699 51:-0.997669 52:-0.998804 53:-0.99889 54:-0.998283 55:-0.991489 56:-0.98556 57:-0.985294 58:-0.982833 59:-1 60:-0.996309 61:-0.994864 
0.8341218294463538 1:-0.926434 2:-0.993717 3:-0.992668 4:-0.186742 5:0.0501111 6:-0.989366 7:0.23724 8:-0.999253 9:-0.998255 10:-0.440131 11:0.58761 12:-0.998835 13:-0.180089 14:-0.998715 15:-0.964083 16:-0.965222 17:-0.928486 18:-0.925049 19:-0.91782 20:-0.865726 21:-0.932448 22:-0.873278 23:-0.928258 24:-0.859003 25:-0.914487 26:-0.867655 27:-0.918831 28:-0.89316 29:-0.928588 30:-0.90922 31:-0.957069 32:-0.956123 33:-0.959959 34:-0.978287 35:-0.992863 36:-0.987897 37:-0.99082 38:-0.988887 39:-0.983765 40:-0.993645 41:-0.985058 42:-0.989299 43:-0.975178 44:-0.926241 45:-0.894737 46:-0.911665 47:-0.879081 48:-0.801428 49:-0.889426 50:-0.964158 51:-0.986014 52:-0.982057 53:-0.987791 54:-0.987983 55:-0.987234 56:-0.987966 57:-0.980392 58:-0.991416 59:-0.971831 60:-0.981794 61:-0.933853 
2.506255215036235 1:-0.920992 2:-0.990519 3:-0.985628 4:-0.185382 5:0.0511393 6:-0.992385 7:0.238091 8:-0.998257 9:-0.997837 10:-0.439636 11:0.585389 12:-0.998622 13:-0.18006 14:-0.998515 15:-0.964373 16:-0.911569 17:-0.887412 18:-0.889514 19:-0.891646 20:-0.893487 21:-0.895123 22:-0.905045 23:-0.899128 24:-0.907585 25:-0.904879 26:-0.8915 27:-0.911367 28:-0.90589 29:-0.926153 30:-0.917059 31:-0.962408 32:-0.959117 33:-0.961392 34:-0.973739 35:-0.994824 36:-0.98973 37:-0.992417 38:-0.989257 39:-0.982194 40:-0.989632 41:-0.984152 42:-0.986752 43:-0.972076 44:-0.964066 45:-0.928282 46:-0.924122 47:-0.888755 48:-0.857236 49:-0.810643 50:-0.799283 51:-0.945221 52:-0.978469 53:-0.983352 54:-0.982833 55:-0.987234 56:-0.983153 57:-0.970588 58:-0.957082 59:-0.971831 60:-0.982889 61:-0.930228 
1.650806228522517 1:-0.901134 2:-0.985367 3:-0.976102 4:-0.186089 5:0.0635812 6:-0.995999 7:0.243039 8:-0.980821 9:-0.997453 10:-0.44365 11:0.603047 12:-0.996426 13:-0.180122 14:-0.996607 15:-0.924374 16:-0.869471 17:-0.958277 18:-0.904548 19:-0.941428 20:-0.920937 21:-0.910433 22:-0.88496 23:-0.910124 24:-0.886406 25:-0.897241 26:-0.888349 27:-0.900407 28:-0.89413 29:-0.894829 30:-0.899166 31:-0.93807 32:-0.921728 33:-0.954399 34:-0.965233 35:-0.984158 36:-0.971392 37:-0.970066 38:-0.908131 39:-0.786855 40:-0.949833 41:-0.976455 42:-0.983185 43:-0.998759 44:-1 45:-1 46:-0.998867 47:-1 48:-1 49:-1 50:-1 51:-1 52:-1 53:-0.99889 54:-1 55:-1 56:-1 57:-1 58:-1 59:-1 60:-0.979623 61:-0.926611 
0.5766575861133061 1:-0.90813 2:-0.973017 3:-0.95714 4:-0.19274 5:0.0695299 6:-0.999667 7:0.237744 8:-0.97999 9:-0.997897 10:-0.440114 11:0.587622 12:-0.996645 13:-0.180127 14:-0.996772 15:-0.932093 16:-0.951955 17:-0.944022 18:-0.933789 19:-0.950194 20:-0.909137 21:-0.908638 22:-0.884002 23:-0.912339 24:-0.912623 25:-0.857073 26:-0.915761 27:-0.88674 28:-0.923796 29:-0.887652 30:-0.919896 31:-0.915768 32:-0.929063 33:-0.959458 34:-0.958128 35:-0.987609 36:-0.974693 37:-0.969268 38:-0.916281 39:-0.799424 40:-0.951171 41:-0.96921 42:-0.986242 43:-0.999379 44:-1 45:-0.998843 46:-1 47:-1 48:-1 49:-1 50:-1 51:-1 52:-1 53:-1 54:-1 55:-0.997872 56:-1 57:-1 58:-1 59:-1 60:-0.979192 61:-0.921404 
0.1669665519658486 1:-0.911169 2:-0.966285 3:-0.949335 4:-0.198942 5:0.069517 6:-0.998632 7:0.234538 8:-0.981254 9:-0.997529 10:-0.440091 11:0.587416 12:-0.996725 13:-0.180121 14:-0.996904 15:-0.945638 16:-0.818979 17:-0.93929 18:-0.826651 19:-0.959721 20:-0.862631 21:-0.935945 22:-0.908867 23:-0.902039 24:-0.910394 25:-0.878515 26:-0.908098 27:-0.887193 28:-0.921793 29:-0.885179 30:-0.890887 31:-0.915793 32:-0.90711 33:-0.95185 34:-0.952363 35:-0.901419 36:-0.999817 37:-0.9998 38:-0.99963 39:-1 40:-1 41:-1 42:-1 43:-1 44:-1 45:-1 46:-1 47:-1 48:-1 49:-1 50:-1 51:-1 52:-1 53:-1 54:-1 55:-1 56:-1 57:-1 58:-1 59:-1 60:-0.897213 61:-0.916108 
4.712063361696896 1:-0.916611 2:-0.939428 3:-0.924541 4:-0.212708 5:0.0797041 6:-0.991661 7:0.227424 8:-0.973926 9:-0.998023 10:-0.440124 11:0.587503 12:-0.997064 13:-0.180107 14:-0.997197 15:-0.869938 16:-0.920864 17:-0.914638 18:-0.945944 19:-0.934459 20:-0.920633 21:-0.921152 22:-0.895647 23:-0.91037 24:-0.871495 25:-0.92157 26:-0.868893 27:-0.925893 28:-0.878502 29:-0.925647 30:-0.878056 31:-0.93951 32:-0.923167 33:-0.961497 34:-0.965406 35:-0.992393 36:-0.982212 37:-0.980842 38:-0.953695 39:-0.899974 40:-0.90301 41:-0.932533 42:-0.966879 43:-0.960906 44:-0.993381 45:-0.997687 46:-1 47:-1 48:-1 49:-1 50:-0.998566 51:-1 52:-1 53:-1 54:-1 55:-1 56:-1 57:-1 58:-1 59:-1 60:-0.980055 61:-0.914902 
0.01355147104940803 1:-0.919861 2:-0.986224 3:-0.978733 4:-0.186738 5:0.0529519 6:-0.996341 7:0.238543 8:-0.998505 9:-0.998113 10:-0.440118 11:0.587548 12:-0.998455 13:-0.180085 14:-0.998357 15:-0.956551 16:-0.928226 17:-0.921112 18:-0.866782 19:-0.92363 20:-0.877447 21:-0.911208 22:-0.879363 23:-0.914713 24:-0.883886 25:-0.898624 26:-0.878168 27:-0.922418 28:-0.878289 29:-0.930752 30:-0.902766 31:-0.947315 32:-0.96561 33:-0.961408 34:-0.969534 35:-0.995294 36:-0.990464 37:-0.992816 38:-0.989628 39:-0.977481 40:-0.989298 41:-0.986416 42:-0.983694 43:-0.974558 44:-0.937589 45:-0.844997 46:-0.848245 47:-0.828295 48:-0.880597 49:-0.962681 50:-0.959857 51:-0.969697 52:-0.972488 53:-0.973363 54:-0.970815 55:-0.955319 56:-0.939832 57:-0.926471 58:-0.922747 59:-1 60:-0.978723 61:-0.916836 
0.6522116015576753 1:-0.91336 2:-0.990654 3:-0.985501 4:-0.18599 5:0.0554865 6:-0.993306 7:0.241183 8:-0.99445 9:-0.997999 10:-0.44015 11:0.587633 12:-0.99769 13:-0.18009 14:-0.997696 15:-0.974932 16:-0.961255 17:-0.972769 18:-0.961664 19:-0.965367 20:-0.909623 21:-0.906047 22:-0.915074 23:-0.893031 24:-0.899 25:-0.898288 26:-0.88623 27:-0.912441 28:-0.870538 29:-0.925027 30:-0.882011 31:-0.941687 32:-0.926821 33:-0.954326 34:-0.97068 35:-0.994353 36:-0.988813 37:-0.991618 38:-0.987776 39:-0.978005 40:-0.991304 41:-0.978719 42:-0.986242 43:-0.970835 44:-0.956501 45:-0.907461 46:-0.840317 47:-0.816203 48:-0.842959 49:-0.881133 50:-0.94552 51:-0.95338 52:-0.962919 53:-0.973363 54:-0.958798 55:-0.965957 56:-0.956679 57:-0.955882 58:-0.965665 59:-0.943662 60:-0.980632 61:-0.92347 
1.096171469022832 1:-0.922759 2:-0.990654 3:-0.985931 4:-0.186168 5:0.0513109 6:-0.993646 7:0.238158 8:-0.998782 9:-0.998153 10:-0.44014 11:0.587719 12:-0.998656 13:-0.180079 14:-0.99856 15:-0.969774 16:-0.947145 17:-0.90144 18:-0.906088 19:-0.897454 20:-0.897331 21:-0.904482 22:-0.892422 23:-0.908597 24:-0.896696 25:-0.920109 26:-0.872023 27:-0.929625 28:-0.881552 29:-0.936086 30:-0.907674 31:-0.951977 32:-0.967727 33:-0.958951 34:-0.973598 35:-0.994746 36:-0.988813 37:-0.994412 38:-0.990739 39:-0.981147 40:-0.992642 41:-0.982341 42:-0.991847 43:-0.974558 44:-0.959338 45:-0.922499 46:-0.85051 47:-0.825877 48:-0.848151 49:-0.889426 50:-0.958423 51:-0.961538 52:-0.965311 53:-0.974473 54:-0.965665 55:-0.970213 56:-0.961492 57:-0.960784 58:-0.965665 59:-0.943662 60:-0.980676 61:-0.922798 
2.713593688542695 1:-0.898802 2:-0.996369 3:-0.997305 4:-0.190625 5:0.0522088 6:-0.987514 7:0.244594 8:-0.990302 9:-0.995506 10:-0.440166 11:0.587222 12:-0.996846 13:-0.180224 14:-0.996544 15:-0.938209 16:-0.742471 17:-0.962226 18:-0.798052 19:-0.958958 20:-0.802521 21:-0.927733 22:-0.819872 23:-0.940124 24:-0.844481 25:-0.943687 26:-0.852023 27:-0.947995 28:-0.860273 29:-0.948807 30:-0.876963 31:-0.948661 32:-0.976457 33:-0.946607 34:-0.975052 35:-0.979531 36:-0.981845 37:-0.985232 38:-0.973328 39:-0.957581 40:-0.966555 41:-0.947476 42:-0.927643 43:-0.900093 44:-0.91773 45:-0.894737 46:-0.956965 47:-0.948005 48:-0.955873 49:-0.970974 50:-0.992832 51:-0.990676 52:-0.997608 53:-1 54:-1 55:-1 56:-1 57:-1 58:-1 59:-1 60:-0.980508 61:-0.943125 
8 1:-0.961627 2:-0.992765 3:-0.999105 4:-0.194199 5:0.0502956 6:-0.982369 7:0.23677 8:-0.999446 9:-0.999722 10:-0.440134 11:0.587605 12:-0.99942 13:-0.180126 14:-0.999453 15:-0.957971 16:-0.968008 17:-0.946528 18:-0.961106 19:-0.950829 20:-0.948477 21:-0.954637 22:-0.944589 23:-0.953094 24:-0.9378 25:-0.95792 26:-0.941539 27:-0.954807 28:-0.924773 29:-0.960299 30:-0.939305 31:-0.983126 32:-0.97599 33:-0.978734 34:-0.979487 35:-0.983139 36:-0.992114 37:-0.996408 38:-0.993703 39:-0.995287 40:-0.99699 41:-0.995472 42:-0.990318 43:-0.985728 44:-0.974468 45:-0.983806 46:-0.983012 47:-0.980653 48:-0.987021 49:-0.982032 50:-0.977061 51:-0.97669 52:-0.986842 53:-0.986681 54:-0.979399 55:-0.978723 56:-0.995187 57:-0.985294 58:-0.991416 59:-0.971831 60:-0.989864 61:-0.980547 
6.073032032731914 1:-0.983605 2:-0.995487 3:-0.999461 4:-0.194444 5:0.0499056 6:-0.985977 7:0.240816 8:-0.998377 9:-0.999922 10:-0.440131 11:0.587596 12:-0.999873 13:-0.180104 14:-0.999874 15:-0.992918 16:-0.984528 17:-0.973277 18:-0.94988 19:-0.976254 20:-0.945574 21:-0.981262 22:-0.959563 23:-0.968167 24:-0.913184 25:-0.975657 26:-0.931864 27:-0.981942 28:-0.961468 29:-0.980873 30:-0.972114 31:-0.981625 32:-0.97393 33:-0.987099 34:-0.98285 35:-0.993099 36:-0.995415 37:-0.998204 38:-0.997777 39:-0.997382 40:-0.99699 41:-0.998642 42:-0.998471 43:-0.997518 44:-0.996217 45:-0.99306 46:-0.998867 47:-0.990326 48:-0.992213 49:-0.993089 50:-0.991398 51:-0.996503 52:-0.992823 53:-0.994451 54:-0.99485 55:-0.989362 56:-0.99278 57:-0.965686 58:-0.948498 59:-0.746479 60:-0.992795 61:-0.986954 
0.491954603653489 1:-0.89223 2:-0.946335 3:-0.957692 4:-0.153912 5:0.0752049 6:-0.939061 7:0.268909 8:-0.966352 9:-0.996025 10:-0.440162 11:0.587951 12:-0.995679 13:-0.180207 14:-0.995666 15:-0.882722 16:-0.860865 17:-0.899883 18:-0.868383 19:-0.918743 20:-0.877609 21:-0.941489 22:-0.885818 23:-0.918294 24:-0.807668 25:-0.930832 26:-0.807442 27:-0.940231 28:-0.846245 29:-0.952183 30:-0.871774 31:-0.939105 32:-0.878702 33:-0.971837 34:-0.939159 35:-0.995843 36:-0.982578 37:-0.991419 38:-0.988887 39:-0.979052 40:-0.987291 41:-0.976455 42:-0.96586 43:-0.96525 44:-0.946099 45:-0.923655 46:-0.894677 47:-0.879081 48:-0.883193 49:-0.875605 50:-0.832258 51:-0.88345 52:-0.883971 53:-0.90899 54:-0.895279 55:-0.910638 56:-0.937425 57:-0.892157 58:-0.922747 59:-0.943662 60:-0.978887 61:-0.912477 
0.9171413736648052 1:-0.88905 2:-0.932614 3:-0.949612 4:-0.147422 5:0.0798892 6:-0.931098 7:0.273797 8:-0.960595 9:-0.996339 10:-0.440091 11:0.587326 12:-0.995234 13:-0.180138 14:-0.99534 15:-0.892811 16:-0.861859 17:-0.907184 18:-0.858738 19:-0.933725 20:-0.867804 21:-0.961675 22:-0.866664 23:-0.928645 24:-0.821799 25:-0.936584 26:-0.826982 27:-0.950698 28:-0.83843 29:-0.963236 30:-0.849963 31:-0.934895 32:-0.862825 33:-0.966896 34:-0.945744 35:-0.99553 36:-0.980194 37:-0.988425 38:-0.977774 39:-0.972768 40:-0.981605 41:-0.975549 42:-0.968917 43:-0.952839 44:-0.927187 45:-0.895894 46:-0.847112 47:-0.852479 48:-0.811811 49:-0.8217 50:-0.833692 51:-0.927739 52:-0.924641 53:-0.961154 54:-0.979399 55:-0.993617 56:-0.995187 57:-0.995098 58:-1 59:-1 60:-0.97737 61:-0.908431 
0.1381741878315314 1:-0.896187 2:-0.912285 3:-0.933584 4:-0.134015 5:0.0786648 6:-0.914413 7:0.271039 8:-0.97072 9:-0.997049 10:-0.440148 11:0.587616 12:-0.995983 13:-0.180087 14:-0.996248 15:-0.966741 16:-0.95755 17:-0.87447 18:-0.924354 19:-0.918723 20:-0.93995 21:-0.928926 22:-0.904637 23:-0.920744 24:-0.85413 25:-0.954185 26:-0.818817 27:-0.953531 28:-0.8141 29:-0.972488 30:-0.839066 31:-0.944234 32:-0.86388 33:-0.944583 34:-0.931205 35:-0.994902 36:-0.98863 37:-0.983836 38:-0.976292 39:-0.971197 40:-0.983278 41:-0.985511 42:-0.976051 43:-0.952839 44:-0.915839 45:-0.895894 46:-0.899207 47:-0.902056 48:-0.878001 49:-0.882516 50:-0.866667 51:-0.910256 52:-0.948565 53:-0.948946 54:-0.934764 55:-0.9 56:-0.925391 57:-0.857843 58:-0.939914 59:-0.971831 60:-0.975597 61:-0.908503 
2.060564304923843 1:-0.891099 2:-0.900607 3:-0.923258 4:-0.125596 5:0.0855147 6:-0.903356 7:0.27867 8:-0.963444 9:-0.99693 10:-0.440142 11:0.587797 12:-0.995212 13:-0.18009 14:-0.995447 15:-0.899094 16:-0.95029 17:-0.90625 18:-0.910683 19:-0.954774 20:-0.876977 21:-0.96831 22:-0.876602 23:-0.946887 24:-0.826447 25:-0.949973 26:-0.793495 27:-0.951629 28:-0.808817 29:-0.973855 30:-0.834839 31:-0.947945 32:-0.876333 33:-0.953976 34:-0.931693 35:-0.993255 36:-0.983129 37:-0.988825 38:-0.973699 39:-0.969626 40:-0.980268 41:-0.978719 42:-0.964331 43:-0.952839 44:-0.932861 45:-0.894737 46:-0.911665 47:-0.874244 48:-0.879299 49:-0.845197 50:-0.889606 51:-0.935897 52:-0.930622 53:-0.927858 54:-0.883262 55:-0.917021 56:-0.968712 57:-0.980392 58:-0.991416 59:-1 60:-0.976061 61:-0.911858 
0.642652980182343 1:-0.904244 2:-0.864848 3:-0.908795 4:-0.107025 5:0.0804231 6:-0.867945 7:0.275294 8:-0.975822 9:-0.997027 10:-0.439763 11:0.589474 12:-0.99491 13:-0.180096 14:-0.995218 15:-0.915495 16:-0.953911 17:-0.90859 18:-0.957794 19:-0.913623 20:-0.952233 21:-0.882154 22:-0.952153 23:-0.87537 24:-0.92584 25:-0.892343 26:-0.92319 27:-0.93802 28:-0.926426 29:-0.925905 30:-0.848809 31:-0.894902 32:-0.793694 33:-0.959637 34:-0.95765 35:-0.995843 36:-0.981111 37:-0.987428 38:-0.981848 39:-0.974863 40:-0.985284 41:-0.981435 42:-0.980637 43:-0.970835 44:-0.95461 45:-0.937536 46:-0.92299 47:-0.899637 48:-0.898767 49:-0.86593 50:-0.886738 51:-0.878788 52:-0.940191 53:-0.952275 54:-0.946781 55:-0.925532 56:-0.930205 57:-0.823529 58:-0.708155 59:-0.915493 60:-0.976687 61:-0.917082 
0.07071230676423039 1:-0.904173 2:-0.878128 3:-0.908776 4:-0.106826 5:0.0838696 6:-0.867651 7:0.279664 8:-0.968985 9:-0.997412 10:-0.440111 11:0.587525 12:-0.994973 13:-0.180054 14:-0.995481 15:-0.912473 16:-0.947016 17:-0.909219 18:-0.952346 19:-0.912739 20:-0.949723 21:-0.887506 22:-0.947669 23:-0.886267 24:-0.915519 25:-0.915913 26:-0.911496 27:-0.929045 28:-0.928763 29:-0.928933 30:-0.792609 31:-0.913975 32:-0.808614 33:-0.961281 34:-0.955382 35:-0.993726 36:-0.988997 37:-0.990022 38:-0.977403 39:-0.97591 40:-0.986957 41:-0.982794 42:-0.979108 43:-0.964629 44:-0.952719 45:-0.925969 46:-0.906002 47:-0.883918 48:-0.881895 49:-0.875605 50:-0.866667 51:-0.905594 52:-0.925837 53:-0.955605 54:-0.960515 55:-0.953191 56:-0.906137 57:-0.818627 58:-0.896996 59:-0.887324 60:-0.977664 61:-0.915514 
0.3988080143734669 1:-0.901558 2:-0.887758 3:-0.907278 4:-0.105666 5:0.0870618 6:-0.866533 7:0.283419 8:-0.96622 9:-0.997293 10:-0.440114 11:0.587751 12:-0.995219 13:-0.180114 14:-0.995544 15:-0.918105 16:-0.942869 17:-0.908415 18:-0.958657 19:-0.908086 20:-0.923807 21:-0.902516 22:-0.924523 23:-0.915352 24:-0.919817 25:-0.927437 26:-0.91231 27:-0.89974 28:-0.804841 29:-0.836044 30:-0.845175 31:-0.897585 32:-0.939383 33:-0.964437 34:-0.948951 35:-0.994981 36:-0.986429 37:-0.989423 38:-0.98333 39:-0.976434 40:-0.977926 41:-0.982341 42:-0.969936 43:-0.959044 44:-0.930969 45:-0.913245 46:-0.889015 47:-0.852479 48:-0.835172 49:-0.831375 50:-0.870968 51:-0.933566 52:-0.970096 53:-0.972253 54:-0.943348 55:-0.942553 56:-0.978339 57:-0.990196 58:-1 59:-1 60:-0.978073 61:-0.913695 
0.4382246191526927 1:-0.927282 2:-0.809505 3:-0.899394 4:-0.310121 5:0.104494 6:-0.78227 7:0.154434 8:-0.937057 9:-0.998402 10:-0.440129 11:0.587421 12:-0.9967 13:-0.180359 14:-0.996911 15:-0.843338 16:-0.954989 17:-0.871375 18:-0.966565 19:-0.907446 20:-0.944523 21:-0.93894 22:-0.934872 23:-0.932623 24:-0.918438 25:-0.928958 26:-0.936424 27:-0.930618 28:-0.937556 29:-0.930714 30:-0.92382 31:-0.93539 32:-0.921736 33:-0.951485 34:-0.979668 35:-0.999765 36:-0.996699 37:-0.994612 38:-0.987405 39:-0.983765 40:-0.987291 41:-0.985963 42:-0.980127 43:-0.969594 44:-0.928132 45:-0.902834 46:-0.885617 47:-0.86578 48:-0.897469 49:-0.878369 50:-0.889606 51:-0.926573 52:-0.941388 53:-0.977802 54:-0.986266 55:-0.991489 56:-0.995187 57:-1 58:-1 59:-1 60:-0.983231 61:-0.906144 
2.642795750294251 1:-0.92495 2:-0.829869 3:-0.931236 4:-0.294669 5:0.106107 6:-0.754063 7:0.126667 8:-0.901127 9:-0.993471 10:-0.440191 11:0.587576 12:-0.995906 13:-0.180103 14:-0.995401 15:-0.758259 16:-0.771443 17:-0.788178 18:-0.807649 19:-0.831866 20:-0.798948 21:-0.850559 22:-0.792311 23:-0.950319 24:-0.916735 25:-0.940759 26:-0.937761 27:-0.943792 28:-0.936604 29:-0.953577 30:-0.921562 31:-0.946502 32:-0.920417 33:-0.95706 34:-0.979067 35:-0.969022 36:-0.886301 37:-0.990621 38:-1 39:-1 40:-1 41:-1 42:-1 43:-0.999379 44:-0.999054 45:-1 46:-1 47:-1 48:-1 49:-1 50:-1 51:-1 52:-1 53:-1 54:-1 55:-1 56:-1 57:-1 58:-1 59:-0.971831 60:-0.958126 61:-0.905084 
3.830169168908817 1:-0.945444 2:-0.853513 3:-0.951403 4:-0.276618 5:0.0810654 6:-0.763194 7:0.165485 8:-0.955278 9:-0.999223 10:-0.440135 11:0.587655 12:-0.997338 13:-0.180094 14:-0.997617 15:-0.936436 16:-0.913737 17:-0.953805 18:-0.895591 19:-0.973552 20:-0.950694 21:-0.967188 22:-0.974298 23:-0.938001 24:-0.940649 25:-0.940785 26:-0.872475 27:-0.920942 28:-0.876399 29:-0.926892 30:-0.97531 31:-0.930034 32:-0.960257 33:-0.947683 34:-0.977194 35:-0.999529 36:-0.996699 37:-0.99541 38:-0.989257 39:-0.9801 40:-0.989967 41:-0.985963 42:-0.982675 43:-0.977661 44:-0.955556 45:-0.930596 46:-0.924122 47:-0.917775 48:-0.92732 49:-0.915688 50:-0.942652 51:-0.952214 52:-0.960526 53:-0.961154 54:-0.977682 55:-0.987234 56:-0.99278 57:-1 58:-1 59:-1 60:-0.981642 61:-0.904569 
3.330110527385951 1:-0.959295 2:-0.859256 3:-0.970638 4:-0.259149 5:0.0496703 6:-0.763088 7:0.239145 8:-0.998827 9:-0.999136 10:-0.440127 11:0.587612 12:-0.99943 13:-0.180116 14:-0.999386 15:-0.941006 16:-0.93229 17:-0.939626 18:-0.953193 19:-0.913523 20:-0.930839 21:-0.858437 22:-0.921847 23:-0.912989 24:-0.936612 25:-0.950127 26:-0.94555 27:-0.942891 28:-0.957633 29:-0.917904 30:-0.967192 31:-0.937551 32:-0.960814 33:-0.961979 34:-0.974824 35:-0.999216 36:-0.996332 37:-0.994811 38:-0.990369 39:-0.981671 40:-0.988294 41:-0.984152 42:-0.983185 43:-0.98883 44:-0.973522 45:-0.956044 46:-0.970555 47:-0.967352 48:-0.966256 49:-0.959917 50:-0.962724 51:-0.968531 52:-0.970096 53:-0.981132 54:-0.967382 55:-0.965957 56:-0.963899 57:-0.931373 58:-0.948498 59:-0.943662 60:-0.977965 61:-0.910407 
1.46374260927619 1:-0.95774 2:-0.87414 3:-0.973364 4:-0.255654 5:0.0491853 6:-0.765482 7:0.240721 8:-0.998491 9:-0.999112 10:-0.440135 11:0.587601 12:-0.999424 13:-0.180083 14:-0.999388 15:-0.955179 16:-0.937401 17:-0.935052 18:-0.944687 19:-0.934334 20:-0.933707 21:-0.928488 22:-0.957539 23:-0.90999 24:-0.889975 25:-0.864844 26:-0.887715 27:-0.87883 28:-0.888809 29:-0.912542 30:-0.931 31:-0.905492 32:-0.962499 33:-0.968663 34:-0.9622 35:-0.999608 36:-0.997066 37:-0.996208 38:-0.988146 39:-0.98586 40:-0.986957 41:-0.981435 42:-0.985732 43:-0.986348 44:-0.983924 45:-0.966455 46:-0.975085 47:-0.96977 48:-0.972745 49:-0.972357 50:-0.964158 51:-0.961538 52:-0.971292 53:-0.971143 54:-0.958798 55:-0.93617 56:-0.954272 57:-0.833333 58:-0.828326 59:-0.915493 60:-0.976308 61:-0.90583 
0.9769428337690312 1:-0.955973 2:-0.872135 3:-0.974858 4:-0.253448 5:0.0489115 6:-0.767932 7:0.241672 8:-0.99876 9:-0.999053 10:-0.440126 11:0.587614 12:-0.999371 13:-0.180097 14:-0.999321 15:-0.967197 16:-0.932532 17:-0.96515 18:-0.939714 19:-0.937326 20:-0.926582 21:-0.944304 22:-0.951167 23:-0.860495 24:-0.901397 25:-0.849686 26:-0.900498 27:-0.884642 28:-0.904449 29:-0.912618 30:-0.939175 31:-0.904977 32:-0.950162 33:-0.963651 34:-0.969885 35:-0.999529 36:-0.994682 37:-0.994412 38:-0.988146 39:-0.987431 40:-0.989632 41:-0.983247 42:-0.985223 43:-0.986969 44:-0.974468 45:-0.966455 46:-0.973952 47:-0.972189 48:-0.976639 49:-0.958535 50:-0.964158 51:-0.95338 52:-0.976077 53:-0.981132 54:-0.972532 55:-0.955319 56:-0.925391 57:-0.857843 58:-0.742489 59:-0.71831 60:-0.97613 61:-0.90966 
2.736242616963706 1:-0.956963 2:-0.862638 3:-0.973125 4:-0.256135 5:0.0491131 6:-0.763451 7:0.240948 8:-0.999228 9:-0.999324 10:-0.440132 11:0.587592 12:-0.999378 13:-0.180138 14:-0.999357 15:-0.960244 16:-0.923148 17:-0.964722 18:-0.941412 19:-0.901373 20:-0.91826 21:-0.893938 22:-0.93582 23:-0.931548 24:-0.941246 25:-0.947638 26:-0.943155 27:-0.913144 28:-0.940315 29:-0.8944 30:-0.929877 31:-0.917653 32:-0.937685 33:-0.965948 34:-0.954415 35:-0.998039 36:-0.996149 37:-0.994213 38:-0.988887 39:-0.987431 40:-0.992308 41:-0.986416 42:-0.986242 43:-0.980143 44:-0.978251 45:-0.954887 46:-0.962627 47:-0.957678 48:-0.953277 49:-0.961299 50:-0.952688 51:-0.963869 52:-0.964115 53:-0.983352 54:-0.965665 55:-0.965957 56:-0.971119 57:-0.931373 58:-0.957082 59:-0.971831 60:-0.978622 61:-0.913289 
0.0134054595342234 1:-0.930603 2:-0.854238 3:-0.963897 4:-0.266489 5:0.0658812 6:-0.753377 7:0.194183 8:-0.983801 9:-0.998829 10:-0.440162 11:0.587542 12:-0.997391 13:-0.180075 14:-0.99757 15:-0.968427 16:-0.950325 17:-0.96136 18:-0.935308 19:-0.977673 20:-0.954039 21:-0.96785 22:-0.970226 23:-0.932951 24:-0.912895 25:-0.908037 26:-0.899803 27:-0.880303 28:-0.943439 29:-0.883109 30:-0.942695 31:-0.897163 32:-0.898759 33:-0.962542 34:-0.92242 35:-0.998353 36:-0.993765 37:-0.992417 38:-0.978144 39:-0.9801 40:-0.988294 41:-0.98868 42:-0.981656 43:-0.972696 44:-0.950827 45:-0.941006 46:-0.921857 47:-0.905683 48:-0.90915 49:-0.897719 50:-0.931183 51:-0.962704 52:-0.958134 53:-0.960044 54:-0.943348 55:-0.929787 56:-0.954272 57:-0.911765 58:-0.948498 59:-0.971831 60:-0.977311 61:-0.90575 
1.414309563983475 1:-0.909685 2:-0.843956 3:-0.955976 4:-0.275201 5:0.0733458 6:-0.75024 7:0.179619 8:-0.972634 9:-0.997939 10:-0.44012 11:0.587421 12:-0.996791 13:-0.180135 14:-0.996913 15:-0.972259 16:-0.948835 17:-0.936961 18:-0.912795 19:-0.949416 20:-0.898016 21:-0.945611 22:-0.905303 23:-0.903456 24:-0.889797 25:-0.905373 26:-0.8747 27:-0.879993 28:-0.909019 29:-0.877148 30:-0.899914 31:-0.903663 32:-0.883905 33:-0.939063 34:-0.953503 35:-0.999059 36:-0.992114 37:-0.988825 38:-0.979996 39:-0.970673 40:-0.979933 41:-0.982341 42:-0.979108 43:-0.964009 44:-0.946099 45:-0.921342 46:-0.90034 47:-0.88029 48:-0.861129 49:-0.874223 50:-0.886738 51:-0.91958 52:-0.917464 53:-0.935627 54:-0.941631 55:-0.944681 56:-0.975933 57:-0.97549 58:-1 59:-0.943662 60:-0.978432 61:-0.905203 
0.2003901212256619 1:-0.9123 2:-0.864939 3:-0.92039 4:-0.281916 5:0.0841922 6:-0.84076 7:0.187385 8:-0.968812 9:-0.998366 10:-0.440141 11:0.587501 12:-0.996282 13:-0.180095 14:-0.996476 15:-0.938552 16:-0.959051 17:-0.922714 18:-0.952774 19:-0.927409 20:-0.929674 21:-0.923577 22:-0.946741 23:-0.886062 24:-0.959032 25:-0.894066 26:-0.952031 27:-0.898762 28:-0.945133 29:-0.889341 30:-0.953474 31:-0.896479 32:-0.925491 33:-0.947933 34:-0.942574 35:-0.998039 36:-0.991564 37:-0.988625 38:-0.982589 39:-0.979576 40:-0.984615 41:-0.984152 42:-0.980127 43:-0.981384 44:-0.953664 45:-0.929439 46:-0.885617 47:-0.886336 48:-0.826087 49:-0.86593 50:-0.889606 51:-0.94289 52:-0.970096 53:-0.958935 54:-0.938197 55:-0.917021 56:-0.910951 57:-0.857843 58:-0.905579 59:-0.887324 60:-0.978332 61:-0.909787 
0.9752531851412743 1:-0.888555 2:-0.955 3:-0.937191 4:-0.230268 5:0.0872177 6:-0.963915 7:0.20857 8:-0.950011 9:-0.992527 10:-0.446702 11:0.609335 12:-0.995971 13:-0.180195 14:-0.995557 15:-0.964302 16:-0.889943 17:-0.959662 18:-0.898153 19:-0.977184 20:-0.909178 21:-0.830449 22:-0.741079 23:-0.806456 24:-0.732342 25:-0.901317 26:-0.854738 27:-0.921987 28:-0.871182 29:-0.918789 30:-0.873671 31:-0.911036 32:-0.879446 33:-0.925174 34:-0.95883 35:-0.995138 36:-0.980745 37:-0.98164 38:-0.961104 39:-0.960723 40:-0.984281 41:-0.978719 42:-0.979618 43:-0.962768 44:-0.937589 45:-0.915558 46:-0.911665 47:-0.89601 48:-0.894873 49:-0.888044 50:-0.90681 51:-0.899767 52:-0.901914 53:-0.931188 54:-0.922747 55:-0.919149 56:-0.918171 57:-0.833333 58:-0.828326 59:-0.549296 60:-0.977405 61:-0.922507 
1.643063699783363 1:-0.887142 2:-0.954924 3:-0.938327 4:-0.227441 5:0.0891967 6:-0.968698 7:0.208832 8:-0.943261 9:-0.993339 10:-0.440167 11:0.587665 12:-0.995947 13:-0.180052 14:-0.995752 15:-0.949273 16:-0.905738 17:-0.9507 18:-0.890611 19:-0.957477 20:-0.893112 21:-0.901653 22:-0.750131 23:-0.782051 24:-0.774673 25:-0.879101 26:-0.886596 27:-0.907805 28:-0.883158 29:-0.922131 30:-0.825859 31:-0.909502 32:-0.854116 33:-0.90844 34:-0.947613 35:-0.994824 36:-0.980194 37:-0.982439 38:-0.958881 39:-0.957057 40:-0.986957 41:-0.981435 42:-0.974522 43:-0.964629 44:-0.932861 45:-0.898207 46:-0.911665 47:-0.882709 48:-0.801428 49:-0.818936 50:-0.881004 51:-0.945221 52:-0.961722 53:-0.955605 54:-0.92103 55:-0.904255 56:-0.939832 57:-0.906863 58:-0.982833 59:-0.971831 60:-0.97672 61:-0.917689 
0.4007785931211129 1:-0.884739 2:-0.954943 3:-0.938457 4:-0.226775 5:0.0880569 6:-0.969805 7:0.210181 8:-0.946084 9:-0.992905 10:-0.440158 11:0.587646 12:-0.995988 13:-0.180219 14:-0.995735 15:-0.942466 16:-0.919876 17:-0.949221 18:-0.908229 19:-0.955477 20:-0.90785 21:-0.900248 22:-0.766275 23:-0.777051 24:-0.730793 25:-0.8813 26:-0.887971 27:-0.898232 28:-0.870863 29:-0.898834 30:-0.809329 31:-0.908648 32:-0.850738 33:-0.909667 34:-0.947929 35:-0.991295 36:-0.983862 37:-0.978248 38:-0.963697 39:-0.969102 40:-0.983946 41:-0.975549 42:-0.976561 43:-0.959665 44:-0.925296 45:-0.912088 46:-0.901472 47:-0.900846 48:-0.817002 49:-0.823082 50:-0.876703 51:-0.924242 52:-0.970096 53:-0.968923 54:-0.922747 55:-0.908511 56:-0.930205 57:-0.867647 58:-0.871245 59:-1 60:-0.975897 61:-0.917239 
0.03892777304481285 1:-0.891806 2:-0.95491 3:-0.933715 4:-0.223866 5:0.0901696 6:-0.976649 7:0.212964 8:-0.941837 9:-0.994474 10:-0.440093 11:0.587721 12:-0.995518 13:-0.179672 14:-0.995761 15:-0.948004 16:-0.837906 17:-0.951788 18:-0.849279 19:-0.96515 20:-0.865735 21:-0.826726 22:-0.802843 23:-0.783452 24:-0.794572 25:-0.943652 26:-0.86371 27:-0.966527 28:-0.873612 29:-0.96124 30:-0.882459 31:-0.913392 32:-0.885578 33:-0.942806 34:-0.927141 35:-0.996314 36:-0.982578 37:-0.989423 38:-0.955177 39:-0.959675 40:-0.973913 41:-0.976455 42:-0.973503 43:-0.966491 44:-0.918676 45:-0.876229 46:-0.906002 47:-0.869407 48:-0.857236 49:-0.846579 50:-0.883871 51:-0.93007 52:-0.982057 53:-0.976693 54:-0.967382 55:-0.931915 56:-0.954272 57:-0.843137 58:-0.862661 59:-0.859155 60:-0.976218 61:-0.91553 
0.6976372122673753 1:-0.89541 2:-0.954711 3:-0.93086 4:-0.213995 5:0.0944166 6:-0.989338 7:0.219798 8:-0.938494 9:-0.995759 10:-0.440039 11:0.587784 12:-0.995437 13:-0.180208 14:-0.995402 15:-0.92835 16:-0.743746 17:-0.912616 18:-0.813949 19:-0.914957 20:-0.864909 21:-0.864847 22:-0.906359 23:-0.820789 24:-0.920244 25:-0.888357 26:-0.927862 27:-0.91461 28:-0.924226 29:-0.9208 30:-0.937875 31:-0.9282 32:-0.898599 33:-0.973796 34:-0.932309 35:-0.995687 36:-0.98753 37:-0.988226 38:-0.98296 39:-0.968578 40:-0.98194 41:-0.978266 42:-0.973503 43:-0.964009 44:-0.936643 45:-0.892423 46:-0.90487 47:-0.912938 48:-0.878001 49:-0.864547 50:-0.842294 51:-0.900932 52:-0.930622 53:-0.951165 54:-0.955365 55:-0.93617 56:-0.910951 57:-0.828431 58:-0.665236 59:-0.690141 60:-0.976436 61:-0.910668 
0.3249015110635172 1:-0.896541 2:-0.94587 3:-0.933165 4:-0.173968 5:0.0910548 6:-0.990451 7:0.253157 8:-0.945628 9:-0.996515 10:-0.440034 11:0.588018 12:-0.995313 13:-0.180045 14:-0.995388 15:-0.951168 16:-0.760662 17:-0.915084 18:-0.803411 19:-0.922433 20:-0.852268 21:-0.940491 22:-0.900537 23:-0.928681 24:-0.897473 25:-0.950112 26:-0.890361 27:-0.946784 28:-0.899815 29:-0.959681 30:-0.91326 31:-0.950348 32:-0.895617 33:-0.975253 34:-0.929835 35:-0.993648 36:-0.985879 37:-0.992217 38:-0.985923 39:-0.97172 40:-0.981271 41:-0.975549 42:-0.97707 43:-0.966491 44:-0.933806 45:-0.89358 46:-0.894677 47:-0.862152 48:-0.817002 49:-0.794057 50:-0.856631 51:-0.947552 52:-0.958134 53:-0.967814 54:-0.958798 55:-0.946809 56:-0.944645 57:-0.897059 58:-0.93133 59:-1 60:-0.97792 61:-0.914038 
0.5682862373408295 1:-0.894562 2:-0.911106 3:-0.918933 4:-0.139221 5:0.0957253 6:-0.941209 7:0.277712 8:-0.944798 9:-0.996164 10:-0.440111 11:0.587506 12:-0.994914 13:-0.180087 14:-0.99496 15:-0.924539 16:-0.746571 17:-0.957437 18:-0.808613 19:-0.953715 20:-0.838788 21:-0.960589 22:-0.874911 23:-0.941417 24:-0.891993 25:-0.948227 26:-0.901728 27:-0.953275 28:-0.909281 29:-0.94361 30:-0.928035 31:-0.937408 32:-0.908294 33:-0.949555 34:-0.94747 35:-0.994667 36:-0.993031 37:-0.992018 38:-0.988146 39:-0.964912 40:-0.98194 41:-0.97736 42:-0.974013 43:-0.96587 44:-0.929078 45:-0.877386 46:-0.883352 47:-0.844015 48:-0.8183 49:-0.803732 50:-0.882437 51:-0.921911 52:-0.953349 53:-0.963374 54:-0.951931 55:-0.953191 56:-0.954272 57:-0.901961 58:-0.854077 59:-0.492958 60:-0.979169 61:-0.913716 
0.1552190577074568 1:-0.889474 2:-0.840031 3:-0.866485 4:-0.0926067 5:0.0959897 6:-0.878631 7:0.282614 8:-0.962995 9:-0.996128 10:-0.440113 11:0.587151 12:-0.994526 13:-0.180157 14:-0.994883 15:-0.894991 16:-0.772868 17:-0.932698 18:-0.830619 19:-0.952654 20:-0.869836 21:-0.961942 22:-0.904041 23:-0.923907 24:-0.913895 25:-0.896934 26:-0.929246 27:-0.858948 28:-0.933926 29:-0.848935 30:-0.924543 31:-0.875884 32:-0.916469 33:-0.927697 34:-0.962576 35:-0.992628 36:-0.981845 37:-0.990222 38:-0.981108 39:-0.969102 40:-0.983278 41:-0.981435 42:-0.976051 43:-0.949116 44:-0.925296 45:-0.89358 46:-0.883352 47:-0.874244 48:-0.833874 49:-0.847961 50:-0.901075 51:-0.949883 52:-0.946172 53:-0.965594 54:-0.967382 55:-0.914894 56:-0.89651 57:-0.823529 58:-0.639485 59:-0.690141 60:-0.976133 61:-0.916046 
1.038841118813533 1:-0.887707 2:-0.77411 3:-0.846231 4:-0.0482481 5:0.0966913 6:-0.782845 7:0.294489 8:-0.968923 9:-0.996638 10:-0.440085 11:0.587599 12:-0.995399 13:-0.18012 14:-0.995536 15:-0.918679 16:-0.948934 17:-0.902659 18:-0.916318 19:-0.898991 20:-0.929508 21:-0.865411 22:-0.929565 23:-0.865207 24:-0.942179 25:-0.84981 26:-0.955058 27:-0.856942 28:-0.933663 29:-0.855257 30:-0.93069 31:-0.883046 32:-0.911289 33:-0.928078 34:-0.949314 35:-0.994118 36:-0.982028 37:-0.979645 38:-0.975181 39:-0.967531 40:-0.977592 41:-0.969663 42:-0.973503 43:-0.951598 44:-0.93948 45:-0.93985 46:-0.943375 47:-0.937122 48:-0.929916 49:-0.893573 50:-0.885305 51:-0.899767 52:-0.915072 53:-0.942286 54:-0.938197 55:-0.887234 56:-0.838748 57:-0.637255 58:-0.613734 59:-0.690141 60:-0.973158 61:-0.910651 
0.07721738823325607 1:-0.892513 2:-0.764714 3:-0.848763 4:-0.0439356 5:0.0997 6:-0.765983 7:0.300995 8:-0.963419 9:-0.995885 10:-0.440111 11:0.587709 12:-0.995794 13:-0.179991 14:-0.995851 15:-0.896917 16:-0.83057 17:-0.891619 18:-0.869082 19:-0.900179 20:-0.916708 21:-0.879992 22:-0.922632 23:-0.844679 24:-0.90399 25:-0.837388 26:-0.914247 27:-0.849119 28:-0.959775 29:-0.862513 30:-0.954861 31:-0.885894 32:-0.948674 33:-0.93511 34:-0.968504 35:-0.994275 36:-0.980011 37:-0.984634 38:-0.970735 39:-0.97172 40:-0.981271 41:-0.979171 42:-0.961783 43:-0.964009 44:-0.930024 45:-0.895894 46:-0.921857 47:-0.928658 48:-0.935107 49:-0.907395 50:-0.909677 51:-0.928904 52:-0.921053 53:-0.967814 54:-0.924464 55:-0.810638 56:-0.843562 57:-0.764706 58:-0.83691 59:-0.887324 60:-0.973322 61:-0.910641 
0.36845994727197 1:-0.895693 2:-0.764714 3:-0.849151 4:-0.0442976 5:0.100388 6:-0.766649 7:0.301854 8:-0.962864 9:-0.996144 10:-0.44005 11:0.588063 12:-0.996095 13:-0.180143 14:-0.996115 15:-0.896917 16:-0.83057 17:-0.894249 18:-0.869082 19:-0.900179 20:-0.916708 21:-0.879992 22:-0.922632 23:-0.844679 24:-0.90399 25:-0.837388 26:-0.914247 27:-0.853871 28:-0.961362 29:-0.869352 30:-0.977534 31:-0.885894 32:-0.951758 33:-0.941591 34:-0.978869 35:-0.99451 36:-0.982212 37:-0.986629 38:-0.973328 39:-0.972768 40:-0.98194 41:-0.979624 42:-0.961783 43:-0.964009 44:-0.930024 45:-0.89705 46:-0.925255 47:-0.929867 48:-0.936405 49:-0.908777 50:-0.911111 51:-0.928904 52:-0.921053 53:-0.967814 54:-0.924464 55:-0.810638 56:-0.843562 57:-0.764706 58:-0.83691 59:-0.887324 60:-0.973454 61:-0.909072 
0.5073381392252349 1:-0.905374 2:-0.740689 3:-0.858397 4:-0.0348327 5:0.096117 6:-0.718342 7:0.304364 8:-0.966574 9:-0.99704 10:-0.441632 11:0.564751 12:-0.996132 13:-0.180103 14:-0.996272 15:-0.916564 16:-0.927462 17:-0.914556 18:-0.942102 19:-0.91585 20:-0.955909 21:-0.904862 22:-0.961964 23:-0.864384 24:-0.873769 25:-0.850424 26:-0.877993 27:-0.846241 28:-0.892311 29:-0.867306 30:-0.943475 31:-0.878873 32:-0.942513 33:-0.941371 34:-0.972512 35:-0.998667 36:-0.993031 37:-0.988425 38:-0.969994 39:-0.964912 40:-0.983946 41:-0.98053 42:-0.976561 43:-0.970214 44:-0.933806 45:-0.920185 46:-0.91846 47:-0.908102 48:-0.911746 49:-0.883898 50:-0.913978 51:-0.928904 52:-0.940191 53:-0.955605 54:-0.934764 55:-0.914894 56:-0.843562 57:-0.754902 58:-0.67382 59:-0.577465 60:-0.975497 61:-0.903663 
1.362385763666885 1:-0.926999 2:-0.706272 3:-0.839749 4:-0.00206185 5:0.0968098 6:-0.639598 7:0.309476 8:-0.965174 9:-0.996577 10:-0.440107 11:0.587402 12:-0.997588 13:-0.180086 14:-0.997701 15:-0.863559 16:-0.761625 17:-0.877659 18:-0.761111 19:-0.918338 20:-0.795346 21:-0.92845 22:-0.848316 23:-0.932753 24:-0.877496 25:-0.931169 26:-0.902479 27:-0.921272 28:-0.902249 29:-0.929181 30:-0.931949 31:-0.90808 32:-0.957113 33:-0.941873 34:-0.98867 35:-0.998667 36:-0.993031 37:-0.992217 38:-0.98296 39:-0.964389 40:-0.979599 41:-0.971927 42:-0.969427 43:-0.96525 44:-0.950827 45:-0.93985 46:-0.9547 47:-0.933495 48:-0.923426 49:-0.906012 50:-0.924014 51:-0.958042 52:-0.956938 53:-0.970033 54:-0.950215 55:-0.951064 56:-0.927798 57:-0.936275 58:-0.939914 59:-0.746479 60:-0.978171 61:-0.915906 
0.567745696752591 1:-0.924738 2:-0.714916 3:-0.827277 4:-0.00994857 5:0.138281 6:-0.693312 7:0.358336 8:-0.905523 9:-0.997555 10:-0.4401 11:0.587633 12:-0.99798 13:-0.18006 14:-0.997953 15:-0.951801 16:-0.966362 17:-0.954081 18:-0.975579 19:-0.9462 20:-0.954532 21:-0.84435 22:-0.893641 23:-0.857118 24:-0.893743 25:-0.88563 26:-0.888545 27:-0.905989 28:-0.895491 29:-0.923271 30:-0.95036 31:-0.924584 32:-0.97416 33:-0.944421 34:-0.973884 35:-0.994981 36:-0.986613 37:-0.990621 38:-0.986664 39:-0.982194 40:-0.986288 41:-0.979171 42:-0.971465 43:-0.96587 44:-0.951773 45:-0.951417 46:-0.96376 47:-0.948005 48:-0.928618 49:-0.911541 50:-0.902509 51:-0.924242 52:-0.929426 53:-0.952275 54:-0.962232 55:-0.968085 56:-0.942238 57:-0.946078 58:-0.939914 59:-0.577465 60:-0.975911 61:-0.914494 
1.301942153530512 1:-0.939931 2:-0.778298 3:-0.863397 4:-0.0420124 5:0.0601944 6:-0.736186 7:0.251652 8:-0.995946 9:-0.99775 10:-0.440096 11:0.587649 12:-0.998861 13:-0.180116 14:-0.998736 15:-0.987136 16:-0.977692 17:-0.978995 18:-0.977201 19:-0.982656 20:-0.980056 21:-0.97814 22:-0.963734 23:-0.956898 24:-0.965958 25:-0.807583 26:-0.876019 27:-0.806912 28:-0.894051 29:-0.871736 30:-0.937572 31:-0.896818 32:-0.938616 33:-0.944493 34:-0.965725 35:-0.994197 36:-0.986246 37:-0.989423 38:-0.983701 39:-0.985336 40:-0.986622 41:-0.984152 42:-0.987261 43:-0.985107 44:-0.964066 45:-0.957201 46:-0.970555 47:-0.941959 48:-0.937703 49:-0.939185 50:-0.931183 51:-0.963869 52:-0.966507 53:-0.962264 54:-0.958798 55:-0.968085 56:-0.971119 57:-0.965686 58:-0.914163 59:-0.859155 60:-0.976423 61:-0.927479 
0.5643345595284406 1:-0.885304 2:-0.778298 3:-0.852359 4:-0.0337468 5:0.111173 6:-0.726373 7:0.323156 8:-0.943407 9:-0.994644 10:-0.440124 11:0.587591 12:-0.995442 13:-0.180018 14:-0.995491 15:-0.8861 16:-0.952414 17:-0.892515 18:-0.949558 19:-0.867571 20:-0.815287 21:-0.872889 22:-0.831813 23:-0.890236 24:-0.953953 25:-0.806161 26:-0.903879 27:-0.77864 28:-0.879692 29:-0.856721 30:-0.931357 31:-0.893462 32:-0.928795 33:-0.921486 34:-0.949598 35:-0.993491 36:-0.981845 37:-0.98184 38:-0.970365 39:-0.966483 40:-0.974916 41:-0.972832 42:-0.975032 43:-0.964009 44:-0.935697 45:-0.917872 46:-0.926387 47:-0.892382 48:-0.884491 49:-0.868694 50:-0.823656 51:-0.863636 52:-0.899522 53:-0.915649 54:-0.934764 55:-0.961702 56:-0.971119 57:-0.965686 58:-0.914163 59:-0.859155 60:-0.978175 61:-0.921663 
8 1:-0.962616 2:-0.903349 3:-0.966327 4:-0.137869 5:0.101128 6:-0.855034 7:0.346669 8:-0.83906 9:-0.999159 10:-0.440134 11:0.58758 12:-0.999559 13:-0.180133 14:-0.999536 15:-0.897312 16:-0.875482 17:-0.889137 18:-0.850511 19:-0.890106 20:-0.857527 21:-1 22:-1 23:-0.963254 24:-0.950521 25:-0.936869 26:-0.911069 27:-0.93179 28:-0.905472 29:-0.935839 30:-0.916438 31:-0.939559 32:-0.915326 33:-0.935008 34:-0.926547 35:-0.991452 36:-0.973776 37:-0.988226 38:-0.983701 39:-0.980623 40:-0.989632 41:-0.982794 42:-0.983694 43:-0.98883 44:-0.988652 45:-0.99653 46:-0.996602 47:-0.998791 48:-1 49:-1 50:-1 51:-0.998834 52:-1 53:-1 54:-1 55:-1 56:-1 57:-1 58:-1 59:-0.971831 60:-0.969032 61:-0.929547 
7.434717162220487 1:-0.878874 2:-0.949833 3:-0.930415 4:-0.191136 5:0.0826935 6:-0.999482 7:0.238746 8:-0.966724 9:-0.996615 10:-0.440061 11:0.58763 12:-0.994835 13:-0.179902 14:-0.994973 15:-0.951899 16:-0.881401 17:-0.958011 18:-0.877669 19:-0.932278 20:-0.879877 21:-0.956131 22:-0.885837 23:-0.957974 24:-0.806867 25:-0.940541 26:-0.805253 27:-0.94117 28:-0.829285 29:-0.95188 30:-0.860861 31:-0.942691 32:-0.891983 33:-0.947133 34:-0.953336 35:-0.990981 36:-0.986063 37:-0.988026 38:-0.976662 39:-0.962294 40:-0.980268 41:-0.978266 42:-0.96586 43:-0.957803 44:-0.907329 45:-0.850781 46:-0.844847 47:-0.845224 48:-0.848151 49:-0.874223 50:-0.863799 51:-0.927739 52:-0.95933 53:-0.962264 54:-0.943348 55:-0.891489 56:-0.884477 57:-0.872549 58:-0.957082 59:-0.971831 60:-0.976572 61:-0.915903 
1.866346671562879 1:-0.875623 2:-0.947118 3:-0.926623 4:-0.192678 5:0.0859357 6:-0.999439 7:0.237804 8:-0.961966 9:-0.995459 10:-0.440101 11:0.587382 12:-0.9947 13:-0.180209 14:-0.994677 15:-0.878098 16:-0.840988 17:-0.932742 18:-0.844094 19:-0.94326 20:-0.856119 21:-0.95753 22:-0.869418 23:-0.931197 24:-0.799507 25:-0.940803 26:-0.787948 27:-0.942094 28:-0.824274 29:-0.946067 30:-0.85983 31:-0.929405 32:-0.885938 33:-0.947747 34:-0.961175 35:-0.990354 36:-0.980745 37:-0.988825 38:-0.973328 39:-0.971197 40:-0.98194 41:-0.974191 42:-0.976051 43:-0.964009 44:-0.933806 45:-0.871602 46:-0.851642 47:-0.807739 48:-0.815704 49:-0.803732 50:-0.8681 51:-0.949883 52:-0.964115 53:-0.970033 54:-0.943348 55:-0.912766 56:-0.87485 57:-0.803922 58:-0.871245 59:-0.774648 60:-0.976347 61:-0.916375 
0.3892278629300766 1:-0.878874 2:-0.945132 3:-0.92157 4:-0.194364 5:0.0869699 6:-0.999436 7:0.236744 8:-0.962323 9:-0.995642 10:-0.440115 11:0.587496 12:-0.994974 13:-0.180288 14:-0.994958 15:-0.895687 16:-0.874278 17:-0.917623 18:-0.86505 19:-0.930135 20:-0.883545 21:-0.948517 22:-0.887193 23:-0.938262 24:-0.777938 25:-0.918217 26:-0.789262 27:-0.9385 28:-0.811835 29:-0.944866 30:-0.864065 31:-0.932447 32:-0.8929 33:-0.944697 34:-0.958813 35:-0.993412 36:-0.978361 37:-0.987228 38:-0.971476 39:-0.964389 40:-0.977592 41:-0.976907 42:-0.968408 43:-0.958424 44:-0.913948 45:-0.875072 46:-0.834655 47:-0.801693 48:-0.810513 49:-0.842433 50:-0.939785 51:-0.958042 52:-0.965311 53:-0.963374 54:-0.914163 55:-0.908511 56:-0.920578 57:-0.916667 58:-0.948498 59:-0.971831 60:-0.97649 61:-0.916298 
2.888709954077255 1:-0.892866 2:-0.910062 3:-0.877092 4:-0.210282 5:0.0962064 6:-0.995839 7:0.229095 8:-0.963156 9:-0.997065 10:-0.440091 11:0.587552 12:-0.995459 13:-0.180133 14:-0.995571 15:-0.915812 16:-0.860157 17:-0.914803 18:-0.868283 19:-0.924745 20:-0.905199 21:-0.929509 22:-0.893891 23:-0.900236 24:-0.863858 25:-0.918615 26:-0.863611 27:-0.927689 28:-0.88286 29:-0.917143 30:-0.902194 31:-0.922377 32:-0.900625 33:-0.944013 34:-0.980136 35:-0.993412 36:-0.98698 37:-0.992816 38:-0.981848 39:-0.97172 40:-0.982943 41:-0.980077 42:-0.97707 43:-0.967732 44:-0.92435 45:-0.888953 46:-0.890147 47:-0.801693 48:-0.798832 49:-0.816171 50:-0.873835 51:-0.95338 52:-0.9689 53:-0.970033 54:-0.948498 55:-0.914894 56:-0.939832 57:-0.897059 58:-0.948498 59:-0.859155 60:-0.978404 61:-0.913044 
0.5549901507762628 1:-0.884386 2:-0.914261 3:-0.87319 4:-0.218866 5:0.0950962 6:-0.991324 7:0.22559 8:-0.965939 9:-0.996497 10:-0.440127 11:0.587579 12:-0.99531 13:-0.180163 14:-0.995353 15:-0.931237 16:-0.935494 17:-0.923631 18:-0.901791 19:-0.915984 20:-0.918327 21:-0.91225 22:-0.925459 23:-0.813625 24:-0.907246 25:-0.831379 26:-0.90662 27:-0.852903 28:-0.911244 29:-0.867697 30:-0.932136 31:-0.890443 32:-0.927637 33:-0.946702 34:-0.96374 35:-0.994275 36:-0.985879 37:-0.983037 38:-0.980367 39:-0.972768 40:-0.984281 41:-0.974191 42:-0.984204 43:-0.976419 44:-0.953664 45:-0.928282 46:-0.928652 47:-0.904474 48:-0.889682 49:-0.852108 50:-0.842294 51:-0.853147 52:-0.874402 53:-0.896781 54:-0.898712 55:-0.882979 56:-0.918171 57:-0.754902 58:-0.622318 59:-0.859155 60:-0.977904 61:-0.914626 
1.033757680597788 1:-0.88057 2:-0.913472 3:-0.874512 4:-0.227952 5:0.0951313 6:-0.984298 7:0.221225 8:-0.965269 9:-0.996187 10:-0.440112 11:0.58756 12:-0.99544 13:-0.180101 14:-0.995451 15:-0.933604 16:-0.919642 17:-0.916227 18:-0.915906 19:-0.914674 20:-0.952467 21:-0.85837 22:-0.944648 23:-0.821117 24:-0.913318 25:-0.83512 26:-0.928059 27:-0.850987 28:-0.94832 29:-0.856258 30:-0.9582 31:-0.884816 32:-0.928145 33:-0.950356 34:-0.963625 35:-0.994432 36:-0.982395 37:-0.980243 38:-0.972958 39:-0.969626 40:-0.981271 41:-0.983247 42:-0.982675 43:-0.978902 44:-0.950827 45:-0.930596 46:-0.93205 47:-0.909311 48:-0.881895 49:-0.857636 50:-0.830824 51:-0.833333 52:-0.857656 53:-0.90677 54:-0.878112 55:-0.925532 56:-0.87485 57:-0.72549 58:-0.896996 59:-0.887324 60:-0.97702 61:-0.913991 
1.318078949296801 1:-0.885728 2:-0.904132 3:-0.87169 4:-0.230584 5:0.094298 6:-0.982261 7:0.220702 8:-0.967658 9:-0.996255 10:-0.44015 11:0.587427 12:-0.995657 13:-0.180128 14:-0.995606 15:-0.907623 16:-0.967963 17:-0.898536 18:-0.952276 19:-0.902943 20:-0.961813 21:-0.889319 22:-0.958796 23:-0.826646 24:-0.931689 25:-0.833605 26:-0.947242 27:-0.843715 28:-0.947009 29:-0.847676 30:-0.958586 31:-0.88375 32:-0.946126 33:-0.955307 34:-0.962283 35:-0.996863 36:-0.988997 37:-0.982838 38:-0.96592 39:-0.959152 40:-0.98194 41:-0.983699 42:-0.980637 43:-0.975799 44:-0.966903 45:-0.945633 46:-0.921857 47:-0.893591 48:-0.87281 49:-0.860401 50:-0.876703 51:-0.84965 52:-0.840909 53:-0.890122 54:-0.900429 55:-0.912766 56:-0.920578 57:-0.813725 58:-0.785408 59:-0.521127 60:-0.977752 61:-0.913376 
0.1983863308048472 1:-0.891735 2:-0.901469 3:-0.852168 4:-0.239689 5:0.0941226 6:-0.976142 7:0.219463 8:-0.971383 9:-0.994805 10:-0.440152 11:0.587446 12:-0.995574 13:-0.180155 14:-0.995341 15:-0.924002 16:-0.921102 17:-0.920416 18:-0.917556 19:-0.919165 20:-0.924291 21:-0.905347 22:-0.928911 23:-0.905089 24:-0.949704 25:-0.839521 26:-0.881829 27:-0.737316 28:-0.895967 29:-0.842992 30:-0.930651 31:-0.89208 32:-0.932104 33:-0.945243 34:-0.968178 35:-0.997412 36:-0.988447 37:-0.990621 38:-0.968513 39:-0.962294 40:-0.980936 41:-0.976002 42:-0.970446 43:-0.951598 44:-0.935697 45:-0.894737 46:-0.887882 47:-0.870617 48:-0.867618 49:-0.806496 50:-0.849462 51:-0.920746 52:-0.937799 53:-0.964484 54:-0.92618 55:-0.942553 56:-0.935018 57:-0.897059 58:-0.948498 59:-0.971831 60:-0.978205 61:-0.91053 
0.2604616829237484 1:-0.88594 2:-0.865065 3:-0.824443 4:-0.233889 5:0.10494 6:-0.984695 7:0.220961 8:-0.963562 9:-0.996696 10:-0.440162 11:0.587292 12:-0.995247 13:-0.180102 14:-0.995339 15:-0.910478 16:-0.926419 17:-0.899655 18:-0.93625 19:-0.906657 20:-0.944899 21:-0.907805 22:-0.957668 23:-0.858524 24:-0.918863 25:-0.828486 26:-0.920431 27:-0.860482 28:-0.929487 29:-0.864065 30:-0.937097 31:-0.886087 32:-0.933892 33:-0.948093 34:-0.965076 35:-0.995843 36:-0.98698 37:-0.984035 38:-0.972217 39:-0.959675 40:-0.98194 41:-0.979171 42:-0.97758 43:-0.968973 44:-0.930024 45:-0.892423 46:-0.879955 47:-0.869407 48:-0.794938 49:-0.787146 50:-0.858065 51:-0.933566 52:-0.949761 53:-0.973363 54:-0.941631 55:-0.92766 56:-0.908544 57:-0.872549 58:-0.888412 59:-0.802817 60:-0.977052 61:-0.912272 
0.7748452090333403 1:-0.896329 2:-0.825182 3:-0.769138 4:-0.214693 5:0.116891 6:-0.996493 7:0.229391 8:-0.959077 9:-0.997393 10:-0.440159 11:0.587505 12:-0.995036 13:-0.180138 14:-0.995258 15:-0.875976 16:-0.915959 17:-0.862474 18:-0.940427 19:-0.90595 20:-0.944259 21:-0.902778 22:-0.962172 23:-0.895753 24:-0.943312 25:-0.904807 26:-0.935688 27:-0.898596 28:-0.943843 29:-0.862112 30:-0.957217 31:-0.903891 32:-0.935593 33:-0.95056 34:-0.944381 35:-0.995138 36:-0.983129 37:-0.99082 38:-0.984071 39:-0.970673 40:-0.985619 41:-0.982794 42:-0.975032 43:-0.967111 44:-0.948936 45:-0.913245 46:-0.887882 47:-0.879081 48:-0.83647 49:-0.812025 50:-0.849462 51:-0.909091 52:-0.955742 53:-0.970033 54:-0.960515 55:-0.921277 56:-0.913357 57:-0.877451 58:-0.871245 59:-0.577465 60:-0.976527 61:-0.911346 
1.199949956590617 1:-0.954136 2:-0.742545 3:-0.700241 4:-0.117241 5:0.145062 6:-0.969555 7:0.268504 8:-0.938289 9:-0.999583 10:-0.440158 11:0.587653 12:-0.998276 13:-0.180143 14:-0.998409 15:-0.986289 16:-0.947886 17:-0.977255 18:-0.903434 19:-0.981215 20:-0.9321 21:-0.994045 22:-0.963972 23:-0.965644 24:-0.943362 25:-0.967033 26:-0.930095 27:-0.956789 28:-0.943803 29:-0.964807 30:-0.948894 31:-0.965028 32:-0.940759 33:-0.968168 34:-0.953095 35:-0.998039 36:-0.997983 37:-0.997206 38:-0.997036 39:-0.989526 40:-0.996656 41:-0.993208 42:-0.992866 43:-0.990692 44:-0.989598 45:-0.978022 46:-0.951302 47:-0.928658 48:-0.915639 49:-0.900484 50:-0.911111 51:-0.95338 52:-0.977273 53:-0.984462 54:-0.957082 55:-0.957447 56:-0.942238 57:-0.901961 58:-0.871245 59:-0.661972 60:-0.976917 61:-0.891295 
0.8332042171198111 1:-0.89647 2:-0.71413 3:-0.674023 4:-0.0872809 5:0.14037 6:-0.945508 7:0.275312 8:-0.946842 9:-0.997615 10:-0.440137 11:0.587562 12:-0.995468 13:-0.180109 14:-0.995748 15:-0.959383 16:-0.795644 17:-0.951854 18:-0.837165 19:-0.943273 20:-0.875255 21:-0.924801 22:-0.898545 23:-0.916072 24:-0.895255 25:-0.936811 26:-0.903207 27:-0.930145 28:-0.902129 29:-0.929838 30:-0.913187 31:-0.939255 32:-0.908438 33:-0.985716 34:-0.943018 35:-0.997098 36:-0.98863 37:-0.986629 38:-0.976662 39:-0.97591 40:-0.985953 41:-0.979624 42:-0.974522 43:-0.944151 44:-0.900709 45:-0.864662 46:-0.84145 47:-0.842805 48:-0.842959 49:-0.871458 50:-0.889606 51:-0.924242 52:-0.952153 53:-0.980022 54:-0.953648 55:-0.953191 56:-0.975933 57:-0.995098 58:-1 59:-1 60:-0.979372 61:-0.910709 
1.077900335001623 1:-0.904314 2:-0.699792 3:-0.669574 4:-0.0637632 5:0.141878 6:-0.919778 7:0.283861 8:-0.947145 9:-0.997562 10:-0.440181 11:0.58767 12:-0.995795 13:-0.180101 14:-0.995913 15:-0.948443 16:-0.8196 17:-0.940597 18:-0.834713 19:-0.941093 20:-0.868141 21:-0.936453 22:-0.886336 23:-0.923109 24:-0.879992 25:-0.945187 26:-0.894874 27:-0.962464 28:-0.891789 29:-0.949427 30:-0.901483 31:-0.959364 32:-0.899332 33:-0.981823 34:-0.946183 35:-0.996941 36:-0.991198 37:-0.990022 38:-0.981478 39:-0.970673 40:-0.983946 41:-0.982341 42:-0.97707 43:-0.964009 44:-0.927187 45:-0.89358 46:-0.87769 47:-0.85006 48:-0.813108 49:-0.863165 50:-0.891039 51:-0.972028 52:-0.962919 53:-0.972253 54:-0.933047 55:-0.940426 56:-0.951865 57:-0.911765 58:-0.862661 59:-0.915493 60:-0.977553 61:-0.908678 
0.4651949093514326 1:-0.894067 2:-0.697157 3:-0.665386 4:-0.0584108 5:0.131065 6:-0.914125 7:0.279533 8:-0.958802 9:-0.997105 10:-0.439974 11:0.587094 12:-0.995366 13:-0.176995 14:-0.995496 15:-0.945488 16:-0.83437 17:-0.933702 18:-0.84249 19:-0.941467 20:-0.879986 21:-0.939198 22:-0.896927 23:-0.931531 24:-0.844254 25:-0.956145 26:-0.856308 27:-0.952299 28:-0.856061 29:-0.946633 30:-0.86225 31:-0.946586 32:-0.879206 33:-0.978216 34:-0.938148 35:-0.995765 36:-0.984779 37:-0.98643 38:-0.978144 39:-0.970673 40:-0.987625 41:-0.977813 42:-0.978089 43:-0.966491 44:-0.950827 45:-0.923655 46:-0.90487 47:-0.868198 48:-0.827385 49:-0.84105 50:-0.866667 51:-0.899767 52:-0.942584 53:-0.967814 54:-0.938197 55:-0.914894 56:-0.910951 57:-0.838235 58:-0.793991 59:-0.605634 60:-0.976159 61:-0.910248 
1.204629403860603 1:-0.878238 2:-0.678923 3:-0.660835 4:-0.0526114 5:0.11817 6:-0.907804 7:0.273817 8:-0.970623 9:-0.995744 10:-0.440159 11:0.587944 12:-0.995028 13:-0.1801 14:-0.995013 15:-0.966259 16:-0.873737 17:-0.951251 18:-0.857813 19:-0.942596 20:-0.874702 21:-0.955063 22:-0.873596 23:-0.932195 24:-0.787249 25:-0.934605 26:-0.783271 27:-0.955439 28:-0.792999 29:-0.964189 30:-0.837311 31:-0.950643 32:-0.865637 33:-0.966026 34:-0.934411 35:-0.992942 36:-0.97781 37:-0.981241 38:-0.971106 39:-0.973815 40:-0.982609 41:-0.977813 42:-0.974013 43:-0.960906 44:-0.953664 45:-0.917872 46:-0.899207 47:-0.852479 48:-0.832576 49:-0.816171 50:-0.810753 51:-0.886946 52:-0.937799 53:-0.944506 54:-0.896996 55:-0.9 56:-0.927798 57:-0.960784 58:-0.957082 59:-0.887324 60:-0.975742 61:-0.913678 
0.9184081534045552 1:-0.879439 2:-0.683105 3:-0.661722 4:-0.0549603 5:0.122321 6:-0.91065 7:0.275495 8:-0.966786 9:-0.995972 10:-0.440338 11:0.587547 12:-0.9951 13:-0.18312 14:-0.995139 15:-0.960256 16:-0.842781 17:-0.957861 18:-0.847452 19:-0.962635 20:-0.867963 21:-0.959568 22:-0.869157 23:-0.87832 24:-0.821228 25:-0.914647 26:-0.825701 27:-0.936226 28:-0.835292 29:-0.946242 30:-0.840237 31:-0.938019 32:-0.874631 33:-0.970265 34:-0.940007 35:-0.992079 36:-0.976527 37:-0.983836 38:-0.971847 39:-0.96177 40:-0.986288 41:-0.975096 42:-0.97758 43:-0.970214 44:-0.955556 45:-0.927126 46:-0.926387 47:-0.864571 48:-0.842959 49:-0.806496 50:-0.792115 51:-0.862471 52:-0.940191 53:-0.924528 54:-0.912446 55:-0.910638 56:-0.925391 57:-0.965686 58:-0.982833 59:-1 60:-0.975358 61:-0.912149 
0.6200182447523409 1:-0.915127 2:-0.926369 3:-0.905217 4:-0.208817 5:0.0667773 6:-0.995615 7:0.233894 8:-0.993156 9:-0.998073 10:-0.440142 11:0.58763 12:-0.997906 13:-0.180069 14:-0.997875 15:-0.968084 16:-0.961781 17:-0.962214 18:-0.917261 19:-0.920921 20:-0.881404 21:-0.91309 22:-0.861768 23:-0.919966 24:-0.873443 25:-0.921206 26:-0.870454 27:-0.921246 28:-0.898747 29:-0.925781 30:-0.897561 31:-0.933425 32:-0.953908 33:-0.946777 34:-0.980863 35:-0.995608 36:-0.989364 37:-0.99102 38:-0.986664 39:-0.977481 40:-0.98194 41:-0.985058 42:-0.981146 43:-0.962147 44:-0.919622 45:-0.903991 46:-0.887882 47:-0.882709 48:-0.900065 49:-0.929509 50:-0.938351 51:-0.983683 52:-0.970096 53:-0.974473 54:-0.948498 55:-0.93617 56:-0.87485 57:-0.833333 58:-0.716738 59:-0.859155 60:-0.975475 61:-0.911881 
0.506594334207916 1:-0.886435 2:-0.939534 3:-0.941301 4:-0.154195 5:0.093696 6:-0.956805 7:0.276374 8:-0.929325 9:-0.995463 10:-0.440087 11:0.587794 12:-0.994517 13:-0.179965 14:-0.994554 15:-0.790974 16:-0.932538 17:-0.830932 18:-0.903447 19:-0.875534 20:-0.927422 21:-0.903203 22:-0.943021 23:-0.916801 24:-0.926161 25:-0.925159 26:-0.890969 27:-0.925914 28:-0.909743 29:-0.9328 30:-0.913067 31:-0.906929 32:-0.951264 33:-0.946645 34:-0.951587 35:-0.990667 36:-0.986063 37:-0.98623 38:-0.977403 39:-0.972244 40:-0.98796 41:-0.978719 42:-0.975032 43:-0.963388 44:-0.944208 45:-0.915558 46:-0.903737 47:-0.899637 48:-0.889682 49:-0.876987 50:-0.827957 51:-0.867133 52:-0.874402 53:-0.896781 54:-0.896996 55:-0.951064 56:-0.959085 57:-0.936275 58:-0.862661 59:-0.830986 60:-0.980214 61:-0.928959 
0.6170518623372669 1:-0.887636 2:-0.919169 3:-0.91518 4:-0.146814 5:0.102328 6:-0.958652 7:0.275337 8:-0.929906 9:-0.997775 10:-0.440069 11:0.587422 12:-0.99423 13:-0.180026 14:-0.994748 15:-0.900872 16:-0.88472 17:-0.937566 18:-0.886244 19:-0.9446 20:-0.866725 21:-0.952447 22:-0.881738 23:-0.932556 24:-0.870655 25:-0.917539 26:-0.905725 27:-0.922286 28:-0.955408 29:-0.913167 30:-0.963837 31:-0.902723 32:-0.941246 33:-0.944473 34:-0.940751 35:-0.989569 36:-0.981111 37:-0.987029 38:-0.975551 39:-0.978005 40:-0.988963 41:-0.981435 42:-0.974522 43:-0.973317 44:-0.968794 45:-0.95026 46:-0.930917 47:-0.931076 48:-0.924724 49:-0.897719 50:-0.888172 51:-0.881119 52:-0.861244 53:-0.859046 54:-0.828326 55:-0.817021 56:-0.90373 57:-0.901961 58:-0.888412 59:-0.746479 60:-0.976502 61:-0.919726 
