svm_type c_svc
kernel_type rbf
gamma 0.125
nr_class 2
total_sv 54
rho 6.89324
label 1 -1
nr_sv 26 28
SV
52.10057610723717 1:-0.87756 2:-0.963253 3:-0.908598 4:-0.266868 5:0.303757 6:-0.981258 7:0.304501 8:-0.591624 9:-0.997145 10:-0.0849004 11:-0.1487 12:-0.995296 13:-0.175319 14:-0.995533 15:-0.914286 16:-0.899029 17:-0.964521 18:-0.909185 19:-0.963281 20:-0.94698 21:-0.948231 22:-0.950186 23:-0.912776 24:-0.806593 25:-0.929124 26:-0.743206 27:-0.931469 28:-0.777794 29:-0.942862 30:-0.838467 31:-0.929142 32:-0.840564 33:-0.923774 34:-0.938876 35:-0.969506 36:-0.976076 37:-0.955354 38:-0.719141 39:-0.812436 40:-0.943689 41:-0.967742 42:-0.984901 43:-0.983715 44:-0.975073 45:-0.978979 46:-0.983553 47:-0.986992 48:-0.987988 49:-0.976699 50:-0.995098 51:-0.980328 52:-0.985019 53:-0.983539 54:-0.976285 55:-0.958974 56:-0.9875 57:-0.913043 58:-0.931034 59:-0.851852 60:-0.955216 61:-0.852196 
49.66908921185327 1:-0.868188 2:-0.951325 3:-0.901756 4:-0.26775 5:0.291055 6:-0.983745 7:0.289016 8:-0.709334 9:-0.996328 10:-0.0420205 11:0.250615 12:-0.996735 13:-0.175852 14:-0.996749 15:-0.936137 16:-0.890866 17:-0.906483 18:-0.914151 19:-0.94538 20:-0.841697 21:-0.941766 22:-0.874129 23:-0.924878 24:-0.882027 25:-0.901517 26:-0.720412 27:-0.908208 28:-0.825522 29:-0.914761 30:-0.810272 31:-0.908907 32:-0.821454 33:-0.890297 34:-0.924922 35:-0.974816 36:-0.981537 37:-0.975318 38:-0.733453 39:-0.785933 40:-0.912621 41:-0.923195 42:-0.973287 43:-0.977608 44:-0.950147 45:-0.93994 46:-0.934211 47:-0.938211 48:-0.933934 49:-0.953398 50:-0.970588 51:-0.934426 52:-0.970037 53:-0.99177 54:-0.976285 55:-0.969231 56:-0.925 57:-0.895652 58:-0.885057 59:-0.62963 60:-0.940619 61:-0.765368 
0.7976018844012134 1:-0.767667 2:-0.865511 3:-0.756061 4:-0.247257 5:0.33593 6:-0.982748 7:0.285544 8:-0.752368 9:-0.987148 10:-0.0842549 11:0.118181 12:-0.989074 13:-0.176201 14:-0.989232 15:-0.893474 16:-0.879655 17:-0.907568 18:-0.874631 19:-0.896974 20:-0.89477 21:-0.912638 22:-0.804066 23:-0.907399 24:-0.611779 25:-0.903504 26:-0.601811 27:-0.942004 28:-0.56759 29:-0.945664 30:-0.59919 31:-0.953341 32:-0.693601 33:-0.908364 34:-0.91148 35:-0.983464 36:-0.981017 37:-0.96225 38:-0.644007 39:-0.51682 40:-0.817476 41:-0.924731 42:-0.945412 43:-0.957252 44:-0.931085 45:-0.876877 46:-0.838816 47:-0.80813 48:-0.795796 49:-0.67767 50:-0.568627 51:-0.593443 52:-0.782772 53:-0.884774 54:-0.928854 55:-0.876923 56:-0.95 57:-0.878261 58:-0.83908 59:-0.481481 60:-0.932543 61:-0.637321 
33.70522962108332 1:-0.975814 2:-0.506616 3:-0.126606 4:-0.204341 5:0.547128 6:-0.985383 7:0.296315 8:-0.595989 9:-0.999858 10:-0.0858234 11:0.112791 12:-0.999547 13:-0.175967 14:-0.999573 15:-0.979334 16:-0.956953 17:-0.992097 18:-0.964507 19:-0.972776 20:-0.927523 21:-0.983349 22:-0.941443 23:-0.987564 24:-0.942958 25:-0.96462 26:-0.915879 27:-0.9814 28:-0.90034 29:-0.963979 30:-0.950986 31:-0.964844 32:-0.974089 33:-0.937161 34:-0.984762 35:-0.999848 36:-0.996099 37:-0.985118 38:-0.940966 39:-0.973496 40:-0.982524 41:-0.989247 42:-0.993031 43:-0.988804 44:-0.994135 45:-0.996997 46:-0.986842 47:-0.993496 48:-1 49:-0.992233 50:-1 51:-0.993443 52:-0.992509 53:-0.967078 54:-0.98419 55:-0.979487 56:-0.9875 57:-0.965217 58:-0.977011 59:-1 60:-0.972422 61:-0.846888 
26.015781152437 1:-0.862444 2:-0.42337 3:-0.520927 4:0.128639 5:0.373418 6:-0.466427 7:0.496911 8:-0.800972 9:-0.993087 10:-0.0838375 11:0.114559 12:-0.993457 13:-0.158675 14:-0.993711 15:-0.960279 16:-0.846957 17:-0.943703 18:-0.748031 19:-0.939487 20:-0.839302 21:-0.916185 22:-0.911098 23:-0.872373 24:-0.793331 25:-0.827274 26:-0.864568 27:-0.828706 28:-0.903216 29:-0.840616 30:-0.916122 31:-0.868017 32:-0.890993 33:-0.938791 34:-0.954072 35:-0.998028 36:-0.982577 37:-0.957895 38:-0.846154 39:-0.898063 40:-0.951456 41:-0.966206 42:-0.965157 43:-0.97659 44:-0.956012 45:-0.921922 46:-0.917763 47:-0.876423 48:-0.84985 49:-0.798058 50:-0.740196 51:-0.678689 52:-0.670412 53:-0.670782 54:-0.786561 55:-0.784615 56:-0.825 57:-0.982609 58:-0.862069 59:-0.62963 60:-0.91722 61:-0.440632 
17.34788209403776 1:-0.920339 2:-0.141741 3:-0.594444 4:0.263658 5:0.299866 6:0.0783902 7:0.474622 8:-0.918554 9:-0.996359 10:-0.0837506 11:0.11223 12:-0.998711 13:-0.17598 14:-0.998503 15:-0.983549 16:-0.925919 17:-0.970057 18:-0.947867 19:-0.892479 20:-0.826973 21:-0.867949 22:-0.829651 23:-0.836183 24:-0.900653 25:-0.829046 26:-0.908697 27:-0.847416 28:-0.91827 29:-0.865348 30:-0.911167 31:-0.950032 32:-0.940024 33:-0.973706 34:-0.978793 35:-0.999848 36:-0.995319 37:-0.993466 38:-0.976744 39:-0.963303 40:-0.963107 41:-0.963134 42:-0.977933 43:-0.970483 44:-0.928152 45:-0.861862 46:-0.766447 47:-0.837398 48:-0.795796 49:-0.875728 50:-0.852941 51:-0.934426 52:-0.940075 53:-0.975309 54:-0.98419 55:-0.989744 56:-0.9875 57:-1 58:-1 59:-1 60:-0.938596 61:-0.299944 
6.757792077562439 1:-0.938327 2:0.236364 3:-0.559554 4:0.429235 5:0.291584 6:0.657647 7:0.498223 8:-0.9365 9:-0.997442 10:-0.0841266 11:0.113088 12:-0.99921 13:-0.175867 14:-0.999036 15:-0.89851 16:-0.784282 17:-0.88821 18:-0.796951 19:-0.904275 20:-0.875525 21:-0.887488 22:-0.80112 23:-0.873981 24:-0.776787 25:-0.868743 26:-0.813233 27:-0.877325 28:-0.822771 29:-0.880411 30:-0.867122 31:-0.946056 32:-0.961445 33:-0.953255 34:-0.990761 35:-0.999697 36:-0.99818 37:-0.997096 38:-0.971377 39:-0.946993 40:-0.908738 41:-0.88172 42:-0.910569 43:-0.9257 44:-0.941349 45:-0.945946 46:-0.960526 47:-0.993496 48:-0.990991 49:-0.996117 50:-0.995098 51:-1 52:-1 53:-0.99177 54:-1 55:-1 56:-1 57:-1 58:-1 59:-1 60:-0.944304 61:-0.240349 
5.734565747153245 1:-0.873177 2:-0.403068 3:-0.279588 4:0.113455 5:0.454432 6:-0.6697 7:0.477671 8:-0.726633 9:-0.993214 10:-0.0845652 11:0.113109 12:-0.991665 13:-0.176956 14:-0.991873 15:-0.893425 16:-0.545477 17:-0.923146 18:-0.606887 19:-0.961194 20:-0.733089 21:-0.930893 22:-0.910522 23:-0.926767 24:-0.828651 25:-0.901769 26:-0.816029 27:-0.896368 28:-0.889672 29:-0.928064 30:-0.923355 31:-0.909472 32:-0.910849 33:-0.89789 34:-0.938674 35:-0.997876 36:-0.982317 37:-0.941924 38:-0.821109 39:-0.900102 40:-0.957282 41:-0.952381 42:-0.95935 43:-0.948092 44:-0.934018 45:-0.834835 46:-0.858553 47:-0.856911 48:-0.888889 49:-0.879612 50:-0.887255 51:-0.888525 52:-0.940075 53:-0.975309 54:-0.976285 55:-0.979487 56:-1 57:-0.982609 58:-1 59:-1 60:-0.919534 61:-0.493083 
1.974627609143584 1:-0.830549 2:-0.409582 3:-0.149027 4:0.0219248 5:0.435176 6:-0.830597 7:0.382047 8:-0.80005 9:-0.989245 10:-0.087523 11:0.105849 12:-0.990927 13:-0.176214 14:-0.991065 15:-0.909628 16:-0.565385 17:-0.941036 18:-0.709469 19:-0.955478 20:-0.823162 21:-0.92204 22:-0.853922 23:-0.860114 24:-0.651356 25:-0.849167 26:-0.607887 27:-0.842263 28:-0.657747 29:-0.841915 30:-0.736092 31:-0.878038 32:-0.809089 33:-0.926567 34:-0.936549 35:-0.998179 36:-0.989078 37:-0.972414 38:-0.783542 39:-0.798165 40:-0.862136 41:-0.921659 42:-0.955865 43:-0.970483 44:-0.967742 45:-0.897898 46:-0.868421 47:-0.856911 48:-0.777778 49:-0.693204 50:-0.558824 51:-0.47541 52:-0.490637 53:-0.82716 54:-0.881423 55:-0.907692 56:-0.9625 57:-0.965217 58:-0.954023 59:-0.851852 60:-0.928158 61:-0.481746 
1.749241504712699 1:-0.809841 2:-0.519502 3:-0.237832 4:-0.0568752 5:0.43013 6:-0.891579 7:0.356428 8:-0.786049 9:-0.988882 10:-0.0854094 11:0.114229 12:-0.98965 13:-0.175649 14:-0.989894 15:-0.90973 16:-0.559851 17:-0.944516 18:-0.705241 19:-0.943396 20:-0.734008 21:-0.936268 22:-0.747896 23:-0.849206 24:-0.706945 25:-0.872571 26:-0.677906 27:-0.885142 28:-0.65978 29:-0.885216 30:-0.652711 31:-0.913635 32:-0.773312 33:-0.925239 34:-0.946931 35:-0.985284 36:-0.907684 37:-0.943013 38:-0.88551 39:-0.663609 40:-0.454369 41:-0.831029 42:-0.976771 43:-0.991858 44:-0.997067 45:-0.993994 46:-1 47:-1 48:-1 49:-1 50:-1 51:-1 52:-1 53:-1 54:-1 55:-1 56:-1 57:-1 58:-1 59:-1 60:-0.927872 61:-0.504811 
24.2022294952098 1:-0.790794 2:-0.551009 3:-0.285773 4:-0.0826941 5:0.416029 6:-0.907269 7:0.34386 8:-0.79489 9:-0.984129 10:-0.0832059 11:0.118956 12:-0.98902 13:-0.175229 14:-0.989351 15:-0.84698 16:-0.588722 17:-0.877087 18:-0.681038 19:-0.920986 20:-0.740081 21:-0.866955 22:-0.714866 23:-0.873689 24:-0.673114 25:-0.87913 26:-0.642938 27:-0.856577 28:-0.569534 29:-0.892964 30:-0.608179 31:-0.920145 32:-0.757345 33:-0.899451 34:-0.926848 35:-0.922931 36:-0.932389 37:-0.856261 38:-0.633274 39:-0.96738 40:-0.998058 41:-1 42:-1 43:-1 44:-0.998534 45:-1 46:-1 47:-1 48:-1 49:-1 50:-1 51:-1 52:-1 53:-1 54:-1 55:-1 56:-1 57:-1 58:-1 59:-1 60:-0.916732 61:-0.52952 
2.23306318871631 1:-0.78369 2:-0.700422 3:-0.523343 4:-0.157275 5:0.38799 6:-0.9392 7:0.32938 8:-0.766931 9:-0.987024 10:-0.0845942 11:0.114236 12:-0.988086 13:-0.176671 14:-0.988359 15:-0.864554 16:-0.843991 17:-0.863636 18:-0.814812 19:-0.942122 20:-0.777685 21:-0.956146 22:-0.744696 23:-0.927101 24:-0.629913 25:-0.945457 26:-0.586798 27:-0.944389 28:-0.580607 29:-0.949384 30:-0.590454 31:-0.939816 32:-0.717881 33:-0.911642 34:-0.95357 35:-0.995904 36:-0.981537 37:-0.957895 38:-0.774597 39:-0.720693 40:-0.825243 41:-0.884793 42:-0.918699 43:-0.968448 44:-0.973607 45:-0.894895 46:-0.838816 47:-0.756098 48:-0.774775 49:-0.631068 50:-0.553922 51:-0.455738 52:-0.423221 53:-0.703704 54:-0.802372 55:-0.907692 56:-0.875 57:-0.878261 58:-0.908046 59:-0.851852 60:-0.927427 61:-0.5381 
85.7371402347392 1:-0.801829 2:-0.808496 3:-0.694893 4:-0.199839 5:0.326296 6:-0.952533 7:0.306131 8:-0.83033 9:-0.990702 10:-0.0836518 11:0.114068 12:-0.991093 13:-0.175901 14:-0.990936 15:-0.964785 16:-0.910656 17:-0.933706 18:-0.813722 19:-0.965178 20:-0.811682 21:-0.962856 22:-0.636993 23:-0.956676 24:-0.622765 25:-0.958246 26:-0.614428 27:-0.944901 28:-0.611847 29:-0.951054 30:-0.624447 31:-0.931651 32:-0.703903 33:-0.912346 34:-0.946674 35:-0.991201 36:-0.983357 37:-0.966243 38:-0.729875 39:-0.751274 40:-0.831068 41:-0.920123 42:-0.968641 43:-0.939949 44:-0.907625 45:-0.720721 46:-0.723684 47:-0.79187 48:-0.786787 49:-0.739806 50:-0.602941 51:-0.829508 52:-0.812734 53:-0.917695 54:-0.928854 55:-0.938462 56:-0.975 57:-1 58:-1 59:-1 60:-0.931035 61:-0.557014 
14.42916148176501 1:-0.788376 2:-0.92411 3:-0.880728 4:-0.242142 5:0.306811 6:-0.957113 7:0.329286 8:-0.665369 9:-0.98157 10:-0.0848073 11:0.114666 12:-0.989982 13:-0.175915 14:-0.990145 15:-0.772132 16:-0.783812 17:-0.833688 18:-0.77809 19:-0.854225 20:-0.768926 21:-0.872781 22:-0.845462 23:-0.881175 24:-0.612191 25:-0.875417 26:-0.61025 27:-0.920187 28:-0.601572 29:-0.920195 30:-0.763179 31:-0.914474 32:-0.785052 33:-0.920076 34:-0.922795 35:-0.970416 36:-0.972695 37:-0.946279 38:-0.534884 39:-0.80632 40:-0.88932 41:-0.88172 42:-0.925668 43:-0.945038 44:-0.926686 45:-0.816817 46:-0.851974 47:-0.837398 48:-0.84985 49:-0.906796 50:-0.916667 51:-0.947541 52:-0.917603 53:-0.934156 54:-0.944664 55:-0.979487 56:-0.9 57:-0.947826 58:-0.931034 59:-0.925926 60:-0.938521 61:-0.712293 
125.3158877868608 1:-0.831305 2:-0.945209 3:-0.903242 4:-0.249954 5:0.2984 6:-0.960256 7:0.329089 8:-0.64971 9:-0.992901 10:-0.0848715 11:0.113636 12:-0.993074 13:-0.173942 14:-0.993098 15:-0.877999 16:-0.873705 17:-0.859897 18:-0.848478 19:-0.893942 20:-0.82246 21:-0.940917 22:-0.85935 23:-0.936806 24:-0.801413 25:-0.906072 26:-0.784181 27:-0.908582 28:-0.808153 29:-0.903935 30:-0.804528 31:-0.917214 32:-0.856472 33:-0.924568 34:-0.968218 35:-0.957218 36:-0.950592 37:-0.931397 38:-0.797853 39:-0.85525 40:-0.920388 41:-0.949309 42:-0.969803 43:-0.972519 44:-0.939883 45:-0.882883 46:-0.911184 47:-0.947967 48:-0.990991 49:-0.980583 50:-0.995098 51:-1 52:-0.985019 53:-0.983539 54:-0.98419 55:-0.989744 56:-0.95 57:-1 58:-0.908046 59:-1 60:-0.950004 61:-0.818643 
128 1:-0.960245 2:-0.953608 3:-0.92082 4:-0.256204 5:0.275503 6:-0.962921 7:0.314375 8:-0.736224 9:-0.999879 10:-0.12248 11:0.112859 12:-0.998561 13:-0.175692 14:-0.998648 15:-0.988525 16:-0.942584 17:-0.98102 18:-0.95806 19:-0.988264 20:-0.931437 21:-0.994967 22:-0.962636 23:-0.995382 24:-0.977322 25:-0.973434 26:-0.941543 27:-0.975602 28:-0.940247 29:-0.973974 30:-0.926924 31:-0.967985 32:-0.929964 33:-0.956399 34:-0.968645 35:-0.991656 36:-0.975296 37:-0.986933 38:-0.974955 39:-0.979613 40:-0.98835 41:-0.986175 42:-0.993031 43:-0.997964 44:-0.989736 45:-0.990991 46:-0.993421 47:-0.98374 48:-0.987988 49:-1 50:-0.990196 51:-0.993443 52:-0.992509 53:-0.983539 54:-0.992095 55:-0.979487 56:-0.9875 57:-0.982609 58:-0.977011 59:-1 60:-0.985651 61:-0.967009 
128 1:-0.938327 2:-0.942974 3:-0.920308 4:-0.250489 5:0.284674 6:-0.95497 7:0.329768 8:-0.690223 9:-0.998937 10:-0.0838085 11:0.11268 12:-0.999052 13:-0.17383 14:-0.999056 15:-0.962692 16:-0.786301 17:-0.951627 18:-0.853001 19:-0.95431 20:-0.86746 21:-0.959319 22:-0.82333 23:-0.957793 24:-0.864527 25:-0.965082 26:-0.946497 27:-0.969765 28:-0.813553 29:-0.969169 30:-0.837668 31:-0.974683 32:-0.921468 33:-0.974154 34:-0.968078 35:-0.98407 36:-0.984917 37:-0.97931 38:-0.889088 39:-0.885831 40:-0.947573 41:-0.984639 42:-0.993031 43:-0.998982 44:-0.995601 45:-0.993994 46:-0.993421 47:-0.990244 48:-1 49:-0.996117 50:-0.990196 51:-0.993443 52:-0.985019 53:-0.983539 54:-0.98419 55:-0.989744 56:-0.9625 57:-0.947826 58:-0.954023 59:-1 60:-0.963559 61:-0.885432 
128 1:-0.912932 2:-0.942974 3:-0.915523 4:-0.248233 5:0.307563 6:-0.952524 7:0.354751 8:-0.534899 9:-0.998664 10:-0.0837019 11:0.113087 12:-0.997473 13:-0.175439 14:-0.997578 15:-0.954648 16:-0.941469 17:-0.969655 18:-0.922795 19:-0.942784 20:-0.802829 21:-0.938908 22:-0.803556 23:-0.943568 24:-0.869948 25:-0.952918 26:-0.804491 27:-0.955107 28:-0.895087 29:-0.969288 30:-0.820132 31:-0.967236 32:-0.897929 33:-0.973641 34:-0.968078 35:-0.97694 36:-0.969575 37:-0.966243 38:-0.874776 39:-0.875637 40:-0.939806 41:-0.980031 42:-0.989547 43:-0.997964 44:-0.992669 45:-0.993994 46:-0.993421 47:-0.990244 48:-1 49:-0.996117 50:-0.990196 51:-0.993443 52:-0.985019 53:-0.983539 54:-0.98419 55:-0.989744 56:-0.9625 57:-0.947826 58:-0.954023 59:-1 60:-0.967678 61:-0.901504 
80.03348690495416 1:-0.963873 2:-0.202913 3:0.276061 4:-0.124347 5:0.547902 6:-0.966488 7:0.312312 8:-0.722002 9:-0.999702 10:-0.0840741 11:0.112821 12:-0.998815 13:-0.17604 14:-0.998876 15:-0.983367 16:-0.929067 17:-0.977828 18:-0.973957 19:-0.966839 20:-0.94392 21:-0.974223 22:-0.943669 23:-0.984221 24:-0.929249 25:-0.98082 26:-0.88247 27:-0.970746 28:-0.868269 29:-0.970108 30:-0.876192 31:-0.954731 32:-0.868583 33:-0.960723 34:-0.940017 35:-0.999241 36:-0.99766 37:-0.994555 38:-0.969589 39:-0.969419 40:-0.953398 41:-0.981567 42:-0.984901 43:-0.988804 44:-0.973607 45:-0.978979 46:-0.967105 47:-0.95122 48:-0.96997 49:-0.945631 50:-0.970588 51:-0.940984 52:-0.932584 53:-0.958848 54:-0.976285 55:-0.948718 56:-0.975 57:-0.913043 58:-0.931034 59:-1 60:-0.9767 61:-0.793643 
17.05174746981401 1:-0.841433 2:-0.492584 3:-0.393999 4:0.0652946 5:0.42266 6:-0.69289 7:0.459045 8:-0.746033 9:-0.987262 10:-0.0831521 11:0.114041 12:-0.990866 13:-0.175734 14:-0.990938 15:-0.936019 16:-0.248227 17:-0.951936 18:-0.561785 19:-0.963413 20:-0.645096 21:-0.898615 22:-0.763632 23:-0.85199 24:-0.668204 25:-0.824381 26:-0.774491 27:-0.8233 28:-0.849348 29:-0.850511 30:-0.898544 31:-0.874215 32:-0.851685 33:-0.920933 34:-0.938456 35:-0.996511 36:-0.978156 37:-0.935753 38:-0.762075 39:-0.896024 40:-0.945631 41:-0.969278 42:-0.968641 43:-0.964377 44:-0.957478 45:-0.894895 46:-0.881579 47:-0.798374 48:-0.888889 49:-0.76699 50:-0.745098 51:-0.744262 52:-0.730337 53:-0.604938 54:-0.897233 55:-0.866667 56:-0.925 57:-0.947826 58:-0.954023 59:-0.777778 60:-0.925797 61:-0.524601 
14.2271929614497 1:-0.918071 2:-0.181414 3:-0.577348 4:0.252974 5:0.305141 6:-0.00341554 7:0.471718 8:-0.913903 9:-0.996614 10:-0.0841659 11:0.112556 12:-0.998486 13:-0.175893 14:-0.998327 15:-0.937837 16:-0.909935 17:-0.927492 18:-0.877175 19:-0.887367 20:-0.919109 21:-0.85202 22:-0.914635 23:-0.844143 24:-0.938761 25:-0.835504 26:-0.933664 27:-0.849635 28:-0.939926 29:-0.861232 30:-0.940458 31:-0.966846 32:-0.952119 33:-0.943482 34:-0.964366 35:-0.999697 36:-0.996619 37:-0.989837 38:-0.957066 39:-0.95107 40:-0.963107 41:-0.976959 42:-0.974448 43:-0.979644 44:-0.967742 45:-0.912913 46:-0.828947 47:-0.795122 48:-0.813814 49:-0.724272 50:-0.784314 51:-0.87541 52:-0.962547 53:-0.967078 54:-0.960474 55:-0.989744 56:-0.9875 57:-1 58:-1 59:-1 60:-0.933648 61:-0.298655 
5.50334863789985 1:-0.810747 2:-0.584396 3:-0.457252 4:-0.0225718 5:0.405346 6:-0.801342 7:0.410815 8:-0.754215 9:-0.984035 10:-0.0848404 11:0.112009 12:-0.989001 13:-0.175735 14:-0.989387 15:-0.927801 16:-0.258826 17:-0.927279 18:-0.553341 19:-0.948605 20:-0.662301 21:-0.887607 22:-0.823329 23:-0.870804 24:-0.650031 25:-0.833797 26:-0.741967 27:-0.836035 28:-0.823179 29:-0.818191 30:-0.860248 31:-0.859382 32:-0.862267 33:-0.900404 34:-0.941755 35:-0.998331 36:-0.985177 37:-0.962613 38:-0.695886 39:-0.747197 40:-0.871845 41:-0.930876 42:-0.95935 43:-0.960305 44:-0.953079 45:-0.837838 46:-0.822368 47:-0.77561 48:-0.726727 49:-0.607767 50:-0.495098 51:-0.698361 52:-0.88015 53:-0.884774 54:-0.952569 55:-0.907692 56:-0.95 57:-0.895652 58:-1 59:-1 60:-0.926462 61:-0.510522 
128 1:-0.973093 2:-0.723125 3:-0.556141 4:-0.261151 5:0.590045 6:-0.995111 7:0.290621 8:-0.00325721 9:-0.99985 10:-0.084003 11:0.11285 12:-0.999789 13:-0.175882 14:-0.999792 15:-0.983239 16:-0.839591 17:-0.973587 18:-0.848253 19:-0.971968 20:-0.880279 21:-0.979943 22:-0.901989 23:-0.982084 24:-0.896052 25:-0.977608 26:-0.866789 27:-0.979773 28:-0.878126 29:-0.98399 30:-0.952534 31:-0.979151 32:-0.990171 33:-0.985139 34:-0.995131 35:-0.995145 36:-0.977116 37:-0.990926 38:-0.985689 39:-0.993884 40:-0.986408 41:-0.996928 42:-0.995354 43:-0.995929 44:-0.995601 45:-0.996997 46:-1 47:-1 48:-0.996997 49:-1 50:-1 51:-0.993443 52:-1 53:-0.99177 54:-1 55:-1 56:-1 57:-0.982609 58:-1 59:-1 60:-0.974808 61:-0.915814 
4.119601465534521 1:-0.752551 2:-0.825057 3:-0.696305 4:-0.229571 5:0.360528 6:-0.97559 7:0.298478 8:-0.721493 9:-0.976696 10:-0.0842239 11:0.116166 12:-0.985593 13:-0.175405 14:-0.986253 15:-0.773249 16:-0.794471 17:-0.851779 18:-0.886326 19:-0.842027 20:-0.869001 21:-0.884789 22:-0.741564 23:-0.940023 24:-0.528545 25:-0.939709 26:-0.506702 27:-0.949738 28:-0.559836 29:-0.951161 30:-0.624758 31:-0.941821 32:-0.744578 33:-0.922255 34:-0.938684 35:-0.979367 36:-0.977116 37:-0.965517 38:-0.579606 39:-0.606524 40:-0.854369 41:-0.927803 42:-0.961672 43:-0.963359 44:-0.920821 45:-0.795796 46:-0.776316 47:-0.765854 48:-0.807808 49:-0.774757 50:-0.637255 51:-0.44918 52:-0.498127 53:-0.786008 54:-0.857708 55:-0.835897 56:-0.8125 57:-0.826087 58:-0.885057 59:-0.777778 60:-0.929415 61:-0.619436 
12.6671126502259 1:-0.842038 2:-0.929794 3:-0.894073 4:-0.249529 5:0.273744 6:-0.964186 7:0.298786 8:-0.816072 9:-0.99175 10:-0.0844385 11:0.112179 12:-0.996517 13:-0.17614 14:-0.996251 15:-0.966572 16:-0.87526 17:-0.949719 18:-0.854227 19:-0.928114 20:-0.872786 21:-0.916376 22:-0.5873 23:-0.900216 24:-0.547822 25:-0.902445 26:-0.569136 27:-0.913191 28:-0.75417 29:-0.913331 30:-0.799422 31:-0.908855 32:-0.785766 33:-0.939596 34:-0.922369 35:-0.992111 36:-0.988038 37:-0.971325 38:-0.717352 39:-0.771662 40:-0.866019 41:-0.90937 42:-0.937282 43:-0.948092 44:-0.920821 45:-0.792793 46:-0.802632 47:-0.843902 48:-0.855856 49:-0.92233 50:-0.916667 51:-0.947541 52:-0.940075 53:-0.909465 54:-0.952569 55:-0.969231 56:-0.925 57:-0.930435 58:-0.862069 59:-1 60:-0.945057 61:-0.67618 
11.9259904113938 1:-0.852921 2:-0.945928 3:-0.905222 4:-0.252407 5:0.291104 6:-0.963756 7:0.319377 8:-0.69089 9:-0.995779 10:-0.0848508 11:0.111104 12:-0.994654 13:-0.174682 14:-0.994922 15:-0.957803 16:-0.856363 17:-0.960165 18:-0.922853 19:-0.898131 20:-0.861502 21:-0.910308 22:-0.878295 23:-0.919976 24:-0.784118 25:-0.911129 26:-0.737912 27:-0.911033 28:-0.824399 29:-0.916364 30:-0.824559 31:-0.907844 32:-0.835788 33:-0.916718 34:-0.948385 35:-0.969658 36:-0.981277 37:-0.957532 38:-0.63864 39:-0.730887 40:-0.918447 41:-0.958525 42:-0.968641 43:-0.978626 44:-0.956012 45:-0.954955 46:-0.914474 47:-0.957724 48:-0.960961 49:-0.961165 50:-0.960784 51:-0.986885 52:-0.970037 53:-0.958848 54:-0.98419 55:-0.979487 56:-0.9625 57:-0.965217 58:-0.977011 59:-1 60:-0.957939 61:-0.82722 
-95.31004517619074 1:-0.961303 2:-0.899825 3:-0.849704 4:-0.358657 5:0.348746 6:-0.969429 7:0.136999 8:-0.541145 9:-0.998935 10:-0.0838649 11:0.112672 12:-0.999698 13:-0.17588 14:-0.999619 15:-0.963291 16:-0.897169 17:-0.944794 18:-0.877321 19:-0.91408 20:-0.816719 21:-0.909644 22:-0.810673 23:-0.890308 24:-0.736761 25:-0.892916 26:-0.667248 27:-0.888911 28:-0.567756 29:-0.895584 30:-0.759776 31:-0.87589 32:-0.80722 33:-0.984585 34:-0.983209 35:-0.999241 36:-0.994799 37:-0.992377 38:-0.962433 39:-0.953109 40:-0.95534 41:-0.975422 42:-0.981417 43:-0.989822 44:-0.978006 45:-0.972973 46:-0.930921 47:-0.954472 48:-0.972973 49:-0.953398 50:-0.985294 51:-0.97377 52:-0.955056 53:-0.958848 54:-0.98419 55:-1 56:-0.9625 57:-0.982609 58:-1 59:-1 60:-0.991469 61:-0.950036 
-35.63802087787705 1:-0.995012 2:-0.900147 3:-0.863692 4:-0.368942 5:0.278294 6:-0.954139 7:0.164858 8:-0.847439 9:-0.999987 10:-0.0839631 11:0.112792 12:-0.999996 13:-0.175878 14:-0.999996 15:-0.987741 16:-0.990053 17:-0.970062 18:-0.956491 19:-0.96653 20:-0.964813 21:-0.968083 22:-0.97469 23:-0.946728 24:-0.959173 25:-0.973284 26:-0.961683 27:-0.978244 28:-0.970385 29:-0.986149 30:-0.956513 31:-1 32:-1 33:-0.994306 34:-0.991754 35:-1 36:-1 37:-0.998911 38:-0.998211 39:-0.997961 40:-0.996117 41:-1 42:-0.998839 43:-0.997964 44:-0.995601 45:-0.984985 46:-0.990132 47:-0.990244 48:-0.990991 49:-0.996117 50:-0.990196 51:-0.993443 52:-0.992509 53:-0.99177 54:-0.992095 55:-0.989744 56:-1 57:-1 58:-0.977011 59:-1 60:-0.999442 61:-0.993615 
-5.989661897403165 1:-0.872723 2:-0.612258 3:-0.318183 4:-0.460037 5:0.548592 6:-0.947026 7:0.100128 8:-0.462358 9:-0.974954 10:-0.0836528 11:0.115788 12:-0.996359 13:-0.176216 14:-0.995684 15:-0.982763 16:-0.694003 17:-0.977497 18:-0.696419 19:-1 20:-1 21:-1 22:-1 23:-1 24:-1 25:-1 26:-1 27:-0.96715 28:-0.977126 29:-0.925248 30:-0.341942 31:-0.671693 32:-0.420804 33:-0.580627 34:-0.692918 35:-0.995145 36:-0.970095 37:-0.924864 38:-0.631485 39:-0.828746 40:-0.945631 41:-0.981567 42:-0.980256 43:-0.992875 44:-0.985337 45:-0.978979 46:-0.953947 47:-0.973984 48:-0.96997 49:-0.961165 50:-0.970588 51:-0.960656 52:-0.940075 53:-0.925926 54:-0.968379 55:-0.938462 56:-0.875 57:-0.686957 58:-0.885057 59:-0.555556 60:-0.928966 61:-0.708743 
-13.15777938507323 1:-0.95314 2:-0.937624 3:-0.88117 4:-0.329476 5:0.325271 6:-0.990462 7:0.182435 8:-0.581131 9:-0.998817 10:-0.0839199 11:0.112786 12:-0.999797 13:-0.175882 14:-0.999721 15:-0.939553 16:-0.97515 17:-0.919531 18:-0.981076 19:-0.900503 20:-0.760157 21:-0.883976 22:-0.744307 23:-0.871529 24:-0.719819 25:-0.855042 26:-0.888674 27:-0.954062 28:-0.972559 29:-0.97042 30:-0.977747 31:-0.962521 32:-0.975793 33:-0.980767 34:-0.993709 35:-0.97603 36:-0.988818 37:-0.995644 38:-0.980322 39:-0.991845 40:-0.992233 41:-0.984639 42:-0.99187 43:-0.992875 44:-0.98827 45:-0.990991 46:-0.986842 47:-0.980488 48:-0.987988 49:-0.98835 50:-0.980392 51:-0.967213 52:-0.955056 53:-0.967078 54:-0.98419 55:-0.979487 56:-0.975 57:-0.982609 58:-0.954023 59:-0.925926 60:-0.979021 61:-0.94909 
-2.18228149507158 1:-0.998488 2:-0.90933 3:-0.876824 4:-0.324847 5:0.368111 6:-0.993856 7:0.179302 8:-0.29921 9:-0.999997 10:-0.0839631 11:0.112792 12:-0.999999 13:-0.175877 14:-0.999999 15:-1 16:-1 17:-1 18:-1 19:-1 20:-1 21:-0.997251 22:-0.958892 23:-0.990614 24:-0.93279 25:-0.985061 26:-0.991752 27:-0.988582 28:-0.922603 29:-1 30:-1 31:-1 32:-1 33:-0.984257 34:-0.994574 35:-1 36:-0.99948 37:-0.998911 38:-1 39:-1 40:-0.996117 41:-0.998464 42:-1 43:-0.997964 44:-1 45:-0.996997 46:-1 47:-0.996748 48:-1 49:-1 50:-1 51:-1 52:-0.992509 53:-1 54:-1 55:-1 56:-1 57:-1 58:-1 59:-1 60:-0.994735 61:-0.983591 
-14.35472633378152 1:-0.885421 2:-0.900025 3:-0.806542 4:-0.349331 5:0.371082 6:-0.982807 7:0.161182 8:-0.527855 9:-0.993678 10:-0.0827393 11:0.112479 12:-0.997769 13:-0.175808 14:-0.997635 15:-0.919133 16:-0.834394 17:-0.933484 18:-0.86989 19:-1 20:-1 21:-1 22:-1 23:-0.93519 24:-0.632705 25:-0.755506 26:-0.484628 27:-0.7264 28:-0.522071 29:-0.984582 30:-0.96042 31:-0.980249 32:-0.963107 33:-0.960071 34:-0.980175 35:-0.982098 36:-0.986738 37:-0.98294 38:-0.93381 39:-0.938838 40:-0.953398 41:-0.949309 42:-0.962834 43:-0.972519 44:-0.964809 45:-0.936937 46:-0.934211 47:-0.905691 48:-0.915916 49:-0.91068 50:-0.852941 51:-0.744262 52:-0.64794 53:-0.736626 54:-0.794466 55:-0.876923 56:-0.8625 57:-0.86087 58:-0.816092 59:-0.703704 60:-0.961053 61:-0.801548 
-24.17319808943634 1:-0.948001 2:-0.607107 3:-0.354043 4:-0.422378 5:0.571147 6:-0.968224 7:0.119355 8:-0.369821 9:-0.996244 10:-0.0852312 11:0.113052 12:-0.998884 13:-0.178863 14:-0.998901 15:-0.963417 16:-0.719823 17:-0.978994 18:-0.725559 19:-1 20:-1 21:-1 22:-1 23:-1 24:-1 25:-1 26:-1 27:-1 28:-1 29:-1 30:-1 31:-0.950189 32:-0.679044 33:-0.798135 34:-0.832131 35:-0.998331 36:-0.991158 37:-0.976044 38:-0.887299 39:-0.932722 40:-0.953398 41:-0.980031 42:-0.990708 43:-0.988804 44:-0.986804 45:-0.981982 46:-0.980263 47:-0.977236 48:-0.981982 49:-0.968932 50:-0.97549 51:-0.960656 52:-0.947566 53:-0.983539 54:-0.952569 55:-0.958974 56:-0.95 57:-0.947826 58:-0.885057 59:-1 60:-0.946811 61:-0.749803 
-1.214334620058009 1:-0.962361 2:-0.607107 3:-0.350077 4:-0.42578 5:0.512476 6:-0.966743 7:0.135198 8:-0.558993 9:-0.99835 10:-0.0840407 11:0.112693 12:-0.999794 13:-0.175865 14:-0.999657 15:-0.986109 16:-0.670524 17:-0.989594 18:-0.626623 19:-0.971271 20:-0.657543 21:-0.962614 22:-0.646409 23:-0.968375 24:-0.665285 25:-0.962003 26:-0.620145 27:-0.850174 28:-0.661065 29:-0.873382 30:-0.635751 31:-0.848095 32:-0.669039 33:-0.839395 34:-0.856361 35:-0.998331 36:-0.991939 37:-0.97931 38:-0.894454 39:-0.936799 40:-0.96699 41:-0.990783 42:-0.994193 43:-0.993893 44:-0.994135 45:-0.990991 46:-0.990132 47:-0.990244 48:-1 49:-0.98835 50:-0.995098 51:-0.980328 52:-0.985019 53:-0.983539 54:-0.98419 55:-1 56:-0.975 57:-0.982609 58:-1 59:-1 60:-0.960296 61:-0.815048 
-18.43534311447673 1:-0.946187 2:-0.869843 3:-0.878003 4:-0.199643 5:0.372466 6:-0.882846 7:0.477357 8:-0.24042 9:-0.999419 10:-0.0841108 11:0.112949 12:-0.999078 13:-0.175921 14:-0.999123 15:-0.958788 16:-0.930935 17:-0.970116 18:-0.828461 19:-0.949972 20:-0.805282 21:-0.954004 22:-0.888368 23:-0.957659 24:-0.902776 25:-0.976979 26:-0.953944 27:-0.967882 28:-0.948273 29:-0.968458 30:-0.897139 31:-0.960022 32:-0.957341 33:-0.95854 34:-0.969877 35:-0.991352 36:-0.971135 37:-0.976407 38:-0.903399 39:-0.924567 40:-0.982524 41:-0.984639 42:-0.996516 43:-0.996947 44:-0.998534 45:-0.993994 46:-0.996711 47:-0.996748 48:-1 49:-1 50:-1 51:-0.993443 52:-0.992509 53:-1 54:-0.992095 55:-1 56:-1 57:-1 58:-0.977011 59:-0.925926 60:-0.982969 61:-0.935842 
-128 1:-0.946187 2:-0.869843 3:-0.878003 4:-0.199643 5:0.372466 6:-0.882846 7:0.477357 8:-0.24042 9:-0.999419 10:-0.0841108 11:0.112949 12:-0.999078 13:-0.175921 14:-0.999123 15:-0.958788 16:-0.930935 17:-0.970116 18:-0.828461 19:-0.949972 20:-0.805282 21:-0.954004 22:-0.888368 23:-0.957659 24:-0.902776 25:-0.976979 26:-0.953944 27:-0.967882 28:-0.948273 29:-0.968458 30:-0.897139 31:-0.960022 32:-0.957341 33:-0.95854 34:-0.969877 35:-0.991352 36:-0.971135 37:-0.976407 38:-0.903399 39:-0.924567 40:-0.982524 41:-0.984639 42:-0.996516 43:-0.996947 44:-0.998534 45:-0.993994 46:-0.996711 47:-0.996748 48:-1 49:-1 50:-1 51:-0.993443 52:-0.992509 53:-1 54:-0.992095 55:-1 56:-1 57:-1 58:-0.977011 59:-0.925926 60:-0.982969 61:-0.935842 
-44.72564089562977 1:-0.956164 2:-0.855046 3:-0.908972 4:-0.190189 5:0.194076 6:-0.81139 7:0.237962 8:-0.999667 9:-0.999748 10:-0.0838544 11:0.112804 12:-0.999278 13:-0.175979 14:-0.999312 15:-0.985846 16:-0.928681 17:-0.98602 18:-0.945664 19:-0.965412 20:-0.952488 21:-0.960733 22:-0.960235 23:-0.957964 24:-0.931639 25:-0.956046 26:-0.925953 27:-0.949409 28:-0.905686 29:-0.943911 30:-0.927752 31:-0.939775 32:-0.920555 33:-0.931564 34:-0.950025 35:-0.998028 36:-0.986738 37:-0.966243 38:-0.912343 39:-0.95107 40:-0.968932 41:-0.983103 42:-0.993031 43:-0.995929 44:-0.995601 45:-0.993994 46:-0.990132 47:-0.996748 48:-0.993994 49:-0.992233 50:-0.995098 51:-0.993443 52:-0.985019 53:-0.983539 54:-0.976285 55:-1 56:-1 57:-0.982609 58:-0.954023 59:-0.925926 60:-0.985359 61:-0.933784 
-32.68812666496117 1:-0.77855 2:-0.896267 3:-0.88396 4:-0.199699 5:0.271764 6:-0.855993 7:0.365772 8:-0.813792 9:-0.988772 10:-0.0751737 11:0.121834 12:-0.973246 13:-0.172066 14:-0.974593 15:-0.916495 16:-0.591034 17:-0.909525 18:-0.628486 19:-0.922699 20:-0.797587 21:-0.91896 22:-0.766657 23:-0.929296 24:-0.496085 25:-0.94123 26:-0.908353 27:-0.926964 28:-0.909614 29:-0.892272 30:-0.758401 31:-0.878855 32:-0.817026 33:-0.8642 34:-0.946161 35:-0.923083 36:-0.886101 37:-0.951724 38:-0.867621 39:-0.910296 40:-0.941748 41:-0.960061 42:-0.973287 43:-0.986768 44:-0.978006 45:-0.963964 46:-0.950658 47:-0.980488 48:-0.963964 49:-0.961165 50:-0.95098 51:-0.927869 52:-0.940075 53:-0.909465 54:-0.920949 55:-0.85641 56:-0.9 57:-0.704348 58:-0.678161 59:-0.481481 60:-0.915628 61:-0.78357 
-20.48913164697459 1:-0.792004 2:-0.899288 3:-0.901633 4:-0.211407 5:0.343166 6:-0.884372 7:0.460298 8:-0.32745 9:-0.987448 10:-0.0825344 11:0.112811 12:-0.995216 13:-0.175411 14:-0.994931 15:-0.85357 16:-0.633448 17:-0.853976 18:-0.620607 19:-0.857424 20:-0.688836 21:-0.862232 22:-0.826254 23:-0.899343 24:-0.822636 25:-0.874556 26:-0.825296 27:-0.879391 28:-0.807463 29:-0.88164 30:-0.768397 31:-0.876909 32:-0.753842 33:-0.959086 34:-0.963177 35:-0.912615 36:-0.920947 37:-0.957169 38:-0.812165 39:-0.889908 40:-0.920388 41:-0.926267 42:-0.961672 43:-0.977608 44:-0.969208 45:-0.954955 46:-0.967105 47:-0.986992 48:-0.990991 49:-0.996117 50:-0.985294 51:-0.986885 52:-0.970037 53:-0.99177 54:-0.98419 55:-0.989744 56:-0.925 57:-0.965217 58:-0.954023 59:-0.925926 60:-0.913532 61:-0.741267 
-0.4021268839814349 1:-0.911269 2:0.180686 3:0.218773 4:0.565316 5:0.808188 6:-0.157743 7:0.933162 8:-0.130609 9:-0.993263 10:-0.0815682 11:0.113216 12:-0.998726 13:-0.168741 14:-0.998176 15:-0.799329 16:-0.78585 17:-0.810851 18:-0.84511 19:-0.787832 20:-0.819987 21:-0.788026 22:-0.866305 23:-0.80503 24:-0.901365 25:-0.723936 26:-0.859192 27:-0.719398 28:-0.806703 29:-0.72975 30:-0.822551 31:-0.80611 32:-0.886116 33:-0.954111 34:-0.949955 35:-0.999848 36:-0.99974 37:-0.998911 38:-0.978533 39:-0.96738 40:-0.974757 41:-0.975422 42:-0.987224 43:-0.978626 44:-0.956012 45:-0.885886 46:-0.881579 47:-0.84065 48:-0.843844 49:-0.778641 50:-0.740196 51:-0.62623 52:-0.685393 53:-0.687243 54:-0.920949 55:-0.85641 56:-0.8375 57:-0.913043 58:-0.954023 59:-1 60:-0.967631 61:-0.552587 
-0.00129991510202917 1:-0.686343 2:-0.0753895 3:0.626838 4:0.0193893 5:0.567046 6:-0.910823 7:0.352333 8:-0.751826 9:-0.949918 10:-0.0873634 11:0.101568 12:-0.969147 13:-0.226302 14:-0.967547 15:-0.749232 16:-0.56194 17:-0.744298 18:-0.570683 19:-0.727171 20:-0.57297 21:-0.824276 22:-0.588001 23:-0.881519 24:-0.576986 25:-0.968539 26:-0.634096 27:-0.97696 28:-0.649197 29:-0.977207 30:-0.686013 31:-0.959691 32:-0.735968 33:-0.976142 34:-0.943507 35:-0.994083 36:-0.959693 37:-0.934301 38:-0.59034 39:-0.482161 40:-0.615534 41:-0.761905 42:-0.901278 43:-0.923664 44:-0.919355 45:-0.828829 46:-0.763158 47:-0.749593 48:-0.684685 49:-0.61165 50:-0.720588 51:-0.521311 52:-0.498127 53:-0.703704 54:-0.952569 55:-0.989744 56:-1 57:-1 58:-1 59:-0.925926 60:-0.857053 61:-0.0769709 
-4.110736944278454 1:-0.903711 2:0.174608 3:0.208299 4:0.563335 5:0.80262 6:-0.154035 7:0.931509 8:-0.137203 9:-0.992271 10:-0.0840438 11:0.113163 12:-0.998306 13:-0.175921 14:-0.997786 15:-0.799162 16:-0.787688 17:-0.789645 18:-0.742957 19:-0.786828 20:-0.6147 21:-0.773319 22:-0.597855 23:-0.749254 24:-0.890648 25:-0.713683 26:-0.798243 27:-0.716394 28:-0.808466 29:-0.813148 30:-0.807204 31:-0.965214 32:-0.876707 33:-0.980572 34:-0.963284 35:-0.999697 36:-0.99714 37:-0.994918 38:-0.973166 39:-0.96738 40:-0.943689 41:-0.955453 42:-0.970964 43:-0.971501 44:-0.953079 45:-0.870871 46:-0.799342 47:-0.814634 48:-0.861862 49:-0.801942 50:-0.735294 51:-0.718033 52:-0.790262 53:-0.802469 54:-0.905138 55:-0.917949 56:-0.9375 57:-0.913043 58:-0.954023 59:-1 60:-0.965232 61:-0.568773 
-47.86387400713931 1:-0.753307 2:-0.894347 3:-0.893326 4:-0.205679 5:0.312381 6:-0.869784 7:0.425118 8:-0.571672 9:-0.986196 10:-0.0797784 11:0.103081 12:-0.981635 13:-0.181182 14:-0.982502 15:-0.864106 16:-0.595013 17:-0.875416 18:-0.68984 19:-0.882406 20:-0.804304 21:-0.903538 22:-0.834195 23:-0.912357 24:-0.718573 25:-0.971675 26:-0.551303 27:-0.931607 28:-0.889889 29:-0.936057 30:-0.943522 31:-0.929562 32:-0.914133 33:-0.910979 34:-0.982218 35:-0.873322 36:-0.922247 37:-0.950272 38:-0.838998 39:-0.873598 40:-0.91068 41:-0.932412 42:-0.954704 43:-0.969466 44:-0.982405 45:-0.978979 46:-0.993421 47:-0.986992 48:-0.993994 49:-0.992233 50:-0.985294 51:-0.97377 52:-0.977528 53:-0.967078 54:-0.98419 55:-0.979487 56:-0.9625 57:-0.982609 58:-0.954023 59:-1 60:-0.924653 61:-0.785983 
-128 1:-0.947699 2:-0.855855 3:-0.909642 4:-0.190489 5:0.198532 6:-0.811558 7:0.246848 8:-0.998482 9:-0.99965 10:-0.0841525 11:0.112405 12:-0.999237 13:-0.17571 14:-0.999263 15:-0.97958 16:-0.949484 17:-0.978938 18:-0.972143 19:-0.957864 20:-0.905819 21:-0.945345 22:-0.91529 23:-0.948657 24:-0.955017 25:-0.94233 26:-0.94393 27:-0.936864 28:-0.929625 29:-0.943148 30:-0.902023 31:-0.966285 32:-0.969081 33:-0.948881 34:-0.989549 35:-0.987105 36:-0.963334 37:-0.988022 38:-0.976744 39:-0.971458 40:-0.976699 41:-0.984639 42:-0.995354 43:-0.992875 44:-0.994135 45:-0.990991 46:-0.986842 47:-0.990244 48:-0.987988 49:-0.996117 50:-0.990196 51:-0.986885 52:-0.992509 53:-0.99177 54:-0.98419 55:-1 56:-0.975 57:-1 58:-0.977011 59:-1 60:-0.957293 61:-0.862234 
-39.72849083056039 1:-0.977175 2:-0.714867 3:-0.570629 4:-0.162996 5:0.579048 6:-0.939395 7:0.43225 8:-0.0261206 9:-0.99989 10:-0.0839487 11:0.112739 12:-0.999852 13:-0.175893 14:-0.999855 15:-0.962633 16:-0.920138 17:-0.969579 18:-0.928631 19:-0.972031 20:-0.921232 21:-0.966622 22:-0.932535 23:-0.956367 24:-0.940348 25:-0.945747 26:-0.943527 27:-0.951749 28:-0.962145 29:-0.95983 30:-0.985933 31:-0.97553 32:-0.979441 33:-0.959907 34:-0.98212 35:-0.998179 36:-0.995839 37:-0.9902 38:-0.926655 39:-0.924567 40:-0.986408 41:-1 42:-0.997677 43:-1 44:-0.994135 45:-0.993994 46:-0.996711 47:-0.996748 48:-0.996997 49:-1 50:-1 51:-0.993443 52:-1 53:-0.99177 54:-1 55:-1 56:-1 57:-0.982609 58:-1 59:-1 60:-0.966922 61:-0.817814 
-128 1:-0.789283 2:-0.808496 3:-0.689018 4:-0.198289 5:0.340091 6:-0.951843 7:0.313541 8:-0.792579 9:-0.986265 10:-0.0852149 11:0.115978 12:-0.98865 13:-0.175123 14:-0.988971 15:-0.855376 16:-0.79102 17:-0.867199 18:-0.813722 19:-0.965178 20:-0.811682 21:-0.962856 22:-0.636993 23:-0.956676 24:-0.622765 25:-0.958246 26:-0.614428 27:-0.944901 28:-0.611847 29:-0.951054 30:-0.624447 31:-0.931651 32:-0.703903 33:-0.912346 34:-0.946674 35:-0.991201 36:-0.982057 37:-0.960799 38:-0.70483 39:-0.737003 40:-0.827184 41:-0.913978 42:-0.961672 43:-0.93486 44:-0.900293 45:-0.708709 46:-0.717105 47:-0.785366 48:-0.774775 49:-0.732039 50:-0.593137 51:-0.822951 52:-0.812734 53:-0.909465 54:-0.920949 55:-0.928205 56:-0.975 57:-1 58:-1 59:-1 60:-0.931125 61:-0.561299 
-34.36836005784095 1:-0.964326 2:-0.859008 3:-0.885094 4:-0.198864 5:0.361946 6:-0.875674 7:0.475302 8:-0.295417 9:-0.999458 10:-0.0839749 11:0.112784 12:-0.999824 13:-0.175903 14:-0.999828 15:-0.979677 16:-0.845755 17:-0.972528 18:-0.860863 19:-0.950458 20:-0.899671 21:-0.927562 22:-0.912909 23:-0.92934 24:-0.884913 25:-0.961221 26:-0.847438 27:-0.980645 28:-0.829087 29:-0.975116 30:-0.942028 31:-0.977919 32:-0.896548 33:-0.984436 34:-0.942385 35:-0.997421 36:-0.988818 37:-0.97314 38:-0.910555 39:-0.953109 40:-0.961165 41:-0.995392 42:-0.998839 43:-0.998982 44:-1 45:-1 46:-1 47:-1 48:-0.996997 49:-0.996117 50:-0.995098 51:-0.993443 52:-1 53:-0.99177 54:-0.992095 55:-1 56:-1 57:-0.982609 58:-1 59:-1 60:-0.978408 61:-0.908503 
-15.05873857814971 1:-0.990628 2:-0.877004 3:-0.842899 4:-0.213624 5:0.312521 6:-0.933774 7:0.340382 8:-0.74205 9:-0.999969 10:-0.083964 11:0.112792 12:-0.999991 13:-0.175879 14:-0.99999 15:-0.998688 16:-0.995951 17:-0.975066 18:-0.978586 19:-0.975021 20:-0.964829 21:-0.973019 22:-0.967861 23:-0.973797 24:-0.958193 25:-0.967757 26:-0.959707 27:-0.96373 28:-0.954562 29:-0.963371 30:-0.961391 31:-0.955771 32:-0.967746 33:-0.97434 34:-0.992869 35:-0.997117 36:-0.99896 37:-0.999274 38:-0.992844 39:-1 40:-1 41:-0.993856 42:-0.997677 43:-0.997964 44:-0.997067 45:-0.993994 46:-0.993421 47:-0.993496 48:-0.996997 49:-0.98835 50:-0.990196 51:-0.980328 52:-0.985019 53:-0.99177 54:-0.976285 55:-0.989744 56:-1 57:-1 58:-0.931034 59:-0.925926 60:-0.906713 61:-0.587714 
-14.32529250549998 1:-0.940896 2:-0.203318 3:0.0770228 4:0.170185 5:0.674003 6:-0.717039 7:0.571195 8:-0.395204 9:-0.997078 10:-0.0844856 11:0.113225 12:-0.998181 13:-0.175915 14:-0.998082 15:-0.980329 16:-0.744673 17:-0.980671 18:-0.644967 19:-0.98164 20:-0.643134 21:-0.974895 22:-0.682945 23:-0.995829 24:-0.883857 25:-0.872917 26:-0.396408 27:-0.864118 28:-0.399103 29:-0.856392 30:-0.458603 31:-0.973705 32:-0.779128 33:-0.963235 34:-0.933693 35:-0.998483 36:-0.995319 37:-0.987659 38:-0.960644 39:-0.940877 40:-0.961165 41:-0.969278 42:-0.97561 43:-0.969466 44:-0.954545 45:-0.876877 46:-0.914474 47:-0.934959 48:-0.975976 49:-0.976699 50:-0.965686 51:-0.927869 52:-0.925094 53:-0.975309 54:-0.944664 55:-0.938462 56:-0.9625 57:-0.930435 58:-0.862069 59:-0.925926 60:-0.914501 61:-0.404447 
-53.31243278433136 1:-0.997884 2:-0.304703 3:0.066158 4:-0.0922333 5:0.539651 6:-0.944301 7:0.342003 8:-0.684227 9:-0.999995 10:-0.0839632 11:0.112792 12:-0.999999 13:-0.175877 14:-0.999999 15:-1 16:-1 17:-1 18:-1 19:-0.996209 20:-0.982381 21:-1 22:-1 23:-0.994793 24:-0.982252 25:-0.994769 26:-0.931677 27:-1 28:-1 29:-0.994293 30:-0.939884 31:-0.999794 32:-0.971492 33:-1 34:-1 35:-1 36:-1 37:-0.999637 38:-1 39:-0.997961 40:-1 41:-0.998464 42:-0.998839 43:-0.996947 44:-1 45:-1 46:-1 47:-0.996748 48:-0.996997 49:-0.992233 50:-1 51:-1 52:-0.985019 53:-0.983539 54:-0.992095 55:-1 56:-1 57:-1 58:-1 59:-0.925926 60:-0.961457 61:-0.487887 
-6.763247626760608 1:-0.860177 2:0.052142 3:0.690814 4:-0.00400424 5:0.486279 6:-0.927556 7:0.316765 8:-0.852911 9:-0.993449 10:-0.0826803 11:0.108016 12:-0.983576 13:-0.17902 14:-0.984334 15:-0.895621 16:-0.845464 17:-0.882126 18:-0.746692 19:-0.864643 20:-0.714474 21:-0.875685 22:-0.819453 23:-0.891983 24:-0.867659 25:-0.957167 26:-0.894309 27:-0.951827 28:-0.823684 29:-0.96977 30:-0.743289 31:-0.958477 32:-0.764073 33:-0.96722 34:-0.918673 35:-0.998179 36:-0.984137 37:-0.958621 38:-0.846154 39:-0.814475 40:-0.887379 41:-0.933948 42:-0.933798 43:-0.927735 44:-0.923754 45:-0.924925 46:-0.934211 47:-0.957724 48:-0.960961 49:-0.957282 50:-0.960784 51:-0.967213 52:-0.812734 53:-0.884774 54:-0.762846 55:-0.661538 56:-0.55 57:-0.530435 58:-0.494253 59:-0.925926 60:-0.87096 61:-0.255315 
-41.45656398960531 1:-0.984884 2:-0.303736 3:0.0946068 4:-0.111127 5:0.776111 6:-0.955062 7:0.395233 8:-0.130623 9:-0.999947 10:-0.0839851 11:0.112787 12:-0.999851 13:-0.175877 14:-0.999859 15:-0.981671 16:-0.875437 17:-0.986405 18:-0.967203 19:-0.992061 20:-0.943357 21:-0.977178 22:-0.985035 23:-0.974331 24:-0.928718 25:-0.983539 26:-0.959316 27:-0.975344 28:-0.92457 29:-0.989377 30:-0.919137 31:-0.968615 32:-0.93102 33:-0.978693 34:-0.972859 35:-0.999393 36:-0.99948 37:-0.997096 38:-0.974955 39:-0.963303 40:-0.982524 41:-0.983103 42:-0.987224 43:-0.992875 44:-0.994135 45:-0.993994 46:-0.993421 47:-0.98374 48:-1 49:-0.996117 50:-0.995098 51:-0.993443 52:-0.992509 53:-0.99177 54:-1 55:-1 56:-1 57:-1 58:-0.977011 59:-1 60:-0.981018 61:-0.821542 
-27.54889537800121 1:-0.967501 2:-0.0467339 3:0.402077 4:0.128702 5:0.40503 6:-0.820085 7:0.337649 8:-0.909572 9:-0.999381 10:-0.0891136 11:0.112786 12:-0.999802 13:-0.175369 14:-0.999761 15:-0.978819 16:-0.864758 17:-0.974052 18:-0.761231 19:-0.962123 20:-0.756323 21:-0.991384 22:-0.824776 23:-0.992824 24:-0.818234 25:-0.992132 26:-0.802261 27:-0.990639 28:-0.800072 29:-0.988609 30:-0.792316 31:-0.981337 32:-0.803463 33:-0.97762 34:-0.909731 35:-1 36:-0.99922 37:-0.998548 38:-0.994633 39:-0.981651 40:-0.990291 41:-0.993856 42:-0.996516 43:-0.997964 44:-0.995601 45:-0.975976 46:-0.976974 47:-0.977236 48:-0.975976 49:-0.957282 50:-0.887255 51:-0.862295 52:-0.820225 53:-0.8107 54:-0.857708 55:-0.835897 56:-0.9125 57:-0.930435 58:-0.885057 59:-1 60:-0.945527 61:-0.314421 
-128 1:-0.852921 2:-0.945928 3:-0.905222 4:-0.252407 5:0.291104 6:-0.963756 7:0.319377 8:-0.69089 9:-0.995779 10:-0.0848508 11:0.111104 12:-0.994654 13:-0.174682 14:-0.994922 15:-0.957803 16:-0.856363 17:-0.960165 18:-0.922853 19:-0.898131 20:-0.861502 21:-0.910308 22:-0.878295 23:-0.919976 24:-0.784118 25:-0.911129 26:-0.737912 27:-0.911033 28:-0.824399 29:-0.916364 30:-0.824559 31:-0.907844 32:-0.835788 33:-0.916718 34:-0.948385 35:-0.969658 36:-0.981277 37:-0.957532 38:-0.63864 39:-0.730887 40:-0.918447 41:-0.958525 42:-0.968641 43:-0.978626 44:-0.956012 45:-0.954955 46:-0.914474 47:-0.957724 48:-0.960961 49:-0.961165 50:-0.960784 51:-0.986885 52:-0.970037 53:-0.958848 54:-0.98419 55:-0.979487 56:-0.9625 57:-0.965217 58:-0.977011 59:-1 60:-0.957939 61:-0.82722 
