svm_type c_svc
kernel_type rbf
gamma 8
nr_class 2
total_sv 2225
rho 0.995802
label 1 -1
nr_sv 238 1987
SV
2.64843532932941 1:-0.987845 2:-0.662942 3:-0.532869 4:0.220629 5:0.493773 6:-0.99312 7:0.252913 8:-0.919811 9:-0.999978 10:-0.44013 11:0.58758 12:-0.999908 13:-0.180105 14:-0.999917 15:-0.984878 16:-0.9718 17:-0.972676 18:-0.965897 19:-0.97695 20:-0.970177 21:-0.981288 22:-0.965457 23:-0.981538 24:-0.967478 25:-0.972835 26:-0.967449 27:-0.960241 28:-0.975934 29:-0.965621 30:-0.965566 31:-0.981715 32:-0.987059 33:-0.981168 34:-0.990907 35:-0.999922 36:-0.998166 37:-0.99561 38:-0.994443 39:-0.994239 40:-0.996321 41:-0.99185 42:-0.994932 43:-0.994473 44:-0.985114 45:-0.987276 46:-0.98641 47:-0.991536 48:-0.993511 49:-0.988943 50:-0.997133 51:-0.994172 52:-0.998804 53:-0.99889 54:-0.99485 55:-0.997872 56:-0.997593 57:-1 58:-0.991416 59:-1 60:-0.990701 61:-0.884789 
1.100670603068105 1:-0.988693 2:-0.653051 3:-0.502945 4:0.224417 5:0.614341 6:-0.992625 7:0.267158 8:-0.724553 9:-0.999972 10:-0.440169 11:0.587594 12:-0.999837 13:-0.180112 14:-0.999853 15:-0.980895 16:-0.98247 17:-0.993091 18:-0.984665 19:-0.977979 20:-0.971487 21:-0.987617 22:-0.975991 23:-0.990882 24:-0.976422 25:-0.975615 26:-0.965683 27:-0.987399 28:-0.959709 29:-0.974854 30:-0.979305 31:-0.977351 32:-0.98904 33:-0.967495 34:-0.988533 35:-0.999922 36:-0.997249 37:-0.991818 38:-0.987776 39:-0.993192 40:-0.99699 41:-0.99683 42:-0.996622 43:-0.989866 44:-0.995747 45:-0.998843 46:-0.99547 47:-0.997582 48:-1 49:-0.997236 50:-1 51:-0.998834 52:-0.998804 53:-0.99556 54:-0.996567 55:-0.995745 56:-0.997593 57:-0.990196 58:-0.991416 59:-1 60:-0.987523 61:-0.877795 
0.1101955834482412 1:-0.964524 2:-0.338336 3:-0.781167 4:0.536809 5:0.431941 6:-0.367371 7:0.353233 8:-0.951179 9:-0.999366 10:-0.440134 11:0.587614 12:-0.999578 13:-0.18009 14:-0.999528 15:-0.923366 16:-0.958426 17:-0.888035 18:-0.956066 19:-0.883856 20:-0.970779 21:-0.885972 22:-0.971775 23:-0.881107 24:-0.967333 25:-0.893784 26:-0.96634 27:-0.89322 28:-0.97496 29:-0.936386 30:-0.97952 31:-0.969865 32:-0.97838 33:-0.969902 34:-0.988966 35:-0.999686 36:-0.999266 37:-0.996807 38:-0.997036 39:-0.992145 40:-0.995652 41:-0.994114 42:-0.988739 43:-0.986181 44:-0.971292 45:-0.969925 46:-0.962627 47:-0.952842 48:-0.926022 49:-0.946095 50:-0.915412 51:-0.959207 52:-0.960526 53:-0.977802 54:-0.979399 55:-0.978723 56:-0.995187 57:-0.985294 58:-1 59:-0.943662 60:-0.975273 61:-0.459092 
0.0677934079841052 1:-0.956539 2:-0.202352 3:-0.627355 4:0.663866 5:0.479644 6:-0.332726 7:0.390368 8:-0.919169 9:-0.999208 10:-0.440127 11:0.587585 12:-0.999227 13:-0.180109 14:-0.999201 15:-0.946962 16:-0.95357 17:-0.954051 18:-0.957986 19:-0.930264 20:-0.895233 21:-0.91738 22:-0.856959 23:-0.907338 24:-0.892049 25:-0.908664 26:-0.901437 27:-0.909614 28:-0.906751 29:-0.914465 30:-0.919223 31:-0.941063 32:-0.956489 33:-0.961048 34:-0.984281 35:-0.999608 36:-0.994865 37:-0.992616 38:-0.984812 39:-0.976957 40:-0.989632 41:-0.986869 42:-0.978041 43:-0.961308 44:-0.933014 45:-0.917872 46:-0.93658 47:-0.94075 48:-0.948086 49:-0.975121 50:-0.981362 51:-0.993007 52:-0.996411 53:-0.99778 54:-1 55:-0.997872 56:-1 57:-1 58:-1 59:-1 60:-0.967594 61:-0.452955 
0.096574312083895 1:-0.947988 2:-0.361387 3:-0.696717 4:0.562892 5:0.483617 6:-0.474152 7:0.393501 8:-0.89295 9:-0.998972 10:-0.440141 11:0.587633 12:-0.998317 13:-0.180059 14:-0.998373 15:-0.945457 16:-0.953601 17:-0.947442 18:-0.964129 19:-0.933464 20:-0.964216 21:-0.944129 22:-0.978059 23:-0.923379 24:-0.894318 25:-0.904559 26:-0.869399 27:-0.911814 28:-0.87561 29:-0.90386 30:-0.887991 31:-0.923743 32:-0.910934 33:-0.971467 34:-0.974425 35:-0.999216 36:-0.994315 37:-0.992616 38:-0.98333 39:-0.983242 40:-0.986622 41:-0.990491 42:-0.992117 43:-0.983418 44:-0.967039 45:-0.967611 46:-0.95017 47:-0.938331 48:-0.924724 49:-0.894955 50:-0.919713 51:-0.939394 52:-0.954545 53:-0.964484 54:-0.9897 55:-0.985106 56:-0.98556 57:-0.980392 58:-0.991416 59:-0.971831 60:-0.968974 61:-0.488347 
0.1780243892919389 1:-0.940991 2:-0.58611 3:-0.615747 4:0.427478 5:0.546273 6:-0.818071 7:0.36091 8:-0.80596 9:-0.99847 10:-0.440121 11:0.587469 12:-0.997148 13:-0.180062 14:-0.997296 15:-0.866795 16:-0.763977 17:-0.919849 18:-0.849517 19:-0.955794 20:-0.8723 21:-0.965086 22:-0.889913 23:-0.945703 24:-0.91366 25:-0.931174 26:-0.928681 27:-0.934292 28:-0.951689 29:-0.947775 30:-0.972488 31:-0.93267 32:-0.963149 33:-0.954896 34:-0.953894 35:-0.999451 36:-0.993948 37:-0.975454 38:-0.945916 39:-0.966483 40:-0.988294 41:-0.990944 42:-0.983108 43:-0.982497 44:-0.977671 45:-0.968768 46:-0.969422 47:-0.952842 48:-0.955873 49:-0.94886 50:-0.941219 51:-0.960373 52:-0.966507 53:-0.973363 54:-0.974249 55:-0.976596 56:-0.973526 57:-0.960784 58:-0.974249 59:-0.971831 60:-0.966066 61:-0.639486 
1.196949238307409 1:-0.940709 2:-0.582179 3:-0.589992 4:0.423779 5:0.54842 6:-0.834334 7:0.352826 8:-0.813596 9:-0.998655 10:-0.440143 11:0.58761 12:-0.996999 13:-0.180183 14:-0.997207 15:-0.901477 16:-0.814904 17:-0.932813 18:-0.830155 19:-0.96861 20:-0.894997 21:-0.948604 22:-0.963312 23:-0.946309 24:-0.929173 25:-0.932297 26:-0.92495 27:-0.929791 28:-0.955396 29:-0.949782 30:-0.967639 31:-0.941677 32:-0.962291 33:-0.947182 34:-0.953851 35:-0.998902 36:-0.98753 37:-0.96807 38:-0.962956 39:-0.974339 40:-0.992642 41:-0.985963 42:-0.980293 43:-0.953017 44:-0.952153 45:-0.936379 46:-0.951302 47:-0.946796 48:-0.951979 49:-0.957153 50:-0.967025 51:-0.980186 52:-0.990431 53:-0.99667 54:-0.99485 55:-0.995745 56:-1 57:-0.995098 58:-1 59:-1 60:-0.963908 61:-0.617411 
0.5677619089206498 1:-0.898873 2:-0.732764 3:-0.65938 4:0.273221 5:0.511875 6:-0.96438 7:0.284434 8:-0.854251 9:-0.997553 10:-0.442317 11:0.589801 12:-0.995933 13:-0.180124 14:-0.996165 15:-0.880237 16:-0.938979 17:-0.923473 18:-0.921572 19:-0.928679 20:-0.927724 21:-0.947293 22:-0.875044 23:-0.956261 24:-0.841447 25:-0.970489 26:-0.82591 27:-0.967527 28:-0.820208 29:-0.960188 30:-0.811495 31:-0.956862 32:-0.886427 33:-0.959257 34:-0.957777 35:-0.997961 36:-0.985513 37:-0.966274 38:-0.925912 39:-0.934014 40:-0.975585 41:-0.976002 42:-0.981982 43:-0.976969 44:-0.956406 45:-0.944477 46:-0.903737 47:-0.893591 48:-0.880597 49:-0.854872 50:-0.862366 51:-0.951049 52:-0.978469 53:-0.988901 54:-0.981116 55:-0.978723 56:-0.995187 57:-0.985294 58:-1 59:-1 60:-0.968358 61:-0.658766 
125.0408283424596 1:-0.901488 2:-0.85967 3:-0.822956 4:0.228213 5:0.467107 6:-0.975807 7:0.275295 8:-0.858543 9:-0.997277 10:-0.440156 11:0.587762 12:-0.995913 13:-0.180052 14:-0.996209 15:-0.866303 16:-0.914897 17:-0.883904 18:-0.919518 19:-0.971832 20:-0.925915 21:-0.972376 22:-0.85116 23:-0.968237 24:-0.844071 25:-0.971223 26:-0.842707 27:-0.962671 28:-0.843075 29:-0.965831 30:-0.841433 31:-0.955966 32:-0.874758 33:-0.954659 34:-0.959871 35:-0.995451 36:-0.987346 37:-0.978447 38:-0.938878 39:-0.932443 40:-0.970234 41:-0.974643 42:-0.981419 43:-0.941041 44:-0.927698 45:-0.887796 46:-0.902605 47:-0.920193 48:-0.902661 49:-0.90463 50:-0.881004 51:-0.968531 52:-0.970096 53:-0.987791 54:-0.982833 55:-0.985106 56:-0.995187 57:-1 58:-1 59:-1 60:-0.969083 61:-0.667614 
1.066704841937878 1:-0.901064 2:-0.938801 3:-0.932039 4:0.200703 5:0.44344 6:-0.97845 7:0.282733 8:-0.77184 9:-0.996347 10:-0.440148 11:0.587693 12:-0.996393 13:-0.180108 14:-0.996613 15:-0.789347 16:-0.911961 17:-0.854608 18:-0.904123 19:-0.882082 20:-0.909095 21:-0.905386 22:-0.936636 23:-0.912883 24:-0.839701 25:-0.914134 26:-0.841003 27:-0.945928 28:-0.838921 29:-0.944288 30:-0.900009 31:-0.944899 32:-0.909082 33:-0.958658 34:-0.941902 35:-0.984707 36:-0.980745 37:-0.970465 38:-0.903686 39:-0.950249 40:-0.980936 41:-0.965135 42:-0.963964 43:-0.950253 44:-0.946837 45:-0.929439 46:-0.949037 47:-0.939541 48:-0.935107 49:-0.966828 50:-0.975627 51:-0.990676 52:-0.986842 53:-0.991121 54:-0.987983 55:-0.995745 56:-0.980746 57:-0.985294 58:-0.974249 59:-0.971831 60:-0.972386 61:-0.778739 
1.504048777401721 1:-0.921134 2:-0.953242 3:-0.94485 4:0.195803 5:0.437458 6:-0.980026 7:0.28264 8:-0.761167 9:-0.998593 10:-0.440149 11:0.587638 12:-0.997506 13:-0.179967 14:-0.997628 15:-0.887217 16:-0.948569 17:-0.877521 18:-0.934535 19:-0.91421 20:-0.930155 21:-0.956059 22:-0.942331 23:-0.953669 24:-0.917915 25:-0.935263 26:-0.911957 27:-0.938066 28:-0.922439 29:-0.932937 30:-0.917467 31:-0.946665 32:-0.939291 33:-0.960981 34:-0.976083 35:-0.977884 36:-0.965157 37:-0.962283 38:-0.95814 39:-0.962817 40:-0.986288 41:-0.985058 42:-0.98536 43:-0.975127 44:-0.956406 45:-0.954887 46:-0.969422 47:-0.980653 48:-0.996106 49:-0.993089 50:-0.998566 51:-1 52:-0.997608 53:-0.99778 54:-0.996567 55:-0.997872 56:-0.990373 57:-1 58:-0.965665 59:-1 60:-0.977513 61:-0.857008 
9.119378912408253 1:-0.971167 2:-0.951712 3:-0.95456 4:0.195467 5:0.427697 6:-0.977375 7:0.282961 8:-0.78878 9:-0.999789 10:-0.440128 11:0.587588 12:-0.999659 13:-0.179959 14:-0.999676 15:-0.96551 16:-0.912975 17:-0.957712 18:-0.936489 19:-0.963042 20:-0.947858 21:-0.969745 22:-0.927562 23:-0.969056 24:-0.944003 25:-0.975934 26:-0.978174 27:-0.979516 28:-0.924622 29:-0.978477 30:-0.93146 31:-0.983689 32:-0.966783 33:-0.98663 34:-0.975978 35:-0.991765 36:-0.989364 37:-0.988625 38:-0.977033 39:-0.970673 40:-0.99097 41:-0.995472 42:-0.996622 43:-0.999079 44:-0.99681 45:-0.997687 46:-0.997735 47:-0.996372 48:-1 49:-0.998618 50:-0.997133 51:-0.998834 52:-0.997608 53:-0.99778 54:-0.996567 55:-0.997872 56:-0.99278 57:-0.985294 58:-0.982833 59:-1 60:-0.983566 61:-0.906161 
1.852472467096014 1:-0.913643 2:-0.950635 3:-0.945251 4:0.19746 5:0.437568 6:-0.977984 7:0.285249 8:-0.758895 9:-0.998924 10:-0.440143 11:0.587519 12:-0.997382 13:-0.180211 14:-0.997621 15:-0.934887 16:-0.924016 17:-0.964238 18:-0.918805 19:-0.942921 20:-0.917987 21:-0.938609 22:-0.936285 23:-0.938388 24:-0.910019 25:-0.930943 26:-0.897698 27:-0.936126 28:-0.931378 29:-0.931783 30:-0.914651 31:-0.939616 32:-0.942218 33:-0.95199 34:-0.969148 35:-0.979217 36:-0.971759 37:-0.97705 38:-0.928505 39:-0.900498 40:-0.974247 41:-0.980983 42:-0.98536 43:-0.980654 44:-0.974482 45:-0.981492 46:-0.97282 47:-0.968561 48:-0.98183 49:-0.994471 50:-0.995699 51:-0.995338 52:-0.994019 53:-0.99667 54:-0.99485 55:-1 56:-0.98556 57:-0.97549 58:-0.982833 59:-0.915493 60:-0.981226 61:-0.874224 
0.1675455627059528 1:-0.900145 2:-0.757827 3:-0.682319 4:0.246619 5:0.506717 6:-0.977926 7:0.274286 8:-0.850021 9:-0.996383 10:-0.440126 11:0.587301 12:-0.995951 13:-0.180113 14:-0.996327 15:-0.796903 16:-0.941342 17:-0.886267 18:-0.947351 19:-0.962778 20:-0.956208 21:-0.947192 22:-0.853412 23:-0.909745 24:-0.815055 25:-0.914387 26:-0.82685 27:-0.94708 28:-0.829511 29:-0.965379 30:-0.83715 31:-0.954922 32:-0.89327 33:-0.965408 34:-0.955426 35:-0.997569 36:-0.98918 37:-0.969667 38:-0.903686 39:-0.950772 40:-0.981271 41:-0.980983 42:-0.975788 43:-0.958544 44:-0.953216 45:-0.954887 46:-0.94564 47:-0.912938 48:-0.884491 49:-0.835522 50:-0.895341 51:-0.932401 52:-0.948565 53:-0.985572 54:-0.9897 55:-0.982979 56:-0.980746 57:-0.960784 58:-0.965665 59:-0.943662 60:-0.970216 61:-0.686282 
0.1505030120529422 1:-0.920215 2:-0.645987 3:-0.518818 4:0.259218 5:0.554524 6:-0.980672 7:0.274527 8:-0.829894 9:-0.997603 10:-0.440215 11:0.587749 12:-0.996874 13:-0.180101 14:-0.997046 15:-0.821794 16:-0.911907 17:-0.872091 18:-0.919915 19:-0.904327 20:-0.92541 21:-0.946161 22:-0.91228 23:-0.948755 24:-0.864529 25:-0.964788 26:-0.863363 27:-0.966563 28:-0.847013 29:-0.970773 30:-0.848562 31:-0.964249 32:-0.896001 33:-0.972193 34:-0.97013 35:-0.999137 36:-0.989547 37:-0.970665 38:-0.937025 39:-0.938727 40:-0.983946 41:-0.982794 42:-0.97973 43:-0.976048 44:-0.960659 45:-0.981492 46:-0.980747 47:-0.972189 48:-0.974043 49:-0.965446 50:-0.93405 51:-0.94289 52:-0.940191 53:-0.942286 54:-0.914163 55:-0.925532 56:-0.927798 57:-0.911765 58:-0.93133 59:-0.830986 60:-0.974251 61:-0.736587 
0.1893810573676072 1:-0.944313 2:-0.565529 3:-0.433412 4:0.262497 5:0.546945 6:-0.982578 7:0.268605 8:-0.869153 9:-0.998986 10:-0.440134 11:0.587662 12:-0.99866 13:-0.1801 14:-0.998675 15:-0.969902 16:-0.963084 17:-0.988352 18:-0.975183 19:-0.985829 20:-0.980337 21:-0.975122 22:-0.943393 23:-0.970131 24:-0.911129 25:-0.951179 26:-0.853326 27:-0.958043 28:-0.83852 29:-0.966036 30:-0.846373 31:-0.976772 32:-0.865578 33:-0.983741 34:-0.928241 35:-0.999216 36:-0.991014 37:-0.969667 38:-0.948879 39:-0.973291 40:-0.990635 41:-0.990038 42:-0.984797 43:-0.976969 44:-0.976608 45:-0.965298 46:-0.961495 47:-0.958888 48:-0.926022 49:-0.954388 50:-0.959857 51:-0.977855 52:-0.991627 53:-0.99778 54:-0.99485 55:-0.985106 56:-0.990373 57:-0.97549 58:-0.974249 59:-0.971831 60:-0.976538 61:-0.752863 
1.424615590745568 1:-0.98311 2:-0.445185 3:-0.273828 4:0.274599 5:0.614891 6:-0.983151 7:0.274715 8:-0.81044 9:-0.999941 10:-0.440133 11:0.587595 12:-0.999573 13:-0.180117 14:-0.999614 15:-0.984624 16:-0.971114 17:-0.980617 18:-0.988748 19:-0.973176 20:-0.977938 21:-0.980829 22:-0.976903 23:-0.988431 24:-0.970755 25:-0.98678 26:-0.952054 27:-0.980181 28:-0.946743 29:-0.979132 30:-0.947725 31:-0.970835 32:-0.944414 33:-0.979683 34:-0.954862 35:-0.999608 36:-0.99835 37:-0.997007 38:-0.993703 39:-0.992145 40:-0.991973 41:-0.994566 42:-0.99268 43:-0.989866 44:-0.980861 45:-0.991903 46:-0.988675 47:-0.981862 48:-0.987021 49:-0.98065 50:-0.991398 51:-0.98951 52:-0.989234 53:-0.994451 54:-0.99485 55:-0.989362 56:-0.995187 57:-0.97549 58:-0.974249 59:-1 60:-0.989434 61:-0.838609 
0.3760807701267299 1:-0.938659 2:-0.535192 3:-0.387244 4:0.276802 5:0.571222 6:-0.978914 7:0.274844 8:-0.843537 9:-0.998688 10:-0.440145 11:0.587615 12:-0.997601 13:-0.180129 14:-0.99776 15:-0.904493 16:-0.949151 17:-0.912788 18:-0.977044 19:-0.925619 20:-0.961982 21:-0.945557 22:-0.952437 23:-0.959352 24:-0.829494 25:-0.9489 26:-0.822733 27:-0.953415 28:-0.840541 29:-0.958556 30:-0.874434 31:-0.958903 32:-0.913384 33:-0.96297 34:-0.964336 35:-0.999373 36:-0.991014 37:-0.980044 38:-0.952584 39:-0.954438 40:-0.977926 41:-0.982341 42:-0.980293 43:-0.966836 44:-0.970229 45:-0.964141 46:-0.96376 47:-0.963724 48:-0.946788 49:-0.950242 50:-0.956989 51:-0.9662 52:-0.976077 53:-0.973363 54:-0.986266 55:-0.993617 56:-0.990373 57:-0.990196 58:-0.991416 59:-0.887324 60:-0.979271 61:-0.760337 
0.5955840946720545 1:-0.94721 2:-0.473852 3:-0.748911 4:0.500106 5:0.490213 6:-0.547687 7:0.405293 8:-0.853744 9:-0.998377 10:-0.439116 11:0.593765 12:-0.998231 13:-0.180099 14:-0.99831 15:-0.908946 16:-0.741251 17:-0.932927 18:-0.834424 19:-0.933046 20:-0.898447 21:-0.929891 22:-0.923264 23:-0.899633 24:-0.954642 25:-0.895058 26:-0.947589 27:-0.874436 28:-0.966413 29:-0.878919 30:-0.967672 31:-0.895618 32:-0.974291 33:-0.979886 34:-0.979299 35:-0.999686 36:-0.995415 37:-0.983436 38:-0.975551 39:-0.981671 40:-0.991973 41:-0.989133 42:-0.990428 43:-0.980654 44:-0.968102 45:-0.954887 46:-0.9547 47:-0.945586 48:-0.949384 49:-0.939185 50:-0.928315 51:-0.940559 52:-0.955742 53:-0.958935 54:-0.963948 55:-0.976596 56:-0.990373 57:-0.995098 58:-0.982833 59:-1 60:-0.967518 61:-0.561435 
0.03592522035529533 1:-0.970884 2:-0.281228 3:-0.771718 4:0.561092 5:0.428163 6:-0.312936 7:0.34918 8:-0.957854 9:-0.999534 10:-0.440131 11:0.587599 12:-0.999704 13:-0.180105 14:-0.999672 15:-0.971477 16:-0.953736 17:-0.931289 18:-0.929419 19:-0.915012 20:-0.962827 21:-0.88974 22:-0.962378 23:-0.89719 24:-0.967591 25:-0.896882 26:-0.971428 27:-0.900317 28:-0.974047 29:-0.921343 30:-0.974077 31:-0.97617 32:-0.98184 33:-0.978732 34:-0.987715 35:-0.999608 36:-0.999633 37:-0.997206 38:-0.995925 39:-0.991097 40:-0.998662 41:-0.994114 42:-0.992117 43:-0.983418 44:-0.960659 45:-0.95373 46:-0.947905 47:-0.949214 48:-0.916937 49:-0.944713 50:-0.971326 51:-0.986014 52:-0.994019 53:-0.992231 54:-0.998283 55:-0.995745 56:-0.997593 57:-1 58:-1 59:-1 60:-0.976483 61:-0.453396 
0.6581912996727102 1:-0.959577 2:-0.188222 3:-0.772106 4:0.592006 5:0.444604 6:-0.199868 7:0.387981 8:-0.934497 9:-0.998881 10:-0.440137 11:0.587608 12:-0.999543 13:-0.180101 14:-0.999428 15:-0.891465 16:-0.935741 17:-0.848173 18:-0.930515 19:-0.849782 20:-0.941173 21:-0.887924 22:-0.943347 23:-0.882905 24:-0.950405 25:-0.880701 26:-0.940744 27:-0.885299 28:-0.94818 29:-0.900128 30:-0.959886 31:-0.963089 32:-0.985156 33:-0.981193 34:-0.991308 35:-0.999765 36:-0.997983 37:-0.996807 38:-0.993703 39:-0.987955 40:-0.993645 41:-0.990491 42:-0.974662 43:-0.943805 44:-0.935141 45:-0.909774 46:-0.917327 47:-0.935913 48:-0.946788 49:-0.965446 50:-0.991398 51:-0.98951 52:-0.995215 53:-0.99778 54:-0.998283 55:-0.993617 56:-1 57:-0.990196 58:-0.991416 59:-1 60:-0.973806 61:-0.436544 
0.2687871644763705 1:-0.966291 2:-0.151627 3:-0.766392 4:0.607187 5:0.434618 6:-0.162811 7:0.371269 8:-0.950733 9:-0.999237 10:-0.440119 11:0.587587 12:-0.999582 13:-0.180093 14:-0.999508 15:-0.931895 16:-0.961837 17:-0.868669 18:-0.893755 19:-0.863186 20:-0.907728 21:-0.915405 22:-0.898038 23:-0.906092 24:-0.894102 25:-0.911284 26:-0.903036 27:-0.908061 28:-0.924929 29:-0.907369 30:-0.944339 31:-0.968616 32:-0.983581 33:-0.974523 34:-0.992074 35:-0.999843 36:-0.998716 37:-0.998404 38:-0.988887 39:-0.991621 40:-0.992977 41:-0.985511 42:-0.976914 43:-0.929065 44:-0.948963 45:-0.93985 46:-0.926387 47:-0.968561 48:-0.962362 49:-0.986178 50:-0.994265 51:-0.996503 52:-0.996411 53:-0.99889 54:-1 55:-1 56:-0.997593 57:-1 58:-0.974249 59:-0.971831 60:-0.973535 61:-0.441442 
0.1770805140105006 1:-0.974135 2:-0.111497 3:-0.762493 4:0.623539 5:0.439917 6:-0.115875 7:0.383678 8:-0.944495 9:-0.999656 10:-0.440127 11:0.587627 12:-0.999732 13:-0.180104 14:-0.999708 15:-0.938225 16:-0.969833 17:-0.916654 18:-0.955351 19:-0.926634 20:-0.950912 21:-0.926456 22:-0.919235 23:-0.92835 24:-0.928195 25:-0.914797 26:-0.925636 27:-0.920408 28:-0.92597 29:-0.915443 30:-0.931529 31:-0.94772 32:-0.955863 33:-0.978634 34:-0.994117 35:-0.999843 36:-0.99945 37:-0.998603 38:-0.998518 39:-0.99581 40:-0.99699 41:-0.995019 42:-0.996622 43:-0.988945 44:-0.979798 45:-0.974552 46:-0.979615 47:-0.973398 48:-0.954575 49:-0.965446 50:-0.949821 51:-0.959207 52:-0.973684 53:-0.972253 54:-0.969099 55:-0.970213 56:-0.983153 57:-0.97549 58:-0.965665 59:-0.971831 60:-0.975957 61:-0.451776 
0.5589539417775653 1:-0.978022 2:0.0162994 3:-0.71845 4:0.69715 5:0.435185 6:0.0028988 7:0.371791 8:-0.958192 9:-0.999676 10:-0.440134 11:0.587609 12:-0.999773 13:-0.180114 14:-0.999756 15:-0.935861 16:-0.899286 17:-0.91998 18:-0.924037 19:-0.902215 20:-0.934072 21:-0.917771 22:-0.934281 23:-0.924772 24:-0.929468 25:-0.930499 26:-0.934759 27:-0.928833 28:-0.950034 29:-0.942435 30:-0.964889 31:-0.964848 32:-0.986926 33:-0.972231 34:-0.985218 35:-1 36:-0.999633 37:-1 38:-0.997036 39:-0.997382 40:-0.995987 41:-0.995472 42:-0.984797 43:-0.974205 44:-0.971292 45:-0.961828 46:-0.96376 47:-0.962515 48:-0.950681 49:-0.969592 50:-0.981362 51:-0.982517 52:-0.991627 53:-0.99778 54:-0.998283 55:-1 56:-1 57:-0.995098 58:-1 59:-1 60:-0.977774 61:-0.413979 
0.7945190251648255 1:-0.976255 2:0.0650226 3:-0.572831 4:0.801791 5:0.464101 6:-0.0547971 7:0.384892 8:-0.946311 9:-0.999507 10:-0.440132 11:0.587597 12:-0.999709 13:-0.180105 14:-0.999679 15:-0.962766 16:-0.92278 17:-0.897333 18:-0.920944 19:-0.888098 20:-0.938129 21:-0.884274 22:-0.946733 23:-0.88721 24:-0.94578 25:-0.890419 26:-0.961206 27:-0.90655 28:-0.962909 29:-0.914693 30:-0.963414 31:-0.970198 32:-0.965703 33:-0.973344 34:-0.971559 35:-0.999059 36:-0.994498 37:-0.985632 38:-0.9574 39:-0.962294 40:-0.992308 41:-0.995019 42:-0.997748 43:-1 44:-1 45:-1 46:-1 47:-1 48:-1 49:-1 50:-1 51:-1 52:-1 53:-1 54:-1 55:-1 56:-1 57:-1 58:-1 59:-1 60:-0.963828 61:-0.353622 
0.9873268353282473 1:-0.974135 2:0.0433782 3:-0.559294 4:0.79565 5:0.48086 6:-0.100882 7:0.402233 8:-0.930449 9:-0.999539 10:-0.440138 11:0.587603 12:-0.999626 13:-0.180098 14:-0.999599 15:-0.981783 16:-0.960517 17:-0.964208 18:-0.982019 19:-0.935474 20:-0.959997 21:-0.920842 22:-0.966893 23:-0.87054 24:-0.961257 25:-0.865639 26:-0.941534 27:-0.899932 28:-0.959315 29:-0.909098 30:-0.978444 31:-0.968206 32:-0.98243 33:-0.975275 34:-0.97435 35:-1 36:-0.999083 37:-1 38:-0.996666 39:-0.99581 40:-0.995652 41:-0.995019 42:-0.996059 43:-0.989866 44:-0.977671 45:-0.987276 46:-0.97735 47:-0.967352 48:-0.970149 49:-0.954388 50:-0.962724 51:-0.965035 52:-0.967703 53:-0.968923 54:-0.958798 55:-0.970213 56:-0.983153 57:-0.970588 58:-0.974249 59:-0.859155 60:-0.971847 61:-0.375456 
0.5040030142309188 1:-0.962687 2:-0.189379 3:-0.584283 4:0.687988 5:0.48127 6:-0.343118 7:0.383041 8:-0.924711 9:-0.999284 10:-0.440137 11:0.587409 12:-0.999318 13:-0.180101 14:-0.999316 15:-0.976927 16:-0.866771 17:-0.956359 18:-0.894227 19:-0.898837 20:-0.941957 21:-0.88758 22:-0.958462 23:-0.888172 24:-0.967404 25:-0.895391 26:-0.962702 27:-0.896373 28:-0.955301 29:-0.89867 30:-0.952172 31:-0.965728 32:-0.977112 33:-0.9686 34:-0.985134 35:-0.999216 36:-0.997983 37:-0.995011 38:-0.99148 39:-0.991097 40:-0.993645 41:-0.990944 42:-0.990428 43:-0.982497 44:-0.989367 45:-0.965298 46:-0.958097 47:-0.952842 48:-0.936405 49:-0.955771 50:-0.938351 51:-0.955711 52:-0.938995 53:-0.982242 54:-0.972532 55:-0.993617 56:-0.997593 57:-0.990196 58:-0.974249 59:-1 60:-0.966648 61:-0.41916 
0.2985755278951693 1:-0.948765 2:-0.23348 3:-0.590996 4:0.661056 5:0.503496 6:-0.39806 7:0.404201 8:-0.893708 9:-0.999034 10:-0.440139 11:0.587968 12:-0.998787 13:-0.179432 14:-0.998781 15:-0.967135 16:-0.965389 17:-0.935557 18:-0.934115 19:-0.936975 20:-0.955721 21:-0.887577 22:-0.95247 23:-0.863828 24:-0.950633 25:-0.88392 26:-0.946802 27:-0.88647 28:-0.950149 29:-0.889901 30:-0.955448 31:-0.896605 32:-0.959222 33:-0.971469 34:-0.96866 35:-0.999294 36:-0.993948 37:-0.987228 38:-0.988887 39:-0.976957 40:-0.98796 41:-0.986869 42:-0.992117 43:-0.984339 44:-0.965976 45:-0.956044 46:-0.930917 47:-0.927449 48:-0.913043 49:-0.918452 50:-0.939785 51:-0.95338 52:-0.970096 53:-0.991121 54:-0.977682 55:-0.993617 56:-0.997593 57:-0.990196 58:-1 59:-0.971831 60:-0.964672 61:-0.456264 
0.6081800643389526 1:-0.954419 2:-0.264789 3:-0.602691 4:0.636837 5:0.487313 6:-0.439526 7:0.382036 8:-0.913599 9:-0.999094 10:-0.44015 11:0.587669 12:-0.999028 13:-0.18011 14:-0.999021 15:-0.926894 16:-0.939457 17:-0.939063 18:-0.934255 19:-0.939699 20:-0.952479 21:-0.917665 22:-0.934862 23:-0.913115 24:-0.935621 25:-0.886248 26:-0.910894 27:-0.890806 28:-0.921712 29:-0.891195 30:-0.922298 31:-0.912791 32:-0.945559 33:-0.969775 34:-0.983031 35:-0.999137 36:-0.995599 37:-0.990421 38:-0.989628 39:-0.9801 40:-0.991973 41:-0.991397 42:-0.989865 43:-0.976969 44:-0.974482 45:-0.944477 46:-0.937712 47:-0.921403 48:-0.910448 49:-0.921216 50:-0.956989 51:-0.969697 52:-0.979665 53:-0.991121 54:-0.984549 55:-0.993617 56:-1 57:-0.995098 58:-0.991416 59:-1 60:-0.966583 61:-0.441955 
0.5916891873699158 1:-0.949896 2:-0.311434 3:-0.610562 4:0.610698 5:0.481661 6:-0.490046 7:0.370408 8:-0.919661 9:-0.998867 10:-0.44013 11:0.587611 12:-0.999117 13:-0.180102 14:-0.999064 15:-0.970507 16:-0.986283 17:-0.940435 18:-0.955739 19:-0.917603 20:-0.890154 21:-0.910181 22:-0.880008 23:-0.892204 24:-0.894079 25:-0.88087 26:-0.892943 27:-0.882142 28:-0.901081 29:-0.897058 30:-0.933382 31:-0.973224 32:-0.974352 33:-0.971088 34:-0.972098 35:-0.999686 36:-0.997799 37:-0.996009 38:-0.981108 39:-0.974339 40:-0.989298 41:-0.983699 42:-0.984234 43:-0.978812 44:-0.960659 45:-0.962984 46:-0.942242 47:-0.931076 48:-0.924724 49:-0.911541 50:-0.889606 51:-0.960373 52:-0.972488 53:-0.988901 54:-0.991416 55:-0.987234 56:-0.995187 57:-1 58:-0.991416 59:-1 60:-0.967193 61:-0.463072 
0.7387080579628142 1:-0.94085 2:-0.370834 3:-0.62346 4:0.581797 5:0.497937 6:-0.537295 7:0.383913 8:-0.893306 9:-0.998773 10:-0.440121 11:0.58774 12:-0.998481 13:-0.179828 14:-0.998468 15:-0.970985 16:-0.979451 17:-0.943026 18:-0.938631 19:-0.938976 20:-0.975158 21:-0.883961 22:-0.9655 23:-0.864351 24:-0.938775 25:-0.861792 26:-0.938494 27:-0.874757 28:-0.945338 29:-0.869369 30:-0.960059 31:-0.914975 32:-0.966908 33:-0.941193 34:-0.983799 35:-0.999373 36:-0.994865 37:-0.987827 38:-0.976292 39:-0.974339 40:-0.987291 41:-0.979171 42:-0.984797 43:-0.980654 44:-0.978735 45:-0.959514 46:-0.956965 47:-0.923821 48:-0.906554 49:-0.907395 50:-0.893907 51:-0.932401 52:-0.966507 53:-0.985572 54:-0.981116 55:-0.982979 56:-0.98556 57:-0.990196 58:-0.991416 59:-0.943662 60:-0.965741 61:-0.501407 
0.3203053454794547 1:-0.938235 2:-0.452588 3:-0.635211 4:0.534182 5:0.512836 6:-0.623828 7:0.386507 8:-0.861204 9:-0.99842 10:-0.440215 11:0.586369 12:-0.997793 13:-0.180094 14:-0.997949 15:-0.975974 16:-0.905328 17:-0.960316 18:-0.814082 19:-0.958597 20:-0.854028 21:-0.902 22:-0.880437 23:-0.87499 24:-0.947435 25:-0.872844 26:-0.95426 27:-0.883814 28:-0.951461 29:-0.879307 30:-0.950473 31:-0.920875 32:-0.952228 33:-0.970314 34:-0.963088 35:-0.999843 36:-0.995782 37:-0.988226 38:-0.971847 39:-0.96177 40:-0.979599 41:-0.983247 42:-0.983671 43:-0.979733 44:-0.979798 45:-0.95373 46:-0.949037 47:-0.934704 48:-0.932511 49:-0.944713 50:-0.936918 51:-0.944056 52:-0.944976 53:-0.954495 54:-0.967382 55:-0.968085 56:-0.975933 57:-0.95098 58:-0.93133 59:-0.887324 60:-0.96571 61:-0.556374 
9.370004036004953 1:-0.987421 2:-0.801238 3:-0.74735 4:0.188778 5:0.644861 6:-0.997503 7:0.264469 8:-0.320562 9:-0.99997 10:-0.440132 11:0.587597 12:-0.999924 13:-0.180106 14:-0.999929 15:-0.984505 16:-0.934676 17:-0.976909 18:-0.934437 19:-0.977325 20:-0.952902 21:-0.985083 22:-0.959814 23:-0.986865 24:-0.957034 25:-0.984567 26:-0.945657 27:-0.986297 28:-0.950728 29:-0.988823 30:-0.979959 31:-0.986568 32:-0.995842 33:-0.992313 34:-0.996336 35:-0.99749 36:-0.983862 37:-0.995011 38:-0.997036 39:-0.998429 40:-0.997659 41:-0.999094 42:-0.997748 43:-0.996315 44:-0.99681 45:-0.998843 46:-1 47:-1 48:-0.998702 49:-1 50:-1 51:-0.998834 52:-1 53:-0.99889 54:-1 55:-1 56:-1 57:-0.995098 58:-1 59:-1 60:-0.988589 61:-0.928521 
1.489189790565289 1:-0.924172 2:-0.835841 3:-0.76441 4:0.192813 5:0.521554 6:-0.996033 7:0.256655 8:-0.762822 9:-0.998186 10:-0.440256 11:0.587496 12:-0.997765 13:-0.181256 14:-0.997845 15:-0.925282 16:-0.909702 17:-0.952544 18:-0.832026 19:-0.957448 20:-0.853065 21:-0.974483 22:-0.867196 23:-0.967151 24:-0.872156 25:-0.925161 26:-0.884448 27:-0.940331 28:-0.888136 29:-0.948359 30:-0.904439 31:-0.964361 32:-0.912682 33:-0.931022 34:-0.919402 35:-0.988079 36:-0.96424 37:-0.952904 38:-0.935173 39:-0.96596 40:-0.983278 41:-0.984605 42:-0.980293 43:-0.959466 44:-0.969165 45:-0.983806 46:-0.994337 47:-0.991536 48:-0.992213 49:-0.991707 50:-0.994265 51:-0.995338 52:-0.997608 53:-0.99556 54:-0.99485 55:-0.991489 56:-0.995187 57:-1 58:-1 59:-1 60:-0.978846 61:-0.843772 
0.1965536450270574 1:-0.884315 2:-0.871005 3:-0.827103 4:0.208589 5:0.481641 6:-0.987715 7:0.26818 8:-0.810093 9:-0.99538 10:-0.440136 11:0.587772 12:-0.994812 13:-0.180072 14:-0.995275 15:-0.79038 16:-0.916302 17:-0.870424 18:-0.950887 19:-0.872215 20:-0.948465 21:-0.914317 22:-0.894036 23:-0.956028 24:-0.805126 25:-0.958446 26:-0.798761 27:-0.965948 28:-0.822048 29:-0.965906 30:-0.841564 31:-0.962518 32:-0.891962 33:-0.959785 34:-0.953858 35:-0.989334 36:-0.983862 37:-0.981042 38:-0.912947 39:-0.898926 40:-0.974916 41:-0.978719 42:-0.981419 43:-0.966836 44:-0.942584 45:-0.921342 46:-0.92299 47:-0.912938 48:-0.916937 49:-0.919834 50:-0.893907 51:-0.902098 52:-0.919856 53:-0.971143 54:-0.969099 55:-0.965957 56:-0.963899 57:-0.95098 58:-0.957082 59:-0.915493 60:-0.96832 61:-0.710401 
0.02540373878019169 1:-0.926151 2:-0.942691 3:-0.939633 4:0.196069 5:0.419924 6:-0.981997 7:0.268325 8:-0.874555 9:-0.998364 10:-0.440141 11:0.587561 12:-0.998746 13:-0.180124 14:-0.998711 15:-0.969097 16:-0.949202 17:-0.956044 18:-0.937018 19:-0.941851 20:-0.949954 21:-0.937808 22:-0.830785 23:-0.926843 24:-0.813094 25:-0.932763 26:-0.82423 27:-0.941189 28:-0.900614 29:-0.939497 30:-0.915312 31:-0.941279 32:-0.909384 33:-0.968755 34:-0.941581 35:-0.995922 36:-0.991564 37:-0.984235 38:-0.941471 39:-0.941346 40:-0.976923 41:-0.973285 42:-0.969595 43:-0.953017 44:-0.942584 45:-0.920185 46:-0.93205 47:-0.941959 48:-0.937703 49:-0.972357 50:-0.975627 51:-0.990676 52:-0.990431 53:-0.987791 54:-0.9897 55:-0.993617 56:-0.98556 57:-0.980392 58:-0.948498 59:-1 60:-0.975304 61:-0.752161 
3.681834620211482 1:-0.897177 2:-0.942691 3:-0.936874 4:0.196944 5:0.440433 6:-0.981435 7:0.279518 8:-0.775262 9:-0.997714 10:-0.440096 11:0.587572 12:-0.996758 13:-0.180073 14:-0.996969 15:-0.949142 16:-0.943114 17:-0.937756 18:-0.914705 19:-0.929378 20:-0.940608 21:-0.925708 22:-0.928556 23:-0.927071 24:-0.857219 25:-0.924968 26:-0.797138 27:-0.932425 28:-0.823223 29:-0.938442 30:-0.90029 31:-0.941279 32:-0.909384 33:-0.967201 34:-0.937889 35:-0.994746 36:-0.984412 37:-0.972461 38:-0.871458 39:-0.920398 40:-0.973579 41:-0.968757 42:-0.960023 43:-0.949332 44:-0.933014 45:-0.917872 46:-0.92752 47:-0.938331 48:-0.937703 49:-0.970974 50:-0.975627 51:-0.987179 52:-0.990431 53:-0.986681 54:-0.984549 55:-0.991489 56:-0.98556 57:-0.980392 58:-0.948498 59:-1 60:-0.976445 61:-0.781979 
121.1120749270534 1:-0.931239 2:-0.953734 3:-0.945976 4:0.194264 5:0.43227 6:-0.981781 7:0.278052 8:-0.789235 9:-0.999163 10:-0.440149 11:0.587505 12:-0.998075 13:-0.18002 14:-0.998255 15:-0.960991 16:-0.941506 17:-0.965176 18:-0.966668 19:-0.917598 20:-0.945515 21:-0.933295 22:-0.950099 23:-0.94133 24:-0.910766 25:-0.938748 26:-0.893082 27:-0.939726 28:-0.929007 29:-0.941614 30:-0.925925 31:-0.940628 32:-0.930542 33:-0.956921 34:-0.961159 35:-0.984315 36:-0.986796 37:-0.976651 38:-0.925171 39:-0.930872 40:-0.985953 41:-0.987775 42:-0.984797 43:-0.980654 44:-0.968102 45:-0.982649 46:-0.970555 47:-0.984281 48:-0.983128 49:-0.986178 50:-0.98853 51:-0.997669 52:-0.995215 53:-0.994451 54:-0.996567 55:-0.995745 56:-0.99278 57:-0.990196 58:-0.991416 59:-1 60:-0.981056 61:-0.86332 
1.600039973960363 1:-0.965726 2:-0.582841 3:-0.648268 4:-0.116125 5:0.465234 6:-0.777882 7:0.15757 8:-0.933912 9:-0.999647 10:-0.440141 11:0.587591 12:-0.999087 13:-0.180109 14:-0.999138 15:-0.970818 16:-0.922143 17:-0.98538 18:-0.975931 19:-0.978566 20:-0.981861 21:-0.981702 22:-0.985569 23:-0.964864 24:-0.967929 25:-0.913918 26:-0.93348 27:-0.910897 28:-0.937381 29:-0.91093 30:-0.958984 31:-0.922819 32:-0.976616 33:-0.953151 34:-0.983239 35:-0.998039 36:-0.991198 37:-0.989224 38:-0.981848 39:-0.980623 40:-0.989967 41:-0.985511 42:-0.980856 43:-0.981575 44:-0.977671 45:-0.980335 46:-0.975085 47:-0.975816 48:-0.972745 49:-0.98065 50:-0.987097 51:-0.981352 52:-0.989234 53:-0.99667 54:-0.998283 55:-1 56:-0.995187 57:-0.995098 58:-1 59:-0.915493 60:-0.982088 61:-0.816877 
2.591270652969572 1:-0.97781 2:-0.515104 3:-0.609082 4:-0.150822 5:0.550823 6:-0.748336 7:0.0903444 8:-0.802846 9:-0.9999 10:-0.440132 11:0.587588 12:-0.99954 13:-0.180118 14:-0.999584 15:-0.969642 16:-0.906052 17:-0.976596 18:-0.974253 19:-0.964525 20:-0.962871 21:-0.960281 22:-0.966835 23:-0.961426 24:-0.973044 25:-0.963791 26:-0.9885 27:-0.971162 28:-0.985976 29:-0.957576 30:-0.964218 31:-0.960666 32:-0.968316 33:-0.980738 34:-0.97203 35:-0.997177 36:-0.993215 37:-0.993414 38:-0.992591 39:-0.995287 40:-0.997324 41:-0.995472 42:-0.993243 43:-0.990788 44:-0.99362 45:-0.989589 46:-0.99094 47:-0.98549 48:-0.990915 49:-0.984796 50:-0.989964 51:-0.98951 52:-0.988038 53:-0.985572 54:-0.972532 55:-0.985106 56:-0.968712 57:-0.985294 58:-0.939914 59:-0.887324 60:-0.96729 61:-0.707041 
0.1062182019412272 1:-0.909473 2:-0.525323 3:-0.499444 4:-0.116464 5:0.469666 6:-0.842928 7:0.178708 8:-0.947674 9:-0.997787 10:-0.440089 11:0.587697 12:-0.995704 13:-0.177696 14:-0.995949 15:-0.92324 16:-0.737267 17:-0.938622 18:-0.821894 19:-0.955808 20:-0.878165 21:-0.965512 22:-0.870436 23:-0.933458 24:-0.888318 25:-0.933309 26:-0.918098 27:-0.931098 28:-0.935007 29:-0.929363 30:-0.934572 31:-0.938011 32:-0.923371 33:-0.964558 34:-0.940393 35:-0.994353 36:-0.973042 37:-0.987827 38:-0.975551 39:-0.982718 40:-0.987625 41:-0.974191 42:-0.946509 43:-0.913404 44:-0.894737 45:-0.901677 46:-0.943375 47:-0.938331 48:-0.926022 49:-0.932274 50:-0.942652 51:-0.961538 52:-0.956938 53:-0.963374 54:-0.948498 55:-0.96383 56:-0.956679 57:-0.936275 58:-0.914163 59:-0.971831 60:-0.95307 61:-0.51808 
0.4046041485251215 1:-0.922688 2:-0.535041 3:-0.474355 4:-0.0879376 5:0.451699 6:-0.879555 7:0.195593 8:-0.9649 9:-0.998923 10:-0.440142 11:0.587546 12:-0.996473 13:-0.17996 14:-0.996792 15:-0.973225 16:-0.903743 17:-0.942868 18:-0.920658 19:-0.93917 20:-0.923897 21:-0.942083 22:-0.926246 23:-0.936414 24:-0.901666 25:-0.949773 26:-0.923995 27:-0.944388 28:-0.919238 29:-0.926333 30:-0.928258 31:-0.945736 32:-0.939577 33:-0.972513 34:-0.931406 35:-0.996392 36:-0.98973 37:-0.992816 38:-0.985182 39:-0.982718 40:-0.987291 41:-0.985963 42:-0.970158 43:-0.929065 44:-0.89261 45:-0.903991 46:-0.9094 47:-0.929867 48:-0.924724 49:-0.947478 50:-0.936918 51:-0.95338 52:-0.952153 53:-0.974473 54:-0.969099 55:-0.953191 56:-0.932611 57:-0.916667 58:-0.776824 59:-0.690141 60:-0.954449 61:-0.449687 
0.2103831059512099 1:-0.915197 2:-0.539385 3:-0.452149 4:-0.061716 5:0.477125 6:-0.907082 7:0.19137 8:-0.94616 9:-0.997912 10:-0.440113 11:0.587519 12:-0.996415 13:-0.180044 14:-0.996552 15:-0.938292 16:-0.768894 17:-0.943866 18:-0.824477 19:-0.95175 20:-0.871273 21:-0.943341 22:-0.891156 23:-0.909636 24:-0.900311 25:-0.914904 26:-0.913178 27:-0.944723 28:-0.905651 29:-0.930248 30:-0.925914 31:-0.935754 32:-0.937168 33:-0.97867 34:-0.934847 35:-0.998039 36:-0.991748 37:-0.989224 38:-0.989257 39:-0.97172 40:-0.982609 41:-0.967399 42:-0.951014 43:-0.894058 44:-0.901116 45:-0.892423 46:-0.92299 47:-0.935913 48:-0.944192 49:-0.94886 50:-0.939785 51:-0.965035 52:-0.950957 53:-0.950055 54:-0.950215 55:-0.944681 56:-0.937425 57:-0.921569 58:-0.845494 59:-0.71831 60:-0.952898 61:-0.415356 
0.07304247095647526 1:-0.916328 2:-0.544406 3:-0.442297 4:-0.0445705 5:0.457686 6:-0.922004 7:0.202638 8:-0.962433 9:-0.998004 10:-0.440113 11:0.587482 12:-0.996134 13:-0.180089 14:-0.996352 15:-0.939519 16:-0.841306 17:-0.94471 18:-0.875562 19:-0.971085 20:-0.922428 21:-0.898364 22:-0.932419 23:-0.8762 24:-0.895381 25:-0.874769 26:-0.913293 27:-0.918865 28:-0.914927 29:-0.918173 30:-0.91437 31:-0.957074 32:-0.932323 33:-0.977035 34:-0.942544 35:-0.995608 36:-0.986613 37:-0.991219 38:-0.977033 39:-0.964912 40:-0.971906 41:-0.961512 42:-0.938063 43:-0.889452 44:-0.883041 45:-0.912088 46:-0.930917 47:-0.950423 48:-0.957171 49:-0.935038 50:-0.952688 51:-0.974359 52:-0.98445 53:-0.985572 54:-0.981116 55:-0.957447 56:-0.990373 57:-0.995098 58:-0.991416 59:-1 60:-0.956404 61:-0.472789 
0.0629833827037347 1:-0.900286 2:-0.618464 3:-0.490484 4:0.0479072 5:0.456985 6:-0.97334 7:0.216415 8:-0.95921 9:-0.997406 10:-0.440121 11:0.587312 12:-0.995916 13:-0.17955 14:-0.996118 15:-0.935257 16:-0.809139 17:-0.963187 18:-0.830774 19:-0.968287 20:-0.866601 21:-0.952822 22:-0.87938 23:-0.92302 24:-0.857549 25:-0.915248 26:-0.856909 27:-0.923091 28:-0.867705 29:-0.92499 30:-0.864143 31:-0.95086 32:-0.902567 33:-0.970453 34:-0.945416 35:-0.982354 36:-0.972859 37:-0.921573 38:-0.879607 39:-0.930348 40:-0.96689 41:-0.961965 42:-0.996059 43:-1 44:-1 45:-1 46:-1 47:-1 48:-1 49:-1 50:-1 51:-1 52:-1 53:-1 54:-1 55:-1 56:-1 57:-1 58:-1 59:-1 60:-0.95175 61:-0.45335 
0.2845523350608504 1:-0.890393 2:-0.677016 3:-0.561338 4:0.0631405 5:0.438262 6:-0.976613 7:0.220368 8:-0.969337 9:-0.997577 10:-0.440179 11:0.587705 12:-0.995547 13:-0.180054 14:-0.995786 15:-0.90302 16:-0.902428 17:-0.956697 18:-0.887666 19:-0.971284 20:-0.885323 21:-0.978117 22:-0.861663 23:-0.963177 24:-0.836212 25:-0.957976 26:-0.836025 27:-0.960299 28:-0.835412 29:-0.963089 30:-0.83896 31:-0.966877 32:-0.885372 33:-0.972943 34:-0.942987 35:-0.992628 36:-0.984045 37:-0.985632 38:-0.979996 39:-0.97591 40:-0.984615 41:-0.970115 42:-0.947635 43:-0.874712 44:-0.803296 45:-0.766339 46:-0.894677 47:-0.949214 48:-0.964958 49:-0.943331 50:-0.958423 51:-0.97669 52:-0.966507 53:-0.975583 54:-0.945064 55:-0.925532 56:-0.935018 57:-0.79902 58:-0.793991 59:-0.661972 60:-0.952391 61:-0.478306 
0.7177892699316047 1:-0.878167 2:-0.754207 3:-0.707019 4:0.0160065 5:0.433617 6:-0.924931 7:0.202079 8:-0.959874 9:-0.996747 10:-0.440106 11:0.587408 12:-0.995616 13:-0.180137 14:-0.995732 15:-0.949624 16:-0.916714 17:-0.960028 18:-0.911021 19:-0.93769 20:-0.812554 21:-0.939823 22:-0.827085 23:-0.925621 24:-0.84034 25:-0.929437 26:-0.842133 27:-0.937877 28:-0.846642 29:-0.941763 30:-0.842186 31:-0.959565 32:-0.874357 33:-0.957093 34:-0.939296 35:-0.983609 36:-0.980378 37:-0.986031 38:-0.978885 39:-0.971197 40:-0.977592 41:-0.959248 42:-0.949324 43:-0.874712 44:-0.811802 45:-0.798728 46:-0.892412 47:-0.929867 48:-0.944192 49:-0.966828 50:-0.956989 51:-0.9662 52:-0.966507 53:-0.986681 54:-0.972532 55:-0.942553 56:-0.925391 57:-0.75 58:-0.742489 59:-0.408451 60:-0.951638 61:-0.547744 
127.7114315473921 1:-0.914773 2:-0.815937 3:-0.77328 4:0.0722061 5:0.455087 6:-0.962666 7:0.20063 8:-0.915074 9:-0.998575 10:-0.440141 11:0.587529 12:-0.997346 13:-0.179762 14:-0.997496 15:-0.960941 16:-0.825952 17:-0.944146 18:-0.864493 19:-0.947419 20:-0.907011 21:-0.951226 22:-0.92197 23:-0.95409 24:-0.920766 25:-0.945415 26:-0.909684 27:-0.943587 28:-0.905377 29:-0.935906 30:-0.912238 31:-0.938987 32:-0.92769 33:-0.95332 34:-0.944391 35:-0.990903 36:-0.989547 37:-0.988226 38:-0.987035 39:-0.97172 40:-0.965217 41:-0.952456 42:-0.95214 43:-0.933671 44:-0.912812 45:-0.917872 46:-0.92299 47:-0.951632 48:-0.94549 49:-0.950242 50:-0.96129 51:-0.9662 52:-0.973684 53:-0.980022 54:-0.974249 55:-0.974468 56:-0.973526 57:-0.95098 58:-0.828326 59:-0.464789 60:-0.955544 61:-0.570947 
2.87714080397979 1:-0.96516 2:-0.461606 3:-0.255873 4:0.223333 5:0.516519 6:-0.995164 7:0.249392 8:-0.929846 9:-0.999732 10:-0.44014 11:0.587578 12:-0.999058 13:-0.180109 14:-0.999146 15:-0.979686 16:-0.951372 17:-0.986213 18:-0.958861 19:-0.979337 20:-0.944824 21:-0.989814 22:-0.94124 23:-0.95363 24:-0.937957 25:-0.942553 26:-0.943563 27:-0.941978 28:-0.955376 29:-0.929187 30:-0.9567 31:-0.937017 32:-0.964392 33:-0.952862 34:-0.97295 35:-0.986119 36:-0.971942 37:-0.987627 38:-0.975181 39:-0.981671 40:-0.999666 41:-1 42:-1 43:-1 44:-0.998937 45:-1 46:-1 47:-1 48:-1 49:-1 50:-1 51:-1 52:-1 53:-1 54:-1 55:-1 56:-1 57:-1 58:-1 59:-1 60:-0.9555 61:-0.646135 
4.572550131081893 1:-0.994205 2:-0.407123 3:-0.238011 4:0.233224 5:0.730606 6:-0.993706 7:0.269769 8:-0.618392 9:-0.99999 10:-0.440131 11:0.587594 12:-0.999978 13:-0.180105 14:-0.999979 15:-0.996147 16:-0.974927 17:-0.996368 18:-0.957117 19:-0.99652 20:-0.965 21:-0.993915 22:-0.954079 23:-0.993671 24:-0.952442 25:-0.993409 26:-0.96496 27:-0.990253 28:-0.957871 29:-0.995536 30:-0.967618 31:-0.993155 32:-0.977836 33:-0.992694 34:-0.988388 35:-0.999843 36:-0.996149 37:-0.998404 38:-0.993703 39:-0.993192 40:-0.995318 41:-0.99683 42:-1 43:-0.999079 44:-1 45:-1 46:-1 47:-0.998791 48:-1 49:-0.998618 50:-1 51:-1 52:-1 53:-1 54:-1 55:-1 56:-1 57:-1 58:-1 59:-1 60:-0.965625 61:-0.682371 
0.3455510230143801 1:-0.904385 2:-0.648201 3:-0.503832 4:0.0901168 5:0.46017 6:-0.988687 7:0.223245 8:-0.955825 9:-0.997547 10:-0.440134 11:0.587615 12:-0.99591 13:-0.180079 14:-0.9961 15:-0.955722 16:-0.78503 17:-0.947316 18:-0.843349 19:-0.952554 20:-0.885172 21:-0.918663 22:-0.892815 23:-0.894601 24:-0.879762 25:-0.895775 26:-0.890782 27:-0.922271 28:-0.906737 29:-0.910195 30:-0.90487 31:-0.927916 32:-0.929449 33:-0.978902 34:-0.940983 35:-0.996471 36:-0.981111 37:-0.988226 38:-0.984442 39:-0.975386 40:-0.977926 41:-0.966493 42:-0.948198 43:-0.899585 44:-0.877725 45:-0.892423 46:-0.90034 47:-0.916566 48:-0.937703 49:-0.932274 50:-0.962724 51:-0.963869 52:-0.962919 53:-0.962264 54:-0.967382 55:-0.946809 56:-0.954272 57:-0.882353 58:-0.742489 59:-0.492958 60:-0.95366 61:-0.486104 
0.07355388583508697 1:-0.897601 2:-0.630588 3:-0.545787 4:-0.0122194 5:0.435529 6:-0.931589 7:0.20966 8:-0.972853 9:-0.997649 10:-0.440306 11:0.587466 12:-0.996033 13:-0.18281 14:-0.996174 15:-0.96758 16:-0.915673 17:-0.950706 18:-0.903698 19:-0.946809 20:-0.910594 21:-0.963278 22:-0.889794 23:-0.952734 24:-0.83279 25:-0.951039 26:-0.818228 27:-0.955172 28:-0.836717 29:-0.959909 30:-0.829524 31:-0.96223 32:-0.880225 33:-0.968231 34:-0.948608 35:-0.982825 36:-0.95342 37:-0.896827 38:-0.920726 39:-0.926159 40:-0.975585 41:-0.984605 42:-1 43:-1 44:-1 45:-1 46:-1 47:-1 48:-1 49:-1 50:-1 51:-1 52:-1 53:-1 54:-1 55:-1 56:-1 57:-1 58:-1 59:-1 60:-0.950385 61:-0.44442 
0.6351659836306425 1:-0.899509 2:-0.633454 3:-0.563937 4:-0.0118522 5:0.425506 6:-0.92906 7:0.212482 8:-0.97831 9:-0.997608 10:-0.440119 11:0.587671 12:-0.996291 13:-0.180097 14:-0.996419 15:-0.883201 16:-0.961788 17:-0.946709 18:-0.929868 19:-0.946135 20:-0.91584 21:-0.959383 22:-0.860727 23:-0.960906 24:-0.825957 25:-0.949228 26:-0.822756 27:-0.96788 28:-0.825668 29:-0.971754 30:-0.828354 31:-0.965073 32:-0.883715 33:-0.960231 34:-0.944813 35:-0.984942 36:-0.975793 37:-0.971662 38:-0.876273 39:-0.834512 40:-0.969231 41:-0.964682 42:-0.970721 43:-0.957623 44:-0.958533 45:-0.997687 46:-1 47:-1 48:-1 49:-1 50:-1 51:-1 52:-1 53:-1 54:-1 55:-1 56:-1 57:-1 58:-1 59:-1 60:-0.953339 61:-0.483062 
0.6699749553877365 1:-0.882902 2:-0.855777 3:-0.80374 4:0.0711211 5:0.43427 6:-0.955631 7:0.204083 8:-0.93684 9:-0.994853 10:-0.440107 11:0.587546 12:-0.997133 13:-0.180084 14:-0.997066 15:-0.869195 16:-0.926263 17:-0.880326 18:-0.901386 19:-0.917277 20:-0.913657 21:-0.916842 22:-0.889203 23:-0.927314 24:-0.886305 25:-0.882889 26:-0.82783 27:-0.907962 28:-0.776281 29:-0.913172 30:-0.745515 31:-0.956939 32:-0.833557 33:-0.966295 34:-0.86515 35:-0.97906 36:-0.984962 37:-0.98623 38:-0.973699 39:-0.955486 40:-0.973244 41:-0.952004 42:-0.938626 43:-0.835099 44:-0.838384 45:-0.913245 46:-0.939977 47:-0.967352 48:-0.944192 49:-0.970974 50:-0.98853 51:-0.975524 52:-0.970096 53:-0.980022 54:-0.958798 55:-0.929787 56:-0.920578 57:-0.857843 58:-0.742489 59:-0.43662 60:-0.951087 61:-0.596133 
0.2460282290191441 1:-0.884174 2:-0.85808 3:-0.826908 4:0.0754364 5:0.434692 6:-0.954261 7:0.201158 8:-0.930605 9:-0.995498 10:-0.440137 11:0.587471 12:-0.997508 13:-0.180085 14:-0.997281 15:-0.877318 16:-0.926672 17:-0.889459 18:-0.927556 19:-0.932378 20:-0.911354 21:-0.950003 22:-0.889516 23:-0.946236 24:-0.879483 25:-0.931979 26:-0.866483 27:-0.893379 28:-0.847922 29:-0.898925 30:-0.737831 31:-0.915456 32:-0.837824 33:-0.949406 34:-0.861769 35:-0.967767 36:-0.978177 37:-0.983436 38:-0.979626 39:-0.955486 40:-0.967224 41:-0.940684 42:-0.925676 43:-0.907877 44:-0.939394 45:-0.958357 46:-0.964892 47:-0.958888 48:-0.971447 49:-0.977885 50:-0.985663 51:-0.980186 52:-0.98445 53:-0.970033 54:-0.945064 55:-0.934043 56:-0.90373 57:-0.813725 58:-0.828326 59:-0.887324 60:-0.945211 61:-0.631899 
1.398091023743237 1:-0.918024 2:-0.860986 3:-0.8417 4:0.0782661 5:0.436227 6:-0.95301 7:0.198128 8:-0.922899 9:-0.997088 10:-0.440114 11:0.587578 12:-0.998139 13:-0.180102 14:-0.997912 15:-0.957807 16:-0.936637 17:-0.957076 18:-0.917916 19:-0.957138 20:-0.907735 21:-0.971327 22:-0.88788 23:-0.946117 24:-0.876882 25:-0.945621 26:-0.874077 27:-0.930411 28:-0.870941 29:-0.949318 30:-0.757844 31:-0.902504 32:-0.757145 33:-0.890551 34:-0.839534 35:-0.973571 36:-0.982028 37:-0.987228 38:-0.976662 39:-0.96177 40:-0.976923 41:-0.952456 42:-0.951577 43:-0.953017 44:-0.963849 45:-0.980335 46:-0.980747 47:-0.974607 48:-0.988319 49:-0.993089 50:-0.981362 51:-0.994172 52:-0.990431 53:-0.984462 54:-0.986266 55:-0.978723 56:-0.973526 57:-0.926471 58:-0.828326 59:-0.71831 60:-0.952113 61:-0.710487 
4.584374649829781 1:-0.978446 2:-0.855678 3:-0.844037 4:0.0804093 5:0.456262 6:-0.954634 7:0.187954 8:-0.874669 9:-0.999373 10:-0.440143 11:0.587607 12:-0.999433 13:-0.180093 14:-0.999398 15:-0.969306 16:-0.974767 17:-0.962942 18:-0.931829 19:-0.971511 20:-0.942066 21:-0.977936 22:-0.955924 23:-0.979316 24:-0.933959 25:-1 26:-1 27:-0.937295 28:-0.869544 29:-0.944212 30:-0.874257 31:-0.928516 32:-0.804404 33:-0.935632 34:-0.910521 35:-0.990981 36:-0.994498 37:-0.996807 38:-0.997777 39:-0.993716 40:-0.997324 41:-0.995925 42:-0.995495 43:-0.989866 44:-0.979798 45:-0.989589 46:-0.993205 47:-0.996372 48:-0.984426 49:-0.988943 50:-0.991398 51:-0.98951 52:-0.988038 53:-0.994451 54:-0.998283 55:-0.997872 56:-0.995187 57:-1 58:-1 59:-0.943662 60:-0.967703 61:-0.80871 
7.96020907193459 1:-0.968764 2:-0.846248 3:-0.835636 4:0.0675009 5:0.411566 6:-0.943951 7:0.209203 8:-0.966653 9:-0.999775 10:-0.440132 11:0.587607 12:-0.999736 13:-0.180112 14:-0.999748 15:-0.985774 16:-0.96513 17:-0.999732 18:-0.999186 19:-0.971876 20:-0.984015 21:-0.99153 22:-0.965795 23:-0.968182 24:-0.95731 25:-0.967706 26:-0.940031 27:-0.959194 28:-0.93384 29:-0.968445 30:-0.92862 31:-0.947867 32:-0.94491 33:-0.951907 34:-0.948265 35:-0.982354 36:-0.989547 37:-0.99541 38:-0.992591 39:-0.994763 40:-0.996321 41:-0.995472 42:-0.996622 43:-0.991709 44:-0.997873 45:-0.994216 46:-0.988675 47:-0.993954 48:-0.997404 49:-0.991707 50:-0.98853 51:-0.996503 52:-0.990431 53:-0.993341 54:-0.9897 55:-0.991489 56:-0.990373 57:-0.985294 58:-0.982833 59:-1 60:-0.974438 61:-0.888681 
0.1244595782238986 1:-0.911664 2:-0.570084 3:-0.652776 4:-0.123717 5:0.443622 6:-0.761204 7:0.171295 8:-0.95473 9:-0.99812 10:-0.440946 11:0.587665 12:-0.996084 13:-0.180037 14:-0.996438 15:-0.943175 16:-0.784026 17:-0.965317 18:-0.858515 19:-0.919914 20:-0.943581 21:-0.899156 22:-0.956359 23:-0.89886 24:-0.915941 25:-0.894011 26:-0.944554 27:-0.901068 28:-0.96065 29:-0.903424 30:-0.954414 31:-0.92831 32:-0.939588 33:-0.973684 34:-0.950271 35:-0.996706 36:-0.98808 37:-0.985632 38:-0.971476 39:-0.973291 40:-0.98495 41:-0.971927 42:-0.962275 43:-0.918931 44:-0.911749 45:-0.902834 46:-0.935447 47:-0.911729 48:-0.913043 49:-0.93642 50:-0.944086 51:-0.961538 52:-0.952153 53:-0.958935 54:-0.948498 55:-0.944681 56:-0.947052 57:-0.931373 58:-0.854077 59:-0.549296 60:-0.9543 61:-0.483736 
0.2983525102176502 1:-0.913431 2:-0.519879 3:-0.65594 4:-0.164161 5:0.442489 6:-0.686334 7:0.162321 8:-0.955747 9:-0.997975 10:-0.440097 11:0.587874 12:-0.996113 13:-0.180334 14:-0.996417 15:-0.926172 16:-0.762047 17:-0.94714 18:-0.833294 19:-0.931816 20:-0.894148 21:-0.894905 22:-0.944702 23:-0.895702 24:-0.954683 25:-0.891326 26:-0.976575 27:-0.912097 28:-0.962134 29:-0.905899 30:-0.962881 31:-0.948528 32:-0.940503 33:-0.960388 34:-0.956519 35:-0.956788 36:-0.900422 37:-0.973259 38:-1 39:-1 40:-1 41:-1 42:-1 43:-1 44:-1 45:-1 46:-1 47:-1 48:-1 49:-1 50:-1 51:-1 52:-1 53:-1 54:-1 55:-1 56:-1 57:-1 58:-1 59:-1 60:-0.931541 61:-0.403149 
0.02458107559764082 1:-0.929543 2:-0.493939 3:-0.670295 4:-0.179007 5:0.424918 6:-0.642264 7:0.173249 8:-0.971569 9:-0.999078 10:-0.440159 11:0.587497 12:-0.996823 13:-0.18014 14:-0.997135 15:-0.960582 16:-0.89398 17:-0.9716 18:-0.941642 19:-0.962434 20:-0.935592 21:-0.942663 22:-0.952288 23:-0.920034 24:-0.928896 25:-0.920821 26:-0.940182 27:-0.935127 28:-0.941289 29:-0.921783 30:-0.96931 31:-0.960234 32:-0.92956 33:-0.938034 34:-0.956103 35:-0.999373 36:-0.995599 37:-0.99082 38:-0.982589 39:-0.973815 40:-0.984281 41:-0.975096 42:-0.967342 43:-0.921695 44:-0.890484 45:-0.903991 46:-0.912797 47:-0.941959 48:-0.962362 49:-0.965446 50:-0.951254 51:-0.9662 52:-0.966507 53:-0.977802 54:-0.975966 55:-0.970213 56:-0.954272 57:-0.892157 58:-0.776824 59:-0.746479 60:-0.959165 61:-0.460378 
0.8757603580865287 1:-0.921982 2:-0.451504 3:-0.685848 4:-0.199618 5:0.426403 6:-0.578134 7:0.164407 8:-0.969611 9:-0.998004 10:-0.440156 11:0.587717 12:-0.996841 13:-0.180067 14:-0.996944 15:-0.95281 16:-0.889173 17:-0.965801 18:-0.875081 19:-0.96959 20:-0.921439 21:-0.962406 22:-0.882248 23:-0.943336 24:-0.816522 25:-0.927974 26:-0.805104 27:-0.948717 28:-0.822335 29:-0.952627 30:-0.851268 31:-0.936336 32:-0.919057 33:-0.95195 34:-0.982526 35:-0.998667 36:-0.996699 37:-0.995211 38:-0.986664 39:-0.976434 40:-0.979933 41:-0.966946 42:-0.943131 43:-0.905113 44:-0.8958 45:-0.870445 46:-0.911665 47:-0.928658 48:-0.940299 49:-0.953006 50:-0.949821 51:-0.954545 52:-0.978469 53:-0.975583 54:-0.960515 55:-0.965957 56:-0.968712 57:-0.921569 58:-0.888412 59:-0.774648 60:-0.96425 61:-0.438286 
1.013154136618793 1:-0.919155 2:-0.44709 3:-0.693346 4:-0.19706 5:0.413074 6:-0.574309 7:0.178486 8:-0.979935 9:-0.998053 10:-0.445037 11:0.597551 12:-0.996998 13:-0.180113 14:-0.99709 15:-0.930741 16:-0.93018 17:-0.946238 18:-0.915444 19:-0.971138 20:-0.881245 21:-0.962965 22:-0.867755 23:-0.925327 24:-0.825781 25:-0.92022 26:-0.824999 27:-0.925438 28:-0.837992 29:-0.930515 30:-0.856432 31:-0.931613 32:-0.91804 33:-0.948187 34:-0.980907 35:-0.99553 36:-0.975243 37:-0.927759 38:-0.882941 39:-0.944488 40:-0.973579 41:-0.970568 42:-0.985923 43:-1 44:-1 45:-0.998843 46:-1 47:-1 48:-1 49:-1 50:-1 51:-1 52:-1 53:-1 54:-1 55:-0.997872 56:-1 57:-1 58:-1 59:-1 60:-0.957664 61:-0.430326 
0.4327577722296587 1:-0.903113 2:-0.482742 3:-0.704752 4:-0.182632 5:0.420555 6:-0.592435 7:0.170095 8:-0.973269 9:-0.997875 10:-0.440119 11:0.587539 12:-0.996472 13:-0.180057 14:-0.996601 15:-0.978449 16:-0.888853 17:-0.960977 18:-0.889027 19:-0.93329 20:-0.935651 21:-0.89293 22:-0.942858 23:-0.873406 24:-0.93431 25:-0.864046 26:-0.924274 27:-0.872489 28:-0.923685 29:-0.879704 30:-0.928136 31:-0.915645 32:-0.951537 33:-0.965726 34:-0.960216 35:-0.986276 36:-0.882267 37:-0.934145 38:-0.948509 39:-0.954438 40:-0.999666 41:-1 42:-1 43:-1 44:-1 45:-1 46:-1 47:-1 48:-1 49:-1 50:-1 51:-1 52:-1 53:-1 54:-1 55:-1 56:-1 57:-1 58:-1 59:-1 60:-0.956104 61:-0.441498 
0.5704058223332245 1:-0.910887 2:-0.521724 3:-0.706068 4:-0.167088 5:0.419913 6:-0.626119 7:0.173468 8:-0.972598 9:-0.997811 10:-0.440135 11:0.587576 12:-0.996497 13:-0.180069 14:-0.996684 15:-0.959835 16:-0.787392 17:-0.96499 18:-0.8834 19:-0.931893 20:-0.958733 21:-0.917729 22:-0.959245 23:-0.87296 24:-0.944312 25:-0.867862 26:-0.96 27:-0.879924 28:-0.944825 29:-0.874106 30:-0.95162 31:-0.907938 32:-0.944579 33:-0.969151 34:-0.947094 35:-0.999137 36:-0.995232 37:-0.994213 38:-0.980737 39:-0.972244 40:-0.982609 41:-0.965588 42:-0.9375 43:-0.874712 44:-0.8437 45:-0.847311 46:-0.876557 47:-0.935913 48:-0.924724 49:-0.958535 50:-0.962724 51:-0.965035 52:-0.956938 53:-0.980022 54:-0.970815 55:-0.957447 56:-0.951865 57:-0.926471 58:-0.948498 59:-0.971831 60:-0.96418 61:-0.464582 
0.1580347833512127 1:-0.903042 2:-0.564452 3:-0.471797 4:-0.0478528 5:0.475973 6:-0.915063 7:0.193038 8:-0.944227 9:-0.997324 10:-0.440162 11:0.587751 12:-0.995961 13:-0.179996 14:-0.996147 15:-0.962807 16:-0.763136 17:-0.955001 18:-0.822703 19:-0.94821 20:-0.862583 21:-0.951097 22:-0.882881 23:-0.883926 24:-0.877708 25:-0.870108 26:-0.896026 27:-0.94183 28:-0.902602 29:-0.904383 30:-0.911045 31:-0.930037 32:-0.92515 33:-0.97726 34:-0.947066 35:-0.995765 36:-0.98918 37:-0.986629 38:-0.972217 39:-0.96177 40:-0.968896 41:-0.937967 42:-0.934122 43:-0.912483 44:-0.89899 45:-0.916715 46:-0.95017 47:-0.938331 48:-0.942894 49:-0.926745 50:-0.926882 51:-0.951049 52:-0.955742 53:-0.980022 54:-0.953648 55:-0.942553 56:-0.942238 57:-0.936275 58:-0.939914 59:-1 60:-0.961158 61:-0.560342 
0.2059738135986492 1:-0.901205 2:-0.571642 3:-0.753552 4:-0.117581 5:0.42161 6:-0.676682 7:0.170502 8:-0.965488 9:-0.99742 10:-0.440117 11:0.587839 12:-0.996166 13:-0.180015 14:-0.996378 15:-0.863397 16:-0.916671 17:-0.912581 18:-0.949325 19:-0.922805 20:-0.94558 21:-0.931233 22:-0.922389 23:-0.908287 24:-0.896734 25:-0.905882 26:-0.827169 27:-0.923889 28:-0.850214 29:-0.906933 30:-0.872748 31:-0.913136 32:-0.916078 33:-0.948532 34:-0.97755 35:-0.997647 36:-0.991198 37:-0.988825 38:-0.985182 39:-0.966483 40:-0.974247 41:-0.960154 42:-0.947635 43:-0.923538 44:-0.861776 45:-0.871602 46:-0.892412 47:-0.918984 48:-0.950681 49:-0.943331 50:-0.944086 51:-0.959207 52:-0.952153 53:-0.940067 54:-0.941631 55:-0.925532 56:-0.894103 57:-0.803922 58:-0.914163 59:-0.746479 60:-0.957424 61:-0.464785 
0.563564179905117 1:-0.913643 2:-0.52812 3:-0.642814 4:-0.155061 5:0.437776 6:-0.714706 7:0.171263 8:-0.961771 9:-0.998039 10:-0.44013 11:0.587694 12:-0.99628 13:-0.180104 14:-0.996577 15:-0.945056 16:-0.815447 17:-0.966481 18:-0.863452 19:-0.960082 20:-0.893087 21:-0.91529 22:-0.928668 23:-0.889909 24:-0.925778 25:-0.879618 26:-0.937473 27:-0.883915 28:-0.958321 29:-0.888184 30:-0.957699 31:-0.916613 32:-0.953167 33:-0.962182 34:-0.95832 35:-0.999059 36:-0.991198 37:-0.99102 38:-0.988146 39:-0.968578 40:-0.982609 41:-0.972832 42:-0.95777 43:-0.909719 44:-0.886231 45:-0.879699 46:-0.87316 47:-0.892382 48:-0.907852 49:-0.94886 50:-0.935484 51:-0.95338 52:-0.955742 53:-0.968923 54:-0.955365 55:-0.980851 56:-0.98556 57:-0.960784 58:-0.922747 59:-0.577465 60:-0.96203 61:-0.467465 
0.01015929316505798 1:-0.923678 2:-0.824314 3:-0.759547 4:0.100964 5:0.296835 6:-0.983232 7:0.254038 8:-0.959533 9:-0.998747 10:-0.440175 11:0.587534 12:-0.996317 13:-0.180139 14:-0.996655 15:-0.920157 16:-0.853207 17:-0.94747 18:-0.880283 19:-0.97239 20:-0.905232 21:-0.970465 22:-0.954668 23:-0.905657 24:-0.92432 25:-0.937492 26:-0.93184 27:-0.94563 28:-0.942975 29:-0.950493 30:-0.942445 31:-0.950494 32:-0.959592 33:-0.96876 34:-0.955429 35:-0.990903 36:-0.955988 37:-0.927958 38:-0.910354 39:-0.948154 40:-0.992642 41:-1 42:-1 43:-1 44:-1 45:-0.998843 46:-1 47:-1 48:-1 49:-1 50:-1 51:-1 52:-1 53:-0.99889 54:-1 55:-0.997872 56:-1 57:-1 58:-1 59:-1 60:-0.957099 61:-0.466215 
0.5003572088740341 1:-0.898237 2:-0.810258 3:-0.751434 4:0.0743514 5:0.30925 6:-0.967312 7:0.255836 8:-0.974251 9:-0.997718 10:-0.440089 11:0.587713 12:-0.995999 13:-0.180134 14:-0.9962 15:-0.899872 16:-0.947674 17:-0.905913 18:-0.934453 19:-0.924432 20:-0.918908 21:-0.949679 22:-0.899681 23:-0.939311 24:-0.848208 25:-0.946449 26:-0.841944 27:-0.947071 28:-0.847134 29:-0.940557 30:-0.852015 31:-0.951706 32:-0.892589 33:-0.969644 34:-0.952136 35:-0.998353 36:-0.987163 37:-0.989423 38:-0.978885 39:-0.977481 40:-0.98194 41:-0.973285 42:-0.960023 43:-0.901428 44:-0.782031 45:-0.720069 46:-0.849377 47:-0.927449 48:-0.944192 49:-0.954388 50:-0.944086 51:-0.959207 52:-0.970096 53:-0.967814 54:-0.974249 55:-0.957447 56:-0.956679 57:-0.960784 58:-0.991416 59:-0.943662 60:-0.961425 61:-0.44403 
6.146261766088048 1:-0.97145 2:-0.792446 3:-0.864252 4:0.0238356 5:0.290135 6:-0.8565 7:0.308609 8:-0.918518 9:-0.999693 10:-0.44013 11:0.587601 12:-0.999762 13:-0.180106 14:-0.999752 15:-0.978141 16:-0.957949 17:-0.961711 18:-0.966084 19:-0.972006 20:-0.951493 21:-0.975532 22:-0.950867 23:-0.904188 24:-0.944841 25:-0.883664 26:-0.946564 27:-0.904583 28:-0.968934 29:-0.935548 30:-0.982396 31:-0.981069 32:-0.990307 33:-0.990975 34:-0.996002 35:-0.99749 36:-0.978544 37:-0.983037 38:-0.988146 39:-0.982194 40:-0.996321 41:-0.994114 42:-0.996059 43:-0.994473 44:-0.991494 45:-0.99306 46:-0.992072 47:-0.995163 48:-0.992213 49:-0.991707 50:-0.991398 51:-0.997669 52:-0.996411 53:-0.994451 54:-0.99485 55:-0.989362 56:-0.99278 57:-0.990196 58:-0.991416 59:-0.915493 60:-0.993089 61:-0.957093 
0.004471370637811585 1:-0.912159 2:-0.78193 3:-0.704195 4:0.102069 5:0.302033 6:-0.986858 7:0.249553 8:-0.971984 9:-0.998552 10:-0.440135 11:0.587345 12:-0.99619 13:-0.180153 14:-0.996503 15:-0.903594 16:-0.950488 17:-0.917314 18:-0.934733 19:-0.946268 20:-0.924003 21:-0.966651 22:-0.898452 23:-0.955631 24:-0.873372 25:-0.964746 26:-0.872352 27:-0.985999 28:-0.856037 29:-0.972768 30:-0.86044 31:-0.949455 32:-0.902339 33:-0.945835 34:-0.969301 35:-0.996785 36:-0.991198 37:-0.98623 38:-0.979255 39:-0.969102 40:-0.973579 41:-0.959248 42:-0.915541 43:-0.864579 44:-0.807549 45:-0.892423 46:-0.938845 47:-0.937122 48:-0.944192 49:-0.958535 50:-0.984229 51:-0.988345 52:-0.983254 53:-0.986681 54:-0.9897 55:-0.997872 56:-1 57:-1 58:-1 59:-1 60:-0.9614 61:-0.448996 
0.1435736003086594 1:-0.90707 2:-0.791813 3:-0.726447 4:0.0752767 5:0.313117 6:-0.970976 7:0.252721 8:-0.980189 9:-0.998216 10:-0.440161 11:0.587616 12:-0.996548 13:-0.180073 14:-0.996714 15:-0.932992 16:-0.936688 17:-0.942411 18:-0.902462 19:-0.9622 20:-0.917836 21:-0.976816 22:-0.905826 23:-0.961828 24:-0.844121 25:-0.95515 26:-0.83915 27:-0.94932 28:-0.846953 29:-0.960535 30:-0.853674 31:-0.95593 32:-0.890987 33:-0.958206 34:-0.963666 35:-0.997883 36:-0.994315 37:-0.994213 38:-0.987776 39:-0.984813 40:-0.986957 41:-0.978266 42:-0.969032 43:-0.909719 44:-0.839447 45:-0.773279 46:-0.784824 47:-0.898428 48:-0.935107 49:-0.951624 50:-0.952688 51:-0.962704 52:-0.967703 53:-0.962264 54:-0.962232 55:-0.948936 56:-0.959085 57:-0.906863 58:-0.879828 59:-0.971831 60:-0.960698 61:-0.404926 
21.09583889491449 1:-0.975973 2:-0.983064 3:-0.999082 4:0.161361 5:0.360184 6:-0.977157 7:0.25095 8:-0.981347 9:-0.999879 10:-0.44013 11:0.587597 12:-0.999825 13:-0.180105 14:-0.99983 15:-0.962638 16:-0.963245 17:-0.935012 18:-0.954921 19:-0.948033 20:-0.9597 21:-0.955283 22:-0.970722 23:-0.964894 24:-0.960733 25:-0.975415 26:-0.951987 27:-0.979168 28:-0.984722 29:-0.987323 30:-0.987476 31:-0.989169 32:-0.97657 33:-0.991366 34:-0.977674 35:-0.984315 36:-0.993031 37:-0.995011 38:-0.993703 39:-0.996334 40:-0.995987 41:-0.997736 42:-0.996622 43:-0.996315 44:-0.99681 45:-0.99306 46:-0.998867 47:-0.997582 48:-0.997404 49:-0.997236 50:-1 51:-0.997669 52:-0.995215 53:-0.99778 54:-1 55:-0.997872 56:-0.995187 57:-0.990196 58:-1 59:-1 60:-0.991675 61:-0.96413 
0.3454282648962852 1:-0.902901 2:-0.982263 3:-0.96656 4:0.175 5:0.378161 6:-0.995255 7:0.243688 8:-0.978579 9:-0.998067 10:-0.440114 11:0.587741 12:-0.995796 13:-0.180204 14:-0.99601 15:-0.941528 16:-0.918235 17:-0.92504 18:-0.925495 19:-0.92673 20:-0.948339 21:-0.929282 22:-0.906305 23:-0.908169 24:-0.894189 25:-0.934273 26:-0.833599 27:-0.936622 28:-0.856545 29:-0.929774 30:-0.869705 31:-0.947192 32:-0.911231 33:-0.955018 34:-0.965428 35:-0.95718 36:-0.85806 37:-0.989423 38:-1 39:-0.998953 40:-1 41:-1 42:-0.999437 43:-1 44:-1 45:-1 46:-1 47:-1 48:-0.998702 49:-1 50:-1 51:-1 52:-1 53:-1 54:-1 55:-1 56:-1 57:-1 58:-1 59:-1 60:-0.934959 61:-0.489575 
0.7977171915229728 1:-0.904597 2:-0.968463 3:-0.946136 4:0.173748 5:0.382238 6:-0.997573 7:0.241426 8:-0.97841 9:-0.99721 10:-0.440145 11:0.587577 12:-0.996248 13:-0.180165 14:-0.996447 15:-0.834347 16:-0.912506 17:-0.87062 18:-0.921576 19:-0.969035 20:-0.970454 21:-0.91964 22:-0.886545 23:-0.896105 24:-0.889766 25:-0.923934 26:-0.848205 27:-0.91881 28:-0.850701 29:-0.923655 30:-0.870091 31:-0.940927 32:-0.904902 33:-0.952223 34:-0.953771 35:-0.964709 36:-0.860627 37:-0.97286 38:-0.998148 39:-1 40:-0.999666 41:-1 42:-1 43:-1 44:-1 45:-1 46:-1 47:-1 48:-1 49:-0.998618 50:-1 51:-1 52:-1 53:-1 54:-1 55:-1 56:-1 57:-1 58:-1 59:-1 60:-0.939678 61:-0.490725 
0.2322766517694813 1:-0.912865 2:-0.944943 3:-0.911102 4:0.165012 5:0.386144 6:-0.999585 7:0.23778 8:-0.982206 9:-0.997682 10:-0.440117 11:0.58746 12:-0.997208 13:-0.180136 14:-0.997323 15:-0.961214 16:-0.965091 17:-0.954605 18:-0.9485 19:-0.965926 20:-0.894553 21:-0.942861 22:-0.858083 23:-0.910087 24:-0.867203 25:-0.903042 26:-0.859869 27:-0.914628 28:-0.870416 29:-0.913785 30:-0.873595 31:-0.941837 32:-0.911108 33:-0.962271 34:-0.959702 35:-0.907929 36:-0.98918 37:-1 38:-0.99963 39:-0.999476 40:-1 41:-1 42:-1 43:-1 44:-1 45:-1 46:-1 47:-1 48:-0.998702 49:-1 50:-1 51:-1 52:-1 53:-1 54:-1 55:-1 56:-1 57:-1 58:-1 59:-1 60:-0.879516 61:-0.436102 
0.05164288853397847 1:-0.920639 2:-0.907381 3:-0.865841 4:0.148318 5:0.392701 6:-0.997817 7:0.233915 8:-0.982034 9:-0.998004 10:-0.440141 11:0.587646 12:-0.997683 13:-0.180133 14:-0.997746 15:-0.982488 16:-0.962616 17:-0.910597 18:-0.957068 19:-0.914315 20:-0.952018 21:-0.904259 22:-0.929664 23:-0.904211 24:-0.867626 25:-0.918158 26:-0.851636 27:-0.923952 28:-0.865261 29:-0.921303 30:-0.86568 31:-0.936144 32:-0.907436 33:-0.961925 34:-0.963805 35:-0.990903 36:-0.981845 37:-0.97725 38:-0.93221 39:-0.838178 40:-0.931438 41:-0.976907 42:-0.988739 43:-0.975127 44:-0.998937 45:-0.998843 46:-1 47:-1 48:-1 49:-1 50:-1 51:-1 52:-1 53:-1 54:-1 55:-1 56:-1 57:-1 58:-1 59:-1 60:-0.95927 61:-0.446471 
0.262216496792474 1:-0.92283 2:-0.863725 3:-0.813032 4:0.126211 5:0.398608 6:-0.992029 7:0.230164 8:-0.981563 9:-0.998001 10:-0.440025 11:0.587453 12:-0.997548 13:-0.178837 14:-0.99764 15:-0.88067 16:-0.818466 17:-0.911856 18:-0.851521 19:-0.954297 20:-0.869964 21:-0.962391 22:-0.853555 23:-0.933206 24:-0.849901 25:-0.916037 26:-0.867154 27:-0.924142 28:-0.854764 29:-0.929487 30:-0.857351 31:-0.944658 32:-0.901329 33:-0.959942 34:-0.963735 35:-0.992001 36:-0.984412 37:-0.970465 38:-0.900352 39:-0.821419 40:-0.974916 41:-0.98053 42:-0.986486 43:-0.996315 44:-1 45:-1 46:-1 47:-0.998791 48:-0.998702 49:-1 50:-0.998566 51:-1 52:-0.998804 53:-1 54:-1 55:-1 56:-1 57:-1 58:-1 59:-1 60:-0.957549 61:-0.4241 
0.2348488850210439 1:-0.905092 2:-0.941422 3:-0.911748 4:0.182928 5:0.391151 6:-0.995248 7:0.24393 8:-0.974942 9:-0.997461 10:-0.440123 11:0.587415 12:-0.996076 13:-0.180079 14:-0.996298 15:-0.852724 16:-0.952018 17:-0.881551 18:-0.925477 19:-0.918503 20:-0.918415 21:-0.940769 22:-0.900951 23:-0.952924 24:-0.83826 25:-0.955767 26:-0.81665 27:-0.946299 28:-0.841185 29:-0.950751 30:-0.837563 31:-0.954184 32:-0.89577 33:-0.963603 34:-0.961278 35:-0.995687 36:-0.988997 37:-0.989024 38:-0.978885 39:-0.972768 40:-0.989967 41:-0.981435 42:-0.974099 43:-0.94749 44:-0.906433 45:-0.84037 46:-0.833522 47:-0.7763 48:-0.865023 49:-0.940567 50:-0.944086 51:-0.963869 52:-0.967703 53:-0.972253 54:-0.969099 55:-0.97234 56:-0.987966 57:-0.955882 58:-0.896996 59:-0.746479 60:-0.960288 61:-0.460577 
0.4203266921372708 1:-0.914349 2:-0.978962 3:-0.969099 4:0.179289 5:0.369699 6:-0.990916 7:0.241819 8:-0.994138 9:-0.998281 10:-0.440159 11:0.587526 12:-0.997335 13:-0.1801 14:-0.997394 15:-0.982243 16:-0.968343 17:-0.973322 18:-0.902254 19:-0.974645 20:-0.91861 21:-0.94608 22:-0.88682 23:-0.941512 24:-0.851556 25:-0.94231 26:-0.843578 27:-0.943239 28:-0.843531 29:-0.950934 30:-0.852073 31:-0.951048 32:-0.899522 33:-0.947494 34:-0.962163 35:-0.996 36:-0.990831 37:-0.992018 38:-0.988516 39:-0.977481 40:-0.99097 41:-0.983247 42:-0.976351 43:-0.961308 44:-0.939394 45:-0.895894 46:-0.838052 47:-0.833132 48:-0.832576 49:-0.87284 50:-0.941219 51:-0.967366 52:-0.961722 53:-0.972253 54:-0.958798 55:-0.970213 56:-0.978339 57:-0.970588 58:-0.888412 59:-0.690141 60:-0.960938 61:-0.473774 
0.07684292456614338 1:-0.928059 2:-0.978962 3:-0.970381 4:0.179202 5:0.360468 6:-0.99109 7:0.236805 8:-0.999061 9:-0.998417 10:-0.44012 11:0.587647 12:-0.99878 13:-0.180078 14:-0.998697 15:-0.957321 16:-0.903765 17:-0.94262 18:-0.839603 19:-0.950894 20:-0.85079 21:-0.947179 22:-0.846481 23:-0.944885 24:-0.848706 25:-0.949829 26:-0.847449 27:-0.956452 28:-0.867715 29:-0.952522 30:-0.886674 31:-0.954166 32:-0.958642 33:-0.947494 34:-0.971853 35:-0.996236 36:-0.992848 37:-0.995011 38:-0.99185 39:-0.986908 40:-0.993311 41:-0.988227 42:-0.980856 43:-0.969599 44:-0.952153 45:-0.902834 46:-0.851642 47:-0.844015 48:-0.848151 49:-0.897719 50:-0.952688 51:-0.973193 52:-0.970096 53:-0.981132 54:-0.967382 55:-0.970213 56:-0.980746 57:-0.970588 58:-0.888412 59:-0.690141 60:-0.961308 61:-0.461478 
2.39663112069243 1:-0.939931 2:-0.99088 3:-0.998036 4:0.163006 5:0.361651 6:-0.981668 7:0.236808 8:-0.998483 9:-0.999415 10:-0.440139 11:0.587578 12:-0.998882 13:-0.180156 14:-0.998979 15:-0.958756 16:-0.961645 17:-0.926296 18:-0.876182 19:-0.934114 20:-0.935163 21:-0.945366 22:-0.922708 23:-0.93869 24:-0.943406 25:-0.937008 26:-0.939614 27:-0.949527 28:-0.889408 29:-0.957231 30:-0.910013 31:-0.9585 32:-0.980627 33:-0.956532 34:-0.982956 35:-0.976943 36:-0.989914 37:-0.990022 38:-0.983701 39:-0.9801 40:-0.988629 41:-0.990038 42:-0.980856 43:-0.965914 44:-0.952153 45:-0.947947 46:-0.94564 47:-0.962515 48:-0.96366 49:-0.98065 50:-0.989964 51:-0.995338 52:-0.991627 53:-0.99889 54:-0.9897 55:-0.993617 56:-0.995187 57:-0.985294 58:-1 59:-0.971831 60:-0.974306 61:-0.82714 
14.85358703168423 1:-0.978799 2:-0.986306 3:-0.998533 4:0.161098 5:0.360555 6:-0.980691 7:0.245073 8:-0.992896 9:-0.999943 10:-0.44013 11:0.587595 12:-0.999766 13:-0.180106 14:-0.999785 15:-0.973296 16:-0.967452 17:-0.963517 18:-0.967888 19:-0.964368 20:-0.961491 21:-0.969629 22:-0.958309 23:-0.978984 24:-0.969496 25:-0.980139 26:-0.961281 27:-0.981641 28:-0.974521 29:-0.979977 30:-0.960316 31:-0.980299 32:-0.958997 33:-0.986768 34:-0.976655 35:-0.986432 36:-0.994132 37:-0.998004 38:-0.998518 39:-0.998429 40:-0.997659 41:-0.998189 42:-0.998311 43:-0.997236 44:-0.997873 45:-0.995373 46:-0.99547 47:-0.998791 48:-0.993511 49:-0.995853 50:-0.995699 51:-0.995338 52:-0.997608 53:-0.990011 54:-0.991416 55:-0.970213 56:-0.983153 57:-1 58:-1 59:-0.971831 60:-0.984894 61:-0.930838 
0.3876885358346532 1:-0.905516 2:-0.993765 3:-0.99502 4:0.16835 5:0.363847 6:-0.985162 7:0.243953 8:-0.990714 9:-0.995581 10:-0.440564 11:0.587499 12:-0.996964 13:-0.182042 14:-0.996734 15:-0.930804 16:-0.69566 17:-0.954689 18:-0.795899 19:-0.948767 20:-0.822657 21:-0.911574 22:-0.815364 23:-0.91975 24:-0.849208 25:-0.924811 26:-0.86116 27:-0.929565 28:-0.856254 29:-0.934304 30:-0.887282 31:-0.948402 32:-0.97342 33:-0.942645 34:-0.97651 35:-0.984942 36:-0.975426 37:-0.987627 38:-0.984071 39:-0.982194 40:-0.991304 41:-0.985511 42:-0.971284 43:-0.934592 44:-0.942584 45:-0.907461 46:-0.872027 47:-0.874244 48:-0.914341 49:-0.878369 50:-0.889606 51:-0.944056 52:-0.973684 53:-0.983352 54:-0.987983 55:-0.991489 56:-0.98556 57:-0.985294 58:-0.965665 59:-0.887324 60:-0.964591 61:-0.660316 
0.5047204010769649 1:-0.901134 2:-0.974766 3:-0.953944 4:0.177372 5:0.379667 6:-0.995245 7:0.243039 8:-0.980821 9:-0.997453 10:-0.44365 11:0.603047 12:-0.996426 13:-0.180122 14:-0.996607 15:-0.924374 16:-0.855959 17:-0.958277 18:-0.890436 19:-0.941428 20:-0.914999 21:-0.910433 22:-0.870921 23:-0.910124 24:-0.875112 25:-0.897241 26:-0.879966 27:-0.900407 28:-0.887367 29:-0.894829 30:-0.887423 31:-0.93807 32:-0.921609 33:-0.954399 34:-0.965233 35:-0.984158 36:-0.971392 37:-0.970066 38:-0.908131 39:-0.786855 40:-0.949833 41:-0.976455 42:-0.981419 43:-0.998158 44:-1 45:-1 46:-0.998867 47:-1 48:-1 49:-1 50:-1 51:-1 52:-1 53:-0.99889 54:-1 55:-1 56:-1 57:-1 58:-1 59:-1 60:-0.958223 61:-0.506471 
0.2686156034159586 1:-0.90813 2:-0.953468 3:-0.917402 4:0.164724 5:0.387719 6:-0.999604 7:0.237744 8:-0.97999 9:-0.997897 10:-0.440114 11:0.587622 12:-0.996645 13:-0.180127 14:-0.996772 15:-0.932093 16:-0.946982 17:-0.944022 18:-0.924 19:-0.950194 20:-0.902313 21:-0.908638 22:-0.869846 23:-0.912339 24:-0.903936 25:-0.857073 26:-0.909437 27:-0.88674 28:-0.918929 29:-0.887652 30:-0.910566 31:-0.915768 32:-0.928955 33:-0.959458 34:-0.958128 35:-0.987609 36:-0.974693 37:-0.969268 38:-0.916281 39:-0.799424 40:-0.951171 41:-0.96921 42:-0.984797 43:-0.999079 44:-1 45:-0.998843 46:-1 47:-1 48:-1 49:-1 50:-1 51:-1 52:-1 53:-1 54:-1 55:-0.997872 56:-1 57:-1 58:-1 59:-1 60:-0.957339 61:-0.471455 
0.9843450734091843 1:-0.911169 2:-0.94186 3:-0.90236 4:0.15293 5:0.387702 6:-0.998374 7:0.234538 8:-0.981254 9:-0.997529 10:-0.440091 11:0.587416 12:-0.996725 13:-0.180121 14:-0.996904 15:-0.945638 16:-0.800241 17:-0.93929 18:-0.801021 19:-0.959721 20:-0.852314 21:-0.935945 22:-0.897746 23:-0.902039 24:-0.901485 25:-0.878515 26:-0.901199 27:-0.887193 28:-0.916798 29:-0.885179 30:-0.878179 31:-0.915793 32:-0.906969 33:-0.95185 34:-0.952363 35:-0.901419 36:-0.999817 37:-0.9998 38:-0.99963 39:-1 40:-1 41:-1 42:-1 43:-1 44:-1 45:-1 46:-1 47:-1 48:-1 49:-1 50:-1 51:-1 52:-1 53:-1 54:-1 55:-1 56:-1 57:-1 58:-1 59:-1 60:-0.789266 61:-0.435836 
126.4083915553746 1:-0.916611 2:-0.895546 3:-0.854578 4:0.126752 5:0.401491 6:-0.990088 7:0.227424 8:-0.973926 9:-0.998023 10:-0.440124 11:0.587503 12:-0.997064 13:-0.180107 14:-0.997197 15:-0.869938 16:-0.912672 17:-0.914638 18:-0.937952 19:-0.934459 20:-0.914672 21:-0.921152 22:-0.882913 23:-0.91037 24:-0.858719 25:-0.92157 26:-0.859051 27:-0.925893 28:-0.870742 29:-0.925647 30:-0.863854 31:-0.93951 32:-0.92305 33:-0.961497 34:-0.965406 35:-0.992393 36:-0.982212 37:-0.980842 38:-0.953695 39:-0.899974 40:-0.90301 41:-0.932533 42:-0.963401 43:-0.941962 44:-0.992557 45:-0.997687 46:-1 47:-1 48:-1 49:-1 50:-0.998566 51:-1 52:-1 53:-1 54:-1 55:-1 56:-1 57:-1 58:-1 59:-1 60:-0.959108 61:-0.427729 
0.5620235911504554 1:-0.934419 2:-0.855086 3:-0.800729 4:0.11143 5:0.396108 6:-0.98589 7:0.228582 8:-0.985246 9:-0.998677 10:-0.440122 11:0.587596 12:-0.997964 13:-0.180122 14:-0.998061 15:-0.941549 16:-0.97338 17:-0.962526 18:-0.973909 19:-0.968421 20:-0.948385 21:-0.946203 22:-0.906582 23:-0.925778 24:-0.890934 25:-0.94193 26:-0.836484 27:-0.950036 28:-0.842289 29:-0.954582 30:-0.856281 31:-0.94515 32:-0.891464 33:-0.959279 34:-0.968312 35:-0.993412 36:-0.983312 37:-0.983436 38:-0.933321 39:-0.858078 40:-0.961873 41:-0.973738 42:-0.97973 43:-0.988024 44:-1 45:-1 46:-1 47:-1 48:-1 49:-0.998618 50:-1 51:-1 52:-1 53:-1 54:-1 55:-1 56:-1 57:-1 58:-1 59:-1 60:-0.957919 61:-0.412445 
1.57937634147122 1:-0.898802 2:-0.993739 3:-0.994807 4:0.168746 5:0.364273 6:-0.985159 7:0.244594 8:-0.990302 9:-0.995506 10:-0.440166 11:0.587222 12:-0.996846 13:-0.180224 14:-0.996544 15:-0.938209 16:-0.715814 17:-0.962226 18:-0.768194 19:-0.958958 20:-0.78769 21:-0.927733 22:-0.79789 23:-0.940124 24:-0.829019 25:-0.943687 26:-0.840914 27:-0.947995 28:-0.851349 29:-0.948807 30:-0.862633 31:-0.948661 32:-0.976421 33:-0.946607 34:-0.975052 35:-0.979531 36:-0.981845 37:-0.985232 38:-0.973328 39:-0.957581 40:-0.966555 41:-0.947476 42:-0.920045 43:-0.851681 44:-0.907496 45:-0.894737 46:-0.956965 47:-0.948005 48:-0.955873 49:-0.970974 50:-0.992832 51:-0.990676 52:-0.997608 53:-1 54:-1 55:-1 56:-1 57:-1 58:-1 59:-1 60:-0.960038 61:-0.617523 
0.07554533778884176 1:-0.928554 2:-0.991386 3:-0.997792 4:0.164194 5:0.36168 6:-0.980162 7:0.239585 8:-0.99767 9:-0.998779 10:-0.440125 11:0.587571 12:-0.998501 13:-0.180091 14:-0.998565 15:-0.966787 16:-0.961359 17:-0.937105 18:-0.920615 19:-0.922669 20:-0.844317 21:-0.931128 22:-0.86858 23:-0.954095 24:-0.87631 25:-0.936211 26:-0.918983 27:-0.942914 28:-0.924034 29:-0.949381 30:-0.921006 31:-0.946507 32:-0.966115 33:-0.949097 34:-0.973702 35:-0.976865 36:-0.984412 37:-0.988425 38:-0.977774 39:-0.973291 40:-0.988294 41:-0.980983 42:-0.983671 43:-0.957623 44:-0.946837 45:-0.94332 46:-0.926387 47:-0.945586 48:-0.954575 49:-0.979267 50:-0.98853 51:-0.993007 52:-0.990431 53:-0.994451 54:-0.9897 55:-0.980851 56:-0.995187 57:-0.990196 58:-0.974249 59:-0.859155 60:-0.968478 61:-0.779781 
2.187379955077406 1:-0.983605 2:-0.992217 3:-0.998962 4:0.161484 5:0.361156 6:-0.983332 7:0.240816 8:-0.998377 9:-0.999922 10:-0.440131 11:0.587596 12:-0.999873 13:-0.180104 14:-0.999874 15:-0.992918 16:-0.982926 17:-0.973277 18:-0.94247 19:-0.976254 20:-0.941487 21:-0.981262 22:-0.954629 23:-0.968167 24:-0.904553 25:-0.975657 26:-0.926749 27:-0.981942 28:-0.959007 29:-0.980873 30:-0.968866 31:-0.981625 32:-0.97389 33:-0.987099 34:-0.98285 35:-0.993099 36:-0.995415 37:-0.998204 38:-0.997777 39:-0.997382 40:-0.99699 41:-0.998642 42:-0.998311 43:-0.996315 44:-0.995747 45:-0.99306 46:-0.998867 47:-0.990326 48:-0.992213 49:-0.993089 50:-0.991398 51:-0.996503 52:-0.992823 53:-0.994451 54:-0.99485 55:-0.989362 56:-0.99278 57:-0.965686 58:-0.948498 59:-0.746479 60:-0.985227 61:-0.912268 
0.1325567903040193 1:-0.89223 2:-0.907457 3:-0.918465 4:0.23856 5:0.395401 6:-0.927571 7:0.268909 8:-0.966352 9:-0.996025 10:-0.440162 11:0.587951 12:-0.995679 13:-0.180207 14:-0.995666 15:-0.882722 16:-0.846463 17:-0.899883 18:-0.848923 19:-0.918743 20:-0.868417 21:-0.941489 22:-0.871884 23:-0.918294 24:-0.788547 25:-0.930832 26:-0.792986 27:-0.940231 28:-0.836425 29:-0.952183 30:-0.85684 31:-0.939105 32:-0.878518 33:-0.971837 34:-0.939159 35:-0.995843 36:-0.982578 37:-0.991419 38:-0.988887 39:-0.979052 40:-0.987291 41:-0.976455 42:-0.962275 43:-0.948411 44:-0.939394 45:-0.923655 46:-0.894677 47:-0.879081 48:-0.883193 49:-0.875605 50:-0.832258 51:-0.88345 52:-0.883971 53:-0.90899 54:-0.895279 55:-0.910638 56:-0.937425 57:-0.892157 58:-0.922747 59:-0.943662 60:-0.956713 61:-0.411421 
0.5446237323287564 1:-0.88905 2:-0.883795 3:-0.902894 4:0.250901 5:0.401742 6:-0.918106 7:0.273797 8:-0.960595 9:-0.996339 10:-0.440091 11:0.587326 12:-0.995234 13:-0.180138 14:-0.99534 15:-0.892811 16:-0.847559 17:-0.907184 18:-0.837852 19:-0.933725 20:-0.857875 21:-0.961675 22:-0.850393 23:-0.928645 24:-0.804082 25:-0.936584 26:-0.813993 27:-0.950698 28:-0.82811 29:-0.963236 30:-0.832489 31:-0.934895 32:-0.862617 33:-0.966896 34:-0.945744 35:-0.99553 36:-0.980194 37:-0.988425 38:-0.977774 39:-0.972768 40:-0.981605 41:-0.975549 42:-0.965653 43:-0.929986 44:-0.918129 45:-0.895894 46:-0.847112 47:-0.852479 48:-0.811811 49:-0.8217 50:-0.833692 51:-0.927739 52:-0.924641 53:-0.961154 54:-0.979399 55:-0.993617 56:-0.995187 57:-0.995098 58:-1 59:-1 60:-0.953605 61:-0.384213 
0.1716268071993202 1:-0.896187 2:-0.848738 3:-0.872004 4:0.276396 5:0.400084 6:-0.898275 7:0.271039 8:-0.97072 9:-0.997049 10:-0.440148 11:0.587616 12:-0.995983 13:-0.180087 14:-0.996248 15:-0.966741 16:-0.953156 17:-0.87447 18:-0.913169 19:-0.918723 20:-0.93544 21:-0.928926 22:-0.893 23:-0.920744 24:-0.839628 25:-0.954185 26:-0.805215 27:-0.953531 28:-0.802226 29:-0.972488 30:-0.820323 31:-0.944234 32:-0.863673 33:-0.944583 34:-0.931205 35:-0.994902 36:-0.98863 37:-0.983836 38:-0.976292 39:-0.971197 40:-0.983278 41:-0.985511 42:-0.973536 43:-0.929986 44:-0.905369 45:-0.895894 46:-0.899207 47:-0.902056 48:-0.878001 49:-0.882516 50:-0.866667 51:-0.910256 52:-0.948565 53:-0.948946 54:-0.934764 55:-0.9 56:-0.925391 57:-0.857843 58:-0.939914 59:-0.971831 60:-0.949969 61:-0.384697 
0.5743570100857732 1:-0.891099 2:-0.828599 3:-0.852105 4:0.292406 5:0.409357 6:-0.885132 7:0.27867 8:-0.963444 9:-0.99693 10:-0.440142 11:0.587797 12:-0.995212 13:-0.18009 14:-0.995447 15:-0.899094 16:-0.945144 17:-0.90625 18:-0.897477 19:-0.954774 20:-0.867737 21:-0.96831 22:-0.861544 23:-0.946887 24:-0.809193 25:-0.949973 26:-0.777992 27:-0.951629 28:-0.796606 29:-0.973855 30:-0.815603 31:-0.947945 32:-0.876145 33:-0.953976 34:-0.931693 35:-0.993255 36:-0.983129 37:-0.988825 38:-0.973699 39:-0.969626 40:-0.980268 41:-0.978719 42:-0.960586 43:-0.929986 44:-0.924508 45:-0.894737 46:-0.911665 47:-0.874244 48:-0.879299 49:-0.845197 50:-0.889606 51:-0.935897 52:-0.930622 53:-0.927858 54:-0.883262 55:-0.917021 56:-0.968712 57:-0.980392 58:-0.991416 59:-1 60:-0.950921 61:-0.407259 
0.2481091035123379 1:-0.904244 2:-0.766934 3:-0.824233 4:0.327722 5:0.402465 6:-0.843044 7:0.275294 8:-0.975822 9:-0.997027 10:-0.439763 11:0.589474 12:-0.99491 13:-0.180096 14:-0.995218 15:-0.915495 16:-0.94914 17:-0.90859 18:-0.951554 19:-0.913623 20:-0.948646 21:-0.882154 22:-0.946314 23:-0.87537 24:-0.918467 25:-0.892343 26:-0.917424 27:-0.93802 28:-0.921727 29:-0.925905 30:-0.8312 31:-0.894902 32:-0.79338 33:-0.959637 34:-0.95765 35:-0.995843 36:-0.981111 37:-0.987428 38:-0.981848 39:-0.974863 40:-0.985284 41:-0.981435 42:-0.978604 43:-0.956702 44:-0.948963 45:-0.937536 46:-0.92299 47:-0.899637 48:-0.898767 49:-0.86593 50:-0.886738 51:-0.878788 52:-0.940191 53:-0.952275 54:-0.946781 55:-0.925532 56:-0.930205 57:-0.823529 58:-0.708155 59:-0.915493 60:-0.952204 61:-0.442389 
0.09446529599139565 1:-0.901558 2:-0.806441 3:-0.821308 4:0.330306 5:0.411451 6:-0.841366 7:0.283419 8:-0.96622 9:-0.997293 10:-0.440114 11:0.587751 12:-0.995219 13:-0.180114 14:-0.995544 15:-0.918105 16:-0.936955 17:-0.908415 18:-0.952544 19:-0.908086 20:-0.918085 21:-0.902516 22:-0.915312 23:-0.915352 24:-0.911846 25:-0.927437 26:-0.905726 27:-0.89974 28:-0.792376 29:-0.836044 30:-0.827143 31:-0.897585 32:-0.939291 33:-0.964437 34:-0.948951 35:-0.994981 36:-0.986429 37:-0.989423 38:-0.98333 39:-0.976434 40:-0.977926 41:-0.982341 42:-0.966779 43:-0.939199 44:-0.922382 45:-0.913245 46:-0.889015 47:-0.852479 48:-0.835172 49:-0.831375 50:-0.870968 51:-0.933566 52:-0.970096 53:-0.972253 54:-0.943348 55:-0.942553 56:-0.978339 57:-0.990196 58:-1 59:-1 60:-0.955045 61:-0.419613 
0.2880620534263377 1:-0.909615 2:-0.612556 3:-0.549243 4:-0.0481036 5:0.461072 6:-0.900136 7:0.192029 8:-0.949946 9:-0.997734 10:-0.44013 11:0.587499 12:-0.995925 13:-0.180284 14:-0.996188 15:-0.913004 16:-0.808267 17:-0.905933 18:-0.813963 19:-0.909837 20:-0.91438 21:-0.914575 22:-0.955842 23:-0.910532 24:-0.927179 25:-0.915413 26:-0.929073 27:-0.920287 28:-0.922668 29:-0.893463 30:-0.955965 31:-0.904787 32:-0.944462 33:-0.957763 34:-0.961738 35:-0.99749 36:-0.991381 37:-0.992417 38:-0.979626 39:-0.973815 40:-0.983946 41:-0.97736 42:-0.960023 43:-0.942883 44:-0.919192 45:-0.913245 46:-0.865232 47:-0.862152 48:-0.837768 49:-0.859019 50:-0.888172 51:-0.948718 52:-0.961722 53:-0.964484 54:-0.975966 55:-0.978723 56:-0.997593 57:-0.970588 58:-0.991416 59:-1 60:-0.960541 61:-0.420069 
0.1953010922600469 1:-0.927282 2:-0.671496 3:-0.806116 4:-0.0584902 5:0.435047 6:-0.741215 7:0.154434 8:-0.937057 9:-0.998402 10:-0.440129 11:0.587421 12:-0.9967 13:-0.180359 14:-0.996911 15:-0.843338 16:-0.95033 17:-0.871375 18:-0.961622 19:-0.907446 20:-0.940357 21:-0.93894 22:-0.926924 23:-0.932623 24:-0.91033 25:-0.928958 26:-0.931651 27:-0.930618 28:-0.933568 29:-0.930714 30:-0.914948 31:-0.93539 32:-0.921617 33:-0.951485 34:-0.979668 35:-0.999765 36:-0.996699 37:-0.994612 38:-0.987405 39:-0.983765 40:-0.987291 41:-0.985963 42:-0.978041 43:-0.95486 44:-0.919192 45:-0.902834 46:-0.885617 47:-0.86578 48:-0.897469 49:-0.878369 50:-0.889606 51:-0.926573 52:-0.941388 53:-0.977802 54:-0.986266 55:-0.991489 56:-0.995187 57:-1 58:-1 59:-1 60:-0.96562 61:-0.368832 
1.885753108524886 1:-0.92495 2:-0.706613 3:-0.86748 4:-0.0291062 5:0.437231 6:-0.707689 7:0.126667 8:-0.901127 9:-0.993471 10:-0.440191 11:0.587576 12:-0.995906 13:-0.180103 14:-0.995401 15:-0.758259 16:-0.747785 17:-0.788178 18:-0.77921 19:-0.831866 20:-0.783848 21:-0.850559 22:-0.766966 23:-0.950319 24:-0.908457 25:-0.940759 26:-0.933088 27:-0.943792 28:-0.932555 29:-0.953577 30:-0.912426 31:-0.946502 32:-0.920296 33:-0.95706 34:-0.979067 35:-0.969022 36:-0.886301 37:-0.990621 38:-1 39:-1 40:-1 41:-1 42:-1 43:-0.999079 44:-0.998937 45:-1 46:-1 47:-1 48:-1 49:-1 50:-1 51:-1 52:-1 53:-1 54:-1 55:-1 56:-1 57:-1 58:-1 59:-0.971831 60:-0.914149 61:-0.361704 
0.8216193290465601 1:-0.945444 2:-0.747387 3:-0.906346 4:0.00521955 5:0.403334 6:-0.718541 7:0.165485 8:-0.955278 9:-0.999223 10:-0.440135 11:0.587655 12:-0.997338 13:-0.180094 14:-0.997617 15:-0.936436 16:-0.904808 17:-0.953805 18:-0.880154 19:-0.973552 20:-0.946991 21:-0.967188 22:-0.971162 23:-0.938001 24:-0.934749 25:-0.940785 26:-0.862901 27:-0.920942 28:-0.868505 29:-0.926892 30:-0.972435 31:-0.930034 32:-0.960196 33:-0.947683 34:-0.977194 35:-0.999529 36:-0.996699 37:-0.99541 38:-0.989257 39:-0.9801 40:-0.989967 41:-0.985963 42:-0.980856 43:-0.966836 44:-0.950027 45:-0.930596 46:-0.924122 47:-0.917775 48:-0.92732 49:-0.915688 50:-0.942652 51:-0.952214 52:-0.960526 53:-0.961154 54:-0.977682 55:-0.987234 56:-0.99278 57:-1 58:-1 59:-1 60:-0.962363 61:-0.358242 
0.4645299391705752 1:-0.964454 2:-0.745028 3:-0.932043 4:0.0270555 5:0.360096 6:-0.721515 7:0.240452 8:-0.999312 9:-0.999572 10:-0.440126 11:0.587563 12:-0.99945 13:-0.180236 14:-0.999457 15:-0.943902 16:-0.927296 17:-0.94511 18:-0.941489 19:-0.908798 20:-0.942091 21:-0.898213 22:-0.936685 23:-0.945565 24:-0.95535 25:-0.952395 26:-0.94924 27:-0.952827 28:-0.964693 29:-0.934802 30:-0.970032 31:-0.948205 32:-0.972578 33:-0.950239 34:-0.973062 35:-0.999451 36:-0.997983 37:-0.996807 38:-0.994073 39:-0.987955 40:-0.989632 41:-0.986416 42:-0.990428 43:-0.982497 44:-0.986178 45:-0.978022 46:-0.98188 47:-0.962515 48:-0.971447 49:-0.959917 50:-0.951254 51:-0.969697 52:-0.965311 53:-0.974473 54:-0.951931 55:-0.968085 56:-0.963899 57:-0.911765 58:-0.914163 59:-0.774648 60:-0.958519 61:-0.412473 
0.2624553616772987 1:-0.959295 2:-0.75729 3:-0.943414 4:0.0384387 5:0.360837 6:-0.718415 7:0.239145 8:-0.998827 9:-0.999136 10:-0.440127 11:0.587612 12:-0.99943 13:-0.180116 14:-0.999386 15:-0.941006 16:-0.925281 17:-0.939626 18:-0.946273 19:-0.913523 20:-0.925644 21:-0.858437 22:-0.91231 23:-0.912989 24:-0.93031 25:-0.950127 26:-0.941462 27:-0.942891 28:-0.954927 29:-0.917904 30:-0.96337 31:-0.937551 32:-0.960754 33:-0.961979 34:-0.974824 35:-0.999216 36:-0.996332 37:-0.994811 38:-0.990369 39:-0.981671 40:-0.988294 41:-0.984152 42:-0.981419 43:-0.983418 44:-0.970229 45:-0.956044 46:-0.970555 47:-0.967352 48:-0.966256 49:-0.959917 50:-0.962724 51:-0.968531 52:-0.970096 53:-0.981132 54:-0.967382 55:-0.965957 56:-0.963899 57:-0.931373 58:-0.948498 59:-0.943662 60:-0.954824 61:-0.3975 
0.6389001671622513 1:-0.95774 2:-0.782958 3:-0.948668 4:0.0450845 5:0.360181 6:-0.721261 7:0.240721 8:-0.998491 9:-0.999112 10:-0.440135 11:0.587601 12:-0.999424 13:-0.180083 14:-0.999388 15:-0.955179 16:-0.930921 17:-0.935052 18:-0.936509 19:-0.934334 20:-0.928729 21:-0.928488 22:-0.952357 23:-0.90999 24:-0.879037 25:-0.864844 26:-0.879286 27:-0.87883 28:-0.881707 29:-0.912542 30:-0.922964 31:-0.905492 32:-0.962442 33:-0.968663 34:-0.9622 35:-0.999608 36:-0.997066 37:-0.996208 38:-0.988146 39:-0.98586 40:-0.986957 41:-0.981435 42:-0.984234 43:-0.979733 44:-0.981925 45:-0.966455 46:-0.975085 47:-0.96977 48:-0.972745 49:-0.972357 50:-0.964158 51:-0.961538 52:-0.971292 53:-0.971143 54:-0.958798 55:-0.93617 56:-0.954272 57:-0.833333 58:-0.828326 59:-0.915493 60:-0.951427 61:-0.366719 
0.5798586062183886 1:-0.955973 2:-0.779501 3:-0.951548 4:0.0492795 5:0.35981 6:-0.724173 7:0.241672 8:-0.99876 9:-0.999053 10:-0.440126 11:0.587614 12:-0.999371 13:-0.180097 14:-0.999321 15:-0.967197 16:-0.925548 17:-0.96515 18:-0.930801 19:-0.937326 20:-0.921068 21:-0.944304 22:-0.945208 23:-0.860495 24:-0.891594 25:-0.849686 26:-0.893028 27:-0.884642 28:-0.898346 29:-0.912618 30:-0.932091 31:-0.904977 32:-0.950086 33:-0.963651 34:-0.969885 35:-0.999529 36:-0.994682 37:-0.994412 38:-0.988146 39:-0.987431 40:-0.989632 41:-0.983247 42:-0.983671 43:-0.980654 44:-0.971292 45:-0.966455 46:-0.973952 47:-0.972189 48:-0.976639 49:-0.958535 50:-0.964158 51:-0.95338 52:-0.976077 53:-0.981132 54:-0.972532 55:-0.955319 56:-0.925391 57:-0.857843 58:-0.742489 59:-0.71831 60:-0.951062 61:-0.392472 
0.3477451076186895 1:-0.956963 2:-0.763122 3:-0.948207 4:0.0441711 5:0.360083 6:-0.718847 7:0.240948 8:-0.999228 9:-0.999324 10:-0.440132 11:0.587592 12:-0.999378 13:-0.180138 14:-0.999357 15:-0.960244 16:-0.915193 17:-0.964722 18:-0.932749 19:-0.901373 20:-0.912121 21:-0.893938 22:-0.927988 23:-0.931548 24:-0.935405 25:-0.947638 26:-0.938888 27:-0.913144 28:-0.936503 29:-0.8944 30:-0.92171 31:-0.917653 32:-0.93759 33:-0.965948 34:-0.954415 35:-0.998039 36:-0.996149 37:-0.994213 38:-0.988887 39:-0.987431 40:-0.992308 41:-0.986416 42:-0.984797 43:-0.97052 44:-0.975545 45:-0.954887 46:-0.962627 47:-0.957678 48:-0.953277 49:-0.961299 50:-0.952688 51:-0.963869 52:-0.964115 53:-0.983352 54:-0.965665 55:-0.965957 56:-0.971119 57:-0.931373 58:-0.957082 59:-0.971831 60:-0.956171 61:-0.416878 
0.1178562463626958 1:-0.927847 2:-0.735506 3:-0.921383 4:0.0141374 5:0.384671 6:-0.704167 7:0.193183 8:-0.983182 9:-0.998486 10:-0.440114 11:0.587353 12:-0.997516 13:-0.180083 14:-0.997632 15:-0.970154 16:-0.939802 17:-0.958637 18:-0.952985 19:-0.977994 20:-0.946629 21:-0.9636 22:-0.96007 23:-0.914842 24:-0.915646 25:-0.903008 26:-0.918171 27:-0.870419 28:-0.923303 29:-0.862285 30:-0.920814 31:-0.892503 32:-0.900143 33:-0.956664 34:-0.932496 35:-0.999529 36:-0.995782 37:-0.993414 38:-0.98296 39:-0.977481 40:-0.990301 41:-0.987322 42:-0.985923 43:-0.976969 44:-0.970229 45:-0.944477 46:-0.93205 47:-0.935913 48:-0.916937 49:-0.90463 50:-0.891039 51:-0.912587 52:-0.929426 53:-0.948946 54:-0.927897 55:-0.917021 56:-0.922984 57:-0.784314 58:-0.793991 59:-0.802817 60:-0.956244 61:-0.348019 
0.6008717605641266 1:-0.909685 2:-0.730906 3:-0.915158 4:0.00791426 5:0.392885 6:-0.703145 7:0.179619 8:-0.972634 9:-0.997939 10:-0.44012 11:0.587421 12:-0.996791 13:-0.180135 14:-0.996913 15:-0.972259 16:-0.943539 17:-0.936961 18:-0.899902 19:-0.949416 20:-0.890357 21:-0.945611 22:-0.893747 23:-0.903456 24:-0.878841 25:-0.905373 26:-0.865294 27:-0.879993 28:-0.903208 29:-0.877148 30:-0.888257 31:-0.903663 32:-0.883729 33:-0.939063 34:-0.953503 35:-0.999059 36:-0.992114 37:-0.988825 38:-0.979996 39:-0.970673 40:-0.979933 41:-0.982341 42:-0.976914 43:-0.946568 44:-0.939394 45:-0.921342 46:-0.90034 47:-0.88029 48:-0.861129 49:-0.874223 50:-0.886738 51:-0.91958 52:-0.917464 53:-0.935627 54:-0.941631 55:-0.944681 56:-0.975933 57:-0.97549 58:-1 59:-0.943662 60:-0.955781 61:-0.362503 
0.143983136449723 1:-0.915197 2:-0.735514 3:-0.882599 4:-0.011356 5:0.39508 6:-0.733223 7:0.187956 8:-0.977813 9:-0.998104 10:-0.44013 11:0.587694 12:-0.997181 13:-0.180142 14:-0.997252 15:-0.968874 16:-0.966816 17:-0.968726 18:-0.907598 19:-0.957435 20:-0.919774 21:-0.94281 22:-0.916149 23:-0.908094 24:-0.858897 25:-0.892036 26:-0.865923 27:-0.899495 28:-0.87346 29:-0.907862 30:-0.873471 31:-0.912428 32:-0.883486 33:-0.953092 34:-0.962056 35:-0.998039 36:-0.994498 37:-0.99102 38:-0.98296 39:-0.981671 40:-0.989298 41:-0.981435 42:-0.980856 43:-0.965914 44:-0.960659 45:-0.929439 46:-0.930917 47:-0.931076 48:-0.913043 49:-0.879751 50:-0.858065 51:-0.898601 52:-0.913876 53:-0.941176 54:-0.938197 55:-0.878723 56:-0.901324 57:-0.887255 58:-0.716738 59:-0.802817 60:-0.956082 61:-0.354099 
0.7696689056370661 1:-0.888555 2:-0.922398 3:-0.878957 4:0.0933597 5:0.411662 6:-0.95711 7:0.20857 8:-0.950011 9:-0.992527 10:-0.446702 11:0.609335 12:-0.995971 13:-0.180195 14:-0.995557 15:-0.964302 16:-0.878551 17:-0.959662 18:-0.883095 19:-0.977184 20:-0.902356 21:-0.830449 22:-0.709483 23:-0.806456 24:-0.705732 25:-0.901317 26:-0.843833 27:-0.921987 28:-0.862954 29:-0.918789 30:-0.858958 31:-0.911036 32:-0.879263 33:-0.925174 34:-0.95883 35:-0.995138 36:-0.980745 37:-0.98164 38:-0.961104 39:-0.960723 40:-0.984281 41:-0.978719 42:-0.977477 43:-0.944726 44:-0.929825 45:-0.915558 46:-0.911665 47:-0.89601 48:-0.894873 49:-0.888044 50:-0.90681 51:-0.899767 52:-0.901914 53:-0.931188 54:-0.922747 55:-0.919149 56:-0.918171 57:-0.833333 58:-0.828326 59:-0.549296 60:-0.953675 61:-0.47887 
0.2338082471586436 1:-0.886506 2:-0.922237 3:-0.880425 4:0.0963916 5:0.414138 6:-0.960298 7:0.208066 8:-0.944754 9:-0.993343 10:-0.440101 11:0.587452 12:-0.995849 13:-0.180134 14:-0.99559 15:-0.954312 16:-0.878694 17:-0.953166 18:-0.871905 19:-0.973927 20:-0.891563 21:-0.902441 22:-0.7301 23:-0.78557 24:-0.730477 25:-0.884803 26:-0.865738 27:-0.913523 28:-0.852204 29:-0.922348 30:-0.824656 31:-0.904025 32:-0.86202 33:-0.919782 34:-0.960947 35:-0.993099 36:-0.979094 37:-0.984634 38:-0.960363 39:-0.96177 40:-0.982943 41:-0.984152 42:-0.981982 43:-0.962229 44:-0.913876 45:-0.901677 46:-0.92752 47:-0.91052 48:-0.853342 49:-0.839668 50:-0.848029 51:-0.897436 52:-0.912679 53:-0.924528 54:-0.92618 55:-0.908511 56:-0.944645 57:-0.95098 58:-0.974249 59:-0.971831 60:-0.953606 61:-0.461312 
0.6856920319400395 1:-0.887142 2:-0.922268 3:-0.881146 4:0.0987365 5:0.414341 6:-0.962796 7:0.208832 8:-0.943261 9:-0.993339 10:-0.440167 11:0.587665 12:-0.995947 13:-0.180052 14:-0.995752 15:-0.949273 16:-0.895981 17:-0.9507 18:-0.874438 19:-0.957477 20:-0.885084 21:-0.901653 22:-0.71964 23:-0.782051 24:-0.752271 25:-0.879101 26:-0.878083 27:-0.907805 28:-0.875695 29:-0.922131 30:-0.805577 31:-0.909502 32:-0.853895 33:-0.90844 34:-0.947613 35:-0.994824 36:-0.980194 37:-0.982439 38:-0.958881 39:-0.957057 40:-0.986957 41:-0.981435 42:-0.971847 43:-0.94749 44:-0.924508 45:-0.898207 46:-0.911665 47:-0.882709 48:-0.801428 49:-0.818936 50:-0.881004 51:-0.945221 52:-0.961722 53:-0.955605 54:-0.92103 55:-0.904255 56:-0.939832 57:-0.906863 58:-0.982833 59:-0.971831 60:-0.952272 61:-0.446471 
0.6858143595886129 1:-0.884739 2:-0.922301 3:-0.881396 4:0.100001 5:0.412798 6:-0.964112 7:0.210181 8:-0.946084 9:-0.992905 10:-0.440158 11:0.587646 12:-0.995988 13:-0.180219 14:-0.995735 15:-0.942466 16:-0.911582 17:-0.949221 18:-0.89466 19:-0.955477 20:-0.900929 21:-0.900248 22:-0.737754 23:-0.777051 24:-0.704029 25:-0.8813 26:-0.879561 27:-0.898232 28:-0.862614 29:-0.898834 30:-0.787123 31:-0.908648 32:-0.850511 33:-0.909667 34:-0.947929 35:-0.991295 36:-0.983862 37:-0.978248 38:-0.963697 39:-0.969102 40:-0.983946 41:-0.975549 42:-0.974099 43:-0.94012 44:-0.916002 45:-0.912088 46:-0.901472 47:-0.900846 48:-0.817002 49:-0.823082 50:-0.876703 51:-0.924242 52:-0.970096 53:-0.968923 54:-0.922747 55:-0.908511 56:-0.930205 57:-0.867647 58:-0.871245 59:-1 60:-0.950583 61:-0.443442 
0.6413680066747255 1:-0.89541 2:-0.9219 3:-0.866755 4:0.124305 5:0.421406 6:-0.987328 7:0.219798 8:-0.938494 9:-0.995759 10:-0.440039 11:0.587784 12:-0.995437 13:-0.180208 14:-0.995402 15:-0.92835 16:-0.71722 17:-0.912616 18:-0.786441 19:-0.914957 20:-0.854764 21:-0.864847 22:-0.894932 23:-0.820789 24:-0.912314 25:-0.888357 26:-0.922447 27:-0.91461 28:-0.919386 29:-0.9208 30:-0.93064 31:-0.9282 32:-0.898445 33:-0.973796 34:-0.932309 35:-0.995687 36:-0.98753 37:-0.988226 38:-0.98296 39:-0.968578 40:-0.98194 41:-0.978266 42:-0.970721 43:-0.946568 44:-0.928761 45:-0.892423 46:-0.90487 47:-0.912938 48:-0.878001 49:-0.864547 50:-0.842294 51:-0.900932 52:-0.930622 53:-0.951165 54:-0.955365 55:-0.93617 56:-0.910951 57:-0.828431 58:-0.665236 59:-0.690141 60:-0.95169 61:-0.399251 
0.1436879278674407 1:-0.897247 2:-0.913495 3:-0.869365 4:0.191349 5:0.415825 6:-0.993289 7:0.248893 8:-0.947831 9:-0.995911 10:-0.440165 11:0.587315 12:-0.995173 13:-0.180052 14:-0.995195 15:-0.938707 16:-0.694997 17:-0.917247 18:-0.781162 19:-0.913195 20:-0.839016 21:-0.932639 22:-0.875396 23:-0.920788 24:-0.886256 25:-0.945701 26:-0.894066 27:-0.947177 28:-0.899638 29:-0.927208 30:-0.906925 31:-0.930491 32:-0.89786 33:-0.981511 34:-0.935832 35:-0.994824 36:-0.987713 37:-0.993015 38:-0.978885 39:-0.960199 40:-0.980602 41:-0.978719 42:-0.970721 43:-0.924459 44:-0.909623 45:-0.895894 46:-0.852775 47:-0.818622 48:-0.8183 49:-0.870076 50:-0.911111 51:-0.956876 52:-0.965311 53:-0.965594 54:-0.955365 55:-0.948936 56:-0.968712 57:-0.970588 58:-1 59:-1 60:-0.956769 61:-0.428409 
0.2240952241861573 1:-0.896541 2:-0.906655 3:-0.871198 4:0.200421 5:0.416856 6:-0.988651 7:0.253157 8:-0.945628 9:-0.996515 10:-0.440034 11:0.588018 12:-0.995313 13:-0.180045 14:-0.995388 15:-0.951168 16:-0.735888 17:-0.915084 18:-0.774345 19:-0.922433 20:-0.841172 21:-0.940491 22:-0.8884 23:-0.928681 24:-0.88728 25:-0.950112 26:-0.882131 27:-0.946784 28:-0.893416 29:-0.959681 30:-0.903157 31:-0.950348 32:-0.895458 33:-0.975253 34:-0.929835 35:-0.993648 36:-0.985879 37:-0.992217 38:-0.985923 39:-0.97172 40:-0.981271 41:-0.975549 42:-0.974662 43:-0.950253 44:-0.925572 45:-0.89358 46:-0.894677 47:-0.862152 48:-0.817002 49:-0.794057 50:-0.856631 51:-0.947552 52:-0.958134 53:-0.967814 54:-0.958798 55:-0.946809 56:-0.944645 57:-0.897059 58:-0.93133 59:-1 60:-0.954732 61:-0.421919 
0.7731139735589745 1:-0.894562 2:-0.846704 3:-0.843771 4:0.266496 5:0.423178 6:-0.930124 7:0.277712 8:-0.944798 9:-0.996164 10:-0.440111 11:0.587506 12:-0.994914 13:-0.180087 14:-0.99496 15:-0.924539 16:-0.720338 17:-0.957437 18:-0.780317 19:-0.953715 20:-0.82668 21:-0.960589 22:-0.859646 23:-0.941417 24:-0.881255 25:-0.948227 26:-0.894351 27:-0.953275 28:-0.903487 29:-0.94361 30:-0.919654 31:-0.937408 32:-0.908155 33:-0.949555 34:-0.94747 35:-0.994667 36:-0.993031 37:-0.992018 38:-0.988146 39:-0.964912 40:-0.98194 41:-0.97736 42:-0.971284 43:-0.949332 44:-0.920255 45:-0.877386 46:-0.883352 47:-0.844015 48:-0.8183 49:-0.803732 50:-0.882437 51:-0.921911 52:-0.953349 53:-0.963374 54:-0.951931 55:-0.953191 56:-0.954272 57:-0.901961 58:-0.854077 59:-0.492958 60:-0.957292 61:-0.419754 
0.051784014683759 1:-0.889474 2:-0.724138 3:-0.742693 4:0.355139 5:0.423536 6:-0.855745 7:0.282614 8:-0.962995 9:-0.996128 10:-0.440113 11:0.587151 12:-0.994526 13:-0.180157 14:-0.994883 15:-0.894991 16:-0.749357 17:-0.932698 18:-0.805576 19:-0.952654 20:-0.86006 21:-0.961942 22:-0.892331 23:-0.923907 24:-0.905335 25:-0.896934 26:-0.923934 27:-0.858948 28:-0.929705 29:-0.848935 30:-0.915755 31:-0.875884 32:-0.916342 33:-0.927697 34:-0.962576 35:-0.992628 36:-0.981845 37:-0.990222 38:-0.981108 39:-0.969102 40:-0.983278 41:-0.981435 42:-0.973536 43:-0.924459 44:-0.916002 45:-0.89358 46:-0.883352 47:-0.874244 48:-0.833874 49:-0.847961 50:-0.901075 51:-0.949883 52:-0.946172 53:-0.965594 54:-0.967382 55:-0.914894 56:-0.89651 57:-0.823529 58:-0.639485 59:-0.690141 60:-0.951068 61:-0.43542 
0.8073403603345777 1:-0.887707 2:-0.610459 3:-0.703661 4:0.439492 5:0.424485 6:-0.741898 7:0.294489 8:-0.968923 9:-0.996638 10:-0.440085 11:0.587599 12:-0.995399 13:-0.18012 14:-0.995536 15:-0.918679 16:-0.943649 17:-0.902659 18:-0.903945 19:-0.898991 20:-0.924214 21:-0.865411 22:-0.920969 23:-0.865207 24:-0.936431 25:-0.84981 26:-0.951684 27:-0.856942 28:-0.929426 29:-0.855257 30:-0.922617 31:-0.883046 32:-0.911154 33:-0.928078 34:-0.949314 35:-0.994118 36:-0.982028 37:-0.979645 38:-0.975181 39:-0.967531 40:-0.977592 41:-0.969663 42:-0.970721 43:-0.928144 44:-0.931951 45:-0.93985 46:-0.943375 47:-0.937122 48:-0.929916 49:-0.893573 50:-0.885305 51:-0.899767 52:-0.915072 53:-0.942286 54:-0.938197 55:-0.887234 56:-0.838748 57:-0.637255 58:-0.613734 59:-0.690141 60:-0.944969 61:-0.399138 
0.1214076184552714 1:-0.895693 2:-0.594255 3:-0.709288 4:0.447005 5:0.42949 6:-0.722648 7:0.301854 8:-0.962864 9:-0.996144 10:-0.44005 11:0.588063 12:-0.996095 13:-0.180143 14:-0.996115 15:-0.896917 16:-0.813031 17:-0.894249 18:-0.849726 19:-0.900179 20:-0.910453 21:-0.879992 22:-0.91319 23:-0.844679 24:-0.894445 25:-0.837388 26:-0.907809 27:-0.853871 28:-0.958894 29:-0.869352 30:-0.974917 31:-0.885894 32:-0.951685 33:-0.941591 34:-0.978869 35:-0.99451 36:-0.982212 37:-0.986629 38:-0.973328 39:-0.972768 40:-0.98194 41:-0.979624 42:-0.95777 43:-0.946568 44:-0.921318 45:-0.89705 46:-0.925255 47:-0.929867 48:-0.936405 49:-0.908777 50:-0.911111 51:-0.928904 52:-0.921053 53:-0.967814 54:-0.924464 55:-0.810638 56:-0.843562 57:-0.764706 58:-0.83691 59:-0.887324 60:-0.945576 61:-0.388522 
0.6370117656213872 1:-0.905374 2:-0.552824 3:-0.727106 4:0.465003 5:0.423708 6:-0.665232 7:0.304364 8:-0.966574 9:-0.99704 10:-0.441632 11:0.564751 12:-0.996132 13:-0.180103 14:-0.996272 15:-0.916564 16:-0.919954 17:-0.914556 18:-0.933541 19:-0.91585 20:-0.952598 21:-0.904862 22:-0.957323 23:-0.864384 24:-0.861219 25:-0.850424 26:-0.868834 27:-0.846241 28:-0.885432 29:-0.867306 30:-0.936892 31:-0.878873 32:-0.942425 33:-0.941371 34:-0.972512 35:-0.998667 36:-0.993031 37:-0.988425 38:-0.969994 39:-0.964912 40:-0.983946 41:-0.98053 42:-0.974099 43:-0.955781 44:-0.925572 45:-0.920185 46:-0.91846 47:-0.908102 48:-0.911746 49:-0.883898 50:-0.913978 51:-0.928904 52:-0.940191 53:-0.955605 54:-0.934764 55:-0.914894 56:-0.843562 57:-0.754902 58:-0.67382 59:-0.577465 60:-0.949764 61:-0.352145 
0.07913707496463555 1:-0.908272 2:-0.535088 3:-0.726316 4:0.475928 5:0.431145 6:-0.641667 7:0.314868 8:-0.958644 9:-0.997245 10:-0.440127 11:0.58746 12:-0.996252 13:-0.180187 14:-0.996426 15:-0.942379 16:-0.834677 17:-0.9354 18:-0.864656 19:-0.920539 20:-0.927096 21:-0.858994 22:-0.963248 23:-0.843758 24:-0.943142 25:-0.865449 26:-0.937425 27:-0.876911 28:-0.903777 29:-0.870497 30:-0.905401 31:-0.895914 32:-0.947727 33:-0.940709 34:-0.978445 35:-0.998824 36:-0.992298 37:-0.991419 38:-0.979626 39:-0.967007 40:-0.98495 41:-0.976002 42:-0.972973 43:-0.95486 44:-0.921318 45:-0.89705 46:-0.887882 47:-0.891173 48:-0.893576 49:-0.90463 50:-0.870968 51:-0.946387 52:-0.97488 53:-0.955605 54:-0.927897 55:-0.897872 56:-0.860409 57:-0.867647 58:-0.905579 59:-0.943662 60:-0.952241 61:-0.337551 
0.9520085600330631 1:-0.926999 2:-0.493473 3:-0.691169 4:0.527321 5:0.424646 6:-0.571639 7:0.309476 8:-0.965174 9:-0.996577 10:-0.440107 11:0.587402 12:-0.997588 13:-0.180086 14:-0.997701 15:-0.863559 16:-0.73695 17:-0.877659 18:-0.725792 19:-0.918338 20:-0.779976 21:-0.92845 22:-0.829805 23:-0.932753 24:-0.865316 25:-0.931169 26:-0.895158 27:-0.921272 28:-0.896005 29:-0.929181 30:-0.924023 31:-0.90808 32:-0.957048 33:-0.941873 34:-0.98867 35:-0.998667 36:-0.993031 37:-0.992217 38:-0.98296 39:-0.964389 40:-0.979599 41:-0.971927 42:-0.966216 43:-0.948411 44:-0.94471 45:-0.93985 46:-0.9547 47:-0.933495 48:-0.923426 49:-0.906012 50:-0.924014 51:-0.958042 52:-0.956938 53:-0.970033 54:-0.950215 55:-0.951064 56:-0.927798 57:-0.936275 58:-0.939914 59:-0.746479 60:-0.955247 61:-0.43448 
0.3731949416188198 1:-0.922476 2:-0.496663 3:-0.689129 4:0.531847 5:0.430623 6:-0.563208 7:0.316901 8:-0.960952 9:-0.997102 10:-0.440104 11:0.587648 12:-0.997123 13:-0.180139 14:-0.997329 15:-0.955753 16:-0.965648 17:-0.959087 18:-0.95688 19:-0.881153 20:-0.840548 21:-0.897596 22:-0.79479 23:-0.905876 24:-0.781842 25:-0.913683 26:-0.855675 27:-0.917783 28:-0.898255 29:-0.914611 30:-0.92329 31:-0.914351 32:-0.945335 33:-0.936433 34:-0.988153 35:-0.998745 36:-0.994498 37:-0.991618 38:-0.983701 39:-0.971197 40:-0.983278 41:-0.962418 42:-0.95777 43:-0.955781 44:-0.936204 45:-0.931752 46:-0.926387 47:-0.916566 48:-0.906554 49:-0.901866 50:-0.902509 51:-0.945221 52:-0.954545 53:-0.967814 54:-0.953648 55:-0.96383 56:-0.961492 57:-0.931373 58:-0.974249 59:-0.943662 60:-0.955727 61:-0.388971 
0.5828230394783412 1:-0.924738 2:-0.508379 3:-0.667133 4:0.512323 5:0.480782 6:-0.635482 7:0.358336 8:-0.905523 9:-0.997555 10:-0.4401 11:0.587633 12:-0.99798 13:-0.18006 14:-0.997953 15:-0.951801 16:-0.96288 17:-0.954081 18:-0.971969 19:-0.9462 20:-0.951117 21:-0.84435 22:-0.880662 23:-0.857118 24:-0.883179 25:-0.88563 26:-0.880178 27:-0.905989 28:-0.888816 29:-0.923271 30:-0.944579 31:-0.924584 32:-0.97412 33:-0.944421 34:-0.973884 35:-0.994981 36:-0.986613 37:-0.990621 38:-0.986664 39:-0.982194 40:-0.986288 41:-0.979171 42:-0.968468 43:-0.949332 44:-0.945774 45:-0.951417 46:-0.96376 47:-0.948005 48:-0.928618 49:-0.911541 50:-0.902509 51:-0.924242 52:-0.929426 53:-0.952275 54:-0.962232 55:-0.968085 56:-0.942238 57:-0.946078 58:-0.939914 59:-0.577465 60:-0.950612 61:-0.424986 
0.2210011107896353 1:-0.939931 2:-0.61768 3:-0.736743 4:0.45135 5:0.375083 6:-0.68644 7:0.251652 8:-0.995946 9:-0.99775 10:-0.440096 11:0.587649 12:-0.998861 13:-0.180116 14:-0.998736 15:-0.987136 16:-0.975383 17:-0.978995 18:-0.973831 19:-0.982656 20:-0.978558 21:-0.97814 22:-0.959308 23:-0.956898 24:-0.962574 25:-0.807583 26:-0.866711 27:-0.806912 28:-0.887283 29:-0.871736 30:-0.930301 31:-0.896818 32:-0.938523 33:-0.944493 34:-0.965725 35:-0.994197 36:-0.986246 37:-0.989423 38:-0.983701 39:-0.985336 40:-0.986622 41:-0.984152 42:-0.985923 43:-0.97789 44:-0.959596 45:-0.957201 46:-0.970555 47:-0.941959 48:-0.937703 49:-0.939185 50:-0.931183 51:-0.963869 52:-0.966507 53:-0.962264 54:-0.958798 55:-0.968085 56:-0.971119 57:-0.965686 58:-0.914163 59:-0.859155 60:-0.951663 61:-0.512308 
0.4837831733713496 1:-0.885304 2:-0.61768 3:-0.71547 4:0.467068 5:0.444088 6:-0.674777 7:0.323156 8:-0.943407 9:-0.994644 10:-0.440124 11:0.587591 12:-0.995442 13:-0.180018 14:-0.995491 15:-0.8861 16:-0.947489 17:-0.892515 18:-0.942101 19:-0.867571 20:-0.801414 21:-0.872889 22:-0.811289 23:-0.890236 24:-0.949375 25:-0.806161 26:-0.896663 27:-0.77864 28:-0.872007 29:-0.856721 30:-0.923363 31:-0.893462 32:-0.928686 33:-0.921486 34:-0.949598 35:-0.993491 36:-0.981845 37:-0.98184 38:-0.970365 39:-0.966483 40:-0.974916 41:-0.972832 42:-0.97241 43:-0.946568 44:-0.927698 45:-0.917872 46:-0.926387 47:-0.892382 48:-0.884491 49:-0.868694 50:-0.823656 51:-0.863636 52:-0.899522 53:-0.915649 54:-0.934764 55:-0.961702 56:-0.971119 57:-0.965686 58:-0.914163 59:-0.859155 60:-0.955255 61:-0.473197 
