svm_type c_svc
kernel_type rbf
gamma 8
nr_class 2
total_sv 707
rho 1.56604
label 1 -1
nr_sv 305 402
SV
1.570059431696054 1:-0.942758 2:-0.980047 3:-0.972954 4:-0.181976 5:0.10909 6:-0.992051 7:0.271025 8:-0.721578 9:-0.999434 10:-0.44015 11:0.573787 12:-0.998306 13:-0.180065 14:-0.998465 15:-0.920762 16:-0.962738 17:-0.968984 18:-0.965817 19:-0.970298 20:-0.980599 21:-0.961499 22:-0.981797 23:-0.936052 24:-0.927285 25:-0.951151 26:-0.902557 27:-0.953571 28:-0.916158 29:-0.960112 30:-0.938912 31:-0.954349 32:-0.932664 33:-0.96057 34:-0.954003 35:-0.984237 36:-0.983129 37:-0.975454 38:-0.941841 39:-0.95182 40:-0.990301 41:-0.990491 42:-0.993376 43:-0.990071 44:-0.983924 45:-0.991903 46:-0.994337 47:-0.995163 48:-0.995316 49:-0.992775 50:-0.998867 51:-0.996544 52:-0.997608 53:-0.99778 54:-0.99485 55:-0.992134 56:-0.997593 57:-0.979167 58:-0.974249 59:-0.943662 60:-0.990167 61:-0.982409 
6.659034865430306 1:-0.983605 2:-0.811828 3:-0.77024 4:-0.165455 5:0.155176 6:-0.994694 7:0.253761 8:-0.902295 9:-0.999952 10:-0.440131 11:0.587592 12:-0.999822 13:-0.180089 14:-0.999836 15:-0.98675 16:-0.987423 17:-0.985056 18:-0.988996 19:-0.98892 20:-0.989317 21:-0.972021 22:-0.978241 23:-0.985354 24:-0.971683 25:-0.969258 26:-0.958846 27:-0.966982 28:-0.953132 29:-0.977147 30:-0.959537 31:-0.969887 32:-0.950571 33:-0.976582 34:-0.955728 35:-1 36:-0.99945 37:-0.999202 38:-0.992221 39:-0.990573 40:-0.993645 41:-0.990038 42:-0.993376 43:-0.985728 44:-0.982979 45:-0.980335 46:-0.989807 47:-0.989117 48:-0.985948 49:-0.991571 50:-0.985277 51:-0.988479 52:-0.996411 53:-0.993341 54:-0.996567 55:-0.9941 56:-0.995187 57:-0.995833 58:-1 59:-1 60:-0.996412 61:-0.984229 
8 1:-0.987845 2:-0.804544 3:-0.757599 4:-0.163341 5:0.147878 6:-0.994208 7:0.252913 8:-0.919811 9:-0.999978 10:-0.44013 11:0.58758 12:-0.999908 13:-0.180105 14:-0.999917 15:-0.984878 16:-0.974445 17:-0.972676 18:-0.970289 19:-0.97695 20:-0.972261 21:-0.981288 22:-0.969214 23:-0.981538 24:-0.970419 25:-0.972835 26:-0.969722 27:-0.960241 28:-0.97754 29:-0.965621 30:-0.969158 31:-0.981715 32:-0.987079 33:-0.981168 34:-0.990907 35:-0.999922 36:-0.998166 37:-0.99561 38:-0.994443 39:-0.994239 40:-0.996321 41:-0.99185 42:-0.995414 43:-0.996277 44:-0.986761 45:-0.987276 46:-0.98641 47:-0.991536 48:-0.994145 49:-0.990367 50:-0.997735 51:-0.99424 52:-0.998804 53:-0.99889 54:-0.99485 55:-0.998033 56:-0.997593 57:-1 58:-0.991416 59:-1 60:-0.995464 61:-0.982868 
7.592593367658247 1:-0.988693 2:-0.798809 3:-0.742072 4:-0.161349 5:0.236949 6:-0.993791 7:0.267158 8:-0.724553 9:-0.999972 10:-0.440169 11:0.587594 12:-0.999837 13:-0.180112 14:-0.999853 15:-0.980895 16:-0.984114 17:-0.993091 18:-0.98664 19:-0.977979 20:-0.973479 21:-0.987617 22:-0.978602 23:-0.990882 24:-0.978554 25:-0.975615 26:-0.96808 27:-0.987399 28:-0.962397 29:-0.974854 30:-0.981464 31:-0.977351 32:-0.989057 33:-0.967495 34:-0.988533 35:-0.999922 36:-0.997249 37:-0.991818 38:-0.987776 39:-0.993192 40:-0.99699 41:-0.99683 42:-0.996943 43:-0.993174 44:-0.996217 45:-0.998843 46:-0.99547 47:-0.997582 48:-1 49:-0.997592 50:-1 51:-0.998848 52:-0.998804 53:-0.99556 54:-0.996567 55:-0.996067 56:-0.997593 57:-0.991667 58:-0.991416 59:-1 60:-0.993914 61:-0.981828 
0.03029280918693151 1:-0.979647 2:-0.788287 3:-0.739441 4:-0.158247 5:0.259778 6:-0.992581 7:0.273742 8:-0.656011 9:-0.999941 10:-0.44013 11:0.584496 12:-0.999527 13:-0.18011 14:-0.999573 15:-0.97084 16:-0.926845 17:-0.993504 18:-0.970441 19:-0.993168 20:-0.973406 21:-0.99175 22:-0.970826 23:-0.981197 24:-0.966051 25:-0.973207 26:-0.962126 27:-0.982418 28:-0.953939 29:-0.977165 30:-0.970323 31:-0.989148 32:-0.98225 33:-0.979627 34:-0.978804 35:-0.999686 36:-0.994865 37:-0.984235 38:-0.976662 39:-0.988479 40:-0.996321 41:-0.992755 42:-0.993885 43:-0.994415 44:-0.993381 45:-0.99306 46:-0.996602 47:-0.998791 48:-0.994145 49:-1 50:-0.997735 51:-0.993088 52:-0.998804 53:-0.99778 54:-0.996567 55:-0.990167 56:-0.990373 57:-0.995833 58:-0.982833 59:-1 60:-0.992787 61:-0.979465 
0.4334370596645563 1:-0.963464 2:-0.520201 3:-0.87501 4:0.0388978 5:0.107581 6:-0.323269 7:0.374741 8:-0.945969 9:-0.999159 10:-0.440126 11:0.58759 12:-0.999575 13:-0.180102 14:-0.999493 15:-0.948684 16:-0.959914 17:-0.86109 18:-0.934511 19:-0.869782 20:-0.946022 21:-0.892846 22:-0.9499 23:-0.896469 24:-0.948725 25:-0.905934 26:-0.947826 27:-0.909949 28:-0.960776 29:-0.91782 30:-0.969716 31:-0.967242 32:-0.989125 33:-0.968953 34:-0.991302 35:-0.999529 36:-0.995782 37:-0.996807 38:-0.996296 39:-0.981147 40:-0.987291 41:-0.989133 42:-0.964331 43:-0.945392 44:-0.936643 45:-0.941006 46:-0.94564 47:-0.981862 48:-0.982436 49:-0.995184 50:-0.998867 51:-0.997696 52:-0.998804 53:-1 54:-0.996567 55:-1 56:-0.995187 57:-0.995833 58:-1 59:-1 60:-0.987307 61:-0.917631 
2.794765639481069 1:-0.971167 2:-0.503922 3:-0.869899 4:0.0476621 5:0.102695 6:-0.300637 7:0.362534 8:-0.956636 9:-0.999493 10:-0.440134 11:0.587609 12:-0.999716 13:-0.180105 14:-0.999669 15:-0.906178 16:-0.920393 17:-0.902272 18:-0.923572 19:-0.922568 20:-0.954452 21:-0.916324 22:-0.927324 23:-0.907609 24:-0.916079 25:-0.909535 26:-0.92913 27:-0.91689 28:-0.933129 29:-0.916515 30:-0.949748 31:-0.965246 32:-0.983717 33:-0.97582 34:-0.993047 35:-0.999843 36:-0.998716 37:-0.998404 38:-0.994073 39:-0.986384 40:-0.984281 41:-0.965135 42:-0.960764 43:-0.954701 44:-0.962175 45:-0.979179 46:-0.98641 47:-0.997582 48:-0.996487 49:-0.998796 50:-0.998867 51:-1 52:-1 53:-0.99889 54:-1 55:-1 56:-1 57:-1 58:-1 59:-1 60:-0.987791 61:-0.91545 
4.654252729455434 1:-0.978305 2:-0.488274 3:-0.862465 4:0.059058 5:0.101674 6:-0.274948 7:0.358881 8:-0.960532 9:-0.999742 10:-0.440141 11:0.58755 12:-0.999806 13:-0.180105 14:-0.99979 15:-0.926004 16:-0.916225 17:-0.923566 18:-0.928636 19:-0.932385 20:-0.93499 21:-0.938842 22:-0.9384 23:-0.936364 24:-0.913453 25:-0.935884 26:-0.905125 27:-0.941666 28:-0.928579 29:-0.959832 30:-0.971951 31:-0.974109 32:-0.988168 33:-0.975568 34:-0.988516 35:-0.999922 36:-0.99945 37:-0.9998 38:-0.99963 39:-0.997382 40:-0.998662 41:-0.998642 42:-0.993885 43:-0.994415 44:-0.986761 45:-0.974552 46:-0.976217 47:-0.968561 48:-0.9637 49:-0.962673 50:-0.967157 51:-0.975806 52:-0.978469 53:-0.978912 54:-0.975966 55:-0.984267 56:-0.983153 57:-0.979167 58:-0.965665 59:-0.971831 60:-0.990112 61:-0.915345 
1.90228499201564 1:-0.938447 2:-0.768506 3:-0.830963 4:-0.0548861 5:0.176417 6:-0.819806 7:0.372236 8:-0.804144 9:-0.998504 10:-0.440111 11:0.587962 12:-0.996967 13:-0.178769 14:-0.997118 15:-0.838288 16:-0.90574 17:-0.881187 18:-0.919045 19:-0.905571 20:-0.95779 21:-0.932678 22:-0.968262 23:-0.92442 24:-0.93075 25:-0.940436 26:-0.931538 27:-0.934909 28:-0.956704 29:-0.948279 30:-0.966133 31:-0.936993 32:-0.96544 33:-0.957749 34:-0.96083 35:-0.999529 36:-0.996882 37:-0.986629 38:-0.951472 39:-0.93768 40:-0.976589 41:-0.985963 42:-0.984204 43:-0.987589 44:-0.959338 45:-0.945633 46:-0.928652 47:-0.933495 48:-0.93911 49:-0.957857 50:-0.987542 51:-0.979263 52:-0.979665 53:-0.981132 54:-0.974249 55:-0.990167 56:-0.99278 57:-1 58:-0.991416 59:-1 60:-0.984656 61:-0.946146 
0.2872895212305959 1:-0.940709 2:-0.757711 3:-0.78724 4:-0.0565111 5:0.18825 6:-0.860612 7:0.352826 8:-0.813596 9:-0.998655 10:-0.440143 11:0.58761 12:-0.996999 13:-0.180183 14:-0.997207 15:-0.901477 16:-0.832266 17:-0.932813 18:-0.852032 19:-0.96861 20:-0.902332 21:-0.948604 22:-0.967302 23:-0.946309 24:-0.935578 25:-0.932297 26:-0.93019 27:-0.929791 28:-0.958371 29:-0.949782 30:-0.971014 31:-0.941677 32:-0.962349 33:-0.947182 34:-0.953851 35:-0.998902 36:-0.98753 37:-0.96807 38:-0.962956 39:-0.974339 40:-0.992642 41:-0.985963 42:-0.982166 43:-0.968352 44:-0.957447 45:-0.936379 46:-0.951302 47:-0.946796 48:-0.956674 49:-0.962673 50:-0.973952 51:-0.980415 52:-0.990431 53:-0.99667 54:-0.99485 55:-0.996067 56:-1 57:-0.995833 58:-1 59:-1 60:-0.982396 61:-0.943108 
2.948627304438738 1:-0.901488 2:-0.918625 3:-0.908124 4:-0.159353 5:0.128179 6:-0.979642 7:0.275295 8:-0.858543 9:-0.997277 10:-0.440156 11:0.587762 12:-0.995913 13:-0.180052 14:-0.996209 15:-0.866303 16:-0.92288 17:-0.883904 18:-0.929884 19:-0.971832 20:-0.931091 21:-0.972376 22:-0.867348 23:-0.968237 24:-0.858172 25:-0.971223 26:-0.853691 27:-0.962671 28:-0.853543 29:-0.965831 30:-0.857974 31:-0.955966 32:-0.874948 33:-0.954659 34:-0.959871 35:-0.995451 36:-0.987346 37:-0.978447 38:-0.938878 39:-0.932443 40:-0.970234 41:-0.974643 42:-0.983185 43:-0.960285 44:-0.935697 45:-0.887796 46:-0.902605 47:-0.920193 48:-0.912178 49:-0.916918 50:-0.906002 51:-0.968894 52:-0.970096 53:-0.987791 54:-0.982833 55:-0.986234 56:-0.995187 57:-1 58:-1 59:-1 60:-0.98492 61:-0.950574 
2.350914740509066 1:-0.901064 2:-0.964511 3:-0.964726 4:-0.173819 5:0.110694 6:-0.981865 7:0.282733 8:-0.77184 9:-0.996347 10:-0.440148 11:0.587693 12:-0.996393 13:-0.180108 14:-0.996613 15:-0.789347 16:-0.92022 17:-0.854608 18:-0.916473 19:-0.882082 20:-0.915446 21:-0.905386 22:-0.943528 23:-0.912883 24:-0.854196 25:-0.914134 26:-0.852106 27:-0.945928 28:-0.849666 29:-0.944288 30:-0.910439 31:-0.944899 32:-0.90922 33:-0.958658 34:-0.941902 35:-0.984707 36:-0.980745 37:-0.970465 38:-0.903686 39:-0.950249 40:-0.980936 41:-0.965135 42:-0.967389 43:-0.966491 44:-0.952719 45:-0.929439 46:-0.949037 47:-0.939541 48:-0.941452 49:-0.971102 50:-0.980747 51:-0.990783 52:-0.986842 53:-0.991121 54:-0.987983 55:-0.996067 56:-0.980746 57:-0.9875 58:-0.974249 59:-0.971831 60:-0.986531 61:-0.967098 
6.429699998229033 1:-0.921134 2:-0.972886 3:-0.971373 4:-0.176397 5:0.106275 6:-0.983191 7:0.28264 8:-0.761167 9:-0.998593 10:-0.440149 11:0.587638 12:-0.997506 13:-0.179967 14:-0.997628 15:-0.887217 16:-0.953393 17:-0.877521 18:-0.942967 19:-0.91421 20:-0.935035 21:-0.956059 22:-0.948603 23:-0.953669 24:-0.925337 25:-0.935263 26:-0.918106 27:-0.938066 28:-0.927613 29:-0.932937 30:-0.926077 31:-0.946665 32:-0.939383 33:-0.960981 34:-0.976083 35:-0.977884 36:-0.965157 37:-0.962283 38:-0.95814 39:-0.962817 40:-0.986288 41:-0.985058 42:-0.986752 43:-0.983245 44:-0.961229 45:-0.954887 46:-0.969422 47:-0.980653 48:-0.996487 49:-0.99398 50:-0.998867 51:-1 52:-0.997608 53:-0.99778 54:-0.996567 55:-0.998033 56:-0.990373 57:-1 58:-0.965665 59:-1 60:-0.989032 61:-0.978737 
8 1:-0.981414 2:-0.976219 3:-0.976563 4:-0.178458 5:0.0942458 6:-0.984315 7:0.27569 8:-0.820133 9:-0.999976 10:-0.440908 11:0.587597 12:-0.999482 13:-0.180092 14:-0.999535 15:-0.989392 16:-0.978812 17:-0.983408 18:-0.984214 19:-0.990507 20:-0.974911 21:-0.996257 22:-0.986346 23:-0.996615 24:-0.991474 25:-0.98169 26:-0.977818 27:-0.983471 28:-0.977454 29:-0.981831 30:-0.972364 31:-0.979374 32:-0.970421 33:-0.977447 34:-0.976404 35:-0.995687 36:-0.982578 37:-0.992816 38:-0.994814 39:-0.994763 40:-0.997993 41:-0.995925 42:-0.996943 43:-0.998759 44:-0.993381 45:-0.99653 46:-0.997735 47:-0.993954 48:-0.995316 49:-1 50:-0.997735 51:-0.998848 52:-0.998804 53:-0.99778 54:-0.998283 55:-0.996067 56:-0.997593 57:-0.995833 58:-0.991416 59:-1 60:-0.996796 61:-0.994974 
8 1:-0.971167 2:-0.971999 3:-0.976412 4:-0.176573 5:0.0990639 6:-0.980961 7:0.282961 8:-0.78878 9:-0.999789 10:-0.440128 11:0.587588 12:-0.999659 13:-0.179959 14:-0.999676 15:-0.96551 16:-0.921138 17:-0.957712 18:-0.944669 19:-0.963042 20:-0.951501 21:-0.969745 22:-0.93544 23:-0.969056 24:-0.949067 25:-0.975934 26:-0.979698 27:-0.979516 28:-0.92965 29:-0.978477 30:-0.93861 31:-0.983689 32:-0.966833 33:-0.98663 34:-0.975978 35:-0.991765 36:-0.989364 37:-0.988625 38:-0.977033 39:-0.970673 40:-0.99097 41:-0.995472 42:-0.996943 43:-0.999379 44:-0.997163 45:-0.997687 46:-0.997735 47:-0.996372 48:-1 49:-0.998796 50:-0.997735 51:-0.998848 52:-0.997608 53:-0.99778 54:-0.996567 55:-0.998033 56:-0.99278 57:-0.9875 58:-0.982833 59:-1 60:-0.991984 61:-0.986046 
8 1:-0.959295 2:-0.971999 3:-0.974999 4:-0.175829 5:0.111089 6:-0.979929 7:0.294762 8:-0.682915 9:-0.999735 10:-0.440126 11:0.587609 12:-0.99909 13:-0.180074 14:-0.999168 15:-0.958075 16:-0.9784 17:-0.973472 18:-0.97094 19:-0.953718 20:-0.927851 21:-0.954565 22:-0.928214 23:-0.958627 24:-0.951105 25:-0.96755 26:-0.925812 27:-0.969586 28:-0.960414 29:-0.97856 30:-0.931978 31:-0.978891 32:-0.956892 33:-0.986365 34:-0.975978 35:-0.988079 36:-0.978544 37:-0.981441 38:-0.974069 39:-0.968054 40:-0.989632 41:-0.994114 42:-0.995414 43:-0.998759 44:-0.995272 45:-0.997687 46:-0.997735 47:-0.996372 48:-1 49:-0.998796 50:-0.997735 51:-0.998848 52:-0.997608 53:-0.99778 54:-0.996567 55:-0.998033 56:-0.99278 57:-0.9875 58:-0.982833 59:-1 60:-0.992881 61:-0.987805 
0.2381402953327358 1:-0.900145 2:-0.859567 3:-0.835148 4:-0.149674 5:0.157441 6:-0.981424 7:0.274286 8:-0.850021 9:-0.996383 10:-0.440126 11:0.587301 12:-0.995951 13:-0.180113 14:-0.996327 15:-0.796903 16:-0.946844 17:-0.886267 18:-0.954132 19:-0.962778 20:-0.959267 21:-0.947192 22:-0.869355 23:-0.909745 24:-0.831779 25:-0.914387 26:-0.838941 27:-0.94708 28:-0.840885 29:-0.965379 30:-0.854138 31:-0.954922 32:-0.893432 33:-0.965408 34:-0.955426 35:-0.997569 36:-0.98918 37:-0.969667 38:-0.903686 39:-0.950772 40:-0.981271 41:-0.980983 42:-0.978089 43:-0.972076 44:-0.958392 45:-0.954887 46:-0.94564 47:-0.912938 48:-0.895785 49:-0.856713 50:-0.917327 51:-0.93318 52:-0.948565 53:-0.985572 54:-0.9897 55:-0.984267 56:-0.980746 57:-0.966667 58:-0.965665 59:-0.943662 60:-0.985473 61:-0.95335 
8 1:-0.98311 2:-0.67827 3:-0.623185 4:-0.13496 5:0.237356 6:-0.98582 7:0.274715 8:-0.81044 9:-0.999941 10:-0.440133 11:0.587595 12:-0.999573 13:-0.180117 14:-0.999614 15:-0.984624 16:-0.973824 17:-0.980617 18:-0.990197 19:-0.973176 20:-0.979479 21:-0.980829 22:-0.979415 23:-0.988431 24:-0.9734 25:-0.98678 26:-0.955402 27:-0.980181 28:-0.950296 29:-0.979132 30:-0.953178 31:-0.970835 32:-0.944498 33:-0.979683 34:-0.954862 35:-0.999608 36:-0.99835 37:-0.997007 38:-0.993703 39:-0.992145 40:-0.991973 41:-0.994566 42:-0.993376 43:-0.993174 44:-0.982979 45:-0.991903 46:-0.988675 47:-0.981862 48:-0.98829 49:-0.983143 50:-0.993205 51:-0.989631 52:-0.989234 53:-0.994451 54:-0.99485 55:-0.990167 56:-0.995187 57:-0.979167 58:-0.974249 59:-1 60:-0.994846 61:-0.976001 
5.360077718680731 1:-0.979011 2:-0.704042 3:-0.638678 4:-0.136648 5:0.277462 6:-0.985974 7:0.28329 8:-0.708112 9:-0.999804 10:-0.44013 11:0.587587 12:-0.999468 13:-0.180104 14:-0.999506 15:-0.95755 16:-0.929677 17:-0.981128 18:-0.975168 19:-0.981914 20:-0.969316 21:-0.98455 22:-0.964513 23:-0.9865 24:-0.970235 25:-0.931212 26:-0.933334 27:-0.919332 28:-0.931103 29:-0.948819 30:-0.943055 31:-0.968608 32:-0.954411 33:-0.97697 34:-0.962678 35:-0.999529 36:-0.99945 37:-0.997007 38:-0.990369 39:-0.988479 40:-0.992642 41:-0.988227 42:-0.989299 43:-0.985728 44:-0.978251 45:-0.979179 46:-0.984145 47:-0.987908 48:-0.98829 49:-0.97953 50:-0.994337 51:-0.991935 52:-0.992823 53:-0.994451 54:-0.987983 55:-0.988201 56:-0.987966 57:-0.9875 58:-1 59:-1 60:-0.994243 61:-0.974598 
0.2806252806740412 1:-0.96509 2:-0.629423 3:-0.879442 4:0.00198373 5:0.10206 6:-0.504121 7:0.345535 8:-0.953918 9:-0.999276 10:-0.44013 11:0.587589 12:-0.999659 13:-0.180103 14:-0.999596 15:-0.893493 16:-0.958979 17:-0.896336 18:-0.965575 19:-0.887067 20:-0.951651 21:-0.895391 22:-0.954477 23:-0.88009 24:-0.95748 25:-0.890317 26:-0.962546 27:-0.907398 28:-0.974831 29:-0.95494 30:-0.978039 31:-0.967833 32:-0.983167 33:-0.989444 34:-0.990594 35:-0.999843 36:-0.99945 37:-0.998803 38:-0.996296 39:-0.998429 40:-0.994314 41:-0.994566 42:-0.993885 43:-0.989451 44:-0.979196 45:-0.968768 46:-0.96829 47:-0.95526 48:-0.959016 49:-0.942203 50:-0.929785 51:-0.93894 52:-0.956938 53:-0.968923 54:-0.975966 55:-0.974435 56:-0.98556 57:-1 58:-0.982833 59:-0.887324 60:-0.989243 61:-0.917147 
3.794678747191233 1:-0.970884 2:-0.583193 3:-0.881536 4:0.0156973 5:0.099408 6:-0.421934 7:0.34918 8:-0.957854 9:-0.999534 10:-0.440131 11:0.587599 12:-0.999704 13:-0.180105 14:-0.999672 15:-0.971477 16:-0.958076 17:-0.931289 18:-0.938511 19:-0.915012 20:-0.965424 21:-0.88974 22:-0.96647 23:-0.89719 24:-0.970521 25:-0.896882 26:-0.973423 27:-0.900317 28:-0.975778 29:-0.921343 30:-0.976781 31:-0.97617 32:-0.981868 33:-0.978732 34:-0.987715 35:-0.999608 36:-0.999633 37:-0.997206 38:-0.995925 39:-0.991097 40:-0.998662 41:-0.994114 42:-0.992866 43:-0.98883 44:-0.965012 45:-0.95373 46:-0.947905 47:-0.949214 48:-0.925059 49:-0.951836 50:-0.97735 51:-0.986175 52:-0.994019 53:-0.992231 54:-0.998283 55:-0.996067 56:-0.997593 57:-1 58:-1 59:-1 60:-0.988529 61:-0.918719 
2.06877119158943 1:-0.974135 2:-0.484769 3:-0.87675 4:0.0485358 5:0.108092 6:-0.256137 7:0.383678 8:-0.944495 9:-0.999656 10:-0.440127 11:0.587627 12:-0.999732 13:-0.180104 14:-0.999708 15:-0.938225 16:-0.972663 17:-0.916654 18:-0.961102 19:-0.926634 20:-0.954341 21:-0.926456 22:-0.928019 23:-0.92835 24:-0.934688 25:-0.914797 26:-0.930829 27:-0.920408 28:-0.930908 29:-0.915443 30:-0.938672 31:-0.94772 32:-0.95593 33:-0.978634 34:-0.994117 35:-0.999843 36:-0.99945 37:-0.998603 38:-0.998518 39:-0.99581 40:-0.99699 41:-0.995019 42:-0.996943 43:-0.992554 44:-0.982033 45:-0.974552 46:-0.979615 47:-0.973398 48:-0.959016 49:-0.969898 50:-0.960362 51:-0.959677 52:-0.973684 53:-0.972253 54:-0.969099 55:-0.972468 56:-0.983153 57:-0.979167 58:-0.965665 59:-0.971831 60:-0.988273 61:-0.918478 
0.2372911186228571 1:-0.973782 2:-0.453181 3:-0.868324 4:0.0636127 5:0.105188 6:-0.214215 7:0.375549 8:-0.952711 9:-0.999599 10:-0.440132 11:0.5876 12:-0.999709 13:-0.180105 14:-0.999686 15:-0.898228 16:-0.950544 17:-0.910723 18:-0.963456 19:-0.926353 20:-0.954442 21:-0.918265 22:-0.948078 23:-0.924092 24:-0.943897 25:-0.906201 26:-0.92956 27:-0.903105 28:-0.909675 29:-0.938322 30:-0.948443 31:-0.947114 32:-0.979369 33:-0.96971 34:-0.976015 35:-0.999765 36:-0.999817 37:-0.999601 38:-0.998518 39:-0.997382 40:-0.997993 41:-0.995019 42:-0.98879 43:-0.980763 44:-0.970686 45:-0.965298 46:-0.953567 47:-0.952842 48:-0.9637 49:-0.966285 50:-0.966025 51:-0.980415 52:-0.973684 53:-0.988901 54:-0.99485 55:-0.990167 56:-0.997593 57:-1 58:-0.991416 59:-1 60:-0.98984 61:-0.918244 
1.433165244498053 1:-0.978022 2:-0.410661 3:-0.853896 4:0.0872455 5:0.104596 6:-0.156207 7:0.371791 8:-0.958192 9:-0.999676 10:-0.440134 11:0.587609 12:-0.999773 13:-0.180114 14:-0.999756 15:-0.935861 16:-0.908734 17:-0.91998 18:-0.933822 19:-0.902215 20:-0.938678 21:-0.917771 22:-0.941429 23:-0.924772 24:-0.935846 25:-0.930499 26:-0.939315 27:-0.928833 28:-0.953368 29:-0.942435 30:-0.968552 31:-0.964848 32:-0.986946 33:-0.972231 34:-0.985218 35:-1 36:-0.999633 37:-1 38:-0.997036 39:-0.997382 40:-0.995987 41:-0.995472 42:-0.986242 43:-0.982625 44:-0.974468 45:-0.961828 46:-0.96376 47:-0.962515 48:-0.955504 49:-0.97351 50:-0.985277 51:-0.982719 52:-0.991627 53:-0.99778 54:-0.998283 55:-1 56:-1 57:-0.995833 58:-1 59:-1 60:-0.989159 61:-0.912858 
5.306951640394467 1:-0.976255 2:-0.382407 3:-0.778335 4:0.142273 5:0.125958 6:-0.204749 7:0.384892 8:-0.946311 9:-0.999507 10:-0.440132 11:0.587597 12:-0.999709 13:-0.180105 14:-0.999679 15:-0.962766 16:-0.930024 17:-0.897333 18:-0.931127 19:-0.888098 20:-0.942451 21:-0.884274 22:-0.952526 23:-0.88721 24:-0.950683 25:-0.890419 26:-0.963915 27:-0.90655 28:-0.965383 29:-0.914693 30:-0.967231 31:-0.970198 32:-0.965755 33:-0.973344 34:-0.971559 35:-0.999059 36:-0.994498 37:-0.985632 38:-0.9574 39:-0.962294 40:-0.992308 41:-0.995019 42:-0.997962 43:-1 44:-1 45:-1 46:-1 47:-1 48:-1 49:-1 50:-1 51:-1 52:-1 53:-1 54:-1 55:-1 56:-1 57:-1 58:-1 59:-1 60:-0.982357 61:-0.903882 
2.667732329416866 1:-0.974135 2:-0.394959 3:-0.771311 4:0.139044 5:0.138339 6:-0.243523 7:0.402233 8:-0.930449 9:-0.999539 10:-0.440138 11:0.587603 12:-0.999626 13:-0.180098 14:-0.999599 15:-0.981783 16:-0.96422 17:-0.964208 18:-0.984335 19:-0.935474 20:-0.962792 21:-0.920842 22:-0.970494 23:-0.87054 24:-0.96476 25:-0.865639 26:-0.945617 27:-0.899932 28:-0.962029 29:-0.909098 30:-0.980693 31:-0.968206 32:-0.982457 33:-0.975275 34:-0.97435 35:-1 36:-0.999083 37:-1 38:-0.996666 39:-0.99581 40:-0.995652 41:-0.995019 42:-0.996433 43:-0.993174 44:-0.980142 45:-0.987276 46:-0.97735 47:-0.967352 48:-0.973068 49:-0.960265 50:-0.970555 51:-0.965438 52:-0.967703 53:-0.968923 54:-0.958798 55:-0.972468 56:-0.983153 57:-0.975 58:-0.974249 59:-0.859155 60:-0.986268 61:-0.907129 
2.370909988209668 1:-0.954419 2:-0.573661 3:-0.793829 4:0.0555293 5:0.143106 6:-0.528441 7:0.382036 8:-0.913599 9:-0.999094 10:-0.44015 11:0.587669 12:-0.999028 13:-0.18011 14:-0.999021 15:-0.926894 16:-0.945137 17:-0.939063 18:-0.942723 19:-0.939699 20:-0.955799 21:-0.917665 22:-0.941947 23:-0.913115 24:-0.941443 25:-0.886248 26:-0.917116 27:-0.890806 28:-0.926935 29:-0.891195 30:-0.930403 31:-0.912791 32:-0.945641 33:-0.969775 34:-0.983031 35:-0.999137 36:-0.995599 37:-0.990421 38:-0.989628 39:-0.9801 40:-0.991973 41:-0.991397 42:-0.990828 43:-0.984487 44:-0.977305 45:-0.944477 46:-0.937712 47:-0.921403 48:-0.919204 49:-0.931367 50:-0.966025 51:-0.970046 52:-0.979665 53:-0.991121 54:-0.984549 55:-0.9941 56:-1 57:-0.995833 58:-0.991416 59:-1 60:-0.983701 61:-0.917018 
1.588791402980695 1:-0.949896 2:-0.60071 3:-0.797914 4:0.0417832 5:0.13893 6:-0.570946 7:0.370408 8:-0.919661 9:-0.998867 10:-0.44013 11:0.587611 12:-0.999117 13:-0.180102 14:-0.999064 15:-0.970507 16:-0.98757 17:-0.940435 18:-0.96144 19:-0.917603 20:-0.897828 21:-0.910181 22:-0.893058 23:-0.892204 24:-0.903657 25:-0.88087 26:-0.900419 27:-0.882142 28:-0.90768 29:-0.897058 30:-0.940332 31:-0.973224 32:-0.974391 33:-0.971088 34:-0.972098 35:-0.999686 36:-0.997799 37:-0.996009 38:-0.981108 39:-0.974339 40:-0.989298 41:-0.983699 42:-0.985732 43:-0.985728 44:-0.965012 45:-0.962984 46:-0.942242 47:-0.931076 48:-0.932084 49:-0.922938 50:-0.912797 51:-0.960829 52:-0.972488 53:-0.988901 54:-0.991416 55:-0.988201 56:-0.995187 57:-1 58:-0.991416 59:-1 60:-0.983998 61:-0.920158 
1.400242424646607 1:-0.94085 2:-0.635155 3:-0.804607 4:0.0265853 5:0.150955 6:-0.610699 7:0.383913 8:-0.893306 9:-0.998773 10:-0.440121 11:0.58774 12:-0.998481 13:-0.179828 14:-0.998468 15:-0.970985 16:-0.981379 17:-0.943026 18:-0.946535 19:-0.938976 20:-0.976893 21:-0.883961 22:-0.969252 23:-0.864351 24:-0.944311 25:-0.861792 26:-0.942789 27:-0.874757 28:-0.948984 29:-0.869369 30:-0.964225 31:-0.914975 32:-0.966959 33:-0.941193 34:-0.983799 35:-0.999373 36:-0.994865 37:-0.987827 38:-0.976292 39:-0.974339 40:-0.987291 41:-0.979171 42:-0.986242 43:-0.986969 44:-0.981087 45:-0.959514 46:-0.956965 47:-0.923821 48:-0.915691 49:-0.919326 50:-0.916195 51:-0.93318 52:-0.966507 53:-0.985572 54:-0.981116 55:-0.984267 56:-0.98556 57:-0.991667 58:-0.991416 59:-0.943662 60:-0.98329 61:-0.925858 
1.321592643040183 1:-0.93343 2:-0.696595 3:-0.81332 4:-0.00985873 5:0.155145 6:-0.715623 7:0.371007 8:-0.87837 9:-0.99872 10:-0.440117 11:0.587821 12:-0.997822 13:-0.178988 14:-0.997887 15:-0.976546 16:-0.950428 17:-0.955781 18:-0.904279 19:-0.947937 20:-0.936482 21:-0.899859 22:-0.953064 23:-0.878541 24:-0.956369 25:-0.874955 26:-0.944636 27:-0.883165 28:-0.9463 29:-0.878205 30:-0.945159 31:-0.910328 32:-0.954432 33:-0.967667 34:-0.961959 35:-0.998431 36:-0.990281 37:-0.982239 38:-0.967772 39:-0.969626 40:-0.981605 41:-0.984605 42:-0.983185 43:-0.980763 44:-0.945154 45:-0.930596 46:-0.910532 47:-0.915357 48:-0.920375 49:-0.932571 50:-0.953567 51:-0.978111 52:-0.985646 53:-0.990011 54:-0.99485 55:-0.992134 56:-0.995187 57:-0.9875 58:-0.991416 59:-1 60:-0.984606 61:-0.935111 
8 1:-0.987421 2:-0.884741 3:-0.868892 4:-0.18009 5:0.259497 6:-0.997895 7:0.264469 8:-0.320562 9:-0.99997 10:-0.440132 11:0.587597 12:-0.999924 13:-0.180106 14:-0.999929 15:-0.984505 16:-0.940804 17:-0.976909 18:-0.942882 19:-0.977325 20:-0.956192 21:-0.985083 22:-0.964184 23:-0.986865 24:-0.960919 25:-0.984567 26:-0.949452 27:-0.986297 28:-0.954015 29:-0.988823 30:-0.982049 31:-0.986568 32:-0.995849 33:-0.992313 34:-0.996336 35:-0.99749 36:-0.983862 37:-0.995011 38:-0.997036 39:-0.998429 40:-0.997659 41:-0.999094 42:-0.997962 43:-0.997518 44:-0.997163 45:-0.998843 46:-1 47:-1 48:-0.998829 49:-1 50:-1 51:-0.998848 52:-1 53:-0.99889 54:-1 55:-1 56:-1 57:-0.995833 58:-1 59:-1 60:-0.994434 61:-0.989371 
1.390862802212659 1:-0.96304 2:-0.898082 3:-0.864686 4:-0.181597 5:0.201273 6:-0.998363 7:0.254283 8:-0.65383 9:-0.999784 10:-0.440146 11:0.587586 12:-0.999222 13:-0.180126 14:-0.999304 15:-0.973204 16:-0.961697 17:-0.945651 18:-0.953633 19:-0.974489 20:-0.960547 21:-0.965964 22:-0.942022 23:-0.966014 24:-0.938398 25:-0.96911 26:-0.944174 27:-0.94322 28:-0.95125 29:-0.967024 30:-0.951388 31:-0.958166 32:-0.964879 33:-0.978922 34:-0.973844 35:-0.994432 36:-0.975977 37:-0.983436 38:-0.963327 39:-0.9801 40:-0.992308 41:-0.993208 42:-0.987261 43:-0.995656 44:-0.995272 45:-0.995373 46:-0.994337 47:-0.998791 48:-0.996487 49:-1 50:-0.996602 51:-0.997696 52:-0.998804 53:-0.99778 54:-0.996567 55:-0.9941 56:-0.997593 57:-0.991667 58:-1 59:-1 60:-0.993859 61:-0.986493 
0.3053771421510783 1:-0.895551 2:-0.95545 3:-0.947483 4:-0.172234 5:0.123721 6:-0.985822 7:0.276814 8:-0.78012 9:-0.996596 10:-0.44009 11:0.587516 12:-0.99601 13:-0.180103 14:-0.996065 15:-0.790964 16:-0.8903 17:-0.85928 18:-0.90451 19:-0.899488 20:-0.913015 21:-0.924041 22:-0.923276 23:-0.91056 24:-0.902528 25:-0.893747 26:-0.906491 27:-0.918871 28:-0.911231 29:-0.951402 30:-0.883071 31:-0.958826 32:-0.885397 33:-0.957355 34:-0.940743 35:-0.993726 36:-0.987713 37:-0.974057 38:-0.900722 39:-0.893689 40:-0.97893 41:-0.975096 42:-0.969936 43:-0.967732 44:-0.930024 45:-0.93985 46:-0.924122 47:-0.916566 48:-0.934426 49:-0.932571 50:-0.966025 51:-0.96659 52:-0.973684 53:-0.983352 54:-0.984549 55:-0.988201 56:-0.98556 57:-0.991667 58:-0.965665 59:-0.802817 60:-0.986342 61:-0.961374 
1.36584629788204 1:-0.926151 2:-0.966767 3:-0.968666 4:-0.176256 5:0.0933216 6:-0.984849 7:0.268325 8:-0.874555 9:-0.998364 10:-0.440141 11:0.587561 12:-0.998746 13:-0.180124 14:-0.998711 15:-0.969097 16:-0.953967 17:-0.956044 18:-0.945131 19:-0.941851 20:-0.95345 21:-0.937808 22:-0.849189 23:-0.926843 24:-0.829995 25:-0.932763 26:-0.836505 27:-0.941189 28:-0.907244 29:-0.939497 30:-0.924146 31:-0.941279 32:-0.909522 33:-0.968755 34:-0.941581 35:-0.995922 36:-0.991564 37:-0.984235 38:-0.941471 39:-0.941346 40:-0.976923 41:-0.973285 42:-0.972484 43:-0.968352 44:-0.948936 45:-0.920185 46:-0.93205 47:-0.941959 48:-0.943794 49:-0.975918 50:-0.980747 51:-0.990783 52:-0.990431 53:-0.987791 54:-0.9897 55:-0.9941 56:-0.98556 57:-0.983333 58:-0.948498 59:-1 60:-0.987955 61:-0.963146 
4.739466353270571 1:-0.97781 2:-0.718815 3:-0.797146 4:-0.358675 5:0.190025 6:-0.788258 7:0.0903444 8:-0.802846 9:-0.9999 10:-0.440132 11:0.587588 12:-0.99954 13:-0.180118 14:-0.999584 15:-0.969642 16:-0.914865 17:-0.976596 18:-0.977569 19:-0.964525 20:-0.965465 21:-0.960281 22:-0.970442 23:-0.961426 24:-0.975482 25:-0.963791 26:-0.989303 27:-0.971162 28:-0.986911 29:-0.957576 30:-0.967951 31:-0.960666 32:-0.968364 33:-0.980738 34:-0.97203 35:-0.997177 36:-0.993215 37:-0.993414 38:-0.992591 39:-0.995287 40:-0.997324 41:-0.995472 42:-0.993885 43:-0.993795 44:-0.994326 45:-0.989589 46:-0.99094 47:-0.98549 48:-0.991803 49:-0.986755 50:-0.992072 51:-0.989631 52:-0.988038 53:-0.985572 54:-0.972532 55:-0.986234 56:-0.968712 57:-0.9875 58:-0.939914 59:-0.887324 60:-0.984045 61:-0.956436 
0.6186839657760195 1:-0.878167 2:-0.857468 3:-0.847964 4:-0.270945 5:0.103437 6:-0.936836 7:0.202079 8:-0.959874 9:-0.996747 10:-0.440106 11:0.587408 12:-0.995616 13:-0.180137 14:-0.995732 15:-0.949624 16:-0.924526 17:-0.960028 18:-0.922482 19:-0.93769 20:-0.825648 21:-0.939823 22:-0.845891 23:-0.925621 24:-0.854778 25:-0.929437 26:-0.853157 27:-0.937877 28:-0.856873 29:-0.941763 30:-0.858649 31:-0.959565 32:-0.874547 33:-0.957093 34:-0.939296 35:-0.983609 36:-0.980378 37:-0.986031 38:-0.978885 39:-0.971197 40:-0.977592 41:-0.959248 42:-0.95414 43:-0.915607 44:-0.832624 45:-0.798728 46:-0.892412 47:-0.929867 48:-0.949649 49:-0.971102 50:-0.966025 51:-0.96659 52:-0.966507 53:-0.986681 54:-0.972532 55:-0.946903 56:-0.925391 57:-0.7875 58:-0.742489 59:-0.408451 60:-0.976411 61:-0.932749 
7.191289992160057 1:-0.914773 2:-0.893264 3:-0.882347 4:-0.241392 5:0.119299 6:-0.968585 7:0.20063 8:-0.915074 9:-0.998575 10:-0.440141 11:0.587529 12:-0.997346 13:-0.179762 14:-0.997496 15:-0.960941 16:-0.842278 17:-0.944146 18:-0.881947 19:-0.947419 20:-0.913507 21:-0.951226 22:-0.930456 23:-0.95409 24:-0.927931 25:-0.945415 26:-0.915991 27:-0.943587 28:-0.91169 29:-0.935906 30:-0.921393 31:-0.938987 32:-0.9278 33:-0.95332 34:-0.944391 35:-0.990903 36:-0.989547 37:-0.988226 38:-0.987035 39:-0.97172 40:-0.965217 41:-0.952456 42:-0.956688 43:-0.955321 44:-0.922459 45:-0.917872 46:-0.92299 47:-0.951632 48:-0.95082 49:-0.956653 50:-0.969422 51:-0.96659 52:-0.973684 53:-0.980022 54:-0.974249 55:-0.976401 56:-0.973526 57:-0.958333 58:-0.828326 59:-0.464789 60:-0.978316 61:-0.936199 
0.04244326974321368 1:-0.96516 2:-0.687792 3:-0.613868 4:-0.161919 5:0.164682 6:-0.995927 7:0.249392 8:-0.929846 9:-0.999732 10:-0.44014 11:0.587578 12:-0.999058 13:-0.180109 14:-0.999146 15:-0.979686 16:-0.955933 17:-0.986213 18:-0.96416 19:-0.979337 20:-0.948678 21:-0.989814 22:-0.94763 23:-0.95363 24:-0.943567 25:-0.942553 26:-0.947504 27:-0.941978 28:-0.958353 29:-0.929187 30:-0.961217 31:-0.937017 32:-0.964446 33:-0.952862 34:-0.97295 35:-0.986119 36:-0.971942 37:-0.987627 38:-0.975181 39:-0.981671 40:-0.999666 41:-1 42:-1 43:-1 44:-0.999054 45:-1 46:-1 47:-1 48:-1 49:-1 50:-1 51:-1 52:-1 53:-1 54:-1 55:-1 56:-1 57:-1 58:-1 59:-1 60:-0.978295 61:-0.94738 
8 1:-0.994205 2:-0.656198 3:-0.6046 4:-0.156718 5:0.322842 6:-0.9947 7:0.269769 8:-0.618392 9:-0.99999 10:-0.440131 11:0.587594 12:-0.999978 13:-0.180105 14:-0.999979 15:-0.996147 16:-0.977279 17:-0.996368 18:-0.962641 19:-0.99652 20:-0.967445 21:-0.993915 22:-0.959073 23:-0.993671 24:-0.956742 25:-0.993409 26:-0.967407 27:-0.990253 28:-0.960681 29:-0.995536 30:-0.970996 31:-0.993155 32:-0.977869 33:-0.992694 34:-0.988388 35:-0.999843 36:-0.996149 37:-0.998404 38:-0.993703 39:-0.993192 40:-0.995318 41:-0.99683 42:-1 43:-0.999379 44:-1 45:-1 46:-1 47:-0.998791 48:-1 49:-0.998796 50:-1 51:-1 52:-1 53:-1 54:-1 55:-1 56:-1 57:-1 58:-1 59:-1 60:-0.983233 61:-0.952768 
0.4009638913951394 1:-0.882902 2:-0.916367 3:-0.898152 4:-0.241963 5:0.10392 6:-0.962666 7:0.204083 8:-0.93684 9:-0.994853 10:-0.440107 11:0.587546 12:-0.997133 13:-0.180084 14:-0.997066 15:-0.869195 16:-0.93318 17:-0.880326 18:-0.914088 19:-0.917277 20:-0.919688 21:-0.916842 22:-0.901253 23:-0.927314 24:-0.896586 25:-0.882889 26:-0.839853 27:-0.907962 28:-0.791205 29:-0.913172 30:-0.772062 31:-0.956939 32:-0.83381 33:-0.966295 34:-0.86515 35:-0.97906 36:-0.984962 37:-0.98623 38:-0.973699 39:-0.955486 40:-0.973244 41:-0.952004 42:-0.944459 43:-0.888923 44:-0.856265 45:-0.913245 46:-0.939977 47:-0.967352 48:-0.949649 49:-0.974714 50:-0.99094 51:-0.975806 52:-0.970096 53:-0.980022 54:-0.958798 55:-0.935103 56:-0.920578 57:-0.879167 58:-0.742489 59:-0.43662 60:-0.976142 61:-0.939944 
0.5074751035652264 1:-0.884174 2:-0.917702 3:-0.910174 4:-0.239693 5:0.104231 6:-0.961513 7:0.201158 8:-0.930605 9:-0.995498 10:-0.440137 11:0.587471 12:-0.997508 13:-0.180085 14:-0.997281 15:-0.877318 16:-0.933551 17:-0.889459 18:-0.936887 19:-0.932378 20:-0.917546 21:-0.950003 22:-0.901532 23:-0.946236 24:-0.890381 25:-0.931979 26:-0.875806 27:-0.893379 28:-0.858067 29:-0.898925 30:-0.76518 31:-0.915456 32:-0.83807 33:-0.949406 34:-0.861769 35:-0.967767 36:-0.978177 37:-0.983436 38:-0.979626 39:-0.955486 40:-0.967224 41:-0.940684 42:-0.932739 43:-0.937946 44:-0.946099 45:-0.958357 46:-0.964892 47:-0.958888 48:-0.974239 49:-0.980734 50:-0.988675 51:-0.980415 52:-0.98445 53:-0.970033 54:-0.945064 55:-0.939036 56:-0.90373 57:-0.841667 58:-0.828326 59:-0.887324 60:-0.973276 61:-0.945263 
2.622984471427105 1:-0.918024 2:-0.919388 3:-0.91785 4:-0.238205 5:0.105366 6:-0.960461 7:0.198128 8:-0.922899 9:-0.997088 10:-0.440114 11:0.587578 12:-0.998139 13:-0.180102 14:-0.997912 15:-0.957807 16:-0.942581 17:-0.957076 18:-0.928489 19:-0.957138 20:-0.914181 21:-0.971327 22:-0.900074 23:-0.946117 24:-0.888015 25:-0.945621 26:-0.88287 27:-0.930411 28:-0.879551 29:-0.949318 30:-0.783105 31:-0.902504 32:-0.757513 33:-0.890551 34:-0.839534 35:-0.973571 36:-0.982028 37:-0.987228 38:-0.976662 39:-0.96177 40:-0.976923 41:-0.952456 42:-0.956178 43:-0.968352 44:-0.967849 45:-0.980335 46:-0.980747 47:-0.974607 48:-0.989461 49:-0.99398 50:-0.985277 51:-0.99424 52:-0.990431 53:-0.984462 54:-0.986266 55:-0.980334 56:-0.973526 57:-0.9375 58:-0.828326 59:-0.71831 60:-0.976643 61:-0.956949 
8 1:-0.978446 2:-0.91631 3:-0.919062 4:-0.237078 5:0.120167 6:-0.961827 7:0.187954 8:-0.874669 9:-0.999373 10:-0.440143 11:0.587607 12:-0.999433 13:-0.180093 14:-0.999398 15:-0.969306 16:-0.977134 17:-0.962942 18:-0.94061 19:-0.971511 20:-0.946113 21:-0.977936 22:-0.960717 23:-0.979316 24:-0.939931 25:-1 26:-1 27:-0.937295 28:-0.878247 29:-0.944212 30:-0.887374 31:-0.928516 32:-0.804701 33:-0.935632 34:-0.910521 35:-0.990981 36:-0.994498 37:-0.996807 38:-0.997777 39:-0.993716 40:-0.997324 41:-0.995925 42:-0.995924 43:-0.993174 44:-0.982033 45:-0.989589 46:-0.993205 47:-0.996372 48:-0.985948 49:-0.990367 50:-0.993205 51:-0.989631 52:-0.988038 53:-0.994451 54:-0.998283 55:-0.998033 56:-0.995187 57:-1 58:-1 59:-0.943662 60:-0.984247 61:-0.971555 
8 1:-0.968764 2:-0.910841 3:-0.914703 4:-0.243866 5:0.0871467 6:-0.952839 7:0.209203 8:-0.966653 9:-0.999775 10:-0.440132 11:0.587607 12:-0.999736 13:-0.180112 14:-0.999748 15:-0.985774 16:-0.968401 17:-0.999732 18:-0.999291 19:-0.971876 20:-0.985131 21:-0.99153 22:-0.969515 23:-0.968182 24:-0.96117 25:-0.967706 26:-0.944218 27:-0.959194 28:-0.938254 29:-0.968445 30:-0.936066 31:-0.947867 32:-0.944994 33:-0.951907 34:-0.948265 35:-0.982354 36:-0.989547 37:-0.99541 38:-0.992591 39:-0.994763 40:-0.996321 41:-0.995472 42:-0.996943 43:-0.994415 44:-0.998109 45:-0.994216 46:-0.988675 47:-0.993954 48:-0.997658 49:-0.992775 50:-0.99094 51:-0.996544 52:-0.990431 53:-0.993341 54:-0.9897 55:-0.992134 56:-0.990373 57:-0.9875 58:-0.982833 59:-1 60:-0.987532 61:-0.983447 
1.105031685166156 1:-0.921982 2:-0.681934 3:-0.836979 4:-0.384336 5:0.0981083 6:-0.645059 7:0.164407 8:-0.969611 9:-0.998004 10:-0.440156 11:0.587717 12:-0.996841 13:-0.180067 14:-0.996944 15:-0.95281 16:-0.899569 17:-0.965801 18:-0.891171 19:-0.96959 20:-0.926927 21:-0.962406 22:-0.895054 23:-0.943336 24:-0.833113 25:-0.927974 26:-0.818714 27:-0.948717 28:-0.834187 29:-0.952627 30:-0.866783 31:-0.936336 32:-0.91918 33:-0.95195 34:-0.982526 35:-0.998667 36:-0.996699 37:-0.995211 38:-0.986664 39:-0.976434 40:-0.979933 41:-0.966946 42:-0.948535 43:-0.936084 44:-0.907329 45:-0.870445 46:-0.911665 47:-0.928658 48:-0.946136 49:-0.959061 50:-0.960362 51:-0.955069 52:-0.978469 53:-0.975583 54:-0.960515 55:-0.968535 56:-0.968712 57:-0.933333 58:-0.888412 59:-0.774648 60:-0.982563 61:-0.916472 
1.29841262761217 1:-0.919155 2:-0.679375 3:-0.84087 4:-0.38299 5:0.0882613 6:-0.641841 7:0.178486 8:-0.979935 9:-0.998053 10:-0.445037 11:0.597551 12:-0.996998 13:-0.180113 14:-0.99709 15:-0.930741 16:-0.93673 17:-0.946238 18:-0.926335 19:-0.971138 20:-0.889541 21:-0.962965 22:-0.882138 23:-0.925327 24:-0.841535 25:-0.92022 26:-0.83722 27:-0.925438 28:-0.848799 29:-0.930515 30:-0.871409 31:-0.931613 32:-0.918165 33:-0.948187 34:-0.980907 35:-0.99553 36:-0.975243 37:-0.927759 38:-0.882941 39:-0.944488 40:-0.973579 41:-0.970568 42:-0.987261 43:-1 44:-1 45:-0.998843 46:-1 47:-1 48:-1 49:-1 50:-1 51:-1 52:-1 53:-1 54:-1 55:-0.998033 56:-1 57:-1 58:-1 59:-1 60:-0.97935 61:-0.915289 
0.1785044703679029 1:-0.913643 2:-0.726363 3:-0.814649 4:-0.360905 5:0.10651 6:-0.759964 7:0.171263 8:-0.961771 9:-0.998039 10:-0.44013 11:0.587694 12:-0.99628 13:-0.180104 14:-0.996577 15:-0.945056 16:-0.832759 17:-0.966481 18:-0.88104 19:-0.960082 20:-0.900555 21:-0.91529 22:-0.936426 23:-0.889909 24:-0.932489 25:-0.879618 26:-0.941839 27:-0.883915 28:-0.961102 29:-0.888184 30:-0.962111 31:-0.916613 32:-0.953238 33:-0.962182 34:-0.95832 35:-0.999059 36:-0.991198 37:-0.99102 38:-0.988146 39:-0.968578 40:-0.982609 41:-0.972832 42:-0.961783 43:-0.939187 44:-0.898818 45:-0.879699 46:-0.87316 47:-0.892382 48:-0.916862 49:-0.955449 50:-0.949037 51:-0.953917 52:-0.955742 53:-0.968923 54:-0.955365 55:-0.982301 56:-0.98556 57:-0.966667 58:-0.922747 59:-0.577465 60:-0.98148 61:-0.920811 
1.337927672648564 1:-0.923678 2:-0.898122 3:-0.875221 4:-0.226269 5:0.0023876 6:-0.985888 7:0.254038 8:-0.959533 9:-0.998747 10:-0.440175 11:0.587534 12:-0.996317 13:-0.180139 14:-0.996655 15:-0.920157 16:-0.866976 17:-0.94747 18:-0.895703 19:-0.97239 20:-0.911852 21:-0.970465 22:-0.959599 23:-0.905657 24:-0.931163 25:-0.937492 26:-0.9366 27:-0.94563 28:-0.946779 29:-0.950493 30:-0.948449 31:-0.950494 32:-0.959653 33:-0.96876 34:-0.955429 35:-0.990903 36:-0.955988 37:-0.927958 38:-0.910354 39:-0.948154 40:-0.992642 41:-1 42:-1 43:-1 44:-1 45:-0.998843 46:-1 47:-1 48:-1 49:-1 50:-1 51:-1 52:-1 53:-0.99889 54:-1 55:-0.998033 56:-1 57:-1 58:-1 59:-1 60:-0.979075 61:-0.920625 
8 1:-0.97145 2:-0.879642 3:-0.929552 4:-0.266828 5:-0.00256177 6:-0.879262 7:0.308609 8:-0.918518 9:-0.999693 10:-0.44013 11:0.587601 12:-0.999762 13:-0.180106 14:-0.999752 15:-0.978141 16:-0.961894 17:-0.961711 18:-0.970453 19:-0.972006 20:-0.954882 21:-0.975532 22:-0.956211 23:-0.904188 24:-0.949829 25:-0.883664 26:-0.950296 27:-0.904583 28:-0.971006 29:-0.935548 30:-0.984233 31:-0.981069 32:-0.990321 33:-0.990975 34:-0.996002 35:-0.99749 36:-0.978544 37:-0.983037 38:-0.988146 39:-0.982194 40:-0.996321 41:-0.994114 42:-0.996433 43:-0.996277 44:-0.992435 45:-0.99306 46:-0.992072 47:-0.995163 48:-0.992974 49:-0.992775 50:-0.993205 51:-0.997696 52:-0.996411 53:-0.994451 54:-0.99485 55:-0.990167 56:-0.99278 57:-0.991667 58:-0.991416 59:-0.915493 60:-0.996629 61:-0.99362 
8 1:-0.975973 2:-0.990179 3:-0.999514 4:-0.194508 5:0.0491876 6:-0.980777 7:0.25095 8:-0.981347 9:-0.999879 10:-0.44013 11:0.587597 12:-0.999825 13:-0.180105 14:-0.99983 15:-0.962638 16:-0.966693 17:-0.935012 18:-0.960727 19:-0.948033 20:-0.962515 21:-0.955283 22:-0.973906 23:-0.964894 24:-0.964284 25:-0.975415 26:-0.95534 27:-0.979168 28:-0.985741 29:-0.987323 30:-0.988782 31:-0.989169 32:-0.976606 33:-0.991366 34:-0.977674 35:-0.984315 36:-0.993031 37:-0.995011 38:-0.993703 39:-0.996334 40:-0.995987 41:-0.997736 42:-0.996943 43:-0.997518 44:-0.997163 45:-0.99306 46:-0.998867 47:-0.997582 48:-0.997658 49:-0.997592 50:-1 51:-0.997696 52:-0.995215 53:-0.99778 54:-1 55:-0.998033 56:-0.995187 57:-0.991667 58:-1 59:-1 60:-0.995939 61:-0.994666 
2.182905396882962 1:-0.904597 2:-0.981712 3:-0.972041 4:-0.187994 5:0.0654807 6:-0.997954 7:0.241426 8:-0.97841 9:-0.99721 10:-0.440145 11:0.587577 12:-0.996248 13:-0.180165 14:-0.996447 15:-0.834347 16:-0.920713 17:-0.87062 18:-0.931678 19:-0.969035 20:-0.972518 21:-0.91964 22:-0.898884 23:-0.896105 24:-0.899734 25:-0.923934 26:-0.858805 27:-0.91881 28:-0.860661 29:-0.923655 30:-0.883642 31:-0.940927 32:-0.905046 33:-0.952223 34:-0.953771 35:-0.964709 36:-0.860627 37:-0.97286 38:-0.998148 39:-1 40:-0.999666 41:-1 42:-1 43:-1 44:-1 45:-1 46:-1 47:-1 48:-1 49:-0.998796 50:-1 51:-1 52:-1 53:-1 54:-1 55:-1 56:-1 57:-1 58:-1 59:-1 60:-0.970577 61:-0.92427 
0.5979575631654074 1:-0.912865 2:-0.968073 3:-0.953862 4:-0.192588 5:0.068366 6:-0.999647 7:0.23778 8:-0.982206 9:-0.997682 10:-0.440117 11:0.58746 12:-0.997208 13:-0.180136 14:-0.997323 15:-0.961214 16:-0.968365 17:-0.954605 18:-0.955133 19:-0.965926 20:-0.901919 21:-0.942861 22:-0.873518 23:-0.910087 24:-0.879212 25:-0.903042 26:-0.869655 27:-0.914628 28:-0.879061 29:-0.913785 30:-0.886782 31:-0.941837 32:-0.911243 33:-0.962271 34:-0.959702 35:-0.907929 36:-0.98918 37:-1 38:-0.99963 39:-0.999476 40:-1 41:-1 42:-1 43:-1 44:-1 45:-1 46:-1 47:-1 48:-0.998829 49:-1 50:-1 51:-1 52:-1 53:-1 54:-1 55:-1 56:-1 57:-1 58:-1 59:-1 60:-0.941233 61:-0.916147 
2.439576815626255 1:-0.916752 2:-0.957388 3:-0.938331 4:-0.198405 5:0.0691089 6:-0.998978 7:0.235346 8:-0.986433 9:-0.998061 10:-0.440135 11:0.587565 12:-0.9973 13:-0.180088 14:-0.997372 15:-0.914496 16:-0.956768 17:-0.931045 18:-0.976751 19:-0.916736 20:-0.945724 21:-0.917774 22:-0.926811 23:-0.910309 24:-0.871835 25:-0.91535 26:-0.854909 27:-0.91234 28:-0.876537 29:-0.915553 30:-0.885978 31:-0.928462 32:-0.898636 33:-0.963338 34:-0.958649 35:-0.991295 36:-0.980011 37:-0.983237 38:-0.962586 39:-0.924588 40:-0.938127 41:-0.874576 42:-0.959745 43:-0.977661 44:-0.967849 45:-0.978022 46:-0.997735 47:-1 48:-1 49:-1 50:-1 51:-1 52:-1 53:-1 54:-1 55:-1 56:-1 57:-1 58:-1 59:-1 60:-0.979968 61:-0.92097 
0.9204331543811697 1:-0.92283 2:-0.920976 3:-0.902974 4:-0.212992 5:0.0775741 6:-0.99329 7:0.230164 8:-0.981563 9:-0.998001 10:-0.440025 11:0.587453 12:-0.997548 13:-0.178837 14:-0.99764 15:-0.88067 16:-0.835494 17:-0.911856 18:-0.870646 19:-0.954297 20:-0.879048 21:-0.962391 22:-0.869482 23:-0.933206 24:-0.863474 25:-0.916037 26:-0.876431 27:-0.924142 28:-0.864453 29:-0.929487 30:-0.872232 31:-0.944658 32:-0.901479 33:-0.959942 34:-0.963735 35:-0.992001 36:-0.984412 37:-0.970465 38:-0.900352 39:-0.821419 40:-0.974916 41:-0.98053 42:-0.987771 43:-0.997518 44:-1 45:-1 46:-1 47:-0.998791 48:-0.998829 49:-1 50:-0.998867 51:-1 52:-0.998804 53:-1 54:-1 55:-1 56:-1 57:-1 58:-1 59:-1 60:-0.979294 61:-0.914363 
0.8744566307247531 1:-0.939154 2:-0.880291 3:-0.853478 4:-0.223474 5:0.096943 6:-0.989909 7:0.224873 8:-0.96762 9:-0.99897 10:-0.440162 11:0.587497 12:-0.997534 13:-0.180125 14:-0.997715 15:-0.922135 16:-0.914855 17:-0.957969 18:-0.918765 19:-0.971893 20:-0.913179 21:-0.956798 22:-0.896806 23:-0.954186 24:-0.889692 25:-0.967731 26:-0.866004 27:-0.979931 28:-0.882028 29:-0.977232 30:-0.888675 31:-0.951587 32:-0.933688 33:-0.969841 34:-0.963845 35:-0.996785 36:-0.985146 37:-0.986629 38:-0.969624 39:-0.897879 40:-0.946823 41:-0.964682 42:-0.961783 43:-0.972076 44:-0.974468 45:-0.984962 46:-1 47:-1 48:-0.998829 49:-1 50:-1 51:-1 52:-1 53:-1 54:-1 55:-1 56:-1 57:-1 58:-1 59:-1 60:-0.980006 61:-0.912583 
8 1:-0.939154 2:-0.880291 3:-0.853478 4:-0.223474 5:0.096943 6:-0.989909 7:0.224873 8:-0.96762 9:-0.99897 10:-0.440162 11:0.587497 12:-0.997534 13:-0.180125 14:-0.997715 15:-0.922135 16:-0.914855 17:-0.957969 18:-0.918765 19:-0.971893 20:-0.913179 21:-0.956798 22:-0.896806 23:-0.954186 24:-0.889692 25:-0.967731 26:-0.866004 27:-0.979931 28:-0.882028 29:-0.977232 30:-0.888675 31:-0.951587 32:-0.933688 33:-0.969841 34:-0.963845 35:-0.996785 36:-0.985146 37:-0.986629 38:-0.969624 39:-0.897879 40:-0.946823 41:-0.964682 42:-0.961783 43:-0.972076 44:-0.974468 45:-0.984962 46:-1 47:-1 48:-0.998829 49:-1 50:-1 51:-1 52:-1 53:-1 54:-1 55:-1 56:-1 57:-1 58:-1 59:-1 60:-0.980006 61:-0.912583 
0.205981834172326 1:-0.926928 2:-0.884828 3:-0.845733 4:-0.200816 5:0.0810747 6:-0.999101 7:0.235466 8:-0.986355 9:-0.998462 10:-0.44013 11:0.587646 12:-0.997719 13:-0.180084 14:-0.997769 15:-0.965596 16:-0.932483 17:-0.995785 18:-0.99078 19:-0.963152 20:-0.905354 21:-0.954514 22:-0.898259 23:-0.921864 24:-0.881688 25:-0.917483 26:-0.842618 27:-0.928922 28:-0.874619 29:-0.932643 30:-0.870234 31:-0.942951 32:-0.898906 33:-0.973949 34:-0.965297 35:-0.998588 36:-0.993215 37:-0.993015 38:-0.988516 39:-0.986908 40:-0.988294 41:-0.985058 42:-0.978599 43:-0.970835 44:-0.895981 45:-0.884326 46:-0.857305 47:-0.827086 48:-0.942623 49:-0.961469 50:-0.97735 51:-0.979263 52:-0.972488 53:-0.977802 54:-0.969099 55:-0.933137 56:-0.944645 57:-0.945833 58:-0.957082 59:-1 60:-0.980432 61:-0.908037 
0.4015222224760425 1:-0.921699 2:-0.933126 3:-0.910875 4:-0.187801 5:0.0729237 6:-0.999126 7:0.23925 8:-0.985905 9:-0.998036 10:-0.440142 11:0.587648 12:-0.997186 13:-0.180133 14:-0.997299 15:-0.890076 16:-0.952311 17:-0.915306 18:-0.965481 19:-0.999013 20:-0.972182 21:-0.956333 22:-0.889805 23:-0.942622 24:-0.860347 25:-0.938746 26:-0.851664 27:-0.943319 28:-0.860068 29:-0.946548 30:-0.862951 31:-0.931363 32:-0.893064 33:-0.960421 34:-0.965884 35:-0.998039 36:-0.992481 37:-0.991219 38:-0.98296 39:-0.98586 40:-0.989632 41:-0.986416 42:-0.983185 43:-0.977661 44:-0.928132 45:-0.863505 46:-0.82786 47:-0.839178 48:-0.905152 49:-0.950632 50:-0.973952 51:-0.967742 52:-0.971292 53:-0.982242 54:-0.967382 55:-0.939036 56:-0.939832 57:-0.908333 58:-0.93133 59:-0.971831 60:-0.979129 61:-0.909872 
0.5255015833885913 1:-0.929967 2:-0.972485 3:-0.963226 4:-0.183599 5:0.0511562 6:-0.995553 7:0.237736 8:-0.999163 9:-0.99832 10:-0.440129 11:0.587579 12:-0.998801 13:-0.180125 14:-0.998696 15:-0.958505 16:-0.878851 17:-0.952035 18:-0.849981 19:-0.959306 20:-0.84798 21:-0.952879 22:-0.846903 23:-0.951138 24:-0.857656 25:-0.953784 26:-0.84734 27:-0.959446 28:-0.850044 29:-0.94103 30:-0.900041 31:-0.948176 32:-0.953242 33:-0.952209 34:-0.967428 35:-0.996079 36:-0.989364 37:-0.994013 38:-0.989628 39:-0.988479 40:-0.99097 41:-0.989586 42:-0.985732 43:-0.972696 44:-0.953664 45:-0.898207 46:-0.879955 47:-0.857316 48:-0.848946 49:-0.949428 50:-0.971687 51:-0.979263 52:-0.97488 53:-0.973363 54:-0.970815 55:-0.970501 56:-0.987966 57:-0.966667 58:-0.854077 59:-0.943662 60:-0.979991 61:-0.918917 
0.281039234527687 1:-0.928059 2:-0.9878 3:-0.984621 4:-0.185126 5:0.0493978 6:-0.9925 7:0.236805 8:-0.999061 9:-0.998417 10:-0.44012 11:0.587647 12:-0.99878 13:-0.180078 14:-0.998697 15:-0.957321 16:-0.912792 17:-0.94262 18:-0.860263 19:-0.950894 20:-0.861214 21:-0.947179 22:-0.863178 23:-0.944885 24:-0.862388 25:-0.949829 26:-0.858102 27:-0.956452 28:-0.87654 29:-0.952522 30:-0.898496 31:-0.954166 32:-0.958704 33:-0.947494 34:-0.971853 35:-0.996236 36:-0.992848 37:-0.995011 38:-0.99185 39:-0.986908 40:-0.993311 41:-0.988227 42:-0.982675 43:-0.979522 44:-0.957447 45:-0.902834 46:-0.851642 47:-0.844015 48:-0.862998 49:-0.910897 50:-0.962627 51:-0.973502 52:-0.970096 53:-0.981132 54:-0.967382 55:-0.972468 56:-0.980746 57:-0.975 58:-0.888412 59:-0.690141 60:-0.981128 61:-0.919921 
3.487760948215331 1:-0.939931 2:-0.994712 3:-0.998971 4:-0.193643 5:0.0502717 6:-0.984572 7:0.236808 8:-0.998483 9:-0.999415 10:-0.440139 11:0.587578 12:-0.998882 13:-0.180156 14:-0.998979 15:-0.958756 16:-0.965242 17:-0.926296 18:-0.89213 19:-0.934114 20:-0.939693 21:-0.945366 22:-0.931114 23:-0.93869 24:-0.948524 25:-0.937008 26:-0.943831 27:-0.949527 28:-0.896786 29:-0.957231 30:-0.9194 31:-0.9585 32:-0.980656 33:-0.956532 34:-0.982956 35:-0.976943 36:-0.989914 37:-0.990022 38:-0.983701 39:-0.9801 40:-0.988629 41:-0.990038 42:-0.982675 43:-0.97704 44:-0.957447 45:-0.947947 46:-0.94564 47:-0.962515 48:-0.967213 49:-0.983143 50:-0.992072 51:-0.995392 52:-0.991627 53:-0.99889 54:-0.9897 55:-0.9941 56:-0.995187 57:-0.9875 58:-1 59:-0.971831 60:-0.987467 61:-0.974295 
8 1:-0.978799 2:-0.992059 3:-0.999229 4:-0.194647 5:0.0494621 6:-0.98375 7:0.245073 8:-0.992896 9:-0.999943 10:-0.44013 11:0.587595 12:-0.999766 13:-0.180106 14:-0.999785 15:-0.973296 16:-0.970505 17:-0.963517 18:-0.972024 19:-0.964368 20:-0.964181 21:-0.969629 22:-0.962844 23:-0.978984 24:-0.972255 25:-0.980139 26:-0.963985 27:-0.981641 28:-0.976221 29:-0.979977 30:-0.964455 31:-0.980299 32:-0.959059 33:-0.986768 34:-0.976655 35:-0.986432 36:-0.994132 37:-0.998004 38:-0.998518 39:-0.998429 40:-0.997659 41:-0.998189 42:-0.998471 43:-0.998138 44:-0.998109 45:-0.995373 46:-0.99547 47:-0.998791 48:-0.994145 49:-0.996388 50:-0.996602 51:-0.995392 52:-0.997608 53:-0.990011 54:-0.991416 55:-0.972468 56:-0.983153 57:-1 58:-1 59:-0.971831 60:-0.992632 61:-0.989715 
7.938426180637744 1:-0.971026 2:-0.991993 3:-0.998864 4:-0.194664 5:0.0497899 6:-0.981151 7:0.242547 8:-0.996679 9:-0.99982 10:-0.440129 11:0.587584 12:-0.999488 13:-0.18011 14:-0.999529 15:-0.950195 16:-0.94818 17:-0.96066 18:-0.956992 19:-0.969922 20:-0.936847 21:-0.974826 22:-0.939971 23:-0.97724 24:-0.925972 25:-0.98719 26:-0.947374 27:-0.996568 28:-0.979498 29:-0.992937 30:-0.995021 31:-0.982673 32:-0.968758 33:-0.981588 34:-0.96925 35:-0.987138 36:-0.979461 37:-0.994013 38:-0.994443 39:-0.995287 40:-0.997324 41:-0.99683 42:-0.996433 43:-0.996277 44:-0.995272 45:-0.994216 46:-0.99094 47:-0.993954 48:-0.996487 49:-0.992775 50:-0.996602 51:-0.997696 52:-0.998804 53:-0.99889 54:-0.998283 55:-0.992134 56:-0.98556 57:-0.9875 58:-0.982833 59:-1 60:-0.996309 61:-0.994864 
0.9449255289193329 1:-0.905516 2:-0.996384 3:-0.997406 4:-0.190833 5:0.0518936 6:-0.987512 7:0.243953 8:-0.990714 9:-0.995581 10:-0.440564 11:0.587499 12:-0.996964 13:-0.182042 14:-0.996734 15:-0.930804 16:-0.724208 17:-0.954689 18:-0.822188 19:-0.948767 20:-0.835046 21:-0.911574 22:-0.835445 23:-0.91975 24:-0.862844 25:-0.924811 26:-0.870855 27:-0.929565 28:-0.865844 29:-0.934304 30:-0.89904 31:-0.948402 32:-0.973461 33:-0.942645 34:-0.97651 35:-0.984942 36:-0.975426 37:-0.987627 38:-0.984071 39:-0.982194 40:-0.991304 41:-0.985511 42:-0.974013 43:-0.955942 44:-0.948936 45:-0.907461 46:-0.872027 47:-0.874244 48:-0.922717 49:-0.89404 50:-0.912797 51:-0.9447 52:-0.973684 53:-0.983352 54:-0.987983 55:-0.992134 56:-0.98556 57:-0.9875 58:-0.965665 59:-0.887324 60:-0.982729 61:-0.949488 
1.72204327446816 1:-0.926434 2:-0.993717 3:-0.992658 4:-0.186742 5:0.0501111 6:-0.989362 7:0.23724 8:-0.999253 9:-0.998255 10:-0.440131 11:0.58761 12:-0.998835 13:-0.180089 14:-0.998715 15:-0.964083 16:-0.965222 17:-0.928486 18:-0.925049 19:-0.91782 20:-0.865726 21:-0.932448 22:-0.873278 23:-0.928258 24:-0.859003 25:-0.914487 26:-0.867655 27:-0.918831 28:-0.893919 29:-0.928588 30:-0.90922 31:-0.957069 32:-0.956123 33:-0.959959 34:-0.978287 35:-0.992863 36:-0.987897 37:-0.99082 38:-0.988887 39:-0.983765 40:-0.993645 41:-0.985058 42:-0.989299 43:-0.975178 44:-0.926241 45:-0.894737 46:-0.911665 47:-0.879081 48:-0.820843 49:-0.903672 50:-0.971687 51:-0.986175 52:-0.982057 53:-0.987791 54:-0.987983 55:-0.988201 56:-0.987966 57:-0.983333 58:-0.991416 59:-0.971831 60:-0.981794 61:-0.933853 
2.865165257202517 1:-0.920992 2:-0.990519 3:-0.985618 4:-0.185382 5:0.0511393 6:-0.992381 7:0.238091 8:-0.998257 9:-0.997837 10:-0.439636 11:0.585389 12:-0.998622 13:-0.18006 14:-0.998515 15:-0.964373 16:-0.911569 17:-0.887412 18:-0.889514 19:-0.891646 20:-0.893487 21:-0.895123 22:-0.905045 23:-0.899128 24:-0.907585 25:-0.904879 26:-0.8915 27:-0.911367 28:-0.906558 29:-0.926153 30:-0.917059 31:-0.962408 32:-0.959117 33:-0.961392 34:-0.973739 35:-0.994824 36:-0.98973 37:-0.992417 38:-0.989257 39:-0.982194 40:-0.989632 41:-0.984152 42:-0.986752 43:-0.972076 44:-0.964066 45:-0.928282 46:-0.924122 47:-0.888755 48:-0.871194 49:-0.835039 50:-0.84145 51:-0.945853 52:-0.978469 53:-0.983352 54:-0.982833 55:-0.988201 56:-0.983153 57:-0.975 58:-0.957082 59:-0.971831 60:-0.982889 61:-0.930228 
0.06795252780389258 1:-0.906788 2:-0.976034 3:-0.962206 4:-0.190468 5:0.0697005 6:-0.999316 7:0.23938 8:-0.975675 9:-0.997483 10:-0.440208 11:0.58682 12:-0.996568 13:-0.180095 14:-0.996737 15:-0.887823 16:-0.890921 17:-0.885796 18:-0.930405 19:-0.930168 20:-0.953132 21:-0.907398 22:-0.902463 23:-0.901413 24:-0.891977 25:-0.891684 26:-0.891655 27:-0.897718 28:-0.904111 29:-0.904583 30:-0.907393 31:-0.924647 32:-0.92661 33:-0.955032 34:-0.96173 35:-0.981727 36:-0.955071 37:-0.892038 38:-0.914799 39:-0.963865 40:-0.999331 41:-0.999547 42:-1 43:-1 44:-1 45:-1 46:-1 47:-1 48:-1 49:-1 50:-1 51:-1 52:-1 53:-1 54:-1 55:-1 56:-1 57:-0.995833 58:-1 59:-1 60:-0.975828 61:-0.91902 
2.03013853934791 1:-0.911169 2:-0.966285 3:-0.949325 4:-0.198942 5:0.069517 6:-0.998628 7:0.234538 8:-0.981254 9:-0.997529 10:-0.440091 11:0.587416 12:-0.996725 13:-0.180121 14:-0.996904 15:-0.945638 16:-0.818979 17:-0.93929 18:-0.826651 19:-0.959721 20:-0.862631 21:-0.935945 22:-0.908867 23:-0.902039 24:-0.910394 25:-0.878515 26:-0.908098 27:-0.887193 28:-0.922349 29:-0.885179 30:-0.890887 31:-0.915793 32:-0.90711 33:-0.95185 34:-0.952363 35:-0.901419 36:-0.999817 37:-0.9998 38:-0.99963 39:-1 40:-1 41:-1 42:-1 43:-1 44:-1 45:-1 46:-1 47:-1 48:-1 49:-1 50:-1 51:-1 52:-1 53:-1 54:-1 55:-1 56:-1 57:-1 58:-1 59:-1 60:-0.897213 61:-0.916108 
4.805095150293369 1:-0.916611 2:-0.939428 3:-0.924532 4:-0.212708 5:0.0797041 6:-0.991657 7:0.227424 8:-0.973926 9:-0.998023 10:-0.440124 11:0.587503 12:-0.997064 13:-0.180107 14:-0.997197 15:-0.869938 16:-0.920864 17:-0.914638 18:-0.945944 19:-0.934459 20:-0.920633 21:-0.921152 22:-0.895647 23:-0.91037 24:-0.871495 25:-0.92157 26:-0.868893 27:-0.925893 28:-0.879365 29:-0.925647 30:-0.878056 31:-0.93951 32:-0.923167 33:-0.961497 34:-0.965406 35:-0.992393 36:-0.982212 37:-0.980842 38:-0.953695 39:-0.899974 40:-0.90301 41:-0.932533 42:-0.966879 43:-0.960906 44:-0.993381 45:-0.997687 46:-1 47:-1 48:-1 49:-1 50:-0.998867 51:-1 52:-1 53:-1 54:-1 55:-1 56:-1 57:-1 58:-1 59:-1 60:-0.980055 61:-0.914902 
3.955310436202263 1:-0.920639 2:-0.930503 3:-0.915814 4:-0.215589 5:0.0789369 6:-0.990233 7:0.22742 8:-0.978505 9:-0.998378 10:-0.440156 11:0.58765 12:-0.997164 13:-0.180103 14:-0.997276 15:-0.962687 16:-0.917044 17:-0.979434 18:-0.920799 19:-0.979655 20:-0.91335 21:-0.935084 22:-0.900752 23:-0.916662 24:-0.879306 25:-0.910547 26:-0.869748 27:-0.917086 28:-0.878492 29:-0.921801 30:-0.88278 31:-0.93826 32:-0.900883 33:-0.961331 34:-0.963507 35:-0.978668 36:-0.878416 37:-0.962882 38:-1 39:-1 40:-0.999331 41:-1 42:-1 43:-1 44:-1 45:-0.998843 46:-1 47:-0.998791 48:-1 49:-1 50:-1 51:-0.998848 52:-1 53:-1 54:-1 55:-1 56:-1 57:-1 58:-1 59:-1 60:-0.966943 61:-0.910304 
1.583463787596796 1:-0.930532 2:-0.921475 3:-0.908167 4:-0.21774 5:0.0708961 6:-0.989342 7:0.230243 8:-0.989057 9:-0.998523 10:-0.440162 11:0.587688 12:-0.998087 13:-0.180221 14:-0.998126 15:-0.977075 16:-0.962456 17:-0.972865 18:-0.975086 19:-0.972255 20:-0.919296 21:-0.963616 22:-0.873489 23:-0.910566 24:-0.874916 25:-0.912938 26:-0.864413 27:-0.932576 28:-0.86159 29:-0.940072 30:-0.874075 31:-0.947911 32:-0.900518 33:-0.956293 34:-0.96599 35:-0.997883 36:-0.994132 37:-0.991618 38:-0.989628 39:-0.98586 40:-0.990301 41:-0.988227 42:-0.978089 43:-0.964009 44:-0.940426 45:-0.910931 46:-0.869762 47:-0.834341 48:-0.898126 49:-0.945816 50:-0.95923 51:-0.965438 52:-0.97488 53:-0.981132 54:-0.974249 55:-0.976401 56:-0.980746 57:-0.975 58:-0.957082 59:-1 60:-0.981337 61:-0.914106 
0.4212317307445626 1:-0.934419 2:-0.915966 3:-0.89659 4:-0.220765 5:0.0757268 6:-0.988124 7:0.228582 8:-0.985246 9:-0.998677 10:-0.440122 11:0.587596 12:-0.997964 13:-0.180122 14:-0.998061 15:-0.941549 16:-0.975877 17:-0.962526 18:-0.977269 19:-0.968421 20:-0.951991 21:-0.946203 22:-0.916742 23:-0.925778 24:-0.900796 25:-0.94193 26:-0.847903 27:-0.950036 28:-0.85281 29:-0.954582 30:-0.871274 31:-0.94515 32:-0.891629 33:-0.959279 34:-0.968312 35:-0.993412 36:-0.983312 37:-0.983436 38:-0.933321 39:-0.858078 40:-0.961873 41:-0.973738 42:-0.981656 43:-0.991933 44:-1 45:-1 46:-1 47:-1 48:-1 49:-0.998796 50:-1 51:-1 52:-1 53:-1 54:-1 55:-1 56:-1 57:-1 58:-1 59:-1 60:-0.979475 61:-0.91263 
6.399771169909497 1:-0.939437 2:-0.877689 3:-0.85113 4:-0.223192 5:0.097135 6:-0.990225 7:0.225144 8:-0.967774 9:-0.998868 10:-0.440115 11:0.587574 12:-0.99759 13:-0.180083 14:-0.997752 15:-0.912194 16:-0.901808 17:-0.951561 18:-0.910398 19:-0.970375 20:-0.902996 21:-0.952639 22:-0.89923 23:-0.957435 24:-0.890157 25:-0.973843 26:-0.875217 27:-0.982067 28:-0.882789 29:-0.977873 30:-0.884065 31:-0.956421 32:-0.923963 33:-0.965317 34:-0.956531 35:-0.998667 36:-0.993765 37:-0.992018 38:-0.982219 39:-0.981147 40:-0.98495 41:-0.979624 42:-0.955159 43:-0.931741 44:-0.896927 45:-0.922499 46:-0.956965 47:-0.941959 48:-0.955504 49:-0.965081 50:-0.97282 51:-0.97235 52:-0.983254 53:-0.99556 54:-0.998283 55:-0.998033 56:-1 57:-1 58:-1 59:-1 60:-0.980472 61:-0.912212 
0.2134224581207685 1:-0.951945 2:-0.860123 3:-0.818585 4:-0.207799 5:0.0716171 6:-0.998021 7:0.235205 8:-0.993982 9:-0.99949 10:-0.440126 11:0.587497 12:-0.998429 13:-0.180129 14:-0.998549 15:-0.969032 16:-0.930547 17:-0.974317 18:-0.916196 19:-0.959969 20:-0.934316 21:-0.950803 22:-0.928644 23:-0.930451 24:-0.951789 25:-0.922364 26:-0.946008 27:-0.935089 28:-0.950716 29:-0.936658 30:-0.943034 31:-0.97612 32:-0.933661 33:-0.973962 34:-0.94135 35:-0.999451 36:-0.997616 37:-0.994811 38:-0.992962 39:-0.984813 40:-0.991973 41:-0.989586 42:-0.983185 43:-0.977661 44:-0.963121 45:-0.915558 46:-0.928652 47:-0.915357 48:-0.932084 49:-0.966285 50:-0.966025 51:-0.965438 52:-0.965311 53:-0.988901 54:-0.981116 55:-0.984267 56:-0.980746 57:-0.966667 58:-0.948498 59:-0.943662 60:-0.982671 61:-0.916421 
1.316283191698254 1:-0.944313 2:-0.858368 3:-0.810939 4:-0.20431 5:0.0754643 6:-0.998644 7:0.235518 8:-0.991382 9:-0.998644 10:-0.440141 11:0.587776 12:-0.998408 13:-0.179396 14:-0.998434 15:-0.958719 16:-0.894286 17:-0.960925 18:-0.911052 19:-0.943119 20:-0.926249 21:-0.876186 22:-0.920316 23:-0.861003 24:-0.931832 25:-0.870106 26:-0.945495 27:-0.889433 28:-0.947679 29:-0.911702 30:-0.948081 31:-0.954764 32:-0.930642 33:-0.96983 34:-0.942882 35:-0.999608 36:-0.996332 37:-0.993814 38:-0.989257 39:-0.988479 40:-0.993311 41:-0.980983 42:-0.984713 43:-0.976419 44:-0.93948 45:-0.928282 46:-0.90487 47:-0.889964 48:-0.899297 49:-0.959061 50:-0.9547 51:-0.975806 52:-0.977273 53:-0.991121 54:-0.984549 55:-0.980334 56:-0.973526 57:-0.9625 58:-0.974249 59:-0.915493 60:-0.982502 61:-0.916142 
0.2352265515938856 1:-0.928836 2:-0.871939 3:-0.830431 4:-0.180073 5:0.0827482 6:-0.998049 7:0.240703 8:-0.985187 9:-0.998258 10:-0.440139 11:0.587489 12:-0.997714 13:-0.179973 14:-0.99779 15:-0.932004 16:-0.872603 17:-0.99105 18:-0.975941 19:-0.978324 20:-0.907628 21:-0.951766 22:-0.901709 23:-0.910682 24:-0.876773 25:-0.9014 26:-0.876105 27:-0.91883 28:-0.879476 29:-0.924673 30:-0.882307 31:-0.940974 32:-0.90879 33:-0.981945 34:-0.956407 35:-0.999686 36:-0.994682 37:-0.993015 38:-0.989628 39:-0.982194 40:-0.991304 41:-0.983699 42:-0.984713 43:-0.971455 44:-0.960284 45:-0.909774 46:-0.870895 47:-0.86578 48:-0.875878 49:-0.92053 50:-0.953567 51:-0.950461 52:-0.980861 53:-0.982242 54:-0.970815 55:-0.94297 56:-0.939832 57:-0.904167 58:-0.905579 59:-0.887324 60:-0.982674 61:-0.918811 
0.2383994527523762 1:-0.934278 2:-0.871939 3:-0.831765 4:-0.180055 5:0.069295 6:-0.99802 7:0.239356 8:-0.994909 9:-0.998539 10:-0.440123 11:0.587594 12:-0.998632 13:-0.18011 14:-0.998573 15:-0.968987 16:-0.892001 17:-0.930174 18:-0.886161 19:-0.913432 20:-0.883636 21:-0.911343 22:-0.880814 23:-0.915653 24:-0.878194 25:-0.921005 26:-0.878816 27:-0.931167 28:-0.883483 29:-0.93066 30:-0.898911 31:-0.983927 32:-0.958921 33:-0.984666 34:-0.957162 35:-0.999686 36:-0.994682 37:-0.993215 38:-0.99185 39:-0.98586 40:-0.993311 41:-0.986869 42:-0.986752 43:-0.975178 44:-0.965957 45:-0.915558 46:-0.876557 47:-0.875453 48:-0.881733 49:-0.924142 50:-0.958097 51:-0.952765 52:-0.980861 53:-0.982242 54:-0.972532 55:-0.944936 56:-0.939832 57:-0.904167 58:-0.905579 59:-0.887324 60:-0.982543 61:-0.91757 
1.112196036303982 1:-0.928624 2:-0.876554 3:-0.841559 4:-0.1779 5:0.0645295 6:-0.997254 7:0.239213 8:-0.996746 9:-0.998201 10:-0.440135 11:0.587595 12:-0.998558 13:-0.180084 14:-0.99845 15:-0.94576 16:-0.908442 17:-0.953189 18:-0.851228 19:-0.948452 20:-0.835237 21:-0.947743 22:-0.840002 23:-0.940007 24:-0.850841 25:-0.95172 26:-0.851666 27:-0.947942 28:-0.853701 29:-0.951116 30:-0.883939 31:-0.971442 32:-0.942754 33:-0.973979 34:-0.965748 35:-0.999059 36:-0.992114 37:-0.993015 38:-0.987776 39:-0.981147 40:-0.989967 41:-0.985963 42:-0.986752 43:-0.970835 44:-0.935697 45:-0.877386 46:-0.835787 47:-0.858525 48:-0.915691 49:-0.961469 50:-0.98188 51:-0.974654 52:-0.983254 53:-0.973363 54:-0.965665 55:-0.94297 56:-0.942238 57:-0.920833 58:-0.922747 59:-0.915493 60:-0.981509 61:-0.920144 
0.3912826969059209 1:-0.93131 2:-0.887834 3:-0.862318 4:-0.177942 5:0.0618595 6:-0.996922 7:0.239096 8:-0.997162 9:-0.998274 10:-0.440806 11:0.587619 12:-0.998548 13:-0.179958 14:-0.998464 15:-0.943035 16:-0.882004 17:-0.955889 18:-0.845299 19:-0.96657 20:-0.843715 21:-0.968763 22:-0.839441 23:-0.969447 24:-0.840047 25:-0.972308 26:-0.845027 27:-0.973268 28:-0.860495 29:-0.964179 30:-0.881481 31:-0.96582 32:-0.944416 33:-0.971085 34:-0.961 35:-0.997961 36:-0.992298 37:-0.991419 38:-0.985182 39:-0.987431 40:-0.991973 41:-0.987322 42:-0.987261 43:-0.968973 44:-0.929078 45:-0.887796 46:-0.875425 47:-0.848851 48:-0.905152 49:-0.960265 50:-0.980747 51:-0.973502 52:-0.973684 53:-0.973363 54:-0.967382 55:-0.980334 56:-0.98556 57:-0.958333 58:-0.888412 59:-0.774648 60:-0.981624 61:-0.921616 
1.631074347751462 1:-0.919437 2:-0.896715 3:-0.87169 4:-0.179607 5:0.0849733 6:-0.99733 7:0.242252 8:-0.978684 9:-0.997923 10:-0.44012 11:0.587668 12:-0.996835 13:-0.180102 14:-0.996957 15:-0.896776 16:-0.915568 17:-0.936687 18:-0.916958 19:-0.964153 20:-0.921174 21:-0.979302 22:-0.882994 23:-0.969317 24:-0.853987 25:-0.964726 26:-0.8368 27:-0.968538 28:-0.837323 29:-0.970403 30:-0.847319 31:-0.964267 32:-0.884988 33:-0.968831 34:-0.95198 35:-0.997569 36:-0.991748 37:-0.985632 38:-0.980367 39:-0.977481 40:-0.987291 41:-0.978266 42:-0.972994 43:-0.95408 44:-0.885579 45:-0.813765 46:-0.842582 47:-0.927449 48:-0.961358 49:-0.959061 50:-0.967157 51:-0.964286 52:-0.978469 53:-0.978912 54:-0.975966 55:-0.976401 56:-0.971119 57:-0.991667 58:-0.991416 59:-1 60:-0.980365 61:-0.92029 
0.9138419469391121 1:-0.925586 2:-0.906575 3:-0.883746 4:-0.180789 5:0.0745386 6:-0.997565 7:0.24083 8:-0.988549 9:-0.998486 10:-0.440138 11:0.58747 12:-0.997277 13:-0.18009 14:-0.997378 15:-0.933368 16:-0.958795 17:-0.948701 18:-0.961315 19:-0.946775 20:-0.977923 21:-0.965948 22:-0.908563 23:-0.98035 24:-0.854832 25:-0.968139 26:-0.843477 27:-0.967409 28:-0.839244 29:-0.974463 30:-0.851863 31:-0.96339 32:-0.893809 33:-0.96753 34:-0.954501 35:-0.99898 36:-0.992114 37:-0.992417 38:-0.988146 39:-0.984813 40:-0.986288 41:-0.983247 42:-0.979108 43:-0.970835 44:-0.929078 45:-0.878543 46:-0.874292 47:-0.840387 48:-0.899297 49:-0.932571 50:-0.95923 51:-0.968894 52:-0.964115 53:-0.985572 54:-0.969099 55:-0.974435 56:-0.968712 57:-0.95 58:-0.948498 59:-0.943662 60:-0.982215 61:-0.918698 
0.297179464813884 1:-0.911664 2:-0.969634 3:-0.952044 4:-0.190056 5:0.0694716 6:-0.999324 7:0.239153 8:-0.980895 9:-0.997722 10:-0.440149 11:0.587605 12:-0.996661 13:-0.180126 14:-0.996841 15:-0.865229 16:-0.930195 17:-0.897159 18:-0.941807 19:-0.982558 20:-0.944836 21:-0.950836 22:-0.884738 23:-0.908013 24:-0.881373 25:-0.909527 26:-0.859611 27:-0.922721 28:-0.858513 29:-0.940586 30:-0.854885 31:-0.949156 32:-0.893111 33:-0.959675 34:-0.966735 35:-0.99553 36:-0.988447 37:-0.991219 38:-0.982219 39:-0.98586 40:-0.986622 41:-0.980983 42:-0.982675 43:-0.966491 44:-0.937589 45:-0.903991 46:-0.858437 47:-0.817412 48:-0.823185 49:-0.919326 50:-0.96376 51:-0.961982 52:-0.966507 53:-0.972253 54:-0.979399 55:-0.954769 56:-0.968712 57:-0.941667 58:-0.896996 59:-0.746479 60:-0.979343 61:-0.918091 
0.3859713793727741 1:-0.91336 2:-0.990654 3:-0.985492 4:-0.18599 5:0.0554865 6:-0.993302 7:0.241183 8:-0.99445 9:-0.997999 10:-0.44015 11:0.587633 12:-0.99769 13:-0.18009 14:-0.997696 15:-0.974932 16:-0.961255 17:-0.972769 18:-0.961664 19:-0.965367 20:-0.909623 21:-0.906047 22:-0.915074 23:-0.893031 24:-0.899 25:-0.898288 26:-0.88623 27:-0.912441 28:-0.871457 29:-0.925027 30:-0.882011 31:-0.941687 32:-0.926821 33:-0.954326 34:-0.97068 35:-0.994353 36:-0.988813 37:-0.991618 38:-0.987776 39:-0.978005 40:-0.991304 41:-0.978719 42:-0.986242 43:-0.970835 44:-0.956501 45:-0.907461 46:-0.840317 47:-0.816203 48:-0.858314 49:-0.896448 50:-0.956965 51:-0.953917 52:-0.962919 53:-0.973363 54:-0.958798 55:-0.968535 56:-0.956679 57:-0.9625 58:-0.965665 59:-0.943662 60:-0.980632 61:-0.92347 
1.925729072847979 1:-0.898802 2:-0.996369 3:-0.997295 4:-0.190625 5:0.0522088 6:-0.98751 7:0.244594 8:-0.990302 9:-0.995506 10:-0.440166 11:0.587222 12:-0.996846 13:-0.180224 14:-0.996544 15:-0.938209 16:-0.742471 17:-0.962226 18:-0.798052 19:-0.958958 20:-0.802521 21:-0.927733 22:-0.819872 23:-0.940124 24:-0.844481 25:-0.943687 26:-0.852023 27:-0.947995 28:-0.861265 29:-0.948807 30:-0.876963 31:-0.948661 32:-0.976457 33:-0.946607 34:-0.975052 35:-0.979531 36:-0.981845 37:-0.985232 38:-0.973328 39:-0.957581 40:-0.966555 41:-0.947476 42:-0.927643 43:-0.900093 44:-0.91773 45:-0.894737 46:-0.956965 47:-0.948005 48:-0.960187 49:-0.974714 50:-0.994337 51:-0.990783 52:-0.997608 53:-1 54:-1 55:-1 56:-1 57:-1 58:-1 59:-1 60:-0.980508 61:-0.943125 
8 1:-0.961627 2:-0.992765 3:-0.999095 4:-0.194199 5:0.0502956 6:-0.982365 7:0.23677 8:-0.999446 9:-0.999722 10:-0.440134 11:0.587605 12:-0.99942 13:-0.180126 14:-0.999453 15:-0.957971 16:-0.968008 17:-0.946528 18:-0.961106 19:-0.950829 20:-0.948477 21:-0.954637 22:-0.944589 23:-0.953094 24:-0.9378 25:-0.95792 26:-0.941539 27:-0.954807 28:-0.925307 29:-0.960299 30:-0.939305 31:-0.983126 32:-0.97599 33:-0.978734 34:-0.979487 35:-0.983139 36:-0.992114 37:-0.996408 38:-0.993703 39:-0.995287 40:-0.99699 41:-0.995472 42:-0.990318 43:-0.985728 44:-0.974468 45:-0.983806 46:-0.983012 47:-0.980653 48:-0.98829 49:-0.984347 50:-0.98188 51:-0.976959 52:-0.986842 53:-0.986681 54:-0.979399 55:-0.980334 56:-0.995187 57:-0.9875 58:-0.991416 59:-0.971831 60:-0.989864 61:-0.980547 
4.728306269088876 1:-0.983605 2:-0.995487 3:-0.999451 4:-0.194444 5:0.0499056 6:-0.985973 7:0.240816 8:-0.998377 9:-0.999922 10:-0.440131 11:0.587596 12:-0.999873 13:-0.180104 14:-0.999874 15:-0.992918 16:-0.984528 17:-0.973277 18:-0.94988 19:-0.976254 20:-0.945574 21:-0.981262 22:-0.959563 23:-0.968167 24:-0.913184 25:-0.975657 26:-0.931864 27:-0.981942 28:-0.961742 29:-0.980873 30:-0.972114 31:-0.981625 32:-0.97393 33:-0.987099 34:-0.98285 35:-0.993099 36:-0.995415 37:-0.998204 38:-0.997777 39:-0.997382 40:-0.99699 41:-0.998642 42:-0.998471 43:-0.997518 44:-0.996217 45:-0.99306 46:-0.998867 47:-0.990326 48:-0.992974 49:-0.99398 50:-0.993205 51:-0.996544 52:-0.992823 53:-0.994451 54:-0.99485 55:-0.990167 56:-0.99278 57:-0.970833 58:-0.948498 59:-0.746479 60:-0.992795 61:-0.986954 
1.213202502509749 1:-0.89223 2:-0.946335 3:-0.957682 4:-0.153912 5:0.0752049 6:-0.939058 7:0.268909 8:-0.966352 9:-0.996025 10:-0.440162 11:0.587951 12:-0.995679 13:-0.180207 14:-0.995666 15:-0.882722 16:-0.860865 17:-0.899883 18:-0.868383 19:-0.918743 20:-0.877609 21:-0.941489 22:-0.885818 23:-0.918294 24:-0.807668 25:-0.930832 26:-0.807442 27:-0.940231 28:-0.847337 29:-0.952183 30:-0.871774 31:-0.939105 32:-0.878702 33:-0.971837 34:-0.939159 35:-0.995843 36:-0.982578 37:-0.991419 38:-0.988887 39:-0.979052 40:-0.987291 41:-0.976455 42:-0.96586 43:-0.96525 44:-0.946099 45:-0.923655 46:-0.894677 47:-0.879081 48:-0.894614 49:-0.891632 50:-0.867497 51:-0.884793 52:-0.883971 53:-0.90899 54:-0.895279 55:-0.917404 56:-0.937425 57:-0.908333 58:-0.922747 59:-0.943662 60:-0.978887 61:-0.912477 
0.6558732696664424 1:-0.88905 2:-0.932614 3:-0.949603 4:-0.147422 5:0.0798892 6:-0.931094 7:0.273797 8:-0.960595 9:-0.996339 10:-0.440091 11:0.587326 12:-0.995234 13:-0.180138 14:-0.99534 15:-0.892811 16:-0.861859 17:-0.907184 18:-0.858738 19:-0.933725 20:-0.867804 21:-0.961675 22:-0.866664 23:-0.928645 24:-0.821799 25:-0.936584 26:-0.826982 27:-0.950698 28:-0.839576 29:-0.963236 30:-0.849963 31:-0.934895 32:-0.862825 33:-0.966896 34:-0.945744 35:-0.99553 36:-0.980194 37:-0.988425 38:-0.977774 39:-0.972768 40:-0.981605 41:-0.975549 42:-0.968917 43:-0.952839 44:-0.927187 45:-0.895894 46:-0.847112 47:-0.852479 48:-0.830211 49:-0.844672 50:-0.86863 51:-0.928571 52:-0.924641 53:-0.961154 54:-0.979399 55:-0.9941 56:-0.995187 57:-0.995833 58:-1 59:-1 60:-0.97737 61:-0.908431 
0.7354653618448568 1:-0.891099 2:-0.900607 3:-0.923249 4:-0.125596 5:0.0855147 6:-0.903352 7:0.27867 8:-0.963444 9:-0.99693 10:-0.440142 11:0.587797 12:-0.995212 13:-0.18009 14:-0.995447 15:-0.899094 16:-0.95029 17:-0.90625 18:-0.910683 19:-0.954774 20:-0.876977 21:-0.96831 22:-0.876602 23:-0.946887 24:-0.826447 25:-0.949973 26:-0.793495 27:-0.951629 28:-0.810174 29:-0.973855 30:-0.834839 31:-0.947945 32:-0.876333 33:-0.953976 34:-0.931693 35:-0.993255 36:-0.983129 37:-0.988825 38:-0.973699 39:-0.969626 40:-0.980268 41:-0.978719 42:-0.964331 43:-0.952839 44:-0.932861 45:-0.894737 46:-0.911665 47:-0.874244 48:-0.891101 49:-0.865141 50:-0.912797 51:-0.936636 52:-0.930622 53:-0.927858 54:-0.883262 55:-0.923304 56:-0.968712 57:-0.983333 58:-0.991416 59:-1 60:-0.976061 61:-0.911858 
0.4815373170924921 1:-0.904244 2:-0.864848 3:-0.908786 4:-0.107025 5:0.0804231 6:-0.867941 7:0.275294 8:-0.975822 9:-0.997027 10:-0.439763 11:0.589474 12:-0.99491 13:-0.180096 14:-0.995218 15:-0.915495 16:-0.953911 17:-0.90859 18:-0.957794 19:-0.913623 20:-0.952233 21:-0.882154 22:-0.952153 23:-0.87537 24:-0.92584 25:-0.892343 26:-0.92319 27:-0.93802 28:-0.926949 29:-0.925905 30:-0.848809 31:-0.894902 32:-0.793694 33:-0.959637 34:-0.95765 35:-0.995843 36:-0.981111 37:-0.987428 38:-0.981848 39:-0.974863 40:-0.985284 41:-0.981435 42:-0.980637 43:-0.970835 44:-0.95461 45:-0.937536 46:-0.92299 47:-0.899637 48:-0.908665 49:-0.883203 50:-0.910532 51:-0.880184 52:-0.940191 53:-0.952275 54:-0.946781 55:-0.93117 56:-0.930205 57:-0.85 58:-0.708155 59:-0.915493 60:-0.976687 61:-0.917082 
0.3820081620314302 1:-0.904173 2:-0.878128 3:-0.908767 4:-0.106826 5:0.0838696 6:-0.867647 7:0.279664 8:-0.968985 9:-0.997412 10:-0.440111 11:0.587525 12:-0.994973 13:-0.180054 14:-0.995481 15:-0.912473 16:-0.947016 17:-0.909219 18:-0.952346 19:-0.912739 20:-0.949723 21:-0.887506 22:-0.947669 23:-0.886267 24:-0.915519 25:-0.915913 26:-0.911496 27:-0.929045 28:-0.929268 29:-0.928933 30:-0.792609 31:-0.913975 32:-0.808614 33:-0.961281 34:-0.955382 35:-0.993726 36:-0.988997 37:-0.990022 38:-0.977403 39:-0.97591 40:-0.986957 41:-0.982794 42:-0.979108 43:-0.964629 44:-0.952719 45:-0.925969 46:-0.906002 47:-0.883918 48:-0.893443 49:-0.891632 50:-0.894677 51:-0.906682 52:-0.925837 53:-0.955605 54:-0.960515 55:-0.956735 56:-0.906137 57:-0.845833 58:-0.896996 59:-0.887324 60:-0.977664 61:-0.915514 
0.5059507875716514 1:-0.901558 2:-0.887758 3:-0.907268 4:-0.105666 5:0.0870618 6:-0.866529 7:0.283419 8:-0.96622 9:-0.997293 10:-0.440114 11:0.587751 12:-0.995219 13:-0.180114 14:-0.995544 15:-0.918105 16:-0.942869 17:-0.908415 18:-0.958657 19:-0.908086 20:-0.923807 21:-0.902516 22:-0.924523 23:-0.915352 24:-0.919817 25:-0.927437 26:-0.91231 27:-0.89974 28:-0.806227 29:-0.836044 30:-0.845175 31:-0.897585 32:-0.939383 33:-0.964437 34:-0.948951 35:-0.994981 36:-0.986429 37:-0.989423 38:-0.98333 39:-0.976434 40:-0.977926 41:-0.982341 42:-0.969936 43:-0.959044 44:-0.930969 45:-0.913245 46:-0.889015 47:-0.852479 48:-0.851288 49:-0.853101 50:-0.898075 51:-0.934332 52:-0.970096 53:-0.972253 54:-0.943348 55:-0.946903 56:-0.978339 57:-0.991667 58:-1 59:-1 60:-0.978073 61:-0.913695 
0.9015423071081601 1:-0.905728 2:-0.894263 3:-0.906269 4:-0.105131 5:0.0877892 6:-0.866192 7:0.284141 8:-0.965872 9:-0.997206 10:-0.44007 11:0.587714 12:-0.995309 13:-0.179992 14:-0.995556 15:-0.917752 16:-0.953491 17:-0.905191 18:-0.955254 19:-0.902067 20:-0.939973 21:-0.909347 22:-0.924899 23:-0.917277 24:-0.942697 25:-0.933216 26:-0.892555 27:-0.93361 28:-0.913748 29:-0.818233 30:-0.831319 31:-0.865962 32:-0.946563 33:-0.964849 34:-0.954447 35:-0.993648 36:-0.98698 37:-0.990421 38:-0.981848 39:-0.974863 40:-0.980936 41:-0.97736 42:-0.969936 43:-0.968973 44:-0.941371 45:-0.907461 46:-0.907135 47:-0.873035 48:-0.861827 49:-0.861529 50:-0.893545 51:-0.934332 52:-0.97488 53:-0.983352 54:-0.962232 55:-0.956735 56:-0.951865 57:-0.975 58:-0.965665 59:-0.971831 60:-0.977477 61:-0.914949 
0.7730790019377849 1:-0.927282 2:-0.809505 3:-0.899385 4:-0.310121 5:0.104494 6:-0.782267 7:0.154434 8:-0.937057 9:-0.998402 10:-0.440129 11:0.587421 12:-0.9967 13:-0.180359 14:-0.996911 15:-0.843338 16:-0.954989 17:-0.871375 18:-0.966565 19:-0.907446 20:-0.944523 21:-0.93894 22:-0.934872 23:-0.932623 24:-0.918438 25:-0.928958 26:-0.936424 27:-0.930618 28:-0.938 29:-0.930714 30:-0.92382 31:-0.93539 32:-0.921736 33:-0.951485 34:-0.979668 35:-0.999765 36:-0.996699 37:-0.994612 38:-0.987405 39:-0.983765 40:-0.987291 41:-0.985963 42:-0.980127 43:-0.969594 44:-0.928132 45:-0.902834 46:-0.885617 47:-0.86578 48:-0.907494 49:-0.89404 50:-0.912797 51:-0.927419 52:-0.941388 53:-0.977802 54:-0.986266 55:-0.992134 56:-0.995187 57:-1 58:-1 59:-1 60:-0.983231 61:-0.906144 
2.659812412093116 1:-0.92495 2:-0.829869 3:-0.931227 4:-0.294669 5:0.106107 6:-0.75406 7:0.126667 8:-0.901127 9:-0.993471 10:-0.440191 11:0.587576 12:-0.995906 13:-0.180103 14:-0.995401 15:-0.758259 16:-0.771443 17:-0.788178 18:-0.807649 19:-0.831866 20:-0.798948 21:-0.850559 22:-0.792311 23:-0.950319 24:-0.916735 25:-0.940759 26:-0.937761 27:-0.943792 28:-0.937054 29:-0.953577 30:-0.921562 31:-0.946502 32:-0.920417 33:-0.95706 34:-0.979067 35:-0.969022 36:-0.886301 37:-0.990621 38:-1 39:-1 40:-1 41:-1 42:-1 43:-0.999379 44:-0.999054 45:-1 46:-1 47:-1 48:-1 49:-1 50:-1 51:-1 52:-1 53:-1 54:-1 55:-1 56:-1 57:-1 58:-1 59:-0.971831 60:-0.958126 61:-0.905084 
2.592530428489761 1:-0.945444 2:-0.853513 3:-0.951394 4:-0.276618 5:0.0810654 6:-0.76319 7:0.165485 8:-0.955278 9:-0.999223 10:-0.440135 11:0.587655 12:-0.997338 13:-0.180094 14:-0.997617 15:-0.936436 16:-0.913737 17:-0.953805 18:-0.895591 19:-0.973552 20:-0.950694 21:-0.967188 22:-0.974298 23:-0.938001 24:-0.940649 25:-0.940785 26:-0.872475 27:-0.920942 28:-0.877277 29:-0.926892 30:-0.97531 31:-0.930034 32:-0.960257 33:-0.947683 34:-0.977194 35:-0.999529 36:-0.996699 37:-0.99541 38:-0.989257 39:-0.9801 40:-0.989967 41:-0.985963 42:-0.982675 43:-0.977661 44:-0.955556 45:-0.930596 46:-0.924122 47:-0.917775 48:-0.934426 49:-0.92655 50:-0.9547 51:-0.952765 52:-0.960526 53:-0.961154 54:-0.977682 55:-0.988201 56:-0.99278 57:-1 58:-1 59:-1 60:-0.981642 61:-0.904569 
1.118105525108614 1:-0.964454 2:-0.852145 3:-0.964728 4:-0.265135 5:0.0491229 6:-0.765692 7:0.240452 8:-0.999312 9:-0.999572 10:-0.440126 11:0.587563 12:-0.99945 13:-0.180236 14:-0.999457 15:-0.943902 16:-0.934116 17:-0.94511 18:-0.949026 19:-0.908798 20:-0.946136 21:-0.898213 22:-0.943571 23:-0.945565 24:-0.959388 25:-0.952395 26:-0.952785 27:-0.952827 28:-0.967049 29:-0.934802 30:-0.973158 31:-0.948205 32:-0.97262 33:-0.950239 34:-0.973062 35:-0.999451 36:-0.997983 37:-0.996807 38:-0.994073 39:-0.987955 40:-0.989632 41:-0.986416 42:-0.991338 43:-0.98821 44:-0.987707 45:-0.978022 46:-0.98188 47:-0.962515 48:-0.974239 49:-0.965081 50:-0.961495 51:-0.970046 52:-0.965311 53:-0.974473 54:-0.951931 55:-0.970501 56:-0.963899 57:-0.925 58:-0.914163 59:-0.774648 60:-0.979768 61:-0.912634 
1.672089957298615 1:-0.953076 2:-0.852145 3:-0.96181 4:-0.26685 5:0.0670284 6:-0.763158 7:0.193063 8:-0.983296 9:-0.999408 10:-0.440109 11:0.587619 12:-0.997994 13:-0.180087 14:-0.99814 15:-0.962953 16:-0.955939 17:-0.97156 18:-0.938954 19:-0.984232 20:-0.975544 21:-0.980202 22:-0.974024 23:-0.93752 24:-0.938502 25:-0.868029 26:-0.928232 27:-0.890858 28:-0.939727 29:-0.947113 30:-0.953036 31:-0.907842 32:-0.967589 33:-0.948556 34:-0.973062 35:-0.999216 36:-0.997799 37:-0.995809 38:-0.994073 39:-0.986384 40:-0.988294 41:-0.985511 42:-0.98879 43:-0.981384 44:-0.981087 45:-0.972238 46:-0.978482 47:-0.954051 48:-0.962529 49:-0.954244 50:-0.94111 51:-0.951613 52:-0.944976 53:-0.953385 54:-0.934764 55:-0.960669 56:-0.961492 57:-0.925 58:-0.914163 59:-0.774648 60:-0.980665 61:-0.910919 
4.092952222967682 1:-0.959295 2:-0.859256 3:-0.970628 4:-0.259149 5:0.0496703 6:-0.763084 7:0.239145 8:-0.998827 9:-0.999136 10:-0.440127 11:0.587612 12:-0.99943 13:-0.180116 14:-0.999386 15:-0.941006 16:-0.93229 17:-0.939626 18:-0.953193 19:-0.913523 20:-0.930839 21:-0.858437 22:-0.921847 23:-0.912989 24:-0.936612 25:-0.950127 26:-0.94555 27:-0.942891 28:-0.957934 29:-0.917904 30:-0.967192 31:-0.937551 32:-0.960814 33:-0.961979 34:-0.974824 35:-0.999216 36:-0.996332 37:-0.994811 38:-0.990369 39:-0.981671 40:-0.988294 41:-0.984152 42:-0.983185 43:-0.98883 44:-0.973522 45:-0.956044 46:-0.970555 47:-0.967352 48:-0.969555 49:-0.965081 50:-0.970555 51:-0.968894 52:-0.970096 53:-0.981132 54:-0.967382 55:-0.968535 56:-0.963899 57:-0.941667 58:-0.948498 59:-0.943662 60:-0.977965 61:-0.910407 
1.70861519288541 1:-0.95774 2:-0.87414 3:-0.973354 4:-0.255654 5:0.0491853 6:-0.765479 7:0.240721 8:-0.998491 9:-0.999112 10:-0.440135 11:0.587601 12:-0.999424 13:-0.180083 14:-0.999388 15:-0.955179 16:-0.937401 17:-0.935052 18:-0.944687 19:-0.934334 20:-0.933707 21:-0.928488 22:-0.957539 23:-0.90999 24:-0.889975 25:-0.864844 26:-0.887715 27:-0.87883 28:-0.889598 29:-0.912542 30:-0.931 31:-0.905492 32:-0.962499 33:-0.968663 34:-0.9622 35:-0.999608 36:-0.997066 37:-0.996208 38:-0.988146 39:-0.98586 40:-0.986957 41:-0.981435 42:-0.985732 43:-0.986348 44:-0.983924 45:-0.966455 46:-0.975085 47:-0.96977 48:-0.97541 49:-0.975918 50:-0.971687 51:-0.961982 52:-0.971292 53:-0.971143 54:-0.958798 55:-0.941003 56:-0.954272 57:-0.858333 58:-0.828326 59:-0.915493 60:-0.976308 61:-0.90583 
0.9368808095070215 1:-0.955973 2:-0.872135 3:-0.974849 4:-0.253448 5:0.0489115 6:-0.767929 7:0.241672 8:-0.99876 9:-0.999053 10:-0.440126 11:0.587614 12:-0.999371 13:-0.180097 14:-0.999321 15:-0.967197 16:-0.932532 17:-0.96515 18:-0.939714 19:-0.937326 20:-0.926582 21:-0.944304 22:-0.951167 23:-0.860495 24:-0.901397 25:-0.849686 26:-0.900498 27:-0.884642 28:-0.905127 29:-0.912618 30:-0.939175 31:-0.904977 32:-0.950162 33:-0.963651 34:-0.969885 35:-0.999529 36:-0.994682 37:-0.994412 38:-0.988146 39:-0.987431 40:-0.989632 41:-0.983247 42:-0.985223 43:-0.986969 44:-0.974468 45:-0.966455 46:-0.973952 47:-0.972189 48:-0.978923 49:-0.963877 50:-0.971687 51:-0.953917 52:-0.976077 53:-0.981132 54:-0.972532 55:-0.958702 56:-0.925391 57:-0.879167 58:-0.742489 59:-0.71831 60:-0.97613 61:-0.90966 
4.338563985622088 1:-0.956963 2:-0.862638 3:-0.973115 4:-0.256135 5:0.0491131 6:-0.763448 7:0.240948 8:-0.999228 9:-0.999324 10:-0.440132 11:0.587592 12:-0.999378 13:-0.180138 14:-0.999357 15:-0.960244 16:-0.923148 17:-0.964722 18:-0.941412 19:-0.901373 20:-0.91826 21:-0.893938 22:-0.93582 23:-0.931548 24:-0.941246 25:-0.947638 26:-0.943155 27:-0.913144 28:-0.940739 29:-0.8944 30:-0.929877 31:-0.917653 32:-0.937685 33:-0.965948 34:-0.954415 35:-0.998039 36:-0.996149 37:-0.994213 38:-0.988887 39:-0.987431 40:-0.992308 41:-0.986416 42:-0.986242 43:-0.980143 44:-0.978251 45:-0.954887 46:-0.962627 47:-0.957678 48:-0.957845 49:-0.966285 50:-0.962627 51:-0.964286 52:-0.964115 53:-0.983352 54:-0.965665 55:-0.968535 56:-0.971119 57:-0.941667 58:-0.957082 59:-0.971831 60:-0.978622 61:-0.913289 
1.266393809156083 1:-0.909685 2:-0.843956 3:-0.955966 4:-0.275201 5:0.0733458 6:-0.750237 7:0.179619 8:-0.972634 9:-0.997939 10:-0.44012 11:0.587421 12:-0.996791 13:-0.180135 14:-0.996913 15:-0.972259 16:-0.948835 17:-0.936961 18:-0.912795 19:-0.949416 20:-0.898016 21:-0.945611 22:-0.905303 23:-0.903456 24:-0.889797 25:-0.905373 26:-0.8747 27:-0.879993 28:-0.909665 29:-0.877148 30:-0.899914 31:-0.903663 32:-0.883905 33:-0.939063 34:-0.953503 35:-0.999059 36:-0.992114 37:-0.988825 38:-0.979996 39:-0.970673 40:-0.979933 41:-0.982341 42:-0.979108 43:-0.964009 44:-0.946099 45:-0.921342 46:-0.90034 47:-0.88029 48:-0.874707 49:-0.890427 50:-0.910532 51:-0.920507 52:-0.917464 53:-0.935627 54:-0.941631 55:-0.948869 56:-0.975933 57:-0.979167 58:-1 59:-0.943662 60:-0.978432 61:-0.905203 
0.9665294604406485 1:-0.888555 2:-0.955 3:-0.937182 4:-0.230268 5:0.0872177 6:-0.963911 7:0.20857 8:-0.950011 9:-0.992527 10:-0.446702 11:0.609335 12:-0.995971 13:-0.180195 14:-0.995557 15:-0.964302 16:-0.889943 17:-0.959662 18:-0.898153 19:-0.977184 20:-0.909178 21:-0.830449 22:-0.741079 23:-0.806456 24:-0.732342 25:-0.901317 26:-0.854738 27:-0.921987 28:-0.872096 29:-0.918789 30:-0.873671 31:-0.911036 32:-0.879446 33:-0.925174 34:-0.95883 35:-0.995138 36:-0.980745 37:-0.98164 38:-0.961104 39:-0.960723 40:-0.984281 41:-0.978719 42:-0.979618 43:-0.962768 44:-0.937589 45:-0.915558 46:-0.911665 47:-0.89601 48:-0.905152 49:-0.902468 50:-0.926387 51:-0.900922 52:-0.901914 53:-0.931188 54:-0.922747 55:-0.92527 56:-0.918171 57:-0.858333 58:-0.828326 59:-0.549296 60:-0.977405 61:-0.922507 
0.6411839913902883 1:-0.886506 2:-0.954906 3:-0.937943 4:-0.228674 5:0.0890469 6:-0.966593 7:0.208066 8:-0.944754 9:-0.993343 10:-0.440101 11:0.587452 12:-0.995849 13:-0.180134 14:-0.99559 15:-0.954312 16:-0.890073 17:-0.953166 18:-0.888404 19:-0.973927 20:-0.899138 21:-0.902441 22:-0.759454 23:-0.78557 24:-0.75485 25:-0.884803 26:-0.875114 27:-0.913523 28:-0.862064 29:-0.922348 30:-0.842947 31:-0.904025 32:-0.86223 33:-0.919782 34:-0.960947 35:-0.993099 36:-0.979094 37:-0.984634 38:-0.960363 39:-0.96177 40:-0.982943 41:-0.984152 42:-0.983694 43:-0.974558 44:-0.923404 45:-0.901677 46:-0.92752 47:-0.91052 48:-0.867681 49:-0.860325 50:-0.879955 51:-0.898618 52:-0.912679 53:-0.924528 54:-0.92618 55:-0.915438 56:-0.944645 57:-0.958333 58:-0.974249 59:-0.971831 60:-0.977371 61:-0.919896 
1.853005908224199 1:-0.887142 2:-0.954924 3:-0.938317 4:-0.227441 5:0.0891967 6:-0.968694 7:0.208832 8:-0.943261 9:-0.993339 10:-0.440167 11:0.587665 12:-0.995947 13:-0.180052 14:-0.995752 15:-0.949273 16:-0.905738 17:-0.9507 18:-0.890611 19:-0.957477 20:-0.893112 21:-0.901653 22:-0.750131 23:-0.782051 24:-0.774673 25:-0.879101 26:-0.886596 27:-0.907805 28:-0.883987 29:-0.922131 30:-0.825859 31:-0.909502 32:-0.854116 33:-0.90844 34:-0.947613 35:-0.994824 36:-0.980194 37:-0.982439 38:-0.958881 39:-0.957057 40:-0.986957 41:-0.981435 42:-0.974522 43:-0.964629 44:-0.932861 45:-0.898207 46:-0.911665 47:-0.882709 48:-0.820843 49:-0.842264 50:-0.906002 51:-0.945853 52:-0.961722 53:-0.955605 54:-0.92103 55:-0.911504 56:-0.939832 57:-0.920833 58:-0.982833 59:-0.971831 60:-0.97672 61:-0.917689 
0.3129607091423968 1:-0.891806 2:-0.95491 3:-0.933705 4:-0.223866 5:0.0901696 6:-0.976646 7:0.212964 8:-0.941837 9:-0.994474 10:-0.440093 11:0.587721 12:-0.995518 13:-0.179672 14:-0.995761 15:-0.948004 16:-0.837906 17:-0.951788 18:-0.849279 19:-0.96515 20:-0.865735 21:-0.826726 22:-0.802843 23:-0.783452 24:-0.794572 25:-0.943652 26:-0.86371 27:-0.966527 28:-0.874509 29:-0.96124 30:-0.882459 31:-0.913392 32:-0.885578 33:-0.942806 34:-0.927141 35:-0.996314 36:-0.982578 37:-0.989423 38:-0.955177 39:-0.959675 40:-0.973913 41:-0.976455 42:-0.973503 43:-0.966491 44:-0.918676 45:-0.876229 46:-0.906002 47:-0.869407 48:-0.871194 49:-0.866346 50:-0.908267 51:-0.930876 52:-0.982057 53:-0.976693 54:-0.967382 55:-0.93707 56:-0.954272 57:-0.866667 58:-0.862661 59:-0.859155 60:-0.976218 61:-0.91553 
0.8362433361873843 1:-0.89541 2:-0.954711 3:-0.93085 4:-0.213995 5:0.0944166 6:-0.989334 7:0.219798 8:-0.938494 9:-0.995759 10:-0.440039 11:0.587784 12:-0.995437 13:-0.180208 14:-0.995402 15:-0.92835 16:-0.743746 17:-0.912616 18:-0.813949 19:-0.914957 20:-0.864909 21:-0.864847 22:-0.906359 23:-0.820789 24:-0.920244 25:-0.888357 26:-0.927862 27:-0.91461 28:-0.924764 29:-0.9208 30:-0.937875 31:-0.9282 32:-0.898599 33:-0.973796 34:-0.932309 35:-0.995687 36:-0.98753 37:-0.988226 38:-0.98296 39:-0.968578 40:-0.98194 41:-0.978266 42:-0.973503 43:-0.964009 44:-0.936643 45:-0.892423 46:-0.90487 47:-0.912938 48:-0.88993 49:-0.881999 50:-0.875425 51:-0.902074 52:-0.930622 53:-0.951165 54:-0.955365 55:-0.941003 56:-0.910951 57:-0.854167 58:-0.665236 59:-0.690141 60:-0.976436 61:-0.910668 
0.7629619269208199 1:-0.896541 2:-0.94587 3:-0.933156 4:-0.173968 5:0.0910548 6:-0.990447 7:0.253157 8:-0.945628 9:-0.996515 10:-0.440034 11:0.588018 12:-0.995313 13:-0.180045 14:-0.995388 15:-0.951168 16:-0.760662 17:-0.915084 18:-0.803411 19:-0.922433 20:-0.852268 21:-0.940491 22:-0.900537 23:-0.928681 24:-0.897473 25:-0.950112 26:-0.890361 27:-0.946784 28:-0.900526 29:-0.959681 30:-0.91326 31:-0.950348 32:-0.895617 33:-0.975253 34:-0.929835 35:-0.993648 36:-0.985879 37:-0.992217 38:-0.985923 39:-0.97172 40:-0.981271 41:-0.975549 42:-0.97707 43:-0.966491 44:-0.933806 45:-0.89358 46:-0.894677 47:-0.862152 48:-0.834895 49:-0.82059 50:-0.88675 51:-0.948157 52:-0.958134 53:-0.967814 54:-0.958798 55:-0.950836 56:-0.944645 57:-0.9125 58:-0.93133 59:-1 60:-0.97792 61:-0.914038 
0.4660616562147997 1:-0.894562 2:-0.911106 3:-0.918924 4:-0.139221 5:0.0957253 6:-0.941205 7:0.277712 8:-0.944798 9:-0.996164 10:-0.440111 11:0.587506 12:-0.994914 13:-0.180087 14:-0.99496 15:-0.924539 16:-0.746571 17:-0.957437 18:-0.808613 19:-0.953715 20:-0.838788 21:-0.960589 22:-0.874911 23:-0.941417 24:-0.891993 25:-0.948227 26:-0.901728 27:-0.953275 28:-0.909925 29:-0.94361 30:-0.928035 31:-0.937408 32:-0.908294 33:-0.949555 34:-0.94747 35:-0.994667 36:-0.993031 37:-0.992018 38:-0.988146 39:-0.964912 40:-0.98194 41:-0.97736 42:-0.974013 43:-0.96587 44:-0.929078 45:-0.877386 46:-0.883352 47:-0.844015 48:-0.836066 49:-0.829019 50:-0.907135 51:-0.922811 52:-0.953349 53:-0.963374 54:-0.951931 55:-0.956735 56:-0.954272 57:-0.916667 58:-0.854077 59:-0.492958 60:-0.979169 61:-0.913716 
0.180634229979925 1:-0.889474 2:-0.840031 3:-0.866475 4:-0.0926067 5:0.0959897 6:-0.878627 7:0.282614 8:-0.962995 9:-0.996128 10:-0.440113 11:0.587151 12:-0.994526 13:-0.180157 14:-0.994883 15:-0.894991 16:-0.772868 17:-0.932698 18:-0.830619 19:-0.952654 20:-0.869836 21:-0.961942 22:-0.904041 23:-0.923907 24:-0.913895 25:-0.896934 26:-0.929246 27:-0.858948 28:-0.934395 29:-0.848935 30:-0.924543 31:-0.875884 32:-0.916469 33:-0.927697 34:-0.962576 35:-0.992628 36:-0.981845 37:-0.990222 38:-0.981108 39:-0.969102 40:-0.983278 41:-0.981435 42:-0.976051 43:-0.949116 44:-0.925296 45:-0.89358 46:-0.883352 47:-0.874244 48:-0.850117 49:-0.86755 50:-0.921857 51:-0.950461 52:-0.946172 53:-0.965594 54:-0.967382 55:-0.921337 56:-0.89651 57:-0.85 58:-0.639485 59:-0.690141 60:-0.976133 61:-0.916046 
0.9359062805426287 1:-0.887707 2:-0.818844 3:-0.854956 4:-0.0768445 5:0.0900778 6:-0.851249 7:0.279172 8:-0.975503 9:-0.997403 10:-0.440124 11:0.599069 12:-0.995058 13:-0.183922 14:-0.995336 15:-0.949013 16:-0.941458 17:-0.915752 18:-0.901895 19:-0.918273 20:-0.947048 21:-0.919021 22:-0.967827 23:-0.897012 24:-0.958453 25:-0.884376 26:-0.921364 27:-0.876792 28:-0.936497 29:-0.846161 30:-0.939954 31:-0.869534 32:-0.927357 33:-0.931764 34:-0.960589 35:-0.995451 36:-0.985879 37:-0.987827 38:-0.982589 39:-0.971197 40:-0.985284 41:-0.978719 42:-0.97758 43:-0.958424 44:-0.932861 45:-0.901677 46:-0.893545 47:-0.852479 48:-0.86534 49:-0.877182 50:-0.874292 51:-0.900922 52:-0.923445 53:-0.956715 54:-0.91073 55:-0.913471 56:-0.886883 57:-0.845833 58:-0.828326 59:-0.915493 60:-0.976139 61:-0.907011 
0.06611479618073959 1:-0.886364 2:-0.792342 3:-0.849291 4:-0.062209 5:0.096103 6:-0.818892 7:0.289402 8:-0.967862 9:-0.996367 10:-0.440116 11:0.5872 12:-0.995243 13:-0.182578 14:-0.995466 15:-0.923833 16:-0.825669 17:-0.916098 18:-0.854445 19:-0.916371 20:-0.912546 21:-0.888116 22:-0.941625 23:-0.862902 24:-0.93874 25:-0.877779 26:-0.941568 27:-0.879461 28:-0.957931 29:-0.853904 30:-0.92765 31:-0.876034 32:-0.917917 33:-0.933903 34:-0.959284 35:-0.995216 36:-0.98698 37:-0.982638 38:-0.971476 39:-0.972768 40:-0.983278 41:-0.974191 42:-0.974522 43:-0.968352 44:-0.936643 45:-0.902834 46:-0.87769 47:-0.885127 48:-0.893443 49:-0.914509 50:-0.924122 51:-0.89977 52:-0.925837 53:-0.938957 54:-0.91588 55:-0.864307 56:-0.862816 57:-0.758333 58:-0.828326 59:-0.577465 60:-0.974823 61:-0.906401 
1.363326068055403 1:-0.889333 2:-0.77411 3:-0.846549 4:-0.0485111 5:0.097876 6:-0.783183 7:0.295961 8:-0.967598 9:-0.996792 10:-0.440119 11:0.58749 12:-0.995498 13:-0.180127 14:-0.995626 15:-0.918679 16:-0.948934 17:-0.902659 18:-0.916318 19:-0.898991 20:-0.929508 21:-0.865411 22:-0.929565 23:-0.865207 24:-0.942179 25:-0.84981 26:-0.955058 27:-0.865908 28:-0.938072 29:-0.863834 30:-0.938498 31:-0.883046 32:-0.919354 33:-0.937991 34:-0.9608 35:-0.994275 36:-0.982578 37:-0.979844 38:-0.975181 39:-0.969626 40:-0.97893 41:-0.971474 42:-0.974522 43:-0.952839 44:-0.940426 45:-0.93985 46:-0.943375 47:-0.937122 48:-0.936768 49:-0.907285 50:-0.9094 51:-0.900922 52:-0.915072 53:-0.942286 54:-0.938197 55:-0.895772 56:-0.838748 57:-0.691667 58:-0.613734 59:-0.690141 60:-0.973147 61:-0.909952 
0.2316385932465631 1:-0.895693 2:-0.764714 3:-0.849142 4:-0.0442976 5:0.100388 6:-0.766646 7:0.301854 8:-0.962864 9:-0.996144 10:-0.44005 11:0.588063 12:-0.996095 13:-0.180143 14:-0.996115 15:-0.896917 16:-0.83057 17:-0.894249 18:-0.869082 19:-0.900179 20:-0.916708 21:-0.879992 22:-0.922632 23:-0.844679 24:-0.90399 25:-0.837388 26:-0.914247 27:-0.853871 28:-0.961636 29:-0.869352 30:-0.977534 31:-0.885894 32:-0.951758 33:-0.941591 34:-0.978869 35:-0.99451 36:-0.982212 37:-0.986629 38:-0.973328 39:-0.972768 40:-0.98194 41:-0.979624 42:-0.961783 43:-0.964009 44:-0.930024 45:-0.89705 46:-0.925255 47:-0.929867 48:-0.942623 49:-0.92053 50:-0.929785 51:-0.929724 52:-0.921053 53:-0.967814 54:-0.924464 55:-0.824975 56:-0.843562 57:-0.8 58:-0.83691 59:-0.887324 60:-0.973454 61:-0.909072 
0.4509100925306084 1:-0.905374 2:-0.740689 3:-0.858388 4:-0.0348327 5:0.096117 6:-0.718339 7:0.304364 8:-0.966574 9:-0.99704 10:-0.441632 11:0.564751 12:-0.996132 13:-0.180103 14:-0.996272 15:-0.916564 16:-0.927462 17:-0.914556 18:-0.942102 19:-0.91585 20:-0.955909 21:-0.904862 22:-0.961964 23:-0.864384 24:-0.873769 25:-0.850424 26:-0.877993 27:-0.846241 28:-0.893075 29:-0.867306 30:-0.943475 31:-0.878873 32:-0.942513 33:-0.941371 34:-0.972512 35:-0.998667 36:-0.993031 37:-0.988425 38:-0.969994 39:-0.964912 40:-0.983946 41:-0.98053 42:-0.976561 43:-0.970214 44:-0.933806 45:-0.920185 46:-0.91846 47:-0.908102 48:-0.920375 49:-0.898856 50:-0.93205 51:-0.929724 52:-0.940191 53:-0.955605 54:-0.934764 55:-0.921337 56:-0.843562 57:-0.791667 58:-0.67382 59:-0.577465 60:-0.975497 61:-0.903663 
1.47383242633194 1:-0.926999 2:-0.706272 3:-0.83974 4:-0.00206185 5:0.0968098 6:-0.639594 7:0.309476 8:-0.965174 9:-0.996577 10:-0.440107 11:0.587402 12:-0.997588 13:-0.180086 14:-0.997701 15:-0.863559 16:-0.761625 17:-0.877659 18:-0.761111 19:-0.918338 20:-0.795346 21:-0.92845 22:-0.848316 23:-0.932753 24:-0.877496 25:-0.931169 26:-0.902479 27:-0.921272 28:-0.902942 29:-0.929181 30:-0.931949 31:-0.90808 32:-0.957113 33:-0.941873 34:-0.98867 35:-0.998667 36:-0.993031 37:-0.992217 38:-0.98296 39:-0.964389 40:-0.979599 41:-0.971927 42:-0.969427 43:-0.96525 44:-0.950827 45:-0.93985 46:-0.9547 47:-0.933495 48:-0.930913 49:-0.918122 50:-0.939977 51:-0.958525 52:-0.956938 53:-0.970033 54:-0.950215 55:-0.954769 56:-0.927798 57:-0.945833 58:-0.939914 59:-0.746479 60:-0.978171 61:-0.915906 
0.01253485220378631 1:-0.922476 2:-0.708121 3:-0.838682 4:0.00031836 5:0.101226 6:-0.632501 7:0.316901 8:-0.960952 9:-0.997102 10:-0.440104 11:0.587648 12:-0.997123 13:-0.180139 14:-0.997329 15:-0.955753 16:-0.96887 17:-0.959087 18:-0.962434 19:-0.881153 20:-0.851687 21:-0.897596 22:-0.817109 23:-0.905876 24:-0.80157 25:-0.913683 26:-0.865753 27:-0.917783 28:-0.905042 29:-0.914611 30:-0.931292 31:-0.914351 32:-0.945418 33:-0.936433 34:-0.988153 35:-0.998745 36:-0.994498 37:-0.991618 38:-0.983701 39:-0.971197 40:-0.983278 41:-0.962418 42:-0.961783 43:-0.970214 44:-0.943262 45:-0.931752 46:-0.926387 47:-0.916566 48:-0.915691 49:-0.914509 50:-0.92299 51:-0.945853 52:-0.954545 53:-0.967814 54:-0.953648 55:-0.966568 56:-0.961492 57:-0.941667 58:-0.974249 59:-0.943662 60:-0.978405 61:-0.909139 
0.8384157638312445 1:-0.924738 2:-0.714916 3:-0.827268 4:-0.00994857 5:0.138281 6:-0.693308 7:0.358336 8:-0.905523 9:-0.997555 10:-0.4401 11:0.587633 12:-0.99798 13:-0.18006 14:-0.997953 15:-0.951801 16:-0.966362 17:-0.954081 18:-0.975579 19:-0.9462 20:-0.954532 21:-0.84435 22:-0.893641 23:-0.857118 24:-0.893743 25:-0.88563 26:-0.888545 27:-0.905989 28:-0.896233 29:-0.923271 30:-0.95036 31:-0.924584 32:-0.97416 33:-0.944421 34:-0.973884 35:-0.994981 36:-0.986613 37:-0.990621 38:-0.986664 39:-0.982194 40:-0.986288 41:-0.979171 42:-0.971465 43:-0.96587 44:-0.951773 45:-0.951417 46:-0.96376 47:-0.948005 48:-0.935597 49:-0.922938 50:-0.92299 51:-0.925115 52:-0.929426 53:-0.952275 54:-0.962232 55:-0.970501 56:-0.942238 57:-0.954167 58:-0.939914 59:-0.577465 60:-0.975911 61:-0.914494 
0.1963741283850895 1:-0.924738 2:-0.727518 3:-0.834721 4:-0.0152507 5:0.138777 6:-0.697257 7:0.36106 8:-0.899852 9:-0.997884 10:-0.440138 11:0.587567 12:-0.997663 13:-0.180023 14:-0.997742 15:-0.955656 16:-0.976104 17:-0.954041 18:-0.952131 19:-0.84556 20:-0.936219 21:-0.836928 22:-0.877874 23:-0.861401 24:-0.859613 25:-0.91149 26:-0.866127 27:-0.932624 28:-0.931611 29:-0.939778 30:-0.950603 31:-0.93726 32:-0.97269 33:-0.938358 34:-0.97592 35:-0.996863 36:-0.98808 37:-0.988026 38:-0.985923 39:-0.9801 40:-0.989632 41:-0.983699 42:-0.976051 43:-0.968973 44:-0.951773 45:-0.951417 46:-0.951302 47:-0.946796 48:-0.942623 49:-0.913305 50:-0.929785 51:-0.917051 52:-0.909091 53:-0.938957 54:-0.957082 55:-0.948869 56:-0.956679 57:-0.945833 58:-0.93133 59:-0.802817 60:-0.977172 61:-0.916029 
1.234618936238293 1:-0.93343 2:-0.723722 3:-0.835596 4:-0.017196 5:0.136805 6:-0.702131 7:0.357678 8:-0.905567 9:-0.998515 10:-0.440119 11:0.587591 12:-0.997916 13:-0.180036 14:-0.997945 15:-0.95679 16:-0.972548 17:-0.958532 18:-0.980938 19:-0.833968 20:-0.974596 21:-0.829349 22:-0.924298 23:-0.872002 24:-0.94312 25:-0.904883 26:-0.954569 27:-0.927434 28:-0.94346 29:-0.939954 30:-0.952771 31:-0.943359 32:-0.9706 33:-0.938146 34:-0.973579 35:-0.995059 36:-0.991198 37:-0.989822 38:-0.989257 39:-0.991097 40:-0.989632 41:-0.978719 42:-0.978089 43:-0.978281 44:-0.968794 45:-0.952574 46:-0.96829 47:-0.949214 48:-0.944965 49:-0.915713 50:-0.92299 51:-0.923963 52:-0.940191 53:-0.946726 54:-0.950215 55:-0.962635 56:-0.963899 57:-0.9375 58:-0.939914 59:-0.915493 60:-0.976068 61:-0.913173 
1.395200332899756 1:-0.908978 2:-0.728742 3:-0.840774 4:-0.0214759 5:0.146325 6:-0.708231 7:0.371399 8:-0.876964 9:-0.996856 10:-0.44015 11:0.587525 12:-0.997972 13:-0.180212 14:-0.998004 15:-0.890114 16:-0.97 17:-0.893132 18:-0.967018 19:-0.902519 20:-0.949914 21:-0.88903 22:-0.868197 23:-0.89061 24:-0.897553 25:-0.87544 26:-0.93754 27:-0.872178 28:-0.969397 29:-0.863078 30:-0.969029 31:-0.880971 32:-0.922231 33:-0.940759 34:-0.95408 35:-0.99749 36:-0.98698 37:-0.983636 38:-0.980737 39:-0.968578 40:-0.985953 41:-0.976455 42:-0.974522 43:-0.961527 44:-0.918676 45:-0.907461 46:-0.89128 47:-0.877872 48:-0.881733 49:-0.885611 50:-0.916195 51:-0.955069 52:-0.962919 53:-0.972253 54:-0.962232 55:-0.970501 56:-0.975933 57:-0.975 58:-0.974249 59:-0.887324 60:-0.978824 61:-0.917607 
1.848557533728979 1:-0.939931 2:-0.778298 3:-0.863388 4:-0.0420124 5:0.0601944 6:-0.736182 7:0.251652 8:-0.995946 9:-0.99775 10:-0.440096 11:0.587649 12:-0.998861 13:-0.180116 14:-0.998736 15:-0.987136 16:-0.977692 17:-0.978995 18:-0.977201 19:-0.982656 20:-0.980056 21:-0.97814 22:-0.963734 23:-0.956898 24:-0.965958 25:-0.807583 26:-0.876019 27:-0.806912 28:-0.894803 29:-0.871736 30:-0.937572 31:-0.896818 32:-0.938616 33:-0.944493 34:-0.965725 35:-0.994197 36:-0.986246 37:-0.989423 38:-0.983701 39:-0.985336 40:-0.986622 41:-0.984152 42:-0.987261 43:-0.985107 44:-0.964066 45:-0.957201 46:-0.970555 47:-0.941959 48:-0.943794 49:-0.94702 50:-0.94564 51:-0.964286 52:-0.966507 53:-0.962264 54:-0.958798 55:-0.970501 56:-0.971119 57:-0.970833 58:-0.914163 59:-0.859155 60:-0.976423 61:-0.927479 
0.9265939838866141 1:-0.885304 2:-0.778298 3:-0.85235 4:-0.0337468 5:0.111173 6:-0.72637 7:0.323156 8:-0.943407 9:-0.994644 10:-0.440124 11:0.587591 12:-0.995442 13:-0.180018 14:-0.995491 15:-0.8861 16:-0.952414 17:-0.892515 18:-0.949558 19:-0.867571 20:-0.815287 21:-0.872889 22:-0.831813 23:-0.890236 24:-0.953953 25:-0.806161 26:-0.903879 27:-0.77864 28:-0.880546 29:-0.856721 30:-0.931357 31:-0.893462 32:-0.928795 33:-0.921486 34:-0.949598 35:-0.993491 36:-0.981845 37:-0.98184 38:-0.970365 39:-0.966483 40:-0.974916 41:-0.972832 42:-0.975032 43:-0.964009 44:-0.935697 45:-0.917872 46:-0.926387 47:-0.892382 48:-0.895785 49:-0.885611 50:-0.860702 51:-0.865207 52:-0.899522 53:-0.915649 54:-0.934764 55:-0.964602 56:-0.971119 57:-0.970833 58:-0.914163 59:-0.859155 60:-0.978175 61:-0.921663 
0.1250828841538186 1:-0.896046 2:-0.779279 3:-0.858905 4:-0.0410137 5:0.0968419 6:-0.738623 7:0.303046 8:-0.965695 9:-0.995998 10:-0.440151 11:0.587754 12:-0.995642 13:-0.179974 14:-0.995661 15:-0.906528 16:-0.918772 17:-0.900282 18:-0.917995 19:-0.918734 20:-0.923951 21:-0.923395 22:-0.932758 23:-0.897507 24:-0.946123 25:-0.825604 26:-0.931795 27:-0.789374 28:-0.798581 29:-0.857339 30:-0.9321 31:-0.889994 32:-0.936189 33:-0.942875 34:-0.962419 35:-0.994432 36:-0.985146 37:-0.989224 38:-0.978144 39:-0.968578 40:-0.984281 41:-0.979624 42:-0.970446 43:-0.970214 44:-0.947045 45:-0.934066 46:-0.9094 47:-0.857316 48:-0.875878 49:-0.861529 50:-0.88222 51:-0.913594 52:-0.92823 53:-0.952275 54:-0.924464 55:-0.93117 56:-0.915764 57:-0.929167 58:-0.957082 59:-0.971831 60:-0.97715 61:-0.9121 
8 1:-0.962616 2:-0.903349 3:-0.966317 4:-0.137869 5:0.101128 6:-0.85503 7:0.346669 8:-0.83906 9:-0.999159 10:-0.440134 11:0.58758 12:-0.999559 13:-0.180133 14:-0.999536 15:-0.897312 16:-0.875482 17:-0.889137 18:-0.850511 19:-0.890106 20:-0.857527 21:-1 22:-1 23:-0.963254 24:-0.950521 25:-0.936869 26:-0.911069 27:-0.93179 28:-0.906143 29:-0.935839 30:-0.916438 31:-0.939559 32:-0.915326 33:-0.935008 34:-0.926547 35:-0.991452 36:-0.973776 37:-0.988226 38:-0.983701 39:-0.980623 40:-0.989632 41:-0.982794 42:-0.983694 43:-0.98883 44:-0.988652 45:-0.99653 46:-0.996602 47:-0.998791 48:-1 49:-1 50:-1 51:-0.998848 52:-1 53:-1 54:-1 55:-1 56:-1 57:-1 58:-1 59:-0.971831 60:-0.969032 61:-0.929547 
0.9654800317083315 1:-0.895763 2:-0.805317 3:-0.879935 4:-0.0700171 5:0.103837 6:-0.798151 7:0.309443 8:-0.948688 9:-0.997248 10:-0.440126 11:0.587458 12:-0.99566 13:-0.180127 14:-0.995823 15:-0.880554 16:-0.93055 17:-0.876048 18:-0.935059 19:-0.89233 20:-0.944759 21:-0.898006 22:-0.945548 23:-0.880628 24:-0.872736 25:-0.882555 26:-0.869609 27:-0.911427 28:-0.964168 29:-0.901045 30:-0.970928 31:-0.907302 32:-0.947435 33:-0.946091 34:-0.961225 35:-0.996392 36:-0.987346 37:-0.985432 38:-0.982219 39:-0.97591 40:-0.983278 41:-0.976455 42:-0.970446 43:-0.959665 44:-0.932861 45:-0.888953 46:-0.89581 47:-0.877872 48:-0.834895 49:-0.845876 50:-0.911665 51:-0.908986 52:-0.940191 53:-0.957825 54:-0.945064 55:-0.935103 56:-0.959085 57:-0.958333 58:-0.974249 59:-0.943662 60:-0.978641 61:-0.912998 
0.04586597081667421 1:-0.89753 2:-0.822312 3:-0.888744 4:-0.0786783 5:0.101886 6:-0.811229 7:0.307198 8:-0.947198 9:-0.99661 10:-0.440299 11:0.579384 12:-0.995585 13:-0.180123 14:-0.995755 15:-0.859954 16:-0.889412 17:-0.862485 18:-0.913155 19:-0.888925 20:-0.938421 21:-0.898438 22:-0.960256 23:-0.871253 24:-0.860739 25:-0.882864 26:-0.812591 27:-0.900948 28:-0.934435 29:-0.900281 30:-0.969168 31:-0.904408 32:-0.945229 33:-0.945384 34:-0.96138 35:-0.995687 36:-0.98863 37:-0.989224 38:-0.985923 39:-0.96596 40:-0.982609 41:-0.975549 42:-0.979108 43:-0.975799 44:-0.927187 45:-0.902834 46:-0.88222 47:-0.839178 48:-0.891101 49:-0.892836 50:-0.889015 51:-0.882488 52:-0.90311 53:-0.966704 54:-0.957082 55:-0.948869 56:-0.975933 57:-0.920833 58:-0.862661 59:-0.830986 60:-0.978455 61:-0.912654 
5.080287118671981 1:-0.878874 2:-0.949833 3:-0.930406 4:-0.191136 5:0.0826935 6:-0.999478 7:0.238746 8:-0.966724 9:-0.996615 10:-0.440061 11:0.58763 12:-0.994835 13:-0.179902 14:-0.994973 15:-0.951899 16:-0.881401 17:-0.958011 18:-0.877669 19:-0.932278 20:-0.879877 21:-0.956131 22:-0.885837 23:-0.957974 24:-0.806867 25:-0.940541 26:-0.805253 27:-0.94117 28:-0.830497 29:-0.95188 30:-0.860861 31:-0.942691 32:-0.891983 33:-0.947133 34:-0.953336 35:-0.990981 36:-0.986063 37:-0.988026 38:-0.976662 39:-0.962294 40:-0.980268 41:-0.978266 42:-0.96586 43:-0.957803 44:-0.907329 45:-0.850781 46:-0.844847 47:-0.845224 48:-0.862998 49:-0.890427 50:-0.892412 51:-0.928571 52:-0.95933 53:-0.962264 54:-0.943348 55:-0.899705 56:-0.884477 57:-0.891667 58:-0.957082 59:-0.971831 60:-0.976572 61:-0.915903 
