svm_type c_svc
kernel_type rbf
gamma 8
nr_class 2
total_sv 4171
rho 0.982307
label 1 -1
nr_sv 614 3557
SV
2 1:-0.989188 2:-0.875561 3:-0.98449 4:-0.147545 5:0.0543489 6:-0.778797 7:0.253711 8:-0.997461 9:-0.999958 10:-0.44013 11:0.587583 12:-0.999847 13:-0.180106 14:-0.999859 15:-0.987883 16:-0.993981 17:-0.962879 18:-0.974808 19:-0.967965 20:-0.98416 21:-1 22:-1 23:-0.975699 24:-0.967393 25:-0.976224 26:-0.960066 27:-0.977038 28:-0.960166 29:-0.975954 30:-0.982121 31:-0.984252 32:-0.993171 33:-0.98102 34:-0.993916 35:-0.999843 36:-0.999083 37:-0.998404 38:-0.995184 39:-0.99581 40:-0.996656 41:-0.993208 42:-0.995414 43:-0.995656 44:-0.993381 45:-0.99306 46:-0.992072 47:-0.987908 48:-0.991803 49:-0.992775 50:-0.992072 51:-0.99424 52:-0.994019 53:-0.99556 54:-0.991416 55:-0.9941 56:-0.99278 57:-0.991667 58:-1 59:-0.943662 60:-0.988028 61:-0.949387 
2 1:-0.976043 2:-0.880827 3:-0.988539 4:-0.154731 5:0.038817 6:-0.79178 7:0.186666 8:-0.974783 9:-0.999628 10:-0.44013 11:0.587581 12:-0.99983 13:-0.180189 14:-0.999814 15:-0.977481 16:-0.954085 17:-0.97896 18:-0.95979 19:-0.9769 20:-0.956211 21:-0.977228 22:-0.964682 23:-0.98079 24:-0.962477 25:-0.935498 26:-0.958021 27:-0.904932 28:-0.943153 29:-0.874283 30:-0.957202 31:-0.874811 32:-0.934916 33:-0.89019 34:-0.942636 35:-0.999451 36:-0.997249 37:-0.996009 38:-0.994443 39:-0.988479 40:-0.99097 41:-0.990038 42:-0.989299 43:-0.98821 44:-0.987707 45:-0.989589 46:-0.978482 47:-0.990326 48:-0.981265 49:-0.984347 50:-0.988675 51:-0.987327 52:-0.983254 53:-0.986681 54:-0.981116 55:-0.988201 56:-0.990373 57:-0.929167 58:-0.948498 59:-0.859155 60:-0.982293 61:-0.939458 
2 1:-0.989682 2:-0.808472 3:-0.98738 4:-0.140376 5:0.031881 6:-0.653385 7:0.138466 8:-0.944883 9:-0.999903 10:-0.440175 11:0.587593 12:-0.999981 13:-0.180104 14:-0.999974 15:-0.94939 16:-0.987183 17:-0.95034 18:-0.948498 19:-0.951432 20:-0.934801 21:-0.955945 22:-0.932332 23:-0.951196 24:-0.930385 25:-0.966442 26:-0.980407 27:-0.980608 28:-0.981974 29:-0.985714 30:-0.984194 31:-0.994922 32:-0.982813 33:-0.989718 34:-0.989618 35:-0.999922 36:-0.99945 37:-0.998204 38:-0.995555 39:-0.990573 40:-0.993311 41:-0.986416 42:-0.993376 43:-0.996897 44:-0.995272 45:-0.994216 46:-0.997735 47:-0.986699 48:-0.998829 49:-0.997592 50:-0.998867 51:-0.995392 52:-0.997608 53:-0.99778 54:-0.99485 55:-1 56:-1 57:-1 58:-1 59:-1 60:-0.992488 61:-0.96367 
1.354736148078673 1:-0.966998 2:-0.881027 3:-0.989476 4:-0.156383 5:0.0366032 6:-0.790166 7:0.173636 8:-0.96057 9:-0.999438 10:-0.440128 11:0.587599 12:-0.999714 13:-0.180107 14:-0.999709 15:-0.978958 16:-0.948616 17:-0.975117 18:-0.955504 19:-0.977638 20:-0.949057 21:-0.981589 22:-0.95487 23:-0.935663 24:-0.957651 25:-0.903547 26:-0.928944 27:-0.867972 28:-0.930357 29:-0.849886 30:-0.93089 31:-0.930775 32:-0.936413 33:-0.935323 34:-0.957933 35:-0.998275 36:-0.993215 37:-0.99561 38:-0.990739 39:-0.989002 40:-0.98796 41:-0.987775 42:-0.98828 43:-0.98821 44:-0.982979 45:-0.975709 46:-0.97282 47:-0.968561 48:-0.980094 49:-0.968694 50:-0.97282 51:-0.983871 52:-0.983254 53:-0.988901 54:-0.9897 55:-0.984267 56:-0.978339 57:-0.983333 58:-0.914163 59:-0.802817 60:-0.981194 61:-0.938217 
2 1:-0.968623 2:-0.881118 3:-0.989586 4:-0.156625 5:0.0375269 6:-0.790523 7:0.177663 8:-0.965932 9:-0.999522 10:-0.440128 11:0.587579 12:-0.999738 13:-0.180087 14:-0.999719 15:-0.982907 16:-0.93928 17:-0.979863 18:-0.953052 19:-0.977921 20:-0.950157 21:-0.981464 22:-0.959026 23:-0.933556 24:-0.955815 25:-0.906019 26:-0.931056 27:-0.871943 28:-0.936528 29:-0.853763 30:-0.930116 31:-0.944925 32:-0.928493 33:-0.973865 34:-0.948075 35:-0.998902 36:-0.994865 37:-0.993015 38:-0.992962 39:-0.982194 40:-0.988963 41:-0.993208 42:-0.990318 43:-0.987589 44:-0.980142 45:-0.978022 46:-0.976217 47:-0.96977 48:-0.980094 49:-0.985551 50:-0.97282 51:-0.981567 52:-0.983254 53:-0.987791 54:-0.981116 55:-0.992134 56:-0.983153 57:-0.929167 58:-0.939914 59:-0.887324 60:-0.980986 61:-0.93756 
2 1:-0.987845 2:-0.812239 3:-0.987205 4:-0.140053 5:0.0318596 6:-0.653513 7:0.138989 8:-0.94528 9:-0.999875 10:-0.440131 11:0.587593 12:-0.999974 13:-0.180108 14:-0.999965 15:-0.954797 16:-0.987163 17:-0.944653 18:-0.965152 19:-0.946987 20:-0.930096 21:-0.949571 22:-0.919969 23:-0.9523 24:-0.944299 25:-0.959721 26:-0.968285 27:-0.962767 28:-0.98422 29:-0.970143 30:-0.982855 31:-0.977886 32:-0.969678 33:-0.98625 34:-0.98207 35:-0.999529 36:-0.9989 37:-0.997206 38:-0.996296 39:-0.991097 40:-0.992977 41:-0.991397 42:-0.991338 43:-0.995036 44:-0.992435 45:-0.988433 46:-0.996602 47:-0.989117 48:-1 49:-0.996388 50:-0.99547 51:-0.996544 52:-0.995215 53:-0.99778 54:-0.996567 55:-0.998033 56:-0.99278 57:-0.991667 58:-0.991416 59:-0.943662 60:-0.990216 61:-0.957201 
2 1:-0.98728 2:-0.811339 3:-0.987293 4:-0.140174 5:0.0312761 6:-0.652314 7:0.13528 8:-0.941327 9:-0.999879 10:-0.440131 11:0.587593 12:-0.99997 13:-0.180105 14:-0.999963 15:-0.953712 16:-0.988922 17:-0.944925 18:-0.957485 19:-0.947707 20:-0.93818 21:-0.948837 22:-0.922472 23:-0.949781 24:-0.929645 25:-0.949294 26:-0.96218 27:-0.961272 28:-0.972563 29:-0.962211 30:-0.981436 31:-0.973775 32:-0.96743 33:-0.979472 34:-0.977583 35:-0.999843 36:-0.998716 37:-0.998404 38:-0.996296 39:-0.989526 40:-0.993311 41:-0.990491 42:-0.992866 43:-0.989451 44:-0.992435 45:-0.99653 46:-0.992072 47:-0.991536 48:-0.992974 49:-0.997592 50:-0.99547 51:-0.995392 52:-0.992823 53:-0.99667 54:-0.993133 55:-0.9941 56:-0.995187 57:-0.991667 58:-0.991416 59:-0.943662 60:-0.989812 61:-0.954965 
2 1:-0.967916 2:-0.880851 3:-0.989568 4:-0.156579 5:0.0379519 6:-0.789168 7:0.179359 8:-0.96803 9:-0.999508 10:-0.440131 11:0.587574 12:-0.999702 13:-0.180111 14:-0.999684 15:-0.982265 16:-0.930165 17:-0.984167 18:-0.944673 19:-0.981441 20:-0.950692 21:-0.982718 22:-0.952826 23:-0.936939 24:-0.952189 25:-0.911612 26:-0.943207 27:-0.886215 28:-0.941925 29:-0.846821 30:-0.93099 31:-0.936336 32:-0.929075 33:-0.975578 34:-0.945322 35:-0.998039 36:-0.994865 37:-0.995809 38:-0.989998 39:-0.987431 40:-0.991973 41:-0.99185 42:-0.989299 43:-0.990692 44:-0.979196 45:-0.973395 46:-0.978482 47:-0.978235 48:-0.97541 49:-0.974714 50:-0.979615 51:-0.986175 52:-0.97488 53:-0.985572 54:-0.977682 55:-0.986234 56:-0.956679 57:-0.975 58:-0.914163 59:-0.661972 60:-0.980276 61:-0.934215 
2 1:-0.986432 2:-0.813492 3:-0.987294 4:-0.140168 5:0.0316679 6:-0.652075 7:0.137332 8:-0.943464 9:-0.999861 10:-0.440131 11:0.587594 12:-0.999965 13:-0.180104 14:-0.999959 15:-0.951206 16:-0.988407 17:-0.950244 18:-0.961993 19:-0.935762 20:-0.9303 21:-0.949637 22:-0.928827 23:-0.950784 24:-0.914562 25:-0.950067 26:-0.90938 27:-0.951249 28:-0.957465 29:-0.955893 30:-0.97408 31:-0.967843 32:-0.977542 33:-0.973952 34:-0.990884 35:-0.999608 36:-0.998166 37:-0.997007 38:-0.992221 39:-0.98586 40:-0.994649 41:-0.990038 42:-0.993885 43:-0.996277 44:-0.989598 45:-0.990746 46:-0.994337 47:-0.995163 48:-0.994145 49:-0.99398 50:-0.996602 51:-0.995392 52:-0.997608 53:-0.99667 54:-0.996567 55:-0.9941 56:-1 57:-0.991667 58:-0.982833 59:-0.943662 60:-0.988753 61:-0.956837 
2 1:-0.96728 2:-0.880982 3:-0.989385 4:-0.156276 5:0.0379045 6:-0.789414 7:0.179683 8:-0.96817 9:-0.999461 10:-0.440127 11:0.587599 12:-0.999691 13:-0.18008 14:-0.999671 15:-0.982335 16:-0.933391 17:-0.983887 18:-0.938999 19:-0.98104 20:-0.943253 21:-0.983162 22:-0.955727 23:-0.940763 24:-0.949094 25:-0.904198 26:-0.939102 27:-0.861919 28:-0.934513 29:-0.851598 30:-0.923799 31:-0.944853 32:-0.933844 33:-0.975272 34:-0.990631 35:-0.99898 36:-0.993948 37:-0.99541 38:-0.992221 39:-0.984289 40:-0.98796 41:-0.98868 42:-0.987261 43:-0.98821 44:-0.981087 45:-0.976865 46:-0.967157 47:-0.973398 48:-0.967213 49:-0.984347 50:-0.97735 51:-0.985023 52:-0.989234 53:-0.982242 54:-0.982833 55:-0.978368 56:-0.966306 57:-0.958333 58:-0.965665 59:-0.943662 60:-0.980265 61:-0.933735 
0.1878723801588952 1:-0.935974 2:-0.881282 3:-0.986584 4:-0.150202 5:0.0351044 6:-0.73618 7:0.161273 8:-0.954906 9:-0.997581 10:-0.44012 11:0.587519 12:-0.997275 13:-0.180065 14:-0.997309 15:-0.994514 16:-0.99228 17:-0.980879 18:-0.95717 19:-0.98005 20:-0.908598 21:-0.988139 22:-0.931206 23:-0.900668 24:-0.669831 25:-0.862214 26:-0.64424 27:-0.869579 28:-0.652739 29:-0.886759 30:-0.664021 31:-0.888902 32:-0.681668 33:-0.89844 34:-0.730303 35:-0.979374 36:-0.95452 37:-0.963879 38:-0.961845 39:-0.959675 40:-0.99097 41:-0.998189 42:-0.998981 43:-1 44:-0.999054 45:-1 46:-1 47:-0.998791 48:-1 49:-0.998796 50:-1 51:-1 52:-1 53:-1 54:-1 55:-0.998033 56:-1 57:-1 58:-1 59:-1 60:-0.982008 61:-0.955264 
0.4111519207009188 1:-0.930603 2:-0.881564 3:-0.98647 4:-0.149419 5:0.0347466 6:-0.730693 7:0.15927 8:-0.953591 9:-0.997414 10:-0.440214 11:0.587484 12:-0.997114 13:-0.180133 14:-0.997148 15:-0.97523 16:-0.906221 17:-0.980435 18:-0.916531 19:-0.987717 20:-0.923343 21:-0.903409 22:-0.672422 23:-0.869149 24:-0.656119 25:-0.867468 26:-0.644787 27:-0.892945 28:-0.649418 29:-0.885694 30:-0.672018 31:-0.893467 32:-0.685124 33:-0.894305 34:-0.723684 35:-0.976629 36:-0.955804 37:-0.973059 38:-0.935914 39:-0.958628 40:-0.98796 41:-0.993661 42:-1 43:-0.999379 44:-0.999054 45:-0.998843 46:-0.998867 47:-0.997582 48:-1 49:-0.998796 50:-1 51:-0.998848 52:-1 53:-1 54:-1 55:-1 56:-1 57:-1 58:-1 59:-0.971831 60:-0.978632 61:-0.949953 
0.3196637068165915 1:-0.923112 2:-0.881756 3:-0.986522 4:-0.149845 5:0.035025 6:-0.734608 7:0.161051 8:-0.95469 9:-0.99705 10:-0.440087 11:0.587497 12:-0.996793 13:-0.180001 14:-0.996832 15:-0.976029 16:-0.897367 17:-0.976307 18:-0.904686 19:-0.979913 20:-0.920324 21:-0.907283 22:-0.669488 23:-0.86756 24:-0.651578 25:-0.856017 26:-0.644551 27:-0.886933 28:-0.644311 29:-0.885424 30:-0.662151 31:-0.891772 32:-0.680728 33:-0.883297 34:-0.720593 35:-0.97859 36:-0.956354 37:-0.971263 38:-0.955918 39:-0.916208 40:-0.978261 41:-0.977813 42:-0.983185 43:-0.998759 44:-0.999054 45:-0.99653 46:-1 47:-1 48:-0.998829 49:-1 50:-0.997735 51:-1 52:-1 53:-1 54:-1 55:-1 56:-0.997593 57:-1 58:-1 59:-1 60:-0.979375 61:-0.947132 
0.5071206249515195 1:-0.9176 2:-0.881732 3:-0.986515 4:-0.149891 5:0.0349883 6:-0.736023 7:0.161205 8:-0.954466 9:-0.996653 10:-0.440136 11:0.587509 12:-0.9966 13:-0.180115 14:-0.996618 15:-0.976193 16:-0.891657 17:-0.973896 18:-0.89823 19:-0.977417 20:-0.906364 21:-0.908094 22:-0.672714 23:-0.873692 24:-0.648794 25:-0.853579 26:-0.642157 27:-0.889111 28:-0.637877 29:-0.884773 30:-0.662735 31:-0.887491 32:-0.678259 33:-0.886839 34:-0.718032 35:-0.978747 36:-0.958922 37:-0.967472 38:-0.96592 39:-0.943441 40:-0.96087 41:-0.963776 42:-0.976561 43:-0.972076 44:-0.983924 45:-1 46:-0.996602 47:-1 48:-0.998829 49:-0.998796 50:-1 51:-0.998848 52:-1 53:-1 54:-1 55:-1 56:-1 57:-1 58:-1 59:-1 60:-0.980025 61:-0.947131 
0.08639201066916438 1:-0.913219 2:-0.881967 3:-0.986622 4:-0.149974 5:0.0350443 6:-0.735835 7:0.161293 8:-0.954616 9:-0.996302 10:-0.440141 11:0.587686 12:-0.996504 13:-0.180115 14:-0.996483 15:-0.977017 16:-0.888663 17:-0.9795 18:-0.89826 19:-0.978644 20:-0.912139 21:-0.967432 22:-0.690665 23:-0.880983 24:-0.646357 25:-0.854426 26:-0.639977 27:-0.884351 28:-0.642079 29:-0.88444 30:-0.6593 31:-0.88448 32:-0.68694 33:-0.888559 34:-0.712424 35:-0.964238 36:-0.953787 37:-0.970665 38:-0.933321 39:-0.940299 40:-0.976254 41:-0.995925 42:-0.998981 43:-1 44:-1 45:-1 46:-1 47:-1 48:-1 49:-1 50:-1 51:-1 52:-1 53:-1 54:-1 55:-1 56:-1 57:-1 58:-1 59:-1 60:-0.97782 61:-0.945347 
1.013485397177535 1:-0.754638 2:-0.880735 3:-0.98618 4:-0.154229 5:0.0721452 6:-0.719744 7:0.365697 8:-0.873394 9:-0.96291 10:-0.44179 11:0.587822 12:-0.976909 13:-0.212372 14:-0.975766 15:-0.866044 16:-0.653561 17:-0.806492 18:-0.710983 19:-0.789557 20:-0.840857 21:-0.88951 22:-0.860943 23:-0.92937 24:-0.888407 25:-0.908484 26:-0.889813 27:-0.977289 28:-0.844242 29:-0.955205 30:-0.661901 31:-0.863308 32:-0.655341 33:-0.87153 34:-0.728776 35:-0.77539 36:-0.889235 37:-0.999401 38:-0.99963 39:-0.999476 40:-0.999666 41:-0.999547 42:-1 43:-1 44:-1 45:-1 46:-1 47:-1 48:-1 49:-1 50:-1 51:-1 52:-1 53:-1 54:-1 55:-1 56:-1 57:-1 58:-1 59:-1 60:-0.970915 61:-0.944991 
1.534743938450471 1:-0.688068 2:-0.879007 3:-0.987054 4:-0.156307 5:0.0750116 6:-0.727425 7:0.38617 8:-0.829538 9:-0.944666 10:-0.443485 11:0.587938 12:-0.971779 13:-0.202221 14:-0.968835 15:-0.859533 16:-0.564208 17:-0.799462 18:-0.605192 19:-0.770718 20:-0.753652 21:-0.953949 22:-0.859421 23:-0.937344 24:-0.889156 25:-0.907095 26:-0.886553 27:-0.983313 28:-0.887513 29:-0.899196 30:-0.678157 31:-0.840943 32:-0.663245 33:-0.874488 34:-0.724046 35:-0.908478 36:-0.852375 37:-0.896827 38:-0.88998 39:-0.853365 40:-0.893311 41:-0.826579 42:-0.85172 43:-0.913124 44:-0.920567 45:-0.925969 46:-0.942242 47:-0.98549 48:-0.998829 49:-0.997592 50:-1 51:-0.998848 52:-1 53:-1 54:-0.998283 55:-1 56:-0.997593 57:-1 58:-1 59:-0.971831 60:-0.979655 61:-0.95032 
0.1061264921029544 1:-0.846861 2:-0.882287 3:-0.987227 4:-0.151566 5:0.0484567 6:-0.739313 7:0.228253 8:-0.993277 9:-0.981618 10:-0.439753 11:0.587552 12:-0.993603 13:-0.180223 14:-0.991977 15:-0.96563 16:-0.850221 17:-0.970156 18:-0.897775 19:-0.929731 20:-0.876603 21:-0.915811 22:-0.901889 23:-0.976306 24:-0.906359 25:-0.979073 26:-0.871989 27:-0.954926 28:-0.643922 29:-0.840968 30:-0.634869 31:-0.829186 32:-0.658315 33:-0.891593 34:-0.710617 35:-0.870128 36:-0.921328 37:-0.988825 38:-0.996296 39:-0.99581 40:-0.999331 41:-0.999547 42:-0.998471 43:-0.998759 44:-0.999054 45:-1 46:-1 47:-0.997582 48:-1 49:-1 50:-1 51:-1 52:-1 53:-1 54:-1 55:-1 56:-1 57:-1 58:-1 59:-1 60:-0.935506 61:-0.911211 
0.6543715488761072 1:-0.80029 2:-0.907681 3:-0.986537 4:-0.155094 5:0.0562562 6:-0.766608 7:0.267396 8:-0.983559 9:-0.977231 10:-0.440122 11:0.588036 12:-0.986898 13:-0.179829 14:-0.98597 15:-0.899093 16:-0.793923 17:-0.845657 18:-0.718796 19:-0.84245 20:-0.705993 21:-0.860605 22:-0.720956 23:-0.936619 24:-0.856364 25:-0.969692 26:-0.877897 27:-0.943191 28:-0.643181 29:-0.879528 30:-0.631061 31:-0.880103 32:-0.64439 33:-0.892953 34:-0.710054 35:-0.858286 36:-0.922428 37:-0.921173 38:-0.945175 39:-0.983765 40:-0.994314 41:-0.999094 42:-0.998471 43:-1 44:-1 45:-1 46:-0.998867 47:-0.997582 48:-1 49:-1 50:-1 51:-1 52:-1 53:-1 54:-1 55:-1 56:-1 57:-1 58:-1 59:-1 60:-0.963941 61:-0.938319 
0.5803182760642773 1:-0.810961 2:-0.910226 3:-0.986758 4:-0.15602 5:0.0569748 6:-0.771666 7:0.271088 8:-0.980471 9:-0.979564 10:-0.459468 11:0.588041 12:-0.987368 13:-0.146533 14:-0.986848 15:-0.834292 16:-0.751289 17:-0.833003 18:-0.710153 19:-0.827768 20:-0.707019 21:-0.897847 22:-0.724661 23:-0.979723 24:-0.863904 25:-0.967281 26:-0.885712 27:-0.949082 28:-0.634085 29:-0.882801 30:-0.649043 31:-0.887319 32:-0.666449 33:-0.894998 34:-0.713173 35:-0.882362 36:-0.948836 37:-0.95889 38:-0.902945 39:-0.873789 40:-0.959197 41:-0.986416 42:-0.998471 43:-0.998759 44:-0.994326 45:-0.991903 46:-0.99547 47:-0.993954 48:-0.995316 49:-1 50:-0.996602 51:-0.998848 52:-0.998804 53:-0.99889 54:-1 55:-1 56:-1 57:-0.995833 58:-1 59:-1 60:-0.966661 61:-0.941183 
0.32068463031145 1:-0.82255 2:-0.907596 3:-0.98683 4:-0.15609 5:0.0564298 6:-0.771626 7:0.268419 8:-0.982103 9:-0.980603 10:-0.45836 11:0.58735 12:-0.98826 13:-0.150508 14:-0.987698 15:-0.839586 16:-0.753161 17:-0.834813 18:-0.705044 19:-0.840203 20:-0.70714 21:-0.918317 22:-0.721194 23:-0.980344 24:-0.87095 25:-0.969983 26:-0.876828 27:-0.951867 28:-0.629278 29:-0.884021 30:-0.64394 31:-0.888219 32:-0.663416 33:-0.899463 34:-0.714755 35:-0.904086 36:-0.945718 37:-0.96807 38:-0.939248 39:-0.910448 40:-0.931104 41:-0.932533 42:-0.966369 43:-0.975799 44:-0.995272 45:-0.994216 46:-0.996602 47:-0.993954 48:-0.992974 49:-0.996388 50:-0.996602 51:-0.998848 52:-0.997608 53:-0.99778 54:-0.998283 55:-0.998033 56:-1 57:-1 58:-0.982833 59:-0.971831 60:-0.967444 61:-0.939672 
0.2918677681970204 1:-0.923607 2:-0.882731 3:-0.987934 4:-0.152498 5:0.0474473 6:-0.744351 7:0.223045 8:-0.99312 9:-0.992005 10:-0.440097 11:0.587548 12:-0.997378 13:-0.180148 14:-0.996655 15:-0.979385 16:-0.914112 17:-0.949701 18:-0.892022 19:-0.951271 20:-0.894215 21:-0.924308 22:-0.912729 23:-0.984026 24:-0.916958 25:-0.98201 26:-0.928354 27:-0.953639 28:-0.669405 29:-0.913413 30:-0.650378 31:-0.89595 32:-0.650988 33:-0.901071 34:-0.719108 35:-0.987687 36:-0.972859 37:-0.97286 38:-0.944064 39:-0.910448 40:-0.959866 41:-0.963324 42:-0.971975 43:-0.978281 44:-0.986761 45:-0.990746 46:-0.997735 47:-0.997582 48:-0.997658 49:-1 50:-1 51:-1 52:-1 53:-1 54:-1 55:-0.998033 56:-0.997593 57:-1 58:-1 59:-1 60:-0.958726 61:-0.871567 
0.2471437631102268 1:-0.919579 2:-0.882406 3:-0.987873 4:-0.152413 5:0.0474429 6:-0.74376 7:0.223019 8:-0.993254 9:-0.991597 10:-0.440046 11:0.587439 12:-0.997188 13:-0.180024 14:-0.996426 15:-0.974016 16:-0.903589 17:-0.950147 18:-0.888914 19:-0.94669 20:-0.896912 21:-0.926488 22:-0.915081 23:-0.98103 24:-0.912482 25:-0.982802 26:-0.928574 27:-0.956624 28:-0.678614 29:-0.906744 30:-0.648919 31:-0.8954 32:-0.650315 33:-0.899611 34:-0.717369 35:-0.983688 36:-0.967724 37:-0.966873 38:-0.936655 39:-0.883216 40:-0.964214 41:-0.97736 42:-0.983694 43:-0.996897 44:-0.999054 45:-1 46:-1 47:-0.998791 48:-1 49:-0.998796 50:-1 51:-1 52:-1 53:-1 54:-1 55:-1 56:-1 57:-1 58:-1 59:-1 60:-0.962868 61:-0.883705 
0.3162162856297254 1:-0.91654 2:-0.881476 3:-0.98782 4:-0.151999 5:0.0474768 6:-0.740875 7:0.223178 8:-0.992926 9:-0.991044 10:-0.440192 11:0.587618 12:-0.997123 13:-0.18016 14:-0.996314 15:-0.972757 16:-0.900046 17:-0.953634 18:-0.88903 19:-0.930233 20:-0.896244 21:-0.921863 22:-0.913848 23:-0.97777 24:-0.925942 25:-0.979764 26:-0.931436 27:-0.955342 28:-0.647198 29:-0.896042 30:-0.653529 31:-0.89402 32:-0.668915 33:-0.898845 34:-0.715751 35:-0.996157 36:-0.981295 37:-0.989224 38:-0.973328 39:-0.97172 40:-0.98194 41:-0.980983 42:-0.975541 43:-0.96587 44:-0.958392 45:-0.936379 46:-0.94564 47:-0.946796 48:-0.935597 49:-0.933775 50:-0.92752 51:-0.914747 52:-0.922249 53:-0.938957 54:-0.938197 55:-0.966568 56:-0.961492 57:-0.958333 58:-0.93133 59:-0.774648 60:-0.97227 61:-0.905665 
2 1:-0.936822 2:-0.869124 3:-0.986444 4:-0.149453 5:0.05876 6:-0.731244 7:0.280218 8:-0.983045 9:-0.996884 10:-0.440155 11:0.587676 12:-0.997324 13:-0.180048 14:-0.99729 15:-0.957499 16:-0.906107 17:-0.94623 18:-0.909382 19:-0.913085 20:-0.904381 21:-0.909168 22:-0.925125 23:-0.910598 24:-0.912185 25:-0.970748 26:-0.92499 27:-0.975823 28:-0.945032 29:-0.950272 30:-0.717979 31:-0.944617 32:-0.820678 33:-0.948424 34:-0.83806 35:-0.995922 36:-0.975243 37:-0.981241 38:-0.978885 39:-0.974339 40:-0.984615 41:-0.98053 42:-0.985732 43:-0.978281 44:-0.967849 45:-0.956044 46:-0.949037 47:-0.945586 48:-0.947307 49:-0.959061 50:-0.95923 51:-0.976959 52:-0.97488 53:-0.990011 54:-0.986266 55:-0.984267 56:-0.978339 57:-0.979167 58:-0.991416 59:-1 60:-0.981545 61:-0.945911 
2 1:-0.986714 2:-0.849713 3:-0.988526 4:-0.150195 5:0.077747 6:-0.739387 7:0.374173 8:-0.861604 9:-0.999945 10:-0.440132 11:0.587596 12:-0.999902 13:-0.180108 14:-0.999907 15:-0.965908 16:-0.961203 17:-0.971225 18:-0.966715 19:-0.979668 20:-0.96908 21:-1 22:-1 23:-0.928202 24:-0.95884 25:-0.951186 26:-0.966243 27:-0.961387 28:-0.963249 29:-0.952852 30:-0.99434 31:-0.968168 32:-0.993977 33:-0.967069 34:-0.992238 35:-1 36:-0.996516 37:-0.997007 38:-0.994814 39:-0.991097 40:-0.994649 41:-0.995925 42:-0.992357 43:-0.991933 44:-0.992435 45:-0.980335 46:-0.987542 47:-0.991536 48:-0.990632 49:-0.99398 50:-0.997735 51:-0.99424 52:-0.996411 53:-0.99667 54:-0.996567 55:-1 56:-0.995187 57:-1 58:-1 59:-1 60:-0.993889 61:-0.974681 
1.043560477737888 1:-0.921558 2:-0.874714 3:-0.986708 4:-0.151135 5:0.0548977 6:-0.749944 7:0.260042 8:-0.988834 9:-0.996275 10:-0.440183 11:0.587677 12:-0.996805 13:-0.180102 14:-0.996993 15:-0.939969 16:-0.915166 17:-0.88572 18:-0.928276 19:-0.882407 20:-0.931441 21:-0.900224 22:-0.934825 23:-0.906413 24:-0.92053 25:-0.964552 26:-0.942564 27:-0.965259 28:-0.937354 29:-0.905157 30:-0.947693 31:-0.890356 32:-0.795577 33:-0.898628 34:-0.83644 35:-0.996706 36:-0.97781 37:-0.989024 38:-0.981478 39:-0.972768 40:-0.983946 41:-0.985963 42:-0.979108 43:-0.975799 44:-0.930969 45:-0.935223 46:-0.902605 47:-0.881499 48:-0.87822 49:-0.886815 50:-0.943375 51:-0.974654 52:-0.971292 53:-0.981132 54:-0.9897 55:-0.996067 56:-1 57:-0.991667 58:-1 59:-1 60:-0.978341 61:-0.920084 
1.783029760019879 1:-0.92184 2:-0.877099 3:-0.986556 4:-0.150929 5:0.0551537 6:-0.751159 7:0.261065 8:-0.988125 9:-0.996646 10:-0.440166 11:0.587696 12:-0.996814 13:-0.180172 14:-0.997083 15:-0.936965 16:-0.920137 17:-0.886216 18:-0.943225 19:-0.878792 20:-0.942332 21:-0.890922 22:-0.941734 23:-0.904907 24:-0.936822 25:-0.96438 26:-0.94155 27:-0.963818 28:-0.939357 29:-0.905304 30:-0.937397 31:-0.885738 32:-0.81195 33:-0.901563 34:-0.83816 35:-0.99749 36:-0.982212 37:-0.98643 38:-0.988887 39:-0.979052 40:-0.982943 41:-0.980983 42:-0.984713 43:-0.982004 44:-0.964066 45:-0.966455 46:-0.935447 47:-0.928658 48:-0.901639 49:-0.913305 50:-0.939977 51:-0.923963 52:-0.927033 53:-0.941176 54:-0.945064 55:-0.946903 56:-0.932611 57:-0.95 58:-0.871245 59:-0.887324 60:-0.978132 61:-0.92119 
1.360248213040767 1:-0.924667 2:-0.876662 3:-0.986561 4:-0.150997 5:0.0557142 6:-0.752466 7:0.263679 8:-0.988169 9:-0.997237 10:-0.440108 11:0.587417 12:-0.996998 13:-0.179695 14:-0.997262 15:-0.937325 16:-0.934442 17:-0.881919 18:-0.937438 19:-0.872356 20:-0.944314 21:-0.888409 22:-0.94062 23:-0.905911 24:-0.929027 25:-0.964076 26:-0.932826 27:-0.97068 28:-0.946539 29:-0.908009 30:-0.941068 31:-0.882775 32:-0.82936 33:-0.900229 34:-0.851299 35:-0.996 36:-0.983312 37:-0.988625 38:-0.985182 39:-0.976434 40:-0.985619 41:-0.979624 42:-0.97707 43:-0.972076 44:-0.949882 45:-0.912088 46:-0.933182 47:-0.920193 48:-0.928571 49:-0.937387 50:-0.946772 51:-0.93894 52:-0.935407 53:-0.962264 54:-0.963948 55:-0.970501 56:-0.98556 57:-0.966667 58:-0.991416 59:-0.971831 60:-0.977336 61:-0.920136 
2 1:-0.924596 2:-0.876506 3:-0.986615 4:-0.151051 5:0.0564758 6:-0.751795 7:0.26746 8:-0.986516 9:-0.997215 10:-0.440111 11:0.587823 12:-0.996988 13:-0.17949 14:-0.99725 15:-0.936177 16:-0.928741 17:-0.883098 18:-0.934717 19:-0.876797 20:-0.945759 21:-0.890868 22:-0.94221 23:-0.901804 24:-0.92897 25:-0.962055 26:-0.935478 27:-0.971216 28:-0.947859 29:-0.907872 30:-0.940067 31:-0.885953 32:-0.83773 33:-0.903126 34:-0.858633 35:-0.995608 36:-0.984779 37:-0.98643 38:-0.984812 39:-0.970149 40:-0.981271 41:-0.981435 42:-0.981656 43:-0.970835 44:-0.93948 45:-0.922499 46:-0.929785 47:-0.926239 48:-0.941452 49:-0.940999 50:-0.952435 51:-0.940092 52:-0.938995 53:-0.958935 54:-0.955365 55:-0.978368 56:-0.98556 57:-0.991667 58:-0.982833 59:-0.915493 60:-0.976981 61:-0.921438 
2 1:-0.925374 2:-0.876891 3:-0.986599 4:-0.151012 5:0.0560095 6:-0.752414 7:0.265115 8:-0.987521 9:-0.997247 10:-0.440127 11:0.587756 12:-0.997058 13:-0.179996 14:-0.997316 15:-0.9363 16:-0.933175 17:-0.880631 18:-0.93177 19:-0.879484 20:-0.942068 21:-0.887573 22:-0.94065 23:-0.904002 24:-0.932451 25:-0.962079 26:-0.934767 27:-0.971533 28:-0.942008 29:-0.903094 30:-0.938013 31:-0.887102 32:-0.834304 33:-0.905573 34:-0.866965 35:-0.994118 36:-0.985696 37:-0.989623 38:-0.981108 39:-0.968054 40:-0.985284 41:-0.98053 42:-0.982675 43:-0.95346 44:-0.930969 45:-0.929439 46:-0.921857 47:-0.932285 48:-0.940281 49:-0.932571 50:-0.937712 51:-0.941244 52:-0.960526 53:-0.982242 54:-0.977682 55:-0.992134 56:-0.990373 57:-0.995833 58:-0.974249 59:-1 60:-0.977098 61:-0.920414 
2 1:-0.978163 2:-0.864694 3:-0.990293 4:-0.153875 5:0.0748432 6:-0.74399 7:0.368694 8:-0.868894 9:-0.999598 10:-0.440261 11:0.586875 12:-0.999874 13:-0.180104 14:-0.999847 15:-0.951058 16:-0.911897 17:-0.956899 18:-0.901433 19:-0.96902 20:-0.928522 21:-0.937825 22:-0.95475 23:-0.918173 24:-0.935592 25:-0.9025 26:-0.938707 27:-0.902027 28:-0.951507 29:-0.908349 30:-0.941997 31:-0.931662 32:-0.943574 33:-0.979137 34:-0.95814 35:-0.999608 36:-0.996516 37:-0.991618 38:-0.990369 39:-0.991621 40:-0.991639 41:-0.99185 42:-0.990828 43:-0.985107 44:-0.979196 45:-0.981492 46:-0.978482 47:-0.991536 48:-0.985948 49:-0.990367 50:-0.989807 51:-0.997696 52:-0.992823 53:-0.99556 54:-0.996567 55:-0.9941 56:-0.99278 57:-0.983333 58:-1 59:-0.943662 60:-0.987429 61:-0.9581 
2 1:-0.994205 2:-0.894823 3:-0.938155 4:-0.132758 5:-0.030311 6:-0.907535 7:0.136255 8:-0.786812 9:-0.99998 10:-0.440131 11:0.587594 12:-0.999992 13:-0.180105 14:-0.99999 15:-0.985762 16:-0.995874 17:-0.968466 18:-0.985464 19:-0.950912 20:-0.986341 21:-0.95069 22:-0.992196 23:-0.955852 24:-0.991241 25:-0.965398 26:-0.991003 27:-0.971091 28:-0.996317 29:-0.986925 30:-0.99658 31:-0.985924 32:-0.996137 33:-0.986838 34:-0.991935 35:-0.995138 36:-0.9989 37:-0.998404 38:-0.99963 39:-0.998953 40:-0.999666 41:-0.999547 42:-1 43:-1 44:-1 45:-1 46:-0.997735 47:-1 48:-0.997658 49:-1 50:-1 51:-1 52:-1 53:-1 54:-1 55:-1 56:-1 57:-1 58:-1 59:-1 60:-0.151855 61:-0.237065 
1.538020503454608 1:-0.987068 2:-0.8943 3:-0.940433 4:-0.125189 5:-0.0241593 6:-0.875607 7:0.125759 8:-0.80596 9:-0.999856 10:-0.440135 11:0.587615 12:-0.999683 13:-0.180102 14:-0.999704 15:-0.962601 16:-0.893576 17:-0.941932 18:-0.890848 19:-0.93114 20:-0.867572 21:-0.928109 22:-0.869633 23:-0.929662 24:-0.834472 25:-0.934581 26:-0.793366 27:-0.954212 28:-0.775594 29:-0.947847 30:-0.748257 31:-0.958517 32:-0.752203 33:-0.970732 34:-0.994874 35:-0.987374 36:-0.9989 37:-0.999401 38:-0.998518 39:-0.999476 40:-0.999666 41:-0.999547 42:-0.99949 43:-0.998759 44:-0.999054 45:-1 46:-0.998867 47:-0.998791 48:-1 49:-1 50:-1 51:-1 52:-1 53:-0.99889 54:-0.998283 55:-0.998033 56:-1 57:-1 58:-1 59:-1 60:-0.191866 61:-0.457836 
0.07685557769304824 1:-0.985442 2:-0.895144 3:-0.940618 4:-0.124681 5:-0.0236049 6:-0.873321 7:0.12539 8:-0.808344 9:-0.999842 10:-0.440128 11:0.587557 12:-0.999643 13:-0.18011 14:-0.999665 15:-0.960081 16:-0.888584 17:-0.945999 18:-0.849445 19:-0.922634 20:-0.855852 21:-0.92959 22:-0.855115 23:-0.933246 24:-0.832429 25:-0.937695 26:-0.782275 27:-0.940196 28:-0.743033 29:-0.955787 30:-0.747648 31:-0.970095 32:-0.992652 33:-0.989048 34:-0.991444 35:-0.985805 36:-0.997983 37:-0.9998 38:-0.998889 39:-0.998953 40:-0.999666 41:-0.999094 42:-0.998981 43:-1 44:-1 45:-0.997687 46:-0.998867 47:-1 48:-1 49:-0.998796 50:-1 51:-1 52:-1 53:-1 54:-1 55:-0.998033 56:-1 57:-1 58:-1 59:-0.971831 60:-0.325195 61:-0.569748 
2 1:-0.990954 2:-0.913844 3:-0.998619 4:-0.203565 5:0.0593432 6:-0.847417 7:0.126723 8:-0.844797 9:-0.99995 10:-0.44013 11:0.587598 12:-0.999941 13:-0.180102 14:-0.999944 15:-0.945785 16:-0.980951 17:-0.952447 18:-0.938959 19:-0.982047 20:-0.940824 21:-0.993069 22:-0.974596 23:-0.997878 24:-0.992773 25:-0.9912 26:-0.993818 27:-0.978968 28:-0.993118 29:-0.961149 30:-0.993288 31:-0.955894 32:-0.975989 33:-0.960969 34:-0.973023 35:-0.999922 36:-0.999266 37:-0.998404 38:-0.996666 39:-0.986384 40:-0.992977 41:-0.993208 42:-0.991847 43:-0.987589 44:-0.995272 45:-0.997687 46:-0.998867 47:-0.997582 48:-1 49:-1 50:-1 51:-1 52:-1 53:-1 54:-1 55:-0.998033 56:-1 57:-1 58:-1 59:-1 60:-0.988223 61:-0.941067 
2 1:-0.990318 2:-0.914581 3:-0.998611 4:-0.203579 5:0.0593982 6:-0.848224 7:0.126799 8:-0.844169 9:-0.999945 10:-0.44013 11:0.587601 12:-0.999937 13:-0.180068 14:-0.999941 15:-0.941312 16:-0.978631 17:-0.942452 18:-0.942418 19:-0.970693 20:-0.939015 21:-0.989411 22:-0.981139 23:-1 24:-1 25:-0.993984 26:-0.993117 27:-0.981108 28:-0.992735 29:-0.955248 30:-0.99024 31:-0.952045 32:-0.982931 33:-0.962648 34:-0.99057 35:-1 36:-0.999083 37:-0.997605 38:-0.996296 39:-0.992668 40:-0.993311 41:-0.992755 42:-0.986242 43:-0.990071 44:-0.990544 45:-0.995373 46:-0.996602 47:-0.998791 48:-0.998829 49:-1 50:-1 51:-1 52:-1 53:-1 54:-1 55:-0.998033 56:-1 57:-1 58:-1 59:-1 60:-0.988648 61:-0.939325 
0.6418862299980772 1:-0.981202 2:-0.895579 3:-0.939645 4:-0.125592 5:-0.0239892 6:-0.878468 7:0.127946 8:-0.808815 9:-0.999765 10:-0.44091 11:0.587615 12:-0.999506 13:-0.180122 14:-0.999539 15:-0.944102 16:-0.878011 17:-0.925406 18:-0.859869 19:-0.915059 20:-0.852937 21:-0.928605 22:-0.842926 23:-0.938709 24:-0.80311 25:-0.935585 26:-0.75352 27:-0.945929 28:-0.74647 29:-0.962346 30:-0.980761 31:-0.964971 32:-0.962347 33:-0.9982 34:-0.980417 35:-0.980786 36:-0.998166 37:-0.999601 38:-0.998889 39:-0.999476 40:-0.999666 41:-0.999547 42:-1 43:-0.999379 44:-1 45:-0.998843 46:-1 47:-0.998791 48:-0.997658 49:-1 50:-1 51:-1 52:-1 53:-1 54:-1 55:-1 56:-1 57:-1 58:-0.991416 59:-1 60:-0.255009 61:-0.61418 
1.326270869230735 1:-0.977245 2:-0.895279 3:-0.936979 4:-0.121958 5:-0.0207639 6:-0.870192 7:0.131388 8:-0.831626 9:-0.999501 10:-0.440127 11:0.58758 12:-0.999298 13:-0.180103 14:-0.999316 15:-0.941689 16:-0.875496 17:-0.915629 18:-0.846176 19:-0.919265 20:-0.831992 21:-0.932384 22:-0.819485 23:-0.943298 24:-0.767069 25:-0.948366 26:-0.74207 27:-0.907352 28:-0.979901 29:-0.902746 30:-0.955667 31:-0.949654 32:-0.958849 33:-0.958983 34:-0.97464 35:-0.976316 36:-0.99945 37:-0.999401 38:-0.999259 39:-0.997382 40:-0.999666 41:-0.999094 42:-0.998471 43:-1 44:-1 45:-1 46:-0.998867 47:-0.998791 48:-1 49:-1 50:-1 51:-0.998848 52:-1 53:-1 54:-1 55:-1 56:-1 57:-0.995833 58:-1 59:-1 60:-0.464243 61:-0.706995 
2 1:-0.989824 2:-0.915753 3:-0.998756 4:-0.202922 5:0.0588027 6:-0.849491 7:0.127878 8:-0.845853 9:-0.999943 10:-0.440131 11:0.587593 12:-0.999937 13:-0.180102 14:-0.999941 15:-0.940531 16:-0.974998 17:-0.947997 18:-0.941119 19:-0.974381 20:-0.937132 21:-0.985869 22:-0.954043 23:-0.994886 24:-0.991091 25:-0.992136 26:-0.995473 27:-0.975388 28:-0.996688 29:-0.952537 30:-0.982494 31:-0.949339 32:-0.981197 33:-0.96227 34:-0.977104 35:-0.999686 36:-0.999817 37:-0.998803 38:-0.995184 39:-0.992668 40:-0.992308 41:-0.993661 42:-0.989809 43:-0.986348 44:-0.988652 45:-0.988433 46:-0.997735 47:-0.997582 48:-0.998829 49:-1 50:-1 51:-0.998848 52:-0.998804 53:-1 54:-1 55:-1 56:-1 57:-1 58:-0.991416 59:-1 60:-0.988774 61:-0.940037 
2 1:-0.989329 2:-0.915763 3:-0.998698 4:-0.20301 5:0.058941 6:-0.849674 7:0.127252 8:-0.843944 9:-0.999942 10:-0.440131 11:0.587593 12:-0.999927 13:-0.180104 14:-0.999932 15:-0.942937 16:-0.977951 17:-0.937999 18:-0.954512 19:-0.974164 20:-0.923628 21:-0.987161 22:-0.964545 23:-0.996786 24:-0.989161 25:-0.99054 26:-0.996111 27:-0.979921 28:-0.995125 29:-0.957303 30:-0.992185 31:-0.953425 32:-0.975058 33:-0.962102 34:-0.987214 35:-0.999922 36:-0.999633 37:-0.998004 38:-0.995555 39:-0.992145 40:-0.991639 41:-0.990944 42:-0.989299 43:-0.98883 44:-0.98487 45:-0.99653 46:-0.993205 47:-1 48:-0.998829 49:-1 50:-0.998867 51:-0.998848 52:-1 53:-1 54:-0.998283 55:-1 56:-1 57:-1 58:-0.991416 59:-1 60:-0.988958 61:-0.940457 
0.5237493573089884 1:-0.982545 2:-0.894441 3:-0.939987 4:-0.125045 5:-0.0257583 6:-0.876251 7:0.124176 8:-0.799608 9:-0.999831 10:-0.44088 11:0.58761 12:-0.999605 13:-0.180108 14:-0.999632 15:-0.960981 16:-0.869003 17:-0.94932 18:-0.850261 19:-0.924329 20:-0.845923 21:-0.926061 22:-0.84965 23:-0.944961 24:-0.819528 25:-0.954578 26:-0.789079 27:-0.960614 28:-0.750586 29:-0.956867 30:-0.757957 31:-0.964444 32:-0.991585 33:-0.983694 34:-0.98846 35:-0.983217 36:-0.99835 37:-0.998803 38:-0.998518 39:-0.998953 40:-0.999666 41:-0.999094 42:-0.998981 43:-1 44:-1 45:-0.997687 46:-0.997735 47:-0.998791 48:-1 49:-0.998796 50:-1 51:-0.998848 52:-1 53:-0.99889 54:-0.996567 55:-1 56:-1 57:-1 58:-1 59:-1 60:-0.288331 61:-0.518053 
1.792952024735599 1:-0.98728 2:-0.916504 3:-0.998796 4:-0.202605 5:0.0586925 6:-0.849639 7:0.125742 8:-0.839361 9:-0.99991 10:-0.440132 11:0.58759 12:-0.999916 13:-0.180107 14:-0.99992 15:-0.937784 16:-0.980876 17:-0.940894 18:-0.940963 19:-0.974243 20:-0.922262 21:-0.985982 22:-0.959665 23:-0.995732 24:-0.991694 25:-0.991651 26:-0.993894 27:-0.980518 28:-0.994846 29:-0.95166 30:-0.978945 31:-0.952489 32:-0.983393 33:-0.95886 34:-0.978076 35:-0.999529 36:-0.998716 37:-0.994612 38:-0.988887 39:-0.984289 40:-0.986288 41:-0.989133 42:-0.993885 43:-0.998138 44:-0.999054 45:-0.998843 46:-0.998867 47:-1 48:-1 49:-1 50:-1 51:-1 52:-1 53:-1 54:-1 55:-1 56:-1 57:-1 58:-1 59:-1 60:-0.987234 61:-0.943963 
1.420227727470244 1:-0.986785 2:-0.917151 3:-0.998749 4:-0.202743 5:0.0585896 6:-0.849948 7:0.128933 8:-0.847974 9:-0.999903 10:-0.440131 11:0.587594 12:-0.999908 13:-0.180109 14:-0.999913 15:-0.936724 16:-0.980592 17:-0.945905 18:-0.936409 19:-0.976392 20:-0.917387 21:-0.987468 22:-0.97029 23:-0.985883 24:-0.983872 25:-0.990343 26:-0.99477 27:-0.968339 28:-0.992964 29:-0.953496 30:-0.978631 31:-0.95407 32:-0.965479 33:-0.96172 34:-0.971919 35:-0.999922 36:-0.999266 37:-0.999401 38:-0.997036 39:-0.992668 40:-0.995652 41:-0.994566 42:-0.992357 43:-0.989451 44:-0.983924 45:-0.984962 46:-0.984145 47:-0.981862 48:-0.980094 49:-0.985551 50:-0.99547 51:-0.996544 52:-0.995215 53:-0.99778 54:-0.998283 55:-1 56:-1 57:-0.995833 58:-1 59:-1 60:-0.990328 61:-0.945557 
2 1:-0.986714 2:-0.916739 3:-0.998763 4:-0.202849 5:0.0588466 6:-0.849865 7:0.12677 8:-0.841921 9:-0.999896 10:-0.440131 11:0.587591 12:-0.999915 13:-0.180108 14:-0.999919 15:-0.934158 16:-0.980621 17:-0.937426 18:-0.931039 19:-0.959908 20:-0.91812 21:-0.9887 22:-0.981058 23:-0.988492 24:-0.983559 25:-0.989647 26:-0.992495 27:-0.96683 28:-0.969957 29:-0.955815 30:-0.971753 31:-0.954022 32:-0.976167 33:-0.957359 34:-0.977014 35:-0.999529 36:-0.999266 37:-0.996009 38:-0.989257 39:-0.98586 40:-0.991304 41:-0.986416 42:-0.98828 43:-0.992554 44:-0.994326 45:-0.994216 46:-0.998867 47:-0.998791 48:-0.998829 49:-1 50:-1 51:-1 52:-1 53:-1 54:-1 55:-1 56:-1 57:-1 58:-1 59:-1 60:-0.991008 61:-0.949413 
2 1:-0.991873 2:-0.79452 3:-0.979977 4:-0.126395 5:0.0251426 6:-0.650363 7:0.129491 8:-0.935788 9:-0.999972 10:-0.440131 11:0.587594 12:-0.999982 13:-0.180105 14:-0.99998 15:-0.991813 16:-0.99776 17:-0.963451 18:-0.990206 19:-0.960447 20:-0.991081 21:-0.954481 22:-0.979602 23:-0.958898 24:-0.987902 25:-0.958988 26:-0.966933 27:-0.955436 28:-0.973967 29:-0.962537 30:-0.984951 31:-0.969274 32:-0.986931 33:-0.977021 34:-0.98949 35:-0.999686 36:-0.996699 37:-0.997805 38:-0.994073 39:-0.987431 40:-0.993311 41:-0.998189 42:-0.998981 43:-0.998138 44:-0.998109 45:-1 46:-1 47:-0.997582 48:-1 49:-0.998796 50:-0.998867 51:-1 52:-1 53:-0.99778 54:-0.998283 55:-1 56:-0.995187 57:-0.9875 58:-0.991416 59:-0.971831 60:-0.980833 61:-0.943983 
1.464156586546446 1:-0.984029 2:-0.818483 3:-0.98153 4:-0.130284 5:0.0267163 6:-0.662147 7:0.133652 8:-0.937633 9:-0.99984 10:-0.440131 11:0.587598 12:-0.999937 13:-0.180106 14:-0.999931 15:-0.984024 16:-0.989939 17:-0.943343 18:-0.974797 19:-0.943353 20:-0.916886 21:-0.939798 22:-0.912617 23:-0.940625 24:-0.898866 25:-0.944633 26:-0.891267 27:-0.9448 28:-0.890753 29:-0.948931 30:-0.90052 31:-0.958213 32:-0.97212 33:-0.97 34:-0.990716 35:-0.998745 36:-0.996516 37:-0.996607 38:-0.99148 39:-0.987955 40:-0.992642 41:-0.990038 42:-0.992357 43:-0.990071 44:-0.987707 45:-0.988433 46:-0.997735 47:-0.989117 48:-0.997658 49:-0.995184 50:-0.996602 51:-0.997696 52:-0.998804 53:-0.99889 54:-0.996567 55:-0.9941 56:-0.995187 57:-1 58:-1 59:-0.943662 60:-0.983112 61:-0.941958 
2 1:-0.989258 2:-0.850129 3:-0.981899 4:-0.139841 5:0.0763593 6:-0.752128 7:0.336987 8:-0.922124 9:-0.999937 10:-0.440131 11:0.587596 12:-0.99996 13:-0.180106 14:-0.999963 15:-0.95775 16:-0.954626 17:-0.954828 18:-0.964521 19:-0.952779 20:-0.977553 21:-0.957064 22:-0.974367 23:-0.955661 24:-0.968343 25:-0.967332 26:-0.964246 27:-0.977969 28:-0.965769 29:-0.976113 30:-0.971701 31:-0.983771 32:-0.983239 33:-0.989466 34:-0.992555 35:-1 36:-0.999817 37:-0.999002 38:-0.998148 39:-0.991621 40:-0.996321 41:-0.990491 42:-0.992866 43:-0.997518 44:-0.994326 45:-0.991903 46:-0.99547 47:-0.991536 48:-0.994145 49:-0.986755 50:-0.987542 51:-0.99424 52:-0.992823 53:-0.994451 54:-0.99485 55:-0.992134 56:-0.990373 57:-1 58:-1 59:-1 60:-0.985574 61:-0.939745 
2 1:-0.974913 2:-0.860142 3:-0.982997 4:-0.142541 5:0.0733012 6:-0.758942 7:0.327438 8:-0.934046 9:-0.999768 10:-0.440128 11:0.5876 12:-0.999817 13:-0.180084 14:-0.999824 15:-1 16:-1 17:-0.978752 18:-0.984041 19:-0.948946 20:-0.935969 21:-0.93873 22:-0.936016 23:-0.92938 24:-0.962905 25:-0.936652 26:-0.947807 27:-0.953595 28:-0.950816 29:-0.964955 30:-0.958234 31:-0.986277 32:-0.966474 33:-0.993206 34:-0.981512 35:-0.999451 36:-0.997616 37:-0.998404 38:-0.996296 39:-0.99581 40:-0.996321 41:-0.991397 42:-0.990828 43:-0.986969 44:-0.990544 45:-0.987276 46:-0.979615 47:-0.987908 48:-0.985948 49:-0.977122 50:-0.988675 51:-0.978111 52:-0.973684 53:-0.982242 54:-0.969099 55:-0.956735 56:-0.939832 57:-0.929167 58:-0.914163 59:-0.887324 60:-0.982589 61:-0.925345 
1.102900627153082 1:-0.932935 2:-0.88245 3:-0.983226 4:-0.144442 5:0.0429744 6:-0.746963 7:0.206598 8:-0.989921 9:-0.993421 10:-0.440074 11:0.58753 12:-0.997637 13:-0.180143 14:-0.996944 15:-0.959659 16:-0.987042 17:-0.968125 18:-0.987893 19:-0.971619 20:-0.976413 21:-0.922839 22:-0.922184 23:-0.965285 24:-0.919883 25:-0.962712 26:-0.928262 27:-0.969846 28:-0.926961 29:-0.882246 30:-0.662301 31:-0.860756 32:-0.662525 33:-0.88042 34:-0.717291 35:-0.998196 36:-0.992665 37:-0.988425 38:-0.97444 39:-0.972768 40:-0.985953 41:-0.982341 42:-0.983694 43:-0.980763 44:-0.975414 45:-0.968768 46:-0.964892 47:-0.962515 48:-0.962529 49:-0.963877 50:-0.960362 51:-0.955069 52:-0.952153 53:-0.937847 54:-0.907296 55:-0.889872 56:-0.894103 57:-0.8375 58:-0.819742 59:-0.859155 60:-0.979201 61:-0.924782 
0.9860312889356537 1:-0.937034 2:-0.883023 3:-0.983252 4:-0.143819 5:0.0386348 6:-0.744762 7:0.188346 8:-0.980085 9:-0.995315 10:-0.439885 11:0.587524 12:-0.998078 13:-0.18041 14:-0.997588 15:-0.92557 16:-0.910148 17:-0.967594 18:-0.913741 19:-0.963032 20:-0.9322 21:-0.969041 22:-0.940186 23:-0.975832 24:-0.941496 25:-0.970192 26:-0.939951 27:-0.895972 28:-0.654555 29:-0.875678 30:-0.658029 31:-0.875053 32:-0.667563 33:-0.90963 34:-0.765212 35:-0.999216 36:-0.996332 37:-0.986829 38:-0.977033 39:-0.97591 40:-0.986957 41:-0.984605 42:-0.987261 43:-0.975799 44:-0.976359 45:-0.958357 46:-0.979615 47:-0.979444 48:-0.969555 49:-0.965081 50:-0.958097 51:-0.963134 52:-0.938995 53:-0.934517 54:-0.876395 55:-0.891839 56:-0.89651 57:-0.8625 58:-0.888412 59:-0.802817 60:-0.978675 61:-0.917265 
0.1524424217687785 1:-0.937599 2:-0.882591 3:-0.982889 4:-0.143153 5:0.0381263 6:-0.741625 7:0.186243 8:-0.97883 9:-0.995592 10:-0.439759 11:0.587571 12:-0.997945 13:-0.180694 14:-0.99751 15:-0.923858 16:-0.911472 17:-0.96833 18:-0.912864 19:-0.97456 20:-0.925877 21:-0.975931 22:-0.92466 23:-0.971943 24:-0.937788 25:-0.914566 26:-0.676497 27:-0.893653 28:-0.656216 29:-0.868738 30:-0.654433 31:-0.87278 32:-0.665868 33:-0.917547 34:-0.766588 35:-0.999529 36:-0.994132 37:-0.985831 38:-0.975921 39:-0.975386 40:-0.985619 41:-0.985058 42:-0.978599 43:-0.984487 44:-0.971631 45:-0.976865 46:-0.97282 47:-0.980653 48:-0.961358 49:-0.951836 50:-0.966025 51:-0.950461 52:-0.940191 53:-0.918979 54:-0.909013 55:-0.903638 56:-0.920578 57:-0.9125 58:-0.957082 59:-0.943662 60:-0.977271 61:-0.917249 
0.1658644807244057 1:-0.924738 2:-0.879463 3:-0.982179 4:-0.140763 5:0.0360189 6:-0.72801 7:0.177005 8:-0.971422 9:-0.995346 10:-0.440048 11:0.587565 12:-0.997394 13:-0.180425 14:-0.997061 15:-0.973908 16:-0.909927 17:-0.98193 18:-0.907725 19:-0.982433 20:-0.928773 21:-0.984026 22:-0.933457 23:-0.985361 24:-0.936913 25:-0.898701 26:-0.653338 27:-0.894818 28:-0.638861 29:-0.89465 30:-0.651744 31:-0.891366 32:-0.663852 33:-0.920615 34:-0.750227 35:-0.991373 36:-0.962956 37:-0.98184 38:-0.97481 39:-0.965436 40:-0.984281 41:-0.970115 42:-0.961783 43:-0.947254 44:-0.856265 45:-0.906304 46:-0.978482 47:-0.996372 48:-1 49:-0.998796 50:-1 51:-1 52:-0.998804 53:-1 54:-1 55:-1 56:-0.997593 57:-1 58:-1 59:-1 60:-0.971701 61:-0.910354 
0.1662685819073489 1:-0.919791 2:-0.872297 3:-0.982887 4:-0.141716 5:0.0445084 6:-0.731659 7:0.212999 8:-0.992263 9:-0.990949 10:-0.440206 11:0.587675 12:-0.99772 13:-0.180161 14:-0.996674 15:-0.976405 16:-0.987336 17:-0.962889 18:-0.945749 19:-0.942885 20:-0.933989 21:-0.941253 22:-0.917314 23:-0.955733 24:-0.90818 25:-0.97652 26:-0.927333 27:-0.93165 28:-0.665832 29:-0.858973 30:-0.655029 31:-0.867808 32:-0.658437 33:-0.899493 34:-0.750895 35:-0.99749 36:-0.98808 37:-0.991618 38:-0.982219 39:-0.967531 40:-0.984615 41:-0.971021 42:-0.967898 43:-0.962768 44:-0.956501 45:-0.935223 46:-0.933182 47:-0.893591 48:-0.884075 49:-0.903672 50:-0.94111 51:-0.958525 52:-0.948565 53:-0.968923 54:-0.955365 55:-0.958702 56:-0.973526 57:-0.970833 58:-0.982833 59:-0.943662 60:-0.979565 61:-0.919784 
0.5681174859911288 1:-0.855411 2:-0.87106 3:-0.979213 4:-0.140343 5:0.0739049 6:-0.698476 7:0.347491 8:-0.909234 9:-0.978743 10:-0.439911 11:0.587521 12:-0.984162 13:-0.180085 14:-0.983849 15:-0.854423 16:-0.759703 17:-0.812003 18:-0.815876 19:-0.932112 20:-0.882531 21:-0.938287 22:-0.938641 23:-0.924269 24:-0.929231 25:-0.920162 26:-0.916538 27:-0.947722 28:-0.90166 29:-0.898383 30:-0.694797 31:-0.863731 32:-0.663248 33:-0.871066 34:-0.726934 35:-0.99255 36:-0.977077 37:-0.971463 38:-0.947027 39:-0.916208 40:-0.944482 41:-0.880462 42:-0.928153 43:-0.91995 44:-0.862884 45:-0.858878 46:-0.908267 47:-0.858525 48:-0.881733 49:-0.910897 50:-0.980747 51:-0.985023 52:-0.989234 53:-0.99667 54:-0.998283 55:-1 56:-1 57:-1 58:-1 59:-1 60:-0.980332 61:-0.92679 
1.521867750053921 1:-0.909049 2:-0.871076 3:-0.982734 4:-0.141704 5:0.0481133 6:-0.727409 7:0.228185 8:-0.995082 9:-0.989233 10:-0.440149 11:0.587433 12:-0.996796 13:-0.180084 14:-0.995658 15:-0.95111 16:-0.961557 17:-0.933644 18:-0.943057 19:-0.92667 20:-0.925922 21:-0.923993 22:-0.922449 23:-0.947982 24:-0.91522 25:-0.971021 26:-0.90965 27:-0.947809 28:-0.691445 29:-0.863194 30:-0.658361 31:-0.86501 32:-0.66339 33:-0.893518 34:-0.750324 35:-0.988393 36:-0.964056 37:-0.97286 38:-0.958511 39:-0.926159 40:-0.931438 41:-0.943853 42:-0.936306 43:-0.958424 44:-0.973522 45:-0.991903 46:-0.998867 47:-1 48:-1 49:-1 50:-1 51:-1 52:-1 53:-1 54:-1 55:-1 56:-1 57:-1 58:-1 59:-1 60:-0.978409 61:-0.925366 
0.4356768083942745 1:-0.856189 2:-0.871076 3:-0.979087 4:-0.140272 5:0.073588 6:-0.699049 7:0.345689 8:-0.912362 9:-0.979737 10:-0.408962 11:0.56145 12:-0.984146 13:-0.179862 14:-0.983908 15:-0.847829 16:-0.755698 17:-0.811513 18:-0.818451 19:-0.927517 20:-0.894908 21:-0.939925 22:-0.954029 23:-0.925331 24:-0.930681 25:-0.917948 26:-0.91644 27:-0.960675 28:-0.876885 29:-0.898723 30:-0.695352 31:-0.865798 32:-0.660404 33:-0.88026 34:-0.722898 35:-0.986746 36:-0.955621 37:-0.949112 38:-0.87368 39:-0.853365 40:-0.920736 41:-0.921666 42:-0.906242 43:-0.926156 44:-0.971631 45:-0.991903 46:-0.998867 47:-1 48:-1 49:-1 50:-1 51:-1 52:-1 53:-1 54:-1 55:-1 56:-1 57:-1 58:-1 59:-1 60:-0.980158 61:-0.925416 
2 1:-0.914067 2:-0.870682 3:-0.982573 4:-0.141296 5:0.0478057 6:-0.725187 7:0.226853 8:-0.994913 9:-0.9899 10:-0.440173 11:0.58767 12:-0.996909 13:-0.18011 14:-0.995852 15:-0.953913 16:-0.96017 17:-0.935402 18:-0.938824 19:-0.928396 20:-0.92661 21:-0.922992 22:-0.922379 23:-0.950928 24:-0.912687 25:-0.973502 26:-0.923363 27:-0.974478 28:-0.935899 29:-0.864223 30:-0.660786 31:-0.865735 32:-0.661957 33:-0.893666 34:-0.749242 35:-0.979453 36:-0.962039 37:-0.970066 38:-0.910724 39:-0.907829 40:-0.952843 41:-0.983247 42:-0.997962 43:-0.999379 44:-1 45:-1 46:-1 47:-1 48:-1 49:-1 50:-1 51:-1 52:-1 53:-1 54:-1 55:-1 56:-1 57:-1 58:-1 59:-1 60:-0.976509 61:-0.923683 
1.472008891973887 1:-0.91442 2:-0.870674 3:-0.982645 4:-0.141454 5:0.0479416 6:-0.726468 7:0.227456 8:-0.994944 9:-0.989939 10:-0.440193 11:0.587571 12:-0.99699 13:-0.180062 14:-0.995934 15:-0.953551 16:-0.962742 17:-0.943405 18:-0.937408 19:-0.925746 20:-0.926089 21:-0.926739 22:-0.918602 23:-0.947581 24:-0.919447 25:-0.974589 26:-0.914397 27:-0.899389 28:-0.672405 29:-0.865302 30:-0.653179 31:-0.866609 32:-0.664008 33:-0.899673 34:-0.755849 35:-0.995373 36:-0.982395 37:-0.981441 38:-0.96592 39:-0.960199 40:-0.979264 41:-0.974191 42:-0.961783 43:-0.936705 44:-0.90922 45:-0.862348 46:-0.881087 47:-0.91052 48:-0.95082 49:-0.966285 50:-0.975085 51:-0.986175 52:-0.995215 53:-1 54:-1 55:-1 56:-1 57:-1 58:-1 59:-1 60:-0.97757 61:-0.917788 
0.2174201719886427 1:-0.909615 2:-0.870696 3:-0.982544 4:-0.141358 5:0.047697 6:-0.725925 7:0.226403 8:-0.994809 9:-0.98903 10:-0.440087 11:0.587745 12:-0.996717 13:-0.180119 14:-0.995554 15:-0.939511 16:-0.950085 17:-0.930523 18:-0.94133 19:-0.926247 20:-0.922822 21:-0.924218 22:-0.924566 23:-0.948764 24:-0.905247 25:-0.971842 26:-0.914724 27:-0.949023 28:-0.686108 29:-0.865466 30:-0.660877 31:-0.86613 32:-0.661707 33:-0.895246 34:-0.749647 35:-0.990824 36:-0.977077 37:-0.971064 38:-0.967401 39:-0.958104 40:-0.97291 41:-0.965135 42:-0.941401 43:-0.906298 44:-0.883688 45:-0.903991 46:-0.942242 47:-0.970979 48:-0.982436 49:-0.995184 50:-0.997735 51:-0.998848 52:-1 53:-1 54:-1 55:-1 56:-1 57:-1 58:-1 59:-1 60:-0.977235 61:-0.921737 
0.08847448194175619 1:-0.913713 2:-0.872355 3:-0.983116 4:-0.142014 5:0.0418804 6:-0.733692 7:0.201867 8:-0.987416 9:-0.991227 10:-0.439891 11:0.587562 12:-0.997774 13:-0.180176 14:-0.996784 15:-0.95177 16:-0.967312 17:-0.942332 18:-0.927702 19:-0.938599 20:-0.898013 21:-0.952294 22:-0.907424 23:-0.979345 24:-0.920954 25:-0.981723 26:-0.924547 27:-0.880654 28:-0.656538 29:-0.865759 30:-0.655639 31:-0.873446 32:-0.669275 33:-0.901479 34:-0.737985 35:-0.995373 36:-0.980194 37:-0.986629 38:-0.980737 39:-0.969626 40:-0.98194 41:-0.975096 42:-0.971465 43:-0.964629 44:-0.948936 45:-0.922499 46:-0.926387 47:-0.927449 48:-0.916862 49:-0.903672 50:-0.9094 51:-0.923963 52:-0.947368 53:-0.968923 54:-0.960515 55:-0.974435 56:-0.990373 57:-0.9875 58:-1 59:-1 60:-0.974725 61:-0.911452 
0.06001116119807122 1:-0.916187 2:-0.878912 3:-0.982443 4:-0.141232 5:0.0371248 6:-0.729598 7:0.181553 8:-0.974812 9:-0.994116 10:-0.440089 11:0.587418 12:-0.997204 13:-0.180209 14:-0.996719 15:-0.941759 16:-0.900846 17:-0.968483 18:-0.908088 19:-0.987741 20:-0.927139 21:-0.988436 22:-0.939596 23:-0.985719 24:-0.930964 25:-0.904898 26:-0.657912 27:-0.893637 28:-0.633004 29:-0.885682 30:-0.647865 31:-0.88776 32:-0.661614 33:-0.913728 34:-0.737681 35:-0.977963 36:-0.952687 37:-0.971662 38:-0.951472 39:-0.843938 40:-0.976254 41:-0.999094 42:-0.99949 43:-1 44:-0.999054 45:-0.998843 46:-1 47:-1 48:-1 49:-1 50:-0.998867 51:-0.997696 52:-1 53:-1 54:-1 55:-1 56:-1 57:-1 58:-1 59:-1 60:-0.969375 61:-0.912435 
0.5653661399881523 1:-0.917035 2:-0.879608 3:-0.982202 4:-0.140843 5:0.037284 6:-0.727874 7:0.182284 8:-0.975391 9:-0.9943 10:-0.440132 11:0.587842 12:-0.997077 13:-0.180107 14:-0.996645 15:-0.940741 16:-0.900181 17:-0.976938 18:-0.907388 19:-0.984213 20:-0.920354 21:-0.98508 22:-0.933187 23:-0.986056 24:-0.93468 25:-0.897961 26:-0.653514 27:-0.890975 28:-0.637789 29:-0.886378 30:-0.646635 31:-0.884756 32:-0.658623 33:-0.915152 34:-0.744202 35:-0.994746 36:-0.972309 37:-0.967272 38:-0.969254 39:-0.967531 40:-0.985284 41:-0.974191 42:-0.975541 43:-0.967732 44:-0.956501 45:-0.910931 46:-0.917327 47:-0.858525 48:-0.88993 49:-0.961469 50:-0.994337 51:-0.997696 52:-0.998804 53:-1 54:-0.998283 55:-1 56:-1 57:-1 58:-1 59:-0.971831 60:-0.971719 61:-0.912606 
0.2244860104775502 1:-0.947352 2:-0.882304 3:-0.983057 4:-0.143392 5:0.0375116 6:-0.744726 7:0.184045 8:-0.977198 9:-0.99629 10:-0.439239 11:0.587582 12:-0.998456 13:-0.180979 14:-0.998054 15:-0.933497 16:-0.910887 17:-0.969348 18:-0.912385 19:-0.978099 20:-0.935718 21:-0.980379 22:-0.943912 23:-0.976428 24:-0.942628 25:-0.967602 26:-0.93886 27:-0.890756 28:-0.660087 29:-0.876873 30:-0.660933 31:-0.889049 32:-0.688409 33:-0.922323 34:-0.76795 35:-0.997098 36:-0.984596 37:-0.98623 38:-0.981478 39:-0.974863 40:-0.983278 41:-0.982794 42:-0.976561 43:-0.945392 44:-0.897872 45:-0.868132 46:-0.985277 47:-1 48:-0.998829 49:-1 50:-1 51:-1 52:-0.998804 53:-1 54:-0.998283 55:-1 56:-1 57:-1 58:-1 59:-1 60:-0.975562 61:-0.901996 
2 1:-0.993993 2:0.0370723 3:-0.0937922 4:0.349316 5:0.0497884 6:-0.492889 7:0.237066 8:-0.999755 9:-0.999986 10:-0.440131 11:0.587595 12:-0.999975 13:-0.180106 14:-0.999976 15:-0.983182 16:-0.982739 17:-0.979151 18:-0.967319 19:-0.984741 20:-0.973127 21:-0.989198 22:-0.977498 23:-0.990324 24:-0.980722 25:-0.990425 26:-0.981422 27:-0.987853 28:-0.976365 29:-0.979558 30:-0.979217 31:-0.973752 32:-0.991527 33:-0.969144 34:-0.984838 35:-1 36:-0.999633 37:-0.999401 38:-0.998889 39:-0.997382 40:-0.99699 41:-0.995472 42:-0.995414 43:-0.995656 44:-0.991489 45:-0.990746 46:-0.992072 47:-0.998791 48:-0.996487 49:-0.991571 50:-0.996602 51:-1 52:-0.998804 53:-1 54:-1 55:-1 56:-1 57:-0.995833 58:-1 59:-1 60:-0.986947 61:-0.922969 
2 1:-0.992792 2:0.0334113 3:-0.0910658 4:0.347753 5:0.0233314 6:-0.497191 7:0.216853 8:-0.99815 9:-0.999978 10:-0.440131 11:0.587595 12:-0.999944 13:-0.180105 14:-0.999948 15:-0.963643 16:-0.969134 17:-0.977437 18:-0.977849 19:-0.984961 20:-0.983201 21:-0.9891 22:-0.97807 23:-0.991817 24:-0.982182 25:-0.97144 26:-0.982054 27:-0.968302 28:-0.979813 29:-0.9571 30:-0.986432 31:-0.977523 32:-0.980757 33:-0.980428 34:-0.984344 35:-0.999922 36:-1 37:-0.999401 38:-1 39:-0.997382 40:-0.998328 41:-0.99683 42:-0.996433 43:-0.998759 44:-0.991489 45:-0.995373 46:-0.983012 47:-0.992745 48:-0.989461 49:-0.980734 50:-0.99547 51:-0.996544 52:-0.994019 53:-0.99778 54:-1 55:-0.998033 56:-1 57:-0.995833 58:-1 59:-1 60:-0.986342 61:-0.913298 
0.2797774834225342 1:-0.989117 2:-0.00264609 3:-0.0952722 4:0.343522 5:-0.0115783 6:-0.502552 7:0.190317 8:-0.990629 9:-0.999931 10:-0.440131 11:0.587599 12:-0.999867 13:-0.180104 14:-0.999878 15:-0.954966 16:-0.970806 17:-0.972329 18:-0.971049 19:-0.985122 20:-0.972425 21:-0.98517 22:-0.976819 23:-0.985167 24:-0.978197 25:-0.972726 26:-0.984156 27:-0.970638 28:-0.985849 29:-0.976655 30:-0.980878 31:-0.926259 32:-0.975878 33:-0.953733 34:-0.988804 35:-0.999765 36:-0.999266 37:-0.999202 38:-0.998518 39:-0.997905 40:-0.996321 41:-0.998642 42:-0.995924 43:-0.991933 44:-0.993381 45:-0.979179 46:-0.987542 47:-0.990326 48:-0.984778 49:-0.989163 50:-0.99094 51:-0.991935 52:-0.990431 53:-0.99667 54:-0.993133 55:-0.990167 56:-0.997593 57:-0.995833 58:-1 59:-1 60:-0.984478 61:-0.915617 
1.869592386943488 1:-0.986644 2:-0.196496 3:-0.298721 4:0.267302 5:0.0192302 6:-0.527198 7:0.211251 8:-0.996531 9:-0.999793 10:-0.440136 11:0.587584 12:-0.999806 13:-0.180103 14:-0.999801 15:-0.965844 16:-0.948982 17:-0.976538 18:-0.979834 19:-0.980252 20:-0.984922 21:-0.985932 22:-0.983083 23:-0.906393 24:-0.965847 25:-0.888835 26:-0.923826 27:-0.891019 28:-0.922941 29:-0.908909 30:-0.947086 31:-0.97037 32:-0.99106 33:-0.980204 34:-0.985967 35:-0.999294 36:-0.996882 37:-0.997605 38:-0.994443 39:-0.993716 40:-0.992977 41:-0.995472 42:-0.994395 43:-0.98883 44:-0.980142 45:-0.99306 46:-0.984145 47:-0.987908 48:-0.990632 49:-0.992775 50:-1 51:-1 52:-1 53:-0.99889 54:-1 55:-0.998033 56:-1 57:-1 58:-1 59:-1 60:-0.979694 61:-0.923425 
1.839970693592886 1:-0.972934 2:-0.215459 3:-0.309721 4:0.256755 5:0.0336283 6:-0.540923 7:0.223488 8:-0.995526 9:-0.999279 10:-0.440136 11:0.587619 12:-0.999301 13:-0.180301 14:-0.999338 15:-0.984145 16:-0.990534 17:-0.982186 18:-0.987851 19:-0.954474 20:-0.874521 21:-0.946389 22:-0.956667 23:-0.960453 24:-0.982913 25:-0.974939 26:-0.981947 27:-0.880581 28:-0.915629 29:-0.875811 30:-0.931081 31:-0.924852 32:-0.950895 33:-0.942663 34:-0.981291 35:-0.994746 36:-0.986063 37:-0.990421 38:-0.982589 39:-0.969102 40:-0.985953 41:-0.985511 42:-0.992357 43:-1 44:-1 45:-1 46:-1 47:-1 48:-1 49:-1 50:-1 51:-1 52:-1 53:-1 54:-1 55:-1 56:-1 57:-1 58:-1 59:-1 60:-0.97757 61:-0.927298 
0.161609349772485 1:-0.973287 2:-0.194898 3:-0.297959 4:0.271457 5:-0.0160584 6:-0.51934 7:0.181051 8:-0.986905 9:-0.999716 10:-0.440125 11:0.587619 12:-0.9997 13:-0.179945 14:-0.999693 15:-0.936264 16:-0.906769 17:-0.968942 18:-0.965265 19:-0.982494 20:-0.969355 21:-0.971568 22:-0.96562 23:-0.955516 24:-0.947379 25:-0.958679 26:-0.948058 27:-0.916932 28:-0.930473 29:-0.921687 30:-0.93503 31:-0.929837 32:-0.955942 33:-0.962276 34:-0.964656 35:-0.996236 36:-0.993215 37:-0.995211 38:-0.989257 39:-0.995287 40:-0.99398 41:-0.994114 42:-0.987771 43:-0.983866 44:-0.980142 45:-0.966455 46:-0.976217 47:-0.970979 48:-0.973068 49:-0.980734 50:-0.989807 51:-0.998848 52:-0.996411 53:-0.99667 54:-1 55:-0.996067 56:-1 57:-1 58:-0.991416 59:-1 60:-0.971649 61:-0.914829 
0.09474181697115747 1:-0.974206 2:-0.190988 3:-0.297441 4:0.271522 5:-0.0185051 6:-0.519578 7:0.179008 8:-0.985951 9:-0.999728 10:-0.44013 11:0.587577 12:-0.99972 13:-0.180117 14:-0.999713 15:-0.942843 16:-0.906343 17:-0.975813 18:-0.949191 19:-0.974963 20:-0.963778 21:-0.975047 22:-0.967131 23:-0.957278 24:-0.943975 25:-0.958065 26:-0.946179 27:-0.919655 28:-0.924117 29:-0.9198 30:-0.933838 31:-0.932193 32:-0.959871 33:-0.9558 34:-0.960857 35:-0.997647 36:-0.994315 37:-0.993614 38:-0.993332 39:-0.99005 40:-0.992642 41:-0.98868 42:-0.991847 43:-0.987589 44:-0.987707 45:-0.974552 46:-0.973952 47:-0.968561 48:-0.974239 49:-0.984347 50:-0.983012 51:-0.991935 52:-0.990431 53:-1 54:-0.996567 55:-0.996067 56:-1 57:-0.995833 58:-0.991416 59:-1 60:-0.973435 61:-0.915964 
0.8703055194722681 1:-0.967775 2:-0.200588 3:-0.291003 4:0.272549 5:-0.0152207 6:-0.521615 7:0.182182 8:-0.98707 9:-0.999204 10:-0.440126 11:0.587565 12:-0.999654 13:-0.180115 14:-0.999575 15:-0.929296 16:-0.914734 17:-0.966212 18:-0.979776 19:-0.975255 20:-0.981611 21:-0.897131 22:-0.967527 23:-0.882022 24:-0.938298 25:-0.873244 26:-0.912027 27:-0.879268 28:-0.931657 29:-0.916957 30:-0.938954 31:-0.927137 32:-0.964255 33:-0.958763 34:-0.971667 35:-0.998745 36:-0.993031 37:-0.994013 38:-0.990739 39:-0.989002 40:-0.994314 41:-0.990944 42:-0.993885 43:-0.990071 44:-0.982979 45:-0.982649 46:-0.98188 47:-0.973398 48:-0.984778 49:-0.981939 50:-0.980747 51:-0.976959 52:-0.970096 53:-0.980022 54:-0.963948 55:-0.948869 56:-0.971119 57:-0.941667 58:-0.939914 59:-0.859155 60:-0.975356 61:-0.916766 
0.01545769716184529 1:-0.96933 2:-0.0227703 3:-0.107483 4:0.337584 5:-0.0278793 6:-0.506537 7:0.177758 8:-0.985289 9:-0.99916 10:-0.440136 11:0.587579 12:-0.999688 13:-0.180106 14:-0.999602 15:-0.943324 16:-0.962683 17:-0.955178 18:-0.985415 19:-0.966822 20:-0.98687 21:-0.887348 22:-0.975801 23:-0.865314 24:-0.947696 25:-0.861558 26:-0.941748 27:-0.87016 28:-0.952747 29:-0.874052 30:-0.957965 31:-0.925784 32:-0.979925 33:-0.949994 34:-0.979798 35:-0.993648 36:-0.991748 37:-0.991818 38:-0.985182 39:-0.97172 40:-0.987625 41:-0.978266 42:-0.982675 43:-0.973937 44:-0.992435 45:-0.995373 46:-0.997735 47:-1 48:-1 49:-0.998796 50:-1 51:-1 52:-1 53:-1 54:-1 55:-1 56:-1 57:-1 58:-1 59:-1 60:-0.971503 61:-0.913579 
0.5344810517519845 1:-0.973994 2:-0.0232304 3:-0.100807 4:0.338729 5:-0.0320036 6:-0.508101 7:0.174941 8:-0.984027 9:-0.999314 10:-0.44014 11:0.587591 12:-0.999739 13:-0.180105 14:-0.999667 15:-0.929186 16:-0.973866 17:-0.96095 18:-0.99291 19:-0.974678 20:-0.995499 21:-0.974716 22:-0.992479 23:-0.875848 24:-0.973846 25:-0.860659 26:-0.939405 27:-0.865189 28:-0.958888 29:-0.900491 30:-0.966318 31:-0.921618 32:-0.970108 33:-0.948003 34:-0.982185 35:-0.999686 36:-0.9989 37:-0.997007 38:-0.994814 39:-0.988479 40:-0.994314 41:-0.99185 42:-0.995414 43:-0.982004 44:-0.987707 45:-0.978022 46:-0.978482 47:-0.987908 48:-0.969555 49:-0.980734 50:-0.98188 51:-0.983871 52:-0.980861 53:-0.973363 54:-0.962232 55:-0.958702 56:-0.978339 57:-0.983333 58:-0.982833 59:-0.830986 60:-0.978274 61:-0.910613 
1.375111893951365 1:-0.975831 2:-0.227834 3:-0.0617897 4:-0.249773 5:0.180616 6:-0.994187 7:0.22734 8:-0.962313 9:-0.999236 10:-0.440137 11:0.587572 12:-0.999607 13:-0.180104 14:-0.99954 15:-0.978666 16:-0.959494 17:-0.983851 18:-0.952198 19:-0.990557 20:-0.963037 21:-0.99081 22:-0.967133 23:-0.990547 24:-0.969227 25:-0.961023 26:-0.74691 27:-0.970858 28:-0.774454 29:-0.950248 30:-0.850132 31:-0.963911 32:-0.864365 33:-0.955858 34:-0.930198 35:-0.999373 36:-0.997799 37:-0.996408 38:-0.995925 39:-0.994239 40:-0.99398 41:-0.992302 42:-0.994395 43:-0.991933 44:-0.979196 45:-0.975709 46:-0.967157 47:-0.968561 48:-0.973068 49:-0.972306 50:-0.976217 51:-0.980415 52:-0.982057 53:-0.987791 54:-0.9897 55:-0.984267 56:-0.990373 57:-1 58:-1 59:-1 60:-0.988391 61:-0.945348 
0.5325403491457645 1:-0.973358 2:-0.230774 3:-0.0615775 4:-0.25161 5:0.188131 6:-0.993803 7:0.226413 8:-0.957961 9:-0.999106 10:-0.440132 11:0.587636 12:-0.999542 13:-0.180122 14:-0.999462 15:-0.972597 16:-0.953973 17:-0.990352 18:-0.956355 19:-0.991951 20:-0.9594 21:-0.992936 22:-0.965683 23:-0.991568 24:-0.961026 25:-0.957236 26:-0.745765 27:-0.972426 28:-0.777878 29:-0.948944 30:-0.841095 31:-0.967899 32:-0.862478 33:-0.958327 34:-0.935479 35:-0.987374 36:-0.963506 37:-0.996408 38:-1 39:-1 40:-1 41:-0.999547 42:-1 43:-1 44:-0.999054 45:-1 46:-1 47:-1 48:-1 49:-1 50:-1 51:-1 52:-1 53:-1 54:-1 55:-1 56:-1 57:-1 58:-1 59:-1 60:-0.962314 61:-0.930473 
0.9183513681728146 1:-0.952935 2:-0.237759 3:-0.0717208 4:-0.268303 5:0.248916 6:-0.989954 7:0.216777 8:-0.909756 9:-0.998009 10:-0.440114 11:0.58769 12:-0.998412 13:-0.180081 14:-0.998397 15:-0.952634 16:-0.88861 17:-0.977588 18:-0.920921 19:-0.945482 20:-0.894669 21:-0.993879 22:-0.958051 23:-0.992649 24:-0.95651 25:-0.992867 26:-0.951533 27:-0.962028 28:-0.743457 29:-0.941703 30:-0.771144 31:-0.956049 32:-0.832837 33:-0.961784 34:-0.899888 35:-0.958356 36:-0.975793 37:-0.999601 38:-0.999259 39:-0.999476 40:-1 41:-1 42:-0.99949 43:-1 44:-1 45:-1 46:-1 47:-1 48:-1 49:-1 50:-1 51:-1 52:-1 53:-1 54:-1 55:-1 56:-1 57:-1 58:-1 59:-1 60:-0.954612 61:-0.935845 
0.06521136714066707 1:-0.903184 2:-0.322218 3:-0.0984919 4:-0.261758 5:0.343857 6:-0.990382 7:0.208761 8:-0.795632 9:-0.989213 10:-0.440151 11:0.587764 12:-0.997419 13:-0.18005 14:-0.996685 15:-0.945644 16:-0.88181 17:-0.807901 18:-0.676809 19:-0.927454 20:-0.888211 21:-0.988505 22:-0.951375 23:-0.993542 24:-0.954336 25:-0.994059 26:-0.946699 27:-0.960727 28:-0.738424 29:-0.930613 30:-0.774699 31:-0.94929 32:-0.831847 33:-0.93941 34:-0.898004 35:-0.932946 36:-0.960389 37:-0.959489 38:-0.978515 39:-0.989002 40:-0.99699 41:-0.999094 42:-1 43:-0.998138 44:-1 45:-0.997687 46:-0.998867 47:-0.998791 48:-1 49:-0.997592 50:-1 51:-1 52:-1 53:-1 54:-1 55:-1 56:-1 57:-1 58:-1 59:-1 60:-0.976405 61:-0.961099 
0.2814548842486001 1:-0.894138 2:-0.327707 3:-0.0988778 4:-0.259324 5:0.349696 6:-0.990576 7:0.20922 8:-0.787698 9:-0.985901 10:-0.441103 11:0.587579 12:-0.997257 13:-0.180239 14:-0.996063 15:-0.896241 16:-0.876713 17:-0.791536 18:-0.630221 19:-0.957678 20:-0.88072 21:-0.958289 22:-0.910477 23:-0.992561 24:-0.952681 25:-0.984457 26:-0.939373 27:-0.948642 28:-0.736773 29:-0.926891 30:-0.755028 31:-0.943384 32:-0.826225 33:-0.949203 34:-0.885672 35:-0.933966 36:-0.978544 37:-0.979645 38:-0.946657 39:-0.934014 40:-0.974247 41:-0.983247 42:-0.990318 43:-0.990071 44:-0.995272 45:-0.991903 46:-0.996602 47:-0.996372 48:-1 49:-1 50:-1 51:-1 52:-0.998804 53:-1 54:-1 55:-1 56:-0.997593 57:-1 58:-1 59:-0.971831 60:-0.981662 61:-0.964507 
0.6643839346700798 1:-0.867072 2:-0.333622 3:-0.102371 4:-0.249013 5:0.366745 6:-0.99285 7:0.212145 8:-0.76302 9:-0.983289 10:-0.440086 11:0.587257 12:-0.994729 13:-0.180006 14:-0.993583 15:-0.949699 16:-0.879749 17:-0.783127 18:-0.515581 19:-0.927116 20:-0.891218 21:-0.953432 22:-0.921146 23:-0.989825 24:-0.95013 25:-0.977896 26:-0.940744 27:-0.977716 28:-0.727513 29:-0.922929 30:-0.752356 31:-0.928821 32:-0.818319 33:-0.956085 34:-0.908559 35:-0.991295 36:-0.848157 37:-0.937537 38:-0.981108 39:-0.973291 40:-0.982943 41:-0.978719 42:-0.975541 43:-0.970835 44:-0.956501 45:-0.947947 46:-0.944507 47:-0.95526 48:-0.948478 49:-0.960265 50:-0.976217 51:-0.980415 52:-0.978469 53:-0.987791 54:-0.982833 55:-0.992134 56:-0.997593 57:-1 58:-0.991416 59:-1 60:-0.988215 61:-0.974077 
0.3546633406114805 1:-0.864457 2:-0.348495 3:-0.105316 4:-0.247894 5:0.371526 6:-0.993103 7:0.212192 8:-0.755862 9:-0.983589 10:-0.439983 11:0.587433 12:-0.994395 13:-0.179868 14:-0.993295 15:-0.922233 16:-0.886433 17:-0.763531 18:-0.508031 19:-0.924528 20:-0.887633 21:-0.955777 22:-0.925124 23:-0.987723 24:-0.949132 25:-0.977312 26:-0.945432 27:-0.978704 28:-0.730208 29:-0.92504 30:-0.757631 31:-0.92578 32:-0.82244 33:-0.960491 34:-0.913347 35:-0.992706 36:-0.836787 37:-0.937937 38:-0.979626 39:-0.979576 40:-0.984615 41:-0.973738 42:-0.976561 43:-0.969594 44:-0.95461 45:-0.947947 46:-0.938845 47:-0.961306 48:-0.957845 49:-0.962673 50:-0.970555 51:-0.982719 52:-0.978469 53:-0.985572 54:-0.9897 55:-0.996067 56:-0.987966 57:-0.995833 58:-0.991416 59:-0.971831 60:-0.988502 61:-0.974546 
1.144653614323127 1:-0.855129 2:-0.391435 3:-0.11068 4:-0.245138 5:0.375114 6:-0.993584 7:0.213046 8:-0.74802 9:-0.982062 10:-0.440194 11:0.587463 12:-0.993531 13:-0.180303 14:-0.992468 15:-0.73843 16:-0.608152 17:-0.702844 18:-0.508219 19:-0.922912 20:-0.896965 21:-0.966017 22:-0.953844 23:-0.988001 24:-0.948909 25:-0.987349 26:-0.945626 27:-0.971057 28:-0.729018 29:-0.919605 30:-0.768863 31:-0.930468 32:-0.834538 33:-0.967257 34:-0.937517 35:-0.992393 36:-0.848157 37:-0.901417 38:-0.98333 39:-0.976957 40:-0.984281 41:-0.976907 42:-0.966369 43:-0.968352 44:-0.965012 45:-0.944477 46:-0.952435 47:-0.943168 48:-0.961358 49:-0.969898 50:-0.964892 51:-0.979263 52:-0.983254 53:-0.982242 54:-0.987983 55:-0.990167 56:-0.987966 57:-1 58:-0.991416 59:-0.971831 60:-0.989095 61:-0.975963 
0.2136908547624894 1:-0.951168 2:-0.226382 3:-0.0492395 4:-0.267733 5:0.258368 6:-0.990382 7:0.216476 8:-0.903065 9:-0.998039 10:-0.440142 11:0.587553 12:-0.998648 13:-0.180078 14:-0.99864 15:-0.965114 16:-0.882023 17:-0.928497 18:-0.894062 19:-0.988788 20:-0.951779 21:-0.986506 22:-0.952007 23:-0.976272 24:-0.729437 25:-0.98252 26:-0.72607 27:-0.956289 28:-0.749069 29:-0.91637 30:-0.811398 31:-0.927995 32:-0.857903 33:-0.954484 34:-0.922667 35:-0.994589 36:-0.98973 37:-0.991618 38:-0.984442 39:-0.982194 40:-0.987291 41:-0.986416 42:-0.974013 43:-0.973317 44:-0.973522 45:-0.956044 46:-0.946772 47:-0.958888 48:-0.9637 49:-0.971102 50:-0.975085 51:-0.982719 52:-0.986842 53:-0.981132 54:-0.977682 55:-0.9941 56:-0.99278 57:-1 58:-0.982833 59:-0.971831 60:-0.987695 61:-0.960616 
0.6141737696550403 1:-0.951097 2:-0.225838 3:-0.0464932 4:-0.263507 5:0.279215 6:-0.99124 7:0.215753 8:-0.884232 9:-0.997578 10:-0.440631 11:0.587681 12:-0.998826 13:-0.178868 14:-0.998709 15:-0.973854 16:-0.890528 17:-0.897599 18:-0.657493 19:-0.957744 20:-0.720433 21:-0.981036 22:-0.756031 23:-0.97621 24:-0.781693 25:-0.973209 26:-0.813662 27:-0.937765 28:-0.84345 29:-0.932702 30:-0.89484 31:-0.947561 32:-0.932093 33:-0.943369 34:-0.944596 35:-0.996157 36:-0.987346 37:-0.989224 38:-0.987776 39:-0.989526 40:-0.989967 41:-0.985058 42:-0.986242 43:-0.979522 44:-0.968794 45:-0.954887 46:-0.953567 47:-0.957678 48:-0.973068 49:-0.965081 50:-0.970555 51:-0.97235 52:-0.966507 53:-0.976693 54:-0.963948 55:-0.976401 56:-0.987966 57:-0.979167 58:-0.991416 59:-0.887324 60:-0.987166 61:-0.958741 
0.6188747422814009 1:-0.954984 2:-0.226936 3:-0.0474626 4:-0.262463 5:0.27158 6:-0.991636 7:0.21676 8:-0.89145 9:-0.998214 10:-0.440138 11:0.587596 12:-0.998728 13:-0.1801 14:-0.998715 15:-0.966794 16:-0.885324 17:-0.927335 18:-0.888921 19:-0.985742 20:-0.947417 21:-0.965205 22:-0.710228 23:-0.967429 24:-0.722973 25:-0.981087 26:-0.743669 27:-0.944252 28:-0.797654 29:-0.942538 30:-0.847874 31:-0.947506 32:-0.901687 33:-0.970612 34:-0.943573 35:-0.995843 36:-0.989364 37:-0.990421 38:-0.985553 39:-0.985336 40:-0.989632 41:-0.985511 42:-0.98828 43:-0.978902 44:-0.966903 45:-0.964141 46:-0.961495 47:-0.960097 48:-0.964871 49:-0.966285 50:-0.973952 51:-0.980415 52:-0.98445 53:-0.987791 54:-0.972532 55:-0.974435 56:-0.987966 57:-0.991667 58:-0.991416 59:-0.943662 60:-0.986456 61:-0.957537 
0.5627100966956651 1:-0.934349 2:-0.279806 3:-0.0670861 4:-0.242799 5:0.332167 6:-0.993975 7:0.218178 8:-0.81571 9:-0.990874 10:-0.440134 11:0.587492 12:-0.997467 13:-0.179979 14:-0.996805 15:-0.719393 16:-0.528727 17:-0.92037 18:-0.916336 19:-0.937301 20:-0.968669 21:-0.97183 22:-0.961617 23:-0.982819 24:-0.951698 25:-0.944461 26:-0.739897 27:-0.946595 28:-0.737088 29:-0.897258 30:-0.793261 31:-0.927601 32:-0.866515 33:-0.931156 34:-0.916316 35:-0.97561 36:-0.971942 37:-0.990421 38:-0.989998 39:-0.986908 40:-0.988294 41:-0.987775 42:-0.978089 43:-0.980763 44:-0.963121 45:-0.962984 46:-0.969422 47:-0.951632 48:-0.967213 49:-0.97953 50:-0.97282 51:-0.985023 52:-0.994019 53:-0.99556 54:-0.998283 55:-0.998033 56:-1 57:-0.995833 58:-1 59:-1 60:-0.982329 61:-0.959141 
2 1:-0.989117 2:-0.175371 3:-0.00431155 4:-0.226187 5:0.157793 6:-0.998275 7:0.23286 8:-0.97635 9:-0.99998 10:-0.44013 11:0.587595 12:-0.999909 13:-0.180107 14:-0.999916 15:-0.977665 16:-0.966834 17:-0.970652 18:-0.920259 19:-0.96319 20:-0.924839 21:-0.967772 22:-0.925455 23:-0.964963 24:-0.913879 25:-0.967869 26:-0.932248 27:-0.968747 28:-0.944835 29:-0.97954 30:-0.959427 31:-0.980941 32:-0.972843 33:-0.97805 34:-0.98354 35:-1 36:-0.999633 37:-1 38:-0.99963 39:-0.998429 40:-0.999666 41:-0.998189 42:-0.997962 43:-0.995656 44:-0.994326 45:-0.991903 46:-0.99094 47:-0.98549 48:-0.994145 49:-0.985551 50:-0.993205 51:-0.982719 52:-0.985646 53:-0.988901 54:-0.974249 55:-0.984267 56:-0.978339 57:-0.983333 58:-0.965665 59:-0.943662 60:-0.991514 61:-0.944995 
0.08653778650981599 1:-0.961768 2:-0.210761 3:-0.0259096 4:-0.255517 5:0.235565 6:-0.993112 7:0.222205 8:-0.925065 9:-0.998182 10:-0.440117 11:0.58768 12:-0.99898 13:-0.18012 14:-0.998889 15:-0.933118 16:-0.959208 17:-0.918142 18:-0.951307 19:-0.935851 20:-0.973034 21:-0.970501 22:-0.965408 23:-0.975038 24:-0.97216 25:-0.942111 26:-0.743969 27:-0.933585 28:-0.762988 29:-0.89135 30:-0.837504 31:-0.928582 32:-0.878711 33:-0.944779 34:-0.933061 35:-0.999922 36:-0.996699 37:-0.996408 38:-0.992591 39:-0.990573 40:-0.99398 41:-0.992755 42:-0.992357 43:-0.990692 44:-0.98487 45:-0.968768 46:-0.983012 47:-0.962515 48:-0.957845 49:-0.966285 50:-0.966025 51:-0.952765 52:-0.946172 53:-0.968923 54:-0.953648 55:-0.93707 56:-0.947052 57:-0.945833 58:-0.914163 59:-0.887324 60:-0.989786 61:-0.950435 
0.4483778943811306 1:-0.963323 2:-0.217419 3:-0.030596 4:-0.251034 5:0.231677 6:-0.993941 7:0.223529 8:-0.927856 9:-0.998254 10:-0.440139 11:0.587609 12:-0.998946 13:-0.180085 14:-0.998862 15:-0.91247 16:-0.973617 17:-0.916298 18:-0.952394 19:-0.965144 20:-0.966841 21:-0.975002 22:-0.984587 23:-0.955244 24:-0.770887 25:-0.956002 26:-0.752972 27:-0.945561 28:-0.933862 29:-0.917383 30:-0.861181 31:-0.930827 32:-0.909656 33:-0.943525 34:-0.948861 35:-0.999216 36:-0.994498 37:-0.994412 38:-0.993332 39:-0.991621 40:-0.997324 41:-0.994114 42:-0.989299 43:-0.981384 44:-0.985816 45:-0.974552 46:-0.964892 47:-0.95526 48:-0.957845 49:-0.967489 50:-0.960362 51:-0.96659 52:-0.9689 53:-0.975583 54:-0.967382 55:-0.974435 56:-0.966306 57:-0.95 58:-0.93133 59:-0.943662 60:-0.989128 61:-0.952494 
0.4695791389836252 1:-0.966362 2:-0.215298 3:-0.0315972 4:-0.249839 5:0.23043 6:-0.99414 7:0.223896 8:-0.928793 9:-0.99837 10:-0.4401 11:0.587578 12:-0.999018 13:-0.1801 14:-0.998936 15:-0.917464 16:-0.973734 17:-0.912895 18:-0.948208 19:-0.966663 20:-0.973112 21:-0.97184 22:-0.988334 23:-0.980576 24:-0.987185 25:-0.964511 26:-0.97302 27:-0.945416 28:-0.926434 29:-0.903181 30:-0.868717 31:-0.927579 32:-0.896566 33:-0.932298 34:-0.954114 35:-0.999137 36:-0.994315 37:-0.994811 38:-0.990369 39:-0.992668 40:-0.991639 41:-0.994566 42:-0.987771 43:-0.986348 44:-0.982033 45:-0.973395 46:-0.95923 47:-0.962515 48:-0.964871 49:-0.960265 50:-0.973952 51:-0.979263 52:-0.983254 53:-0.986681 54:-0.981116 55:-0.968535 56:-0.975933 57:-0.9875 58:-0.957082 59:-0.887324 60:-0.988356 61:-0.95374 
0.08641603380663139 1:-0.94714 2:-0.182851 3:0.0190847 4:-0.256101 5:0.225545 6:-0.993168 7:0.22354 8:-0.935912 9:-0.997215 10:-0.440276 11:0.587546 12:-0.998902 13:-0.180686 14:-0.998677 15:-0.949141 16:-0.946306 17:-0.934158 18:-0.957948 19:-0.964705 20:-0.975402 21:-0.918301 22:-0.764895 23:-0.914508 24:-0.763578 25:-0.919946 26:-0.770002 27:-0.946439 28:-0.825799 29:-0.954171 30:-0.862252 31:-0.945768 32:-0.922609 33:-0.941594 34:-0.934535 35:-0.996079 36:-0.986063 37:-0.989024 38:-0.985923 39:-0.971197 40:-0.985619 41:-0.973738 42:-0.964331 43:-0.955321 44:-0.947991 45:-0.94679 46:-0.958097 47:-0.956469 48:-0.984778 49:-0.981939 50:-0.988675 51:-0.99424 52:-0.995215 53:-0.992231 54:-0.99485 55:-0.996067 56:-1 57:-0.995833 58:-1 59:-1 60:-0.988171 61:-0.95951 
0.7229783816569914 1:-0.947069 2:-0.183506 3:0.0182466 4:-0.255807 5:0.232552 6:-0.993167 7:0.223043 8:-0.930801 9:-0.997037 10:-0.440021 11:0.587674 12:-0.999008 13:-0.180291 14:-0.998745 15:-0.958162 16:-0.949825 17:-0.93914 18:-0.965605 19:-0.904853 20:-0.752395 21:-0.917476 22:-0.766067 23:-0.922244 24:-0.777129 25:-0.93312 26:-0.802379 27:-0.962768 28:-0.848731 29:-0.92686 30:-0.878676 31:-0.947357 32:-0.933699 33:-0.944076 34:-0.938279 35:-0.993804 36:-0.987163 37:-0.989024 38:-0.984442 39:-0.981671 40:-0.983612 41:-0.972832 42:-0.971975 43:-0.95408 44:-0.942317 45:-0.960671 46:-0.949037 47:-0.956469 48:-0.973068 49:-0.992775 50:-0.99094 51:-0.991935 52:-0.994019 53:-0.99556 54:-0.998283 55:-0.996067 56:-1 57:-0.995833 58:-1 59:-1 60:-0.987678 61:-0.959265 
0.4794614358250864 1:-0.944666 2:-0.207624 3:0.00461968 4:-0.258417 5:0.255311 6:-0.992441 7:0.220345 8:-0.911106 9:-0.996359 10:-0.440136 11:0.587522 12:-0.998995 13:-0.180098 14:-0.998669 15:-0.918465 16:-0.927159 17:-0.849387 18:-0.721309 19:-0.917725 20:-0.750201 21:-0.943816 22:-0.767501 23:-0.953837 24:-0.807009 25:-0.967123 26:-0.826022 27:-0.968723 28:-0.868737 29:-0.956045 30:-0.898414 31:-0.949015 32:-0.941468 33:-0.947487 34:-0.94847 35:-0.99749 36:-0.987346 37:-0.989623 38:-0.985182 39:-0.983765 40:-0.991304 41:-0.98868 42:-0.98828 43:-0.982004 44:-0.971631 45:-0.973395 46:-0.966025 47:-0.968561 48:-0.947307 49:-0.954244 50:-0.960362 51:-0.961982 52:-0.937799 53:-0.950055 54:-0.939914 55:-0.950836 56:-0.956679 57:-0.945833 58:-0.939914 59:-0.887324 60:-0.987505 61:-0.956495 
0.1972908974479831 1:-0.951874 2:-0.224605 3:-0.0488271 4:-0.243319 5:0.245544 6:-0.995029 7:0.224225 8:-0.916084 9:-0.997286 10:-0.440159 11:0.587615 12:-0.999184 13:-0.180085 14:-0.998915 15:-0.920139 16:-0.949423 17:-0.928047 18:-0.973951 19:-0.948151 20:-0.731121 21:-0.938308 22:-0.761629 23:-0.929893 24:-0.8136 25:-0.922972 26:-0.849317 27:-0.932681 28:-0.870861 29:-0.949587 30:-0.890672 31:-0.950788 32:-0.9275 33:-0.960683 34:-0.96079 35:-0.994746 36:-0.991748 37:-0.992616 38:-0.985923 39:-0.980623 40:-0.990635 41:-0.983247 42:-0.982166 43:-0.972076 44:-0.970686 45:-0.935223 46:-0.938845 47:-0.92503 48:-0.951991 49:-0.965081 50:-0.96829 51:-0.995392 52:-0.995215 53:-0.99667 54:-0.996567 55:-0.998033 56:-1 57:-1 58:-1 59:-1 60:-0.98789 61:-0.956987 
2 1:-0.910533 2:-0.350787 3:-0.0846727 4:-0.223209 5:0.347039 6:-0.997153 7:0.224937 8:-0.793612 9:-0.990799 10:-0.440186 11:0.587574 12:-0.99621 13:-0.181614 14:-0.995857 15:-0.728738 16:-0.556229 17:-0.926709 18:-0.976645 19:-0.928666 20:-0.970597 21:-0.970093 22:-0.976592 23:-0.931882 24:-0.751779 25:-0.935375 26:-0.749606 27:-0.937538 28:-0.792469 29:-0.930633 30:-0.836952 31:-0.941804 32:-0.912711 33:-0.943456 34:-0.957063 35:-0.993412 36:-0.915276 37:-0.966873 38:-0.985923 39:-0.981671 40:-0.988963 41:-0.985511 42:-0.97758 43:-0.976419 44:-0.964066 45:-0.935223 46:-0.969422 47:-0.958888 48:-0.956674 49:-0.954244 50:-0.966025 51:-0.963134 52:-0.971292 53:-0.992231 54:-0.99485 55:-0.990167 56:-0.990373 57:-0.991667 58:-1 59:-1 60:-0.988723 61:-0.972133 
0.4641687608136425 1:-0.889262 2:-0.360279 3:-0.105744 4:-0.21999 5:0.371502 6:-0.997335 7:0.225076 8:-0.752699 9:-0.987452 10:-0.440184 11:0.587573 12:-0.995304 13:-0.179895 14:-0.994844 15:-0.721318 16:-0.580213 17:-0.909764 18:-0.97979 19:-0.918612 20:-0.961603 21:-0.971709 22:-0.979015 23:-0.96877 24:-0.987347 25:-0.972247 26:-0.983672 27:-0.949363 28:-0.969376 29:-0.931662 30:-0.786965 31:-0.940589 32:-0.780617 33:-0.944998 34:-0.869925 35:-0.94024 36:-0.930864 37:-0.988026 38:-0.976662 39:-0.969102 40:-0.98495 41:-0.975096 42:-0.986752 43:-0.97704 44:-0.971631 45:-0.972238 46:-0.99094 47:-0.992745 48:-0.995316 49:-0.991571 50:-0.997735 51:-0.998848 52:-0.997608 53:-0.99889 54:-0.998283 55:-1 56:-1 57:-1 58:-1 59:-1 60:-0.989273 61:-0.978143 
0.2295108250721997 1:-0.96721 2:-0.231362 3:-0.0510815 4:-0.246673 5:0.234798 6:-0.994898 7:0.224071 8:-0.923379 9:-0.998927 10:-0.440162 11:0.587612 12:-0.99893 13:-0.180408 14:-0.998965 15:-0.907268 16:-0.983066 17:-0.909647 18:-0.968436 19:-0.946366 20:-0.949261 21:-0.976743 22:-0.983769 23:-0.969775 24:-0.985531 25:-0.974237 26:-0.983897 27:-0.946206 28:-0.968931 29:-0.930981 30:-0.799772 31:-0.950498 32:-0.785389 33:-0.954067 34:-0.804752 35:-0.999059 36:-0.991564 37:-0.992417 38:-0.985923 39:-0.982718 40:-0.989298 41:-0.984152 42:-0.982166 43:-0.976419 44:-0.981087 45:-0.966455 46:-0.975085 47:-0.970979 48:-0.976581 49:-0.981939 50:-0.99094 51:-0.99424 52:-0.996411 53:-0.993341 54:-0.998283 55:-0.9941 56:-0.995187 57:-0.995833 58:-0.991416 59:-1 60:-0.98746 61:-0.956322 
0.319852195525508 1:-0.970884 2:-0.23073 3:-0.050929 4:-0.248857 5:0.246459 6:-0.994533 7:0.222648 8:-0.913799 9:-0.999086 10:-0.440131 11:0.58759 12:-0.998986 13:-0.180088 14:-0.999033 15:-0.91195 16:-0.982088 17:-0.908874 18:-0.965346 19:-0.941152 20:-0.951495 21:-0.97718 22:-0.980474 23:-0.969644 24:-0.982234 25:-0.971865 26:-0.984068 27:-0.949368 28:-0.970916 29:-0.933502 30:-0.81128 31:-0.94873 32:-0.802953 33:-0.961671 34:-0.810621 35:-0.99898 36:-0.993765 37:-0.99102 38:-0.987035 39:-0.987955 40:-0.991304 41:-0.988227 42:-0.986242 43:-0.983245 44:-0.981087 45:-0.968768 46:-0.962627 47:-0.962515 48:-0.982436 49:-0.985551 50:-0.997735 51:-0.993088 52:-0.997608 53:-0.99667 54:-0.996567 55:-0.9941 56:-1 57:-1 58:-0.991416 59:-0.943662 60:-0.986408 61:-0.953826 
0.390419185234916 1:-0.973004 2:-0.242829 3:-0.0521583 4:-0.249467 5:0.253137 6:-0.994545 7:0.221956 8:-0.908138 9:-0.999374 10:-0.440147 11:0.587576 12:-0.999029 13:-0.180167 14:-0.999109 15:-0.897567 16:-0.957244 17:-0.914647 18:-0.964628 19:-0.968428 20:-0.967388 21:-0.973211 22:-0.963003 23:-0.976296 24:-0.976696 25:-0.970052 26:-0.981868 27:-0.912748 28:-0.970521 29:-0.911329 30:-0.959029 31:-0.951828 32:-0.83194 33:-0.959607 34:-0.980987 35:-0.996549 36:-0.991014 37:-0.992018 38:-0.990369 39:-0.981147 40:-0.98796 41:-0.98053 42:-0.971975 43:-0.990692 44:-0.989598 45:-0.99306 46:-0.99547 47:-0.993954 48:-0.998829 49:-0.995184 50:-0.997735 51:-0.998848 52:-0.996411 53:-0.99889 54:-0.99485 55:-1 56:-1 57:-1 58:-1 59:-1 60:-0.981777 61:-0.945796 
2 1:-0.971591 2:-0.233777 3:-0.0540877 4:-0.248877 5:0.235606 6:-0.994679 7:0.223411 8:-0.921758 9:-0.999343 10:-0.440127 11:0.587636 12:-0.998943 13:-0.180323 14:-0.99905 15:-0.910336 16:-0.975984 17:-0.906064 18:-0.965859 19:-0.969496 20:-0.965156 21:-0.974306 22:-0.988093 23:-0.97898 24:-0.978718 25:-0.94771 26:-0.969378 27:-0.920236 28:-0.956405 29:-0.927832 30:-0.936251 31:-0.953286 32:-0.955525 33:-0.958578 34:-0.979957 35:-0.996471 36:-0.990464 37:-0.994013 38:-0.992591 39:-0.988479 40:-0.99097 41:-0.986416 42:-0.986242 43:-0.975799 44:-0.944208 45:-0.987276 46:-0.988675 47:-0.983071 48:-0.995316 49:-0.995184 50:-0.996602 51:-0.995392 52:-0.998804 53:-0.99778 54:-1 55:-0.998033 56:-1 57:-1 58:-1 59:-1 60:-0.984805 61:-0.950256 
0.2674080972717502 1:-0.882124 2:-0.36508 3:-0.113067 4:-0.220574 5:0.362179 6:-0.997055 7:0.225071 8:-0.76215 9:-0.984547 10:-0.4401 11:0.587113 12:-0.994876 13:-0.180091 14:-0.994256 15:-0.715499 16:-0.599418 17:-0.903599 18:-0.956328 19:-0.932742 20:-0.953411 21:-0.975185 22:-0.98116 23:-0.976175 24:-0.98229 25:-0.918326 26:-0.969561 27:-0.919885 28:-0.950768 29:-0.931268 30:-0.874928 31:-0.953032 32:-0.948147 33:-0.957262 34:-0.974557 35:-0.98408 36:-0.824317 37:-0.985232 38:-0.983701 39:-0.9801 40:-0.988294 41:-0.982341 42:-0.983694 43:-0.980143 44:-0.972577 45:-0.969925 46:-0.960362 47:-0.956469 48:-0.953162 49:-0.974714 50:-0.992072 51:-0.995392 52:-0.986842 53:-0.99667 54:-0.996567 55:-0.996067 56:-1 57:-1 58:-1 59:-1 60:-0.989569 61:-0.977773 
1.666497569209799 1:-0.96403 2:-0.238922 3:-0.0604079 4:-0.249518 5:0.183043 6:-0.994571 7:0.227201 8:-0.960327 9:-0.999521 10:-0.440129 11:0.587621 12:-0.998726 13:-0.180153 14:-0.998829 15:-0.92442 16:-0.946947 17:-0.930384 18:-0.933799 19:-0.977162 20:-0.954839 21:-0.979587 22:-0.953463 23:-0.96026 24:-0.961214 25:-0.909472 26:-0.95052 27:-0.932019 28:-0.906119 29:-0.97406 30:-0.897693 31:-0.970569 32:-0.932582 33:-0.968806 34:-0.987653 35:-0.999451 36:-0.996882 37:-0.995211 38:-0.992591 39:-0.994763 40:-0.994314 41:-0.989586 42:-0.990828 43:-0.991312 44:-0.977305 45:-0.969925 46:-0.973952 47:-0.960097 48:-0.944965 49:-0.949428 50:-0.955832 51:-0.965438 52:-0.973684 53:-0.976693 54:-0.986266 55:-0.978368 56:-0.978339 57:-0.929167 58:-0.957082 59:-0.859155 60:-0.988999 61:-0.947861 
0.827495992394024 1:-0.982969 2:-0.270547 3:-0.0758423 4:-0.262122 5:0.228349 6:-0.991858 7:0.220361 8:-0.927667 9:-0.999771 10:-0.440122 11:0.587262 12:-0.999395 13:-0.180132 14:-0.999459 15:-0.871982 16:-0.815168 17:-0.934831 18:-0.94496 19:-0.993573 20:-0.991803 21:-1 22:-1 23:-1 24:-1 25:-1 26:-1 27:-0.978375 28:-0.976737 29:-0.965049 30:-0.922738 31:-0.989564 32:-0.928907 33:-0.986027 34:-0.923982 35:-0.999922 36:-0.998166 37:-0.997406 38:-0.996666 39:-0.997905 40:-0.997993 41:-0.997283 42:-0.994395 43:-0.994415 44:-0.98487 45:-0.987276 46:-0.987542 47:-0.98549 48:-0.985948 49:-0.990367 50:-0.987542 51:-0.985023 52:-0.976077 53:-0.983352 54:-0.981116 55:-0.964602 56:-0.98556 57:-0.966667 58:-0.991416 59:-0.943662 60:-0.989191 61:-0.949894 
0.3977364872458846 1:-0.932229 2:-0.23767 3:-0.0446486 4:-0.25987 5:0.252224 6:-0.991242 7:0.219317 8:-0.90907 9:-0.993382 10:-0.44023 11:0.587886 12:-0.99749 13:-0.180008 14:-0.996879 15:-0.907776 16:-0.508628 17:-0.917531 18:-0.884679 19:-0.979329 20:-0.945999 21:-0.982039 22:-0.949077 23:-0.937349 24:-0.910086 25:-0.946612 26:-0.902689 27:-0.938053 28:-0.887724 29:-0.967242 30:-0.863234 31:-0.969682 32:-0.910901 33:-0.993004 34:-0.961967 35:-0.93279 36:-0.982578 37:-0.999002 38:-0.998889 39:-1 40:-1 41:-1 42:-0.99949 43:-1 44:-1 45:-1 46:-1 47:-1 48:-1 49:-0.998796 50:-1 51:-1 52:-1 53:-1 54:-1 55:-1 56:-1 57:-1 58:-1 59:-1 60:-0.960583 61:-0.955811 
0.005900528858959876 1:-0.838875 2:-0.35263 3:-0.100131 4:-0.241622 5:0.350083 6:-0.993811 7:0.21669 8:-0.786438 9:-0.976019 10:-0.439895 11:0.587197 12:-0.992116 13:-0.179915 14:-0.990294 15:-0.744429 16:-0.495569 17:-0.915816 18:-0.8954 19:-0.980967 20:-0.944337 21:-0.977028 22:-0.940198 23:-0.93715 24:-0.907123 25:-0.944179 26:-0.889073 27:-0.945485 28:-0.916671 29:-0.947324 30:-0.877413 31:-0.96437 32:-0.900859 33:-0.972739 34:-0.941637 35:-0.992314 36:-0.932147 37:-0.770904 38:-0.968883 39:-0.973291 40:-0.986288 41:-0.988227 42:-0.980637 43:-0.972076 44:-0.959338 45:-0.931752 46:-0.947905 47:-0.946796 48:-0.955504 49:-0.959061 50:-0.971687 51:-0.979263 52:-0.978469 53:-0.982242 54:-0.958798 55:-0.984267 56:-0.987966 57:-0.991667 58:-0.982833 59:-1 60:-0.990394 61:-0.978136 
0.7825620865270277 1:-0.854917 2:-0.363809 3:-0.100623 4:-0.239081 5:0.355107 6:-0.994375 7:0.217437 8:-0.780112 9:-0.979923 10:-0.440154 11:0.588135 12:-0.992655 13:-0.180054 14:-0.991214 15:-0.735149 16:-0.504082 17:-0.919215 18:-0.90035 19:-0.98271 20:-0.945518 21:-0.978581 22:-0.945387 23:-0.974733 24:-0.942834 25:-0.929959 26:-0.914788 27:-0.9459 28:-0.900163 29:-0.913168 30:-0.821222 31:-0.945209 32:-0.84678 33:-0.972546 34:-0.931924 35:-0.993491 36:-0.953237 37:-0.793454 38:-0.950361 39:-0.979576 40:-0.989632 41:-0.991397 42:-0.98879 43:-0.980143 44:-0.971631 45:-0.954887 46:-0.95017 47:-0.949214 48:-0.951991 49:-0.948224 50:-0.96376 51:-0.967742 52:-0.978469 53:-0.974473 54:-0.974249 55:-0.960669 56:-0.975933 57:-0.958333 58:-0.974249 59:-0.774648 60:-0.990238 61:-0.97765 
0.114419924036075 1:-0.853998 2:-0.357116 3:-0.0966884 4:-0.23964 5:0.35591 6:-0.994326 7:0.217234 8:-0.78008 9:-0.980032 10:-0.440055 11:0.58759 12:-0.993185 13:-0.179619 14:-0.9917 15:-0.741328 16:-0.507567 17:-0.914036 18:-0.899167 19:-0.983131 20:-0.95146 21:-0.980668 22:-0.948609 23:-0.98022 24:-0.944514 25:-0.944929 26:-0.919508 27:-0.95272 28:-0.932984 29:-0.938519 30:-0.906406 31:-0.883189 32:-0.767234 33:-0.927092 34:-0.83819 35:-0.992628 36:-0.925362 37:-0.811814 38:-0.971106 39:-0.976957 40:-0.991639 41:-0.987322 42:-0.983694 43:-0.977661 44:-0.963121 45:-0.957201 46:-0.939977 47:-0.950423 48:-0.944965 49:-0.968694 50:-0.96829 51:-0.960829 52:-0.98445 53:-0.983352 54:-0.970815 55:-0.972468 56:-0.975933 57:-0.9875 58:-0.991416 59:-0.887324 60:-0.990149 61:-0.977611 
0.6249452247977232 1:-0.947281 2:-0.222609 3:-0.030596 4:-0.268058 5:0.240901 6:-0.990625 7:0.218513 8:-0.919759 9:-0.998389 10:-0.440121 11:0.587652 12:-0.998156 13:-0.178402 14:-0.998259 15:-0.966795 16:-0.883992 17:-0.921913 18:-0.898644 19:-0.982332 20:-0.951264 21:-0.98514 22:-0.955247 23:-0.986016 24:-0.953641 25:-0.990511 26:-0.948253 27:-0.975768 28:-0.937032 29:-0.893728 30:-0.777112 31:-0.879601 32:-0.765172 33:-0.870124 34:-0.78841 35:-0.99404 36:-0.984229 37:-0.991219 38:-0.985553 39:-0.983242 40:-0.989632 41:-0.990038 42:-0.979108 43:-0.97704 44:-0.960284 45:-0.94332 46:-0.946772 47:-0.952842 48:-0.95082 49:-0.97351 50:-0.973952 51:-0.976959 52:-0.983254 53:-0.983352 54:-0.974249 55:-0.986234 56:-0.995187 57:-0.991667 58:-0.982833 59:-1 60:-0.987342 61:-0.960473 
0.2608087840324544 1:-0.91866 2:-0.261419 3:-0.0535586 4:-0.249668 5:0.338752 6:-0.993181 7:0.21532 8:-0.814108 9:-0.991154 10:-0.438794 11:0.586424 12:-0.997144 13:-0.18008 14:-0.99644 15:-0.877237 16:-0.489495 17:-0.941837 18:-0.894661 19:-0.867711 20:-0.702104 21:-0.929315 22:-0.736724 23:-0.93709 24:-0.75726 25:-0.955992 26:-0.787358 27:-0.933576 28:-0.825082 29:-0.934533 30:-0.877079 31:-0.942706 32:-0.925999 33:-0.97384 34:-0.937167 35:-0.981805 36:-0.934715 37:-0.989224 38:-0.979626 39:-0.973291 40:-0.979933 41:-0.974191 42:-0.969427 43:-0.966491 44:-0.949882 45:-0.952574 46:-0.973952 47:-0.980653 48:-0.984778 49:-0.985551 50:-0.993205 51:-0.99424 52:-0.997608 53:-0.99889 54:-0.996567 55:-1 56:-0.997593 57:-1 58:-1 59:-1 60:-0.984746 61:-0.964999 
0.4898353845009591 1:-0.871595 2:-0.340601 3:-0.0892915 4:-0.248968 5:0.373634 6:-0.992809 7:0.211997 8:-0.757886 9:-0.98331 10:-0.439443 11:0.587383 12:-0.995716 13:-0.180178 14:-0.994286 15:-0.766306 16:-0.504347 17:-0.934694 18:-0.893327 19:-0.864922 20:-0.713872 21:-0.930825 22:-0.73123 23:-0.925295 24:-0.729035 25:-0.946437 26:-0.778058 27:-0.964528 28:-0.817577 29:-0.9319 30:-0.862118 31:-0.94337 32:-0.893564 33:-0.956895 34:-0.930172 35:-0.989805 36:-0.808546 37:-0.980842 38:-0.979255 39:-0.980623 40:-0.981271 41:-0.979171 42:-0.964841 43:-0.97704 44:-0.951773 45:-0.947947 46:-0.962627 47:-0.949214 48:-0.967213 49:-0.969898 50:-0.984145 51:-0.99424 52:-0.996411 53:-1 54:-0.99485 55:-1 56:-1 57:-1 58:-1 59:-1 60:-0.988612 61:-0.975171 
0.273981347465114 1:-0.94827 2:-0.231116 3:-0.0556406 4:-0.258844 5:0.271292 6:-0.992179 7:0.2177 8:-0.891355 9:-0.997418 10:-0.440141 11:0.58763 12:-0.998681 13:-0.18011 14:-0.998539 15:-0.955308 16:-0.877077 17:-0.924611 18:-0.887963 19:-0.981385 20:-0.69907 21:-0.970197 22:-0.728253 23:-0.969078 24:-0.769532 25:-0.973724 26:-0.802887 27:-0.937113 28:-0.849971 29:-0.943385 30:-0.887977 31:-0.95944 32:-0.923669 33:-0.956413 34:-0.94054 35:-0.984942 36:-0.981111 37:-0.981241 38:-0.964438 39:-0.944488 40:-0.976589 41:-0.984152 42:-0.990828 43:-0.995656 44:-0.994326 45:-0.997687 46:-0.998867 47:-1 48:-0.996487 49:-1 50:-1 51:-0.998848 52:-1 53:-1 54:-1 55:-0.998033 56:-1 57:-1 58:-1 59:-1 60:-0.98162 61:-0.952248 
0.06134250664869712 1:-0.947705 2:-0.231381 3:-0.0596189 4:-0.257498 5:0.269872 6:-0.992454 7:0.218148 8:-0.892181 9:-0.997424 10:-0.440158 11:0.587585 12:-0.99868 13:-0.180112 14:-0.998545 15:-0.955814 16:-0.876709 17:-0.926748 18:-0.885878 19:-0.987426 20:-0.701932 21:-0.976144 22:-0.73037 23:-0.965808 24:-0.765578 25:-0.970903 26:-0.805926 27:-0.933964 28:-0.850985 29:-0.942833 30:-0.891426 31:-0.964577 32:-0.916139 33:-0.972243 34:-0.955565 35:-0.978825 36:-0.970475 37:-0.961884 38:-0.968883 39:-0.990573 40:-0.997324 41:-0.997736 42:-1 43:-0.999379 44:-0.999054 45:-1 46:-0.997735 47:-0.998791 48:-1 49:-1 50:-1 51:-1 52:-1 53:-1 54:-1 55:-1 56:-1 57:-1 58:-1 59:-0.971831 60:-0.975904 61:-0.949341 
0.6718476145142291 1:-0.900145 2:-0.322158 3:-0.0888936 4:-0.251718 5:0.344703 6:-0.992743 7:0.213155 8:-0.795917 9:-0.989221 10:-0.440124 11:0.587741 12:-0.99754 13:-0.180064 14:-0.996875 15:-0.792256 16:-0.526797 17:-0.921694 18:-0.882613 19:-0.985048 20:-0.692068 21:-0.974529 22:-0.724561 23:-0.965154 24:-0.754028 25:-0.966135 26:-0.790729 27:-0.935741 28:-0.846419 29:-0.942643 30:-0.888732 31:-0.960083 32:-0.914598 33:-0.964161 34:-0.94998 35:-0.923535 36:-0.947919 37:-0.978647 38:-0.989628 39:-0.994763 40:-0.998997 41:-0.998642 42:-0.998981 43:-1 44:-1 45:-0.998843 46:-1 47:-0.998791 48:-0.998829 49:-1 50:-1 51:-1 52:-0.998804 53:-1 54:-1 55:-1 56:-1 57:-1 58:-1 59:-1 60:-0.97569 61:-0.964878 
1.218889074211422 1:-0.943182 2:-0.267641 3:-0.102071 4:-0.253691 5:0.260137 6:-0.992824 7:0.219272 8:-0.896969 9:-0.996804 10:-0.441873 11:0.587496 12:-0.998509 13:-0.177181 14:-0.998289 15:-0.951281 16:-0.873695 17:-0.925831 18:-0.622822 19:-0.911299 20:-0.720275 21:-0.912889 22:-0.746552 23:-0.921939 24:-0.785264 25:-0.920306 26:-0.832109 27:-0.942578 28:-0.860689 29:-0.940215 30:-0.902472 31:-0.972332 32:-0.909283 33:-0.982275 34:-0.941464 35:-0.938201 36:-0.996882 37:-0.9998 38:-1 39:-0.999476 40:-1 41:-1 42:-1 43:-1 44:-1 45:-1 46:-1 47:-1 48:-1 49:-1 50:-1 51:-1 52:-1 53:-1 54:-1 55:-1 56:-1 57:-1 58:-1 59:-1 60:-0.942312 61:-0.944956 
0.5510855808137992 1:-0.857885 2:-0.337507 3:-0.127333 4:-0.24255 5:0.355521 6:-0.994455 7:0.215266 8:-0.769981 9:-0.985599 10:-0.440238 11:0.587384 12:-0.995561 13:-0.180025 14:-0.995132 15:-0.776447 16:-0.49704 17:-0.935212 18:-0.860646 19:-0.890143 20:-0.637737 21:-0.88536 22:-0.763673 23:-0.899602 24:-0.777064 25:-0.908605 26:-0.822231 27:-0.935319 28:-0.855547 29:-0.942382 30:-0.900634 31:-0.971662 32:-0.897315 33:-0.980486 34:-0.942319 35:-0.988236 36:-0.790207 37:-0.979246 38:-0.978515 39:-0.976434 40:-0.983612 41:-0.972379 42:-0.974013 43:-0.968973 44:-0.943262 45:-0.938693 46:-0.952435 47:-0.956469 48:-0.962529 49:-0.968694 50:-0.976217 51:-0.978111 52:-0.994019 53:-1 54:-0.996567 55:-0.9941 56:-1 57:-1 58:-0.982833 59:-0.971831 60:-0.986902 61:-0.97299 
0.0130686033714742 1:-0.940214 2:-0.348663 3:-0.148604 4:-0.260268 5:0.251373 6:-0.990906 7:0.217081 8:-0.90002 9:-0.996514 10:-0.440157 11:0.587483 12:-0.998445 13:-0.180138 14:-0.998196 15:-0.930025 16:-0.852021 17:-0.930777 18:-0.851585 19:-0.827832 20:-0.788297 21:-0.83838 22:-0.810913 23:-0.845597 24:-0.83443 25:-0.879036 26:-0.86084 27:-0.92651 28:-0.876027 29:-0.949502 30:-0.906737 31:-0.968869 32:-0.905606 33:-0.972313 34:-0.943123 35:-0.989413 36:-0.974693 37:-0.989024 38:-0.977774 39:-0.97172 40:-0.98194 41:-0.976907 42:-0.970446 43:-0.967111 44:-0.950827 45:-0.95373 46:-0.943375 47:-0.967352 48:-0.98829 49:-0.995184 50:-0.997735 51:-0.998848 52:-0.997608 53:-1 54:-1 55:-0.998033 56:-0.997593 57:-0.995833 58:-1 59:-1 60:-0.985326 61:-0.958878 
0.004327440908214425 1:-0.941274 2:-0.366876 3:-0.158028 4:-0.263919 5:0.254084 6:-0.989923 7:0.215441 8:-0.895961 9:-0.996675 10:-0.440138 11:0.587656 12:-0.998478 13:-0.18011 14:-0.998266 15:-0.926363 16:-0.843416 17:-0.931971 18:-0.861969 19:-0.810036 20:-0.796244 21:-0.826708 22:-0.846029 23:-0.831159 24:-0.856345 25:-0.862296 26:-0.882655 27:-0.893829 28:-0.875606 29:-0.937647 30:-0.902978 31:-0.972439 32:-0.908511 33:-0.963462 34:-0.946195 35:-0.991922 36:-0.982028 37:-0.985831 38:-0.980367 39:-0.976957 40:-0.988963 41:-0.984605 42:-0.979108 43:-0.977661 44:-0.964066 45:-0.947947 46:-0.958097 47:-0.952842 48:-0.957845 49:-0.933775 50:-0.962627 51:-0.976959 52:-0.991627 53:-0.994451 54:-0.993133 55:-1 56:-0.997593 57:-0.995833 58:-1 59:-1 60:-0.986546 61:-0.96085 
0.5248791253501135 1:-0.941769 2:-0.371251 3:-0.160377 4:-0.265447 5:0.251774 6:-0.989469 7:0.215157 8:-0.89786 9:-0.996617 10:-0.440164 11:0.587592 12:-0.99846 13:-0.180222 14:-0.998242 15:-0.92247 16:-0.837793 17:-0.935279 18:-0.858704 19:-0.804733 20:-0.800471 21:-0.823422 22:-0.853415 23:-0.841569 24:-0.867707 25:-0.866576 26:-0.906839 27:-0.911672 28:-0.882112 29:-0.964229 30:-0.908439 31:-0.973125 32:-0.915092 33:-0.953972 34:-0.947067 35:-0.993569 36:-0.983495 37:-0.986629 38:-0.979996 39:-0.979576 40:-0.990635 41:-0.984152 42:-0.987771 43:-0.982004 44:-0.968794 45:-0.958357 46:-0.961495 47:-0.948005 48:-0.962529 49:-0.962673 50:-0.95923 51:-0.951613 52:-0.956938 53:-0.968923 54:-0.986266 55:-0.980334 56:-0.997593 57:-0.970833 58:-0.991416 59:-0.971831 60:-0.986533 61:-0.96052 
1.032017673581825 1:-0.834847 2:-0.436299 3:-0.200105 4:-0.257905 5:0.340668 6:-0.989606 7:0.207227 8:-0.764488 9:-0.970166 10:-0.440292 11:0.587418 12:-0.992144 13:-0.18052 14:-0.990821 15:-0.634279 16:-0.450588 17:-0.682413 18:-0.690485 19:-0.721803 20:-0.680986 21:-0.746751 22:-0.856423 23:-0.831792 24:-0.862799 25:-0.855879 26:-0.897446 27:-0.90159 28:-0.881756 29:-0.933337 30:-0.908916 31:-0.969206 32:-0.915153 33:-0.958327 34:-0.946991 35:-0.971375 36:-0.868329 37:-0.98204 38:-0.970365 39:-0.900498 40:-0.926087 41:-0.963324 42:-0.96535 43:-0.959665 44:-0.936643 45:-0.931752 46:-0.938845 47:-0.904474 48:-0.949649 49:-0.904877 50:-0.93658 51:-0.983871 52:-0.994019 53:-0.99667 54:-0.996567 55:-0.998033 56:-1 57:-1 58:-1 59:-1 60:-0.983794 61:-0.962883 
0.09725832861879993 1:-0.942193 2:-0.37852 3:-0.168002 4:-0.266054 5:0.248416 6:-0.98919 7:0.215143 8:-0.900375 9:-0.996574 10:-0.440141 11:0.587553 12:-0.998541 13:-0.180097 14:-0.998299 15:-0.927489 16:-0.842246 17:-0.934513 18:-0.852376 19:-0.796652 20:-0.840636 21:-0.819104 22:-0.862131 23:-0.839652 24:-0.882044 25:-0.858981 26:-0.902103 27:-0.912749 28:-0.885227 29:-0.936241 30:-0.910405 31:-0.970565 32:-0.917002 33:-0.949761 34:-0.953426 35:-0.993569 36:-0.983495 37:-0.986031 38:-0.982589 39:-0.979576 40:-0.989632 41:-0.985963 42:-0.980127 43:-0.981384 44:-0.971631 45:-0.959514 46:-0.966025 47:-0.957678 48:-0.954333 49:-0.961469 50:-0.96376 51:-0.964286 52:-0.950957 53:-0.973363 54:-0.975966 55:-0.976401 56:-0.995187 57:-0.983333 58:-1 59:-0.971831 60:-0.986475 61:-0.960364 
0.704643668042673 1:-0.897106 2:-0.438896 3:-0.243503 4:-0.279114 5:0.290718 6:-0.983902 7:0.202323 8:-0.827533 9:-0.990574 10:-0.440151 11:0.587656 12:-0.995889 13:-0.180068 14:-0.996187 15:-0.659625 16:-0.701056 17:-0.675041 18:-0.69426 19:-0.743058 20:-0.807776 21:-0.792828 22:-0.934328 23:-0.815421 24:-0.94762 25:-0.845848 26:-0.938465 27:-0.905567 28:-0.910511 29:-0.946639 30:-0.919929 31:-0.936141 32:-0.931972 33:-0.956814 34:-0.943987 35:-0.982433 36:-0.978177 37:-0.973458 38:-0.879237 39:-0.948678 40:-0.970234 41:-0.959248 42:-0.955669 43:-0.952218 44:-0.923404 45:-0.880856 46:-0.969422 47:-0.997582 48:-0.997658 49:-1 50:-1 51:-1 52:-1 53:-1 54:-1 55:-1 56:-1 57:-0.995833 58:-1 59:-1 60:-0.985028 61:-0.954604 
0.06321366461923116 1:-0.895905 2:-0.439079 3:-0.243538 4:-0.27966 5:0.288628 6:-0.983689 7:0.202406 8:-0.830471 9:-0.990413 10:-0.440142 11:0.587617 12:-0.995899 13:-0.180445 14:-0.996164 15:-0.657281 16:-0.705136 17:-0.667657 18:-0.694059 19:-0.733938 20:-0.832291 21:-0.790726 22:-0.929266 23:-0.815141 24:-0.937817 25:-0.850357 26:-0.944124 27:-0.908677 28:-0.907722 29:-0.937463 30:-0.915158 31:-0.931991 32:-0.934628 33:-0.964493 34:-0.946466 35:-0.986432 36:-0.97616 37:-0.980443 38:-0.961104 39:-0.855983 40:-0.965217 41:-0.970568 42:-0.968917 43:-0.954701 44:-0.930969 45:-0.934066 46:-0.94564 47:-0.909311 48:-0.87822 49:-0.962673 50:-0.996602 51:-1 52:-1 53:-0.99889 54:-1 55:-1 56:-1 57:-1 58:-1 59:-1 60:-0.984963 61:-0.954146 
0.6262559197825973 1:-0.872019 2:-0.439836 3:-0.232118 4:-0.27777 5:0.31652 6:-0.98429 7:0.199722 8:-0.791638 9:-0.984943 10:-0.440094 11:0.587525 12:-0.994209 13:-0.190016 14:-0.99446 15:-0.646551 16:-0.671236 17:-0.684563 18:-0.708849 19:-0.692895 20:-0.69501 21:-0.745762 22:-0.855112 23:-0.797315 24:-0.939061 25:-0.827337 26:-0.93729 27:-0.887623 28:-0.929342 29:-0.939493 30:-0.9203 31:-0.936816 32:-0.928997 33:-0.962284 34:-0.942996 35:-0.986746 36:-0.943884 37:-0.979645 38:-0.96592 39:-0.87536 40:-0.948829 41:-0.970115 42:-0.968408 43:-0.960906 44:-0.930969 45:-0.931752 46:-0.915062 47:-0.938331 48:-0.921546 49:-0.809753 50:-0.925255 51:-0.983871 52:-1 53:-1 54:-1 55:-1 56:-1 57:-1 58:-1 59:-1 60:-0.983859 61:-0.954237 
0.3767630627089371 1:-0.902618 2:-0.440658 3:-0.243073 4:-0.279763 5:0.29202 6:-0.983694 7:0.201886 8:-0.826508 9:-0.991298 10:-0.44012 11:0.587488 12:-0.996133 13:-0.18002 14:-0.996403 15:-0.648661 16:-0.703735 17:-0.686198 18:-0.690931 19:-0.773973 20:-0.93238 21:-0.791601 22:-0.933926 23:-0.813672 24:-0.940743 25:-0.848854 26:-0.946598 27:-0.902279 28:-0.913207 29:-0.940186 30:-0.906458 31:-0.931461 32:-0.938153 33:-0.962816 34:-0.94838 35:-0.99302 36:-0.980928 37:-0.985033 38:-0.970365 39:-0.957581 40:-0.938796 41:-0.945212 42:-0.973503 43:-0.972696 44:-0.958392 45:-0.936379 46:-0.952435 47:-0.939541 48:-0.9274 49:-0.955449 50:-0.95017 51:-0.948157 52:-0.91866 53:-0.936737 54:-0.945064 55:-0.978368 56:-0.987966 57:-1 58:-1 59:-1 60:-0.985756 61:-0.954998 
0.2959961736502999 1:-0.901841 2:-0.440859 3:-0.2416 4:-0.280146 5:0.291565 6:-0.983553 7:0.201861 8:-0.827421 9:-0.991051 10:-0.440163 11:0.587601 12:-0.995982 13:-0.18008 14:-0.996234 15:-0.654424 16:-0.704014 17:-0.662661 18:-0.692641 19:-0.729135 20:-0.845996 21:-0.790219 22:-0.937183 23:-0.808916 24:-0.945321 25:-0.837367 26:-0.952809 27:-0.888675 28:-0.920582 29:-0.93941 30:-0.925501 31:-0.933955 32:-0.9403 33:-0.95957 34:-0.951946 35:-0.993491 36:-0.980928 37:-0.983436 38:-0.981108 39:-0.967007 40:-0.97592 41:-0.956079 42:-0.916943 43:-0.964629 44:-0.963121 45:-0.95373 46:-0.96376 47:-0.956469 48:-0.957845 49:-0.949428 50:-0.958097 51:-0.93894 52:-0.960526 53:-0.956715 54:-0.939914 55:-0.901672 56:-0.845969 57:-0.7875 58:-0.819742 59:-0.690141 60:-0.985481 61:-0.955223 
0.8424692141708376 1:-0.87951 2:-0.44095 3:-0.227336 4:-0.276895 5:0.308913 6:-0.984539 7:0.201406 8:-0.80436 9:-0.985131 10:-0.440008 11:0.58776 12:-0.994726 13:-0.179622 14:-0.994725 15:-0.657692 16:-0.661037 17:-0.66341 18:-0.697676 19:-0.711182 20:-0.730432 21:-0.781576 22:-0.94561 23:-0.797117 24:-0.938164 25:-0.80922 26:-0.949243 27:-0.879312 28:-0.926934 29:-0.93134 30:-0.920007 31:-0.927927 32:-0.939324 33:-0.956831 34:-0.949237 35:-0.992079 36:-0.960572 37:-0.961285 38:-0.977774 39:-0.967007 40:-0.979599 41:-0.937514 42:-0.927134 43:-0.963388 44:-0.961229 45:-0.956044 46:-0.956965 47:-0.946796 48:-0.942623 49:-0.940999 50:-0.953567 51:-0.956221 52:-0.944976 53:-0.955605 54:-0.917597 55:-0.860374 56:-0.805054 57:-0.833333 58:-0.922747 59:-0.971831 60:-0.984861 61:-0.957876 
1.525609958572258 1:-0.902618 2:-0.440025 3:-0.23738 4:-0.281072 5:0.281883 6:-0.983212 7:0.203111 8:-0.840157 9:-0.990509 10:-0.440217 11:0.587818 12:-0.995833 13:-0.179983 14:-0.996027 15:-0.654256 16:-0.701785 17:-0.663972 18:-0.694193 19:-0.738967 20:-0.844771 21:-0.781808 22:-0.960685 23:-0.786369 24:-0.937948 25:-0.816667 26:-0.945919 27:-0.867782 28:-0.929063 29:-0.915486 30:-0.920458 31:-0.916567 32:-0.938468 33:-0.952803 34:-0.945504 35:-0.994353 36:-0.982578 37:-0.983037 38:-0.978885 39:-0.976434 40:-0.979933 41:-0.955173 42:-0.928153 43:-0.941049 44:-0.944208 45:-0.95026 46:-0.95923 47:-0.957678 48:-0.961358 49:-0.951836 50:-0.956965 51:-0.951613 52:-0.942584 53:-0.963374 54:-0.948498 55:-0.923304 56:-0.898917 57:-0.758333 58:-0.622318 59:-0.661972 60:-0.985953 61:-0.955643 
0.9068829644591234 1:-0.94509 2:-0.406436 3:-0.185709 4:-0.287078 5:0.231191 6:-0.982244 7:0.210631 8:-0.914641 9:-0.996737 10:-0.440139 11:0.587304 12:-0.998596 13:-0.184139 14:-0.998365 15:-0.912856 16:-0.876251 17:-0.916034 18:-0.887127 19:-0.963036 20:-0.970883 21:-0.781808 22:-0.960685 23:-0.786369 24:-0.937948 25:-0.816667 26:-0.945919 27:-0.867782 28:-0.929063 29:-0.915486 30:-0.920458 31:-0.916567 32:-0.938468 33:-0.952803 34:-0.945504 35:-0.996706 36:-0.987897 37:-0.987029 38:-0.980367 39:-0.9801 40:-0.988963 41:-0.987775 42:-0.980637 43:-0.984487 44:-0.96974 45:-0.962984 46:-0.962627 47:-0.956469 48:-0.97541 49:-0.975918 50:-0.958097 51:-0.973502 52:-0.95933 53:-0.962264 54:-0.938197 55:-0.950836 56:-0.961492 57:-0.9625 58:-0.974249 59:-0.943662 60:-0.987864 61:-0.961682 
0.3150467386420662 1:-0.912229 2:-0.406436 3:-0.171083 4:-0.270156 5:0.30291 6:-0.987084 7:0.207286 8:-0.832102 9:-0.988538 10:-0.44017 11:0.587696 12:-0.996825 13:-0.180381 14:-0.996057 15:-0.819396 16:-0.562556 17:-0.915609 18:-0.885354 19:-0.9391 20:-0.913739 21:-0.787052 22:-0.96908 23:-0.778482 24:-0.940578 25:-0.793754 26:-0.932332 27:-0.846482 28:-0.923144 29:-0.917123 30:-0.920458 31:-0.915212 32:-0.935675 33:-0.95223 34:-0.945504 35:-0.996392 36:-0.969925 37:-0.935542 38:-0.954806 39:-0.972768 40:-0.98796 41:-0.987322 42:-0.979618 43:-0.983245 44:-0.968794 45:-0.959514 46:-0.961495 47:-0.952842 48:-0.973068 49:-0.97351 50:-0.958097 51:-0.973502 52:-0.956938 53:-0.962264 54:-0.938197 55:-0.950836 56:-0.961492 57:-0.9625 58:-0.974249 59:-0.943662 60:-0.988439 61:-0.970968 
0.3836962783110782 1:-0.94615 2:-0.399517 3:-0.17168 4:-0.288818 5:0.218405 6:-0.982004 7:0.212494 8:-0.926664 9:-0.997054 10:-0.440131 11:0.587468 12:-0.998643 13:-0.181554 14:-0.998471 15:-0.915257 16:-0.864586 17:-0.942173 18:-0.882011 19:-0.968356 20:-0.968582 21:-0.977123 22:-0.970093 23:-0.808291 24:-0.958916 25:-0.780146 26:-0.94001 27:-0.809397 28:-0.936351 29:-0.858256 30:-0.905375 31:-0.897626 32:-0.937694 33:-0.921923 34:-0.946094 35:-0.996706 36:-0.98808 37:-0.989224 38:-0.986294 39:-0.984813 40:-0.98796 41:-0.984152 42:-0.985223 43:-0.986348 44:-0.977305 45:-0.965298 46:-0.953567 47:-0.964933 48:-0.964871 49:-0.960265 50:-0.962627 51:-0.949309 52:-0.95933 53:-0.970033 54:-0.943348 55:-0.960669 56:-0.951865 57:-0.9625 58:-0.948498 59:-0.915493 60:-0.988002 61:-0.959618 
0.0153939905075125 1:-0.910604 2:-0.374618 3:-0.146353 4:-0.267592 5:0.295928 6:-0.98839 7:0.209897 8:-0.8457 9:-0.989982 10:-0.440416 11:0.588052 12:-0.995803 13:-0.179595 14:-0.995339 15:-0.806146 16:-0.525863 17:-0.912191 18:-0.88196 19:-0.968724 20:-0.933218 21:-0.975649 22:-0.971517 23:-0.976278 24:-0.961392 25:-0.978865 26:-0.972028 27:-0.828349 28:-0.937279 29:-0.799925 30:-0.900983 31:-0.778532 32:-0.905441 33:-0.860638 34:-0.94027 35:-0.994353 36:-0.946635 37:-0.942926 38:-0.981108 39:-0.978005 40:-0.986622 41:-0.986416 42:-0.983694 43:-0.97704 44:-0.970686 45:-0.95026 46:-0.935447 47:-0.929867 48:-0.937939 49:-0.955449 50:-0.956965 51:-0.978111 52:-0.980861 53:-0.990011 54:-0.974249 55:-0.988201 56:-0.995187 57:-0.995833 58:-0.991416 59:-0.971831 60:-0.987902 61:-0.969379 
0.3203572411005162 1:-0.914137 2:-0.375286 3:-0.145693 4:-0.269449 5:0.292146 6:-0.987892 7:0.209668 8:-0.850061 9:-0.990367 10:-0.440066 11:0.587682 12:-0.996085 13:-0.179957 14:-0.995636 15:-0.812165 16:-0.540637 17:-0.918113 18:-0.881319 19:-0.972542 20:-0.929947 21:-0.9765 22:-0.970728 23:-0.973182 24:-0.960938 25:-0.975984 26:-0.965834 27:-0.829145 28:-0.938228 29:-0.801028 30:-0.895721 31:-0.777247 32:-0.908334 33:-0.854086 34:-0.940773 35:-0.996785 36:-0.968091 37:-0.936939 38:-0.960363 39:-0.978528 40:-0.992308 41:-0.987322 42:-0.985223 43:-0.982004 44:-0.976359 45:-0.957201 46:-0.964892 47:-0.939541 48:-0.956674 49:-0.945816 50:-0.942242 51:-0.960829 52:-0.967703 53:-0.963374 54:-0.969099 55:-0.972468 56:-0.968712 57:-0.975 58:-0.957082 59:-0.887324 60:-0.987794 61:-0.968439 
